{"learner":{"attributes":{"best_iteration":"999","best_score":"0.00061726137533549","scikit_learn":"{\"_estimator_type\": \"regressor\"}"},"feature_names":[],"feature_types":[],"gradient_booster":{"model":{"gbtree_model_param":{"num_parallel_tree":"1","num_trees":"1000"},"iteration_indptr":[0,1,2,3,4,5,6,7,8,9,10,11,12,13,14,15,16,17,18,19,20,21,22,23,24,25,26,27,28,29,30,31,32,33,34,35,36,37,38,39,40,41,42,43,44,45,46,47,48,49,50,51,52,53,54,55,56,57,58,59,60,61,62,63,64,65,66,67,68,69,70,71,72,73,74,75,76,77,78,79,80,81,82,83,84,85,86,87,88,89,90,91,92,93,94,95,96,97,98,99,100,101,102,103,104,105,106,107,108,109,110,111,112,113,114,115,116,117,118,119,120,121,122,123,124,125,126,127,128,129,130,131,132,133,134,135,136,137,138,139,140,141,142,143,144,145,146,147,148,149,150,151,152,153,154,155,156,157,158,159,160,161,162,163,164,165,166,167,168,169,170,171,172,173,174,175,176,177,178,179,180,181,182,183,184,185,186,187,188,189,190,191,192,193,194,195,196,197,198,199,200,201,202,203,204,205,206,207,208,209,210,211,212,213,214,215,216,217,218,219,220,221,222,223,224,225,226,227,228,229,230,231,232,233,234,235,236,237,238,239,240,241,242,243,244,245,246,247,248,249,250,251,252,253,254,255,256,257,258,259,260,261,262,263,264,265,266,267,268,269,270,271,272,273,274,275,276,277,278,279,280,281,282,283,284,285,286,287,288,289,290,291,292,293,294,295,296,297,298,299,300,301,302,303,304,305,306,307,308,309,310,311,312,313,314,315,316,317,318,319,320,321,322,323,324,325,326,327,328,329,330,331,332,333,334,335,336,337,338,339,340,341,342,343,344,345,346,347,348,349,350,351,352,353,354,355,356,357,358,359,360,361,362,363,364,365,366,367,368,369,370,371,372,373,374,375,376,377,378,379,380,381,382,383,384,385,386,387,388,389,390,391,392,393,394,395,396,397,398,399,400,401,402,403,404,405,406,407,408,409,410,411,412,413,414,415,416,417,418,419,420,421,422,423,424,425,426,427,428,429,430,431,432,433,434,435,436,437,438,439,440,441,442,443,444,445,446,447,448,449,450,451,452,453,454,455,456,457,458,459,460,461,462,463,464,465,466,467,468,469,470,471,472,473,474,475,476,477,478,479,480,481,482,483,484,485,486,487,488,489,490,491,492,493,494,495,496,497,498,499,500,501,502,503,504,505,506,507,508,509,510,511,512,513,514,515,516,517,518,519,520,521,522,523,524,525,526,527,528,529,530,531,532,533,534,535,536,537,538,539,540,541,542,543,544,545,546,547,548,549,550,551,552,553,554,555,556,557,558,559,560,561,562,563,564,565,566,567,568,569,570,571,572,573,574,575,576,577,578,579,580,581,582,583,584,585,586,587,588,589,590,591,592,593,594,595,596,597,598,599,600,601,602,603,604,605,606,607,608,609,610,611,612,613,614,615,616,617,618,619,620,621,622,623,624,625,626,627,628,629,630,631,632,633,634,635,636,637,638,639,640,641,642,643,644,645,646,647,648,649,650,651,652,653,654,655,656,657,658,659,660,661,662,663,664,665,666,667,668,669,670,671,672,673,674,675,676,677,678,679,680,681,682,683,684,685,686,687,688,689,690,691,692,693,694,695,696,697,698,699,700,701,702,703,704,705,706,707,708,709,710,711,712,713,714,715,716,717,718,719,720,721,722,723,724,725,726,727,728,729,730,731,732,733,734,735,736,737,738,739,740,741,742,743,744,745,746,747,748,749,750,751,752,753,754,755,756,757,758,759,760,761,762,763,764,765,766,767,768,769,770,771,772,773,774,775,776,777,778,779,780,781,782,783,784,785,786,787,788,789,790,791,792,793,794,795,796,797,798,799,800,801,802,803,804,805,806,807,808,809,810,811,812,813,814,815,816,817,818,819,820,821,822,823,824,825,826,827,828,829,830,831,832,833,834,835,836,837,838,839,840,841,842,843,844,845,846,847,848,849,850,851,852,853,854,855,856,857,858,859,860,861,862,863,864,865,866,867,868,869,870,871,872,873,874,875,876,877,878,879,880,881,882,883,884,885,886,887,888,889,890,891,892,893,894,895,896,897,898,899,900,901,902,903,904,905,906,907,908,909,910,911,912,913,914,915,916,917,918,919,920,921,922,923,924,925,926,927,928,929,930,931,932,933,934,935,936,937,938,939,940,941,942,943,944,945,946,947,948,949,950,951,952,953,954,955,956,957,958,959,960,961,962,963,964,965,966,967,968,969,970,971,972,973,974,975,976,977,978,979,980,981,982,983,984,985,986,987,988,989,990,991,992,993,994,995,996,997,998,999,1000],"tree_info":[0,0,0,0,0,0,0,0,0,0,0,0,0,0,0,0,0,0,0,0,0,0,0,0,0,0,0,0,0,0,0,0,0,0,0,0,0,0,0,0,0,0,0,0,0,0,0,0,0,0,0,0,0,0,0,0,0,0,0,0,0,0,0,0,0,0,0,0,0,0,0,0,0,0,0,0,0,0,0,0,0,0,0,0,0,0,0,0,0,0,0,0,0,0,0,0,0,0,0,0,0,0,0,0,0,0,0,0,0,0,0,0,0,0,0,0,0,0,0,0,0,0,0,0,0,0,0,0,0,0,0,0,0,0,0,0,0,0,0,0,0,0,0,0,0,0,0,0,0,0,0,0,0,0,0,0,0,0,0,0,0,0,0,0,0,0,0,0,0,0,0,0,0,0,0,0,0,0,0,0,0,0,0,0,0,0,0,0,0,0,0,0,0,0,0,0,0,0,0,0,0,0,0,0,0,0,0,0,0,0,0,0,0,0,0,0,0,0,0,0,0,0,0,0,0,0,0,0,0,0,0,0,0,0,0,0,0,0,0,0,0,0,0,0,0,0,0,0,0,0,0,0,0,0,0,0,0,0,0,0,0,0,0,0,0,0,0,0,0,0,0,0,0,0,0,0,0,0,0,0,0,0,0,0,0,0,0,0,0,0,0,0,0,0,0,0,0,0,0,0,0,0,0,0,0,0,0,0,0,0,0,0,0,0,0,0,0,0,0,0,0,0,0,0,0,0,0,0,0,0,0,0,0,0,0,0,0,0,0,0,0,0,0,0,0,0,0,0,0,0,0,0,0,0,0,0,0,0,0,0,0,0,0,0,0,0,0,0,0,0,0,0,0,0,0,0,0,0,0,0,0,0,0,0,0,0,0,0,0,0,0,0,0,0,0,0,0,0,0,0,0,0,0,0,0,0,0,0,0,0,0,0,0,0,0,0,0,0,0,0,0,0,0,0,0,0,0,0,0,0,0,0,0,0,0,0,0,0,0,0,0,0,0,0,0,0,0,0,0,0,0,0,0,0,0,0,0,0,0,0,0,0,0,0,0,0,0,0,0,0,0,0,0,0,0,0,0,0,0,0,0,0,0,0,0,0,0,0,0,0,0,0,0,0,0,0,0,0,0,0,0,0,0,0,0,0,0,0,0,0,0,0,0,0,0,0,0,0,0,0,0,0,0,0,0,0,0,0,0,0,0,0,0,0,0,0,0,0,0,0,0,0,0,0,0,0,0,0,0,0,0,0,0,0,0,0,0,0,0,0,0,0,0,0,0,0,0,0,0,0,0,0,0,0,0,0,0,0,0,0,0,0,0,0,0,0,0,0,0,0,0,0,0,0,0,0,0,0,0,0,0,0,0,0,0,0,0,0,0,0,0,0,0,0,0,0,0,0,0,0,0,0,0,0,0,0,0,0,0,0,0,0,0,0,0,0,0,0,0,0,0,0,0,0,0,0,0,0,0,0,0,0,0,0,0,0,0,0,0,0,0,0,0,0,0,0,0,0,0,0,0,0,0,0,0,0,0,0,0,0,0,0,0,0,0,0,0,0,0,0,0,0,0,0,0,0,0,0,0,0,0,0,0,0,0,0,0,0,0,0,0,0,0,0,0,0,0,0,0,0,0,0,0,0,0,0,0,0,0,0,0,0,0,0,0,0,0,0,0,0,0,0,0,0,0,0,0,0,0,0,0,0,0,0,0,0,0,0,0,0,0,0,0,0,0,0,0,0,0,0,0,0,0,0,0,0,0,0,0,0,0,0,0,0,0,0,0,0,0,0,0,0,0,0,0,0,0,0,0,0,0,0,0,0,0,0,0,0,0,0,0,0,0,0,0,0,0,0,0,0,0,0,0,0,0,0,0,0,0,0,0,0,0,0,0,0,0,0,0,0,0,0,0,0,0,0,0,0,0,0,0,0,0,0,0,0,0,0,0,0,0,0,0,0,0,0,0,0,0,0,0,0,0,0,0,0,0,0,0,0,0,0,0,0,0,0,0,0,0,0,0,0,0,0,0,0,0,0,0,0,0,0,0,0,0,0,0,0,0,0,0,0,0,0,0,0,0,0,0,0,0,0,0,0,0,0,0,0,0,0,0,0,0,0,0,0,0,0,0,0,0,0,0,0,0,0,0,0,0,0,0,0,0,0,0,0,0,0,0,0,0,0,0,0,0,0,0,0,0,0,0,0,0,0,0,0,0,0,0,0,0,0,0,0,0,0,0,0,0,0,0,0,0,0,0,0,0,0,0,0],"trees":[{"base_weights":[-2.3755196E-7,-2.8057566E-3,1.3229935E-3,-3.4467715E-3,-1.5699272E-3,9.237005E-3,5.8094936E-4,-3.7161615E-3,-2.907902E-3,1.6966994E-3,-1.9535546E-3,1.2482368E-2,-1.2550398E-3,1.7155075E-3,-3.0835927E-3,-3.2496408E-3,-3.7780313E-3,-1.3911919E-3,-3.086209E-3,2.7215641E-3,-2.284741E-3,-1.5755538E-3,-3.4206847E-3,7.2500156E-4,2.0075496E-2,1.7868556E-3,-2.400091E-3,-2.3908918E-3,4.3663736E-3,-2.0044986E-3,-3.4901206E-3,-5.223969E-4,-4.176782E-4,-5.8034464E-4,-5.394298E-4,8.041928E-5,-2.5923498E-4,-4.4119044E-4,-5.52091E-4,-2.97121E-4,6.9022214E-4,-1.6362846E-4,-4.5758826E-4,-4.95932E-4,-1.324055E-4,-4.4570366E-4,-5.562358E-4,-2.6095856E-4,1.0286318E-3,6.8898834E-3,2.625464E-3,1.1229696E-3,1.8284167E-4,-1.8623286E-4,-4.6587706E-4,-4.8828055E-4,-3.627191E-5,1.1125866E-3,3.856734E-4,-1.8724763E-4,-3.6742413E-4,-4.607564E-4,-5.617154E-4],"categories":[],"categories_nodes":[],"categories_segments":[],"categories_sizes":[],"default_left":[0,0,0,0,0,0,0,0,0,0,0,0,0,0,0,0,0,0,0,0,0,0,0,0,0,0,0,0,0,0,0,0,0,0,0,0,0,0,0,0,0,0,0,0,0,0,0,0,0,0,0,0,0,0,0,0,0,0,0,0,0,0,0],"id":0,"left_children":[1,3,5,7,9,11,13,15,17,19,21,23,25,27,29,31,33,35,37,39,41,43,45,47,49,51,53,55,57,59,61,-1,-1,-1,-1,-1,-1,-1,-1,-1,-1,-1,-1,-1,-1,-1,-1,-1,-1,-1,-1,-1,-1,-1,-1,-1,-1,-1,-1,-1,-1,-1,-1],"loss_changes":[8.756388E2,5.9885254E1,9.4123303E2,7.22583E0,3.2355053E1,4.6784705E2,6.092475E2,9.5791626E-1,4.486664E0,1.1072014E1,1.2813583E1,9.368423E2,1.1305983E1,1.2180249E3,1.5197205E1,4.2111588E-1,4.8443604E-1,1.1336689E0,1.2789154E0,1.9076485E1,5.078914E-1,2.2029373E1,6.1157227E-1,6.2240597E1,4.2410303E2,2.873365E0,1.9281921E0,8.153552E1,3.7242444E2,3.1899033E0,2.6810913E0,0E0,0E0,0E0,0E0,0E0,0E0,0E0,0E0,0E0,0E0,0E0,0E0,0E0,0E0,0E0,0E0,0E0,0E0,0E0,0E0,0E0,0E0,0E0,0E0,0E0,0E0,0E0,0E0,0E0,0E0,0E0,0E0],"parents":[2147483647,0,0,1,1,2,2,3,3,4,4,5,5,6,6,7,7,8,8,9,9,10,10,11,11,12,12,13,13,14,14,15,15,16,16,17,17,18,18,19,19,20,20,21,21,22,22,23,23,24,24,25,25,26,26,27,27,28,28,29,29,30,30],"right_children":[2,4,6,8,10,12,14,16,18,20,22,24,26,28,30,32,34,36,38,40,42,44,46,48,50,52,54,56,58,60,62,-1,-1,-1,-1,-1,-1,-1,-1,-1,-1,-1,-1,-1,-1,-1,-1,-1,-1,-1,-1,-1,-1,-1,-1,-1,-1,-1,-1,-1,-1,-1,-1],"split_conditions":[-1.7449549E1,-2.505364E1,3.98E0,-4.005113E1,4.27E0,2.004871E1,2.004871E1,4.39E0,4.27E0,2.9950619E1,2.9950619E1,-1.4985306E1,3.506124E1,-1.4985306E1,3.506124E1,-6.005703E1,-6.005703E1,2.42E0,3.506124E1,-2.0049334E1,4.504392E1,-2.0049334E1,4.504392E1,-2.9949564E1,2.02E0,2.02E0,5.9945225E1,-2.9949564E1,6.92E0,6.92E0,5.9945225E1,-5.223969E-4,-4.176782E-4,-5.8034464E-4,-5.394298E-4,8.041928E-5,-2.5923498E-4,-4.4119044E-4,-5.52091E-4,-2.97121E-4,6.9022214E-4,-1.6362846E-4,-4.5758826E-4,-4.95932E-4,-1.324055E-4,-4.4570366E-4,-5.562358E-4,-2.6095856E-4,1.0286318E-3,6.8898834E-3,2.625464E-3,1.1229696E-3,1.8284167E-4,-1.8623286E-4,-4.6587706E-4,-4.8828055E-4,-3.627191E-5,1.1125866E-3,3.856734E-4,-1.8724763E-4,-3.6742413E-4,-4.607564E-4,-5.617154E-4],"split_indices":[0,0,7,0,7,1,1,7,7,1,1,1,1,1,1,0,0,7,1,1,1,1,1,1,7,7,1,1,7,7,1,0,0,0,0,0,0,0,0,0,0,0,0,0,0,0,0,0,0,0,0,0,0,0,0,0,0,0,0,0,0,0,0],"split_type":[0,0,0,0,0,0,0,0,0,0,0,0,0,0,0,0,0,0,0,0,0,0,0,0,0,0,0,0,0,0,0,0,0,0,0,0,0,0,0,0,0,0,0,0,0,0,0,0,0,0,0,0,0,0,0,0,0,0,0,0,0,0,0],"sum_hessian":[2.358718E8,7.559501E7,1.602768E8,4.977639E7,2.5818618E7,1.3739799E7,1.46537E8,3.3186098E7,1.6590293E7,2.713435E6,2.3105184E7,1.0493871E7,3.245928E6,1.118941E8,3.4642896E7,3.885798E6,2.93003E7,1.745213E6,1.484508E7,2.157955E6,5.5548E5,1.8371766E7,4.733417E6,4.117792E6,6.376079E6,8.877E5,2.358228E6,4.3895904E7,6.799819E7,9.479737E6,2.516316E7,2.588876E6,1.296922E6,1.9532348E7,9.767951E6,2.59768E5,1.485445E6,1.1934857E7,2.910223E6,6.16317E5,1.541638E6,2.17078E5,3.38402E5,5.252252E6,1.3119514E7,1.84713E6,2.886287E6,2.937275E6,1.180517E6,5.7693E5,5.799149E6,8.0435E4,8.07265E5,8.92743E5,1.465485E6,3.130552E7,1.2590385E7,2.5189712E7,4.280848E7,3.511925E6,5.967812E6,9.520349E6,1.5642812E7],"tree_param":{"num_deleted":"0","num_feature":"8","num_nodes":"63","size_leaf_vector":"1"}},{"base_weights":[-4.7562757E-8,6.5682936E-3,-3.7908216E-4,9.369479E-3,-4.501791E-4,4.8269794E-4,-2.5380757E-3,8.388036E-4,1.6613735E-2,2.7361384E-3,-1.8234565E-3,-2.1482701E-3,2.7178507E-3,-1.5701106E-3,-2.9553047E-3,-1.2403491E-3,6.3575553E-3,3.954988E-2,1.480382E-2,9.34637E-3,2.215103E-3,-8.2338945E-4,-2.6461082E-3,-2.7833357E-3,-4.6330955E-4,5.81454E-3,1.5370259E-3,-4.9534894E-4,-1.9156563E-3,-2.6383502E-3,-3.2157265E-3,-3.578105E-4,1.1806162E-4,2.1715073E-3,7.516529E-4,8.228672E-3,3.4999775E-3,2.9562663E-3,1.7878314E-3,2.0553751E-3,7.055948E-4,5.6958763E-4,1.9266408E-4,1.5970109E-4,-1.7034872E-4,-3.3573707E-4,-4.3645623E-4,-4.7204306E-4,-3.2084764E-4,1.5031206E-4,-1.7129649E-4,9.6586684E-4,1.9477401E-4,3.7641483E-4,4.1296684E-5,-4.024119E-5,-1.9017003E-4,-2.3940895E-4,-3.5751724E-4,-3.358333E-4,-4.2567117E-4,-4.6206763E-4,-4.954625E-4],"categories":[],"categories_nodes":[],"categories_segments":[],"categories_sizes":[],"default_left":[0,0,0,0,0,0,0,0,0,0,0,0,0,0,0,0,0,0,0,0,0,0,0,0,0,0,0,0,0,0,0,0,0,0,0,0,0,0,0,0,0,0,0,0,0,0,0,0,0,0,0,0,0,0,0,0,0,0,0,0,0,0,0],"id":1,"left_children":[1,3,5,7,9,11,13,15,17,19,21,23,25,27,29,31,33,35,37,39,41,43,45,47,49,51,53,55,57,59,61,-1,-1,-1,-1,-1,-1,-1,-1,-1,-1,-1,-1,-1,-1,-1,-1,-1,-1,-1,-1,-1,-1,-1,-1,-1,-1,-1,-1,-1,-1,-1,-1],"loss_changes":[5.872604E2,2.5301044E2,4.1493378E2,5.684309E2,1.6063755E1,9.37318E2,2.5694733E1,4.8467903E1,2.0648743E2,3.8081436E0,2.1106062E0,7.834244E1,3.1512292E2,7.1169014E0,3.6697083E0,7.122711E0,1.263707E1,9.031085E1,6.5233826E1,1.6336441E0,1.509129E0,6.8266124E-1,1.5132523E-1,1.245813E1,1.9930775E1,6.71015E1,7.6544174E1,8.17778E-1,2.1679916E0,1.597702E0,2.8840637E-1,0E0,0E0,0E0,0E0,0E0,0E0,0E0,0E0,0E0,0E0,0E0,0E0,0E0,0E0,0E0,0E0,0E0,0E0,0E0,0E0,0E0,0E0,0E0,0E0,0E0,0E0,0E0,0E0,0E0,0E0,0E0,0E0],"parents":[2147483647,0,0,1,1,2,2,3,3,4,4,5,5,6,6,7,7,8,8,9,9,10,10,11,11,12,12,13,13,14,14,15,15,16,16,17,17,18,18,19,19,20,20,21,21,22,22,23,23,24,24,25,25,26,26,27,27,28,28,29,29,30,30],"right_children":[2,4,6,8,10,12,14,16,18,20,22,24,26,28,30,32,34,36,38,40,42,44,46,48,50,52,54,56,58,60,62,-1,-1,-1,-1,-1,-1,-1,-1,-1,-1,-1,-1,-1,-1,-1,-1,-1,-1,-1,-1,-1,-1,-1,-1,-1,-1,-1,-1,-1,-1,-1,-1],"split_conditions":[3.47E0,1.745635E1,1.745635E1,-1.2469678E1,3.0041723E1,-1.2469678E1,3.0041723E1,-2.496814E1,1.76E0,1.76E0,5.9945225E1,-2.496814E1,6.16E0,5.96E0,5.9945225E1,-4.49559E1,2.02E0,4.6E1,2.67E0,4.6E1,2.67E0,2.02E0,7.005262E1,-4.49559E1,6.45E0,1.2037499E1,8.9E0,2.9950619E1,8.96E0,6.52E0,7.005262E1,-3.578105E-4,1.1806162E-4,2.1715073E-3,7.516529E-4,8.228672E-3,3.4999775E-3,2.9562663E-3,1.7878314E-3,2.0553751E-3,7.055948E-4,5.6958763E-4,1.9266408E-4,1.5970109E-4,-1.7034872E-4,-3.3573707E-4,-4.3645623E-4,-4.7204306E-4,-3.2084764E-4,1.5031206E-4,-1.7129649E-4,9.6586684E-4,1.9477401E-4,3.7641483E-4,4.1296684E-5,-4.024119E-5,-1.9017003E-4,-2.3940895E-4,-3.5751724E-4,-3.358333E-4,-4.2567117E-4,-4.6206763E-4,-4.954625E-4],"split_indices":[7,1,1,1,1,1,1,1,7,7,1,1,7,7,1,1,7,5,7,5,7,7,1,1,7,1,7,1,7,7,1,0,0,0,0,0,0,0,0,0,0,0,0,0,0,0,0,0,0,0,0,0,0,0,0,0,0,0,0,0,0,0,0],"split_type":[0,0,0,0,0,0,0,0,0,0,0,0,0,0,0,0,0,0,0,0,0,0,0,0,0,0,0,0,0,0,0,0,0,0,0,0,0,0,0,0,0,0,0,0,0,0,0,0,0,0,0,0,0,0,0,0,0,0,0,0,0,0,0],"sum_hessian":[2.358827E8,1.2869276E7,2.2301342E8,9.198148E6,3.671128E6,1.5939114E8,6.362229E7,4.224028E6,4.97412E6,1.105685E6,2.565443E6,7.321305E7,8.617809E7,1.9163426E7,4.445886E7,3.068131E6,1.155897E6,3.63803E5,4.610317E6,8.0784E4,1.024901E6,1.157868E6,1.407575E6,5.317229E7,2.004076E7,2.3789804E7,6.2388284E7,4.662259E6,1.4501167E7,2.005288E7,2.440598E7,1.96074E6,1.107391E6,1.6443E5,9.91467E5,1.87144E5,1.76659E5,1.707476E6,2.902841E6,4.1676E4,3.9108E4,3.79592E5,6.45309E5,1.64323E5,9.93545E5,5.52585E5,8.5499E5,3.399076E7,1.9181528E7,6.343583E6,1.3697177E7,2.0899404E7,2.890401E6,3.523364E7,2.7154644E7,3.603078E6,1.059181E6,8.615228E6,5.885939E6,6.678195E6,1.3374686E7,9.576434E6,1.4829546E7],"tree_param":{"num_deleted":"0","num_feature":"8","num_nodes":"63","size_leaf_vector":"1"}},{"base_weights":[3.1896622E-8,-2.0920727E-3,1.2775328E-3,-2.783184E-3,-9.7169174E-4,6.386564E-3,5.2766874E-4,-3.1016471E-3,-2.305326E-3,1.2999205E-3,-1.3665996E-3,9.034431E-3,-3.7356917E-4,1.5753027E-3,-1.8660785E-3,-3.210534E-3,-2.8643312E-3,-1.5998043E-3,-2.46336E-3,5.8158487E-3,7.6679565E-4,-2.5534623E-3,-1.109756E-3,8.80679E-4,1.5739717E-2,2.3540917E-3,-1.633439E-3,-1.5468996E-3,4.3010926E-3,-8.008827E-4,-2.4554268E-3,-4.3556685E-4,-5.328044E-4,-4.4323585E-4,-4.161031E-4,-3.0819897E-4,-1.7170432E-4,-3.971092E-4,-3.4189288E-4,1.1012425E-3,-5.6545603E-5,-2.970255E-4,2.041472E-4,-4.2245214E-4,-3.347712E-4,-9.2716284E-5,-3.5035182E-4,-1.5188195E-4,9.1841444E-4,4.9801213E-3,1.9961412E-3,9.4258494E-4,2.2591527E-4,-8.368178E-5,-3.208386E-4,-3.378663E-4,6.068071E-5,9.3532936E-4,3.6941524E-4,-3.363949E-5,-2.1867375E-4,-3.0546286E-4,-3.9955758E-4],"categories":[],"categories_nodes":[],"categories_segments":[],"categories_sizes":[],"default_left":[0,0,0,0,0,0,0,0,0,0,0,0,0,0,0,0,0,0,0,0,0,0,0,0,0,0,0,0,0,0,0,0,0,0,0,0,0,0,0,0,0,0,0,0,0,0,0,0,0,0,0,0,0,0,0,0,0,0,0,0,0,0,0],"id":2,"left_children":[1,3,5,7,9,11,13,15,17,19,21,23,25,27,29,31,33,35,37,39,41,43,45,47,49,51,53,55,57,59,61,-1,-1,-1,-1,-1,-1,-1,-1,-1,-1,-1,-1,-1,-1,-1,-1,-1,-1,-1,-1,-1,-1,-1,-1,-1,-1,-1,-1,-1,-1,-1,-1],"loss_changes":[6.3044507E2,6.924664E1,5.610842E2,8.417236E0,3.0607399E1,3.355252E2,3.2027106E2,8.57666E-1,2.466301E0,1.2165308E1,8.860424E0,7.363876E2,1.8129623E1,7.560122E2,2.4406647E1,2.3834076E0,8.538818E-2,8.3797836E-1,6.121979E-1,5.0413074E0,7.376663E0,4.3724823E-1,1.4402048E1,6.0320473E1,3.1387183E2,5.554637E0,1.9620132E0,5.7008377E1,1.6865771E2,5.245862E0,2.1844788E0,0E0,0E0,0E0,0E0,0E0,0E0,0E0,0E0,0E0,0E0,0E0,0E0,0E0,0E0,0E0,0E0,0E0,0E0,0E0,0E0,0E0,0E0,0E0,0E0,0E0,0E0,0E0,0E0,0E0,0E0,0E0,0E0],"parents":[2147483647,0,0,1,1,2,2,3,3,4,4,5,5,6,6,7,7,8,8,9,9,10,10,11,11,12,12,13,13,14,14,15,15,16,16,17,17,18,18,19,19,20,20,21,21,22,22,23,23,24,24,25,25,26,26,27,27,28,28,29,29,30,30],"right_children":[2,4,6,8,10,12,14,16,18,20,22,24,26,28,30,32,34,36,38,40,42,44,46,48,50,52,54,56,58,60,62,-1,-1,-1,-1,-1,-1,-1,-1,-1,-1,-1,-1,-1,-1,-1,-1,-1,-1,-1,-1,-1,-1,-1,-1,-1,-1,-1,-1,-1,-1,-1,-1],"split_conditions":[-1.3944756E1,-2.2551098E1,4.54E0,-4.005113E1,4.77E0,1.745635E1,1.4942289E1,1.745635E1,5.09E0,2.42E0,-3.0039852E1,-1.2469678E1,3.496388E1,-1.2469678E1,3.0041723E1,-1.2469678E1,-7.0059906E1,-3.0051842E1,-3.0051842E1,2.5035034E1,-3.0039852E1,-5.994909E1,1.797222E1,-2.0049334E1,2.42E0,2.67E0,4.504392E1,-2.0049334E1,7.77E0,8.01E0,4.504392E1,-4.3556685E-4,-5.328044E-4,-4.4323585E-4,-4.161031E-4,-3.0819897E-4,-1.7170432E-4,-3.971092E-4,-3.4189288E-4,1.1012425E-3,-5.6545603E-5,-2.970255E-4,2.041472E-4,-4.2245214E-4,-3.347712E-4,-9.2716284E-5,-3.5035182E-4,-1.5188195E-4,9.1841444E-4,4.9801213E-3,1.9961412E-3,9.4258494E-4,2.2591527E-4,-8.368178E-5,-3.208386E-4,-3.378663E-4,6.068071E-5,9.3532936E-4,3.6941524E-4,-3.363949E-5,-2.1867375E-4,-3.0546286E-4,-3.9955758E-4],"split_indices":[0,0,7,0,7,1,1,1,7,7,1,1,1,1,1,1,0,0,0,1,1,1,1,1,7,7,1,1,7,7,1,0,0,0,0,0,0,0,0,0,0,0,0,0,0,0,0,0,0,0,0,0,0,0,0,0,0,0,0,0,0,0,0],"split_type":[0,0,0,0,0,0,0,0,0,0,0,0,0,0,0,0,0,0,0,0,0,0,0,0,0,0,0,0,0,0,0,0,0,0,0,0,0,0,0,0,0,0,0,0,0,0,0,0,0,0,0,0,0,0,0,0,0,0,0,0,0,0,0],"sum_hessian":[2.3588627E8,8.943033E7,1.4645594E8,5.531132E7,3.4119004E7,1.8744496E7,1.2771145E8,3.3191322E7,2.212E7,5.052976E6,2.9066028E7,1.3468886E7,5.275609E6,8.88332E7,3.887824E7,2.275205E7,1.0439272E7,4.048044E6,1.8071956E7,5.33538E5,4.519438E6,5.171011E6,2.3895016E7,6.077967E6,7.390919E6,1.666841E6,3.608768E6,4.1405776E7,4.7427428E7,1.3848424E7,2.5029816E7,1.1985675E7,1.0766375E7,5.212006E6,5.227266E6,2.024584E6,2.02346E6,9.03694E6,9.035015E6,4.28071E5,1.05467E5,8.0373E5,3.715708E6,2.845446E6,2.325565E6,1.7055168E7,6.839849E6,4.465289E6,1.612678E6,9.036E5,6.487319E6,2.95839E5,1.371002E6,1.15378E6,2.454988E6,3.0410764E7,1.0995013E7,2.3109604E7,2.4317824E7,7.37508E6,6.473344E6,8.310991E6,1.6718826E7],"tree_param":{"num_deleted":"0","num_feature":"8","num_nodes":"63","size_leaf_vector":"1"}},{"base_weights":[1.9676422E-8,-1.6787272E-3,1.1683637E-3,-2.3657482E-3,-7.628E-4,9.045946E-3,7.8837783E-4,-2.5828658E-3,-1.8590256E-3,1.0146763E-3,-1.1716749E-3,1.26440115E-2,8.9529325E-4,1.7967989E-3,-1.496258E-3,-2.689911E-3,-2.3152211E-3,-1.0643745E-3,-1.9971014E-3,1.7090793E-3,-1.6655517E-3,-2.1384251E-3,-9.352605E-4,2.7588485E-3,2.2314796E-2,4.65066E-3,-6.6039764E-4,-1.0600223E-3,4.592191E-3,-3.255481E-4,-1.9812754E-3,-4.1877976E-4,-3.7020995E-4,-3.1066668E-4,-3.565989E-4,1.8400858E-4,-1.786838E-4,-2.6588363E-4,-3.2865294E-4,-1.7700723E-4,4.3996863E-4,-1.0261879E-4,-3.2682804E-4,-3.6265975E-4,-2.7876286E-4,-6.0548984E-5,-2.7885142E-4,-2.2645769E-5,1.4144838E-3,7.378462E-3,2.9648545E-3,1.8564167E-3,5.87365E-4,1.4987947E-4,-2.0747723E-4,-2.972965E-4,7.596881E-5,1.2883666E-3,4.888839E-4,1.2788206E-4,-1.1835626E-4,-2.2321685E-4,-3.2938318E-4],"categories":[],"categories_nodes":[],"categories_segments":[],"categories_sizes":[],"default_left":[0,0,0,0,0,0,0,0,0,0,0,0,0,0,0,0,0,0,0,0,0,0,0,0,0,0,0,0,0,0,0,0,0,0,0,0,0,0,0,0,0,0,0,0,0,0,0,0,0,0,0,0,0,0,0,0,0,0,0,0,0,0,0],"id":3,"left_children":[1,3,5,7,9,11,13,15,17,19,21,23,25,27,29,31,33,35,37,39,41,43,45,47,49,51,53,55,57,59,61,-1,-1,-1,-1,-1,-1,-1,-1,-1,-1,-1,-1,-1,-1,-1,-1,-1,-1,-1,-1,-1,-1,-1,-1,-1,-1,-1,-1,-1,-1,-1,-1],"loss_changes":[4.626211E2,6.090735E1,4.163072E2,6.0848083E0,3.0149754E1,1.8768518E2,3.056701E2,1.1092529E0,1.8202248E0,1.4439213E1,7.708351E0,4.2443982E2,1.1450468E1,7.3508514E2,2.3069786E1,6.2550354E-1,1.6768646E-1,7.1373034E-1,6.154213E-1,2.1790619E1,8.042207E-1,5.1828194E-1,1.3307667E1,4.2620003E1,1.5374731E2,3.2593517E0,1.6623778E0,6.57462E1,2.478681E2,6.4987464E0,3.0404816E0,0E0,0E0,0E0,0E0,0E0,0E0,0E0,0E0,0E0,0E0,0E0,0E0,0E0,0E0,0E0,0E0,0E0,0E0,0E0,0E0,0E0,0E0,0E0,0E0,0E0,0E0,0E0,0E0,0E0,0E0,0E0,0E0],"parents":[2147483647,0,0,1,1,2,2,3,3,4,4,5,5,6,6,7,7,8,8,9,9,10,10,11,11,12,12,13,13,14,14,15,15,16,16,17,17,18,18,19,19,20,20,21,21,22,22,23,23,24,24,25,25,26,26,27,27,28,28,29,29,30,30],"right_children":[2,4,6,8,10,12,14,16,18,20,22,24,26,28,30,32,34,36,38,40,42,44,46,48,50,52,54,56,58,60,62,-1,-1,-1,-1,-1,-1,-1,-1,-1,-1,-1,-1,-1,-1,-1,-1,-1,-1,-1,-1,-1,-1,-1,-1,-1,-1,-1,-1,-1,-1,-1,-1],"split_conditions":[-1.2042757E1,-2.2551098E1,3.32E0,-3.505285E1,5.14E0,1.4942289E1,1.4942289E1,-5.005485E1,4.77E0,2.5E1,-2.9949564E1,-1.196699E1,2.9950619E1,-1.196699E1,2.9950619E1,1.745635E1,5.28E0,2.02E0,7.71E0,-1.8025904E1,4.4957676E1,-5.994909E1,1.1978066E1,-2.0049334E1,1.76E0,1.76E0,4.4957676E1,-2.9949564E1,5.96E0,6.16E0,4.4957676E1,-4.1877976E-4,-3.7020995E-4,-3.1066668E-4,-3.565989E-4,1.8400858E-4,-1.786838E-4,-2.6588363E-4,-3.2865294E-4,-1.7700723E-4,4.3996863E-4,-1.0261879E-4,-3.2682804E-4,-3.6265975E-4,-2.7876286E-4,-6.0548984E-5,-2.7885142E-4,-2.2645769E-5,1.4144838E-3,7.378462E-3,2.9648545E-3,1.8564167E-3,5.87365E-4,1.4987947E-4,-2.0747723E-4,-2.972965E-4,7.596881E-5,1.2883666E-3,4.888839E-4,1.2788206E-4,-1.1835626E-4,-2.2321685E-4,-3.2938318E-4],"split_indices":[0,0,7,0,7,1,1,0,7,1,1,1,1,1,1,1,7,7,7,1,1,1,1,1,7,7,1,1,7,7,1,0,0,0,0,0,0,0,0,0,0,0,0,0,0,0,0,0,0,0,0,0,0,0,0,0,0,0,0,0,0,0,0],"split_type":[0,0,0,0,0,0,0,0,0,0,0,0,0,0,0,0,0,0,0,0,0,0,0,0,0,0,0,0,0,0,0,0,0,0,0,0,0,0,0,0,0,0,0,0,0,0,0,0,0,0,0,0,0,0,0,0,0,0,0,0,0,0,0],"sum_hessian":[2.3586826E8,9.679187E7,1.3907638E8,5.5307036E7,4.148484E7,6.399832E6,1.3267654E8,3.8717548E7,1.6589487E7,7.758183E6,3.3726656E7,4.439872E6,1.95996E6,9.204748E7,4.0629064E7,2.7656332E7,1.1061217E7,2.455817E6,1.413367E7,6.16177E6,1.596413E6,6.627079E6,2.7099578E7,2.195601E6,2.244271E6,5.74102E5,1.385858E6,4.5523548E7,4.6523936E7,1.1901601E7,2.8727464E7,1.8948206E7,8.708125E6,2.243387E6,8.81783E6,1.28837E5,2.32698E6,6.549648E6,7.584022E6,1.83369E6,4.32808E6,5.48222E5,1.048191E6,3.317681E6,3.309398E6,1.7200822E7,9.898756E6,1.528772E6,6.66829E5,1.94427E5,2.049844E6,4.9867E4,5.24235E5,4.20452E5,9.65406E5,2.8657272E7,1.6866274E7,1.1635294E7,3.488864E7,3.360352E6,8.541249E6,8.71077E6,2.0016696E7],"tree_param":{"num_deleted":"0","num_feature":"8","num_nodes":"63","size_leaf_vector":"1"}},{"base_weights":[1.2939104E-8,-1.3516106E-3,1.068756E-3,-1.9389355E-3,-4.9618166E-4,2.139856E-3,-1.1016116E-3,-2.1954784E-3,-1.5078856E-3,-1.917938E-4,-1.7632016E-3,-6.897229E-4,5.253066E-3,-7.735172E-5,-1.6296925E-3,-2.321854E-3,-2.0269868E-3,-2.1319895E-3,-1.407225E-3,-1.5712687E-3,3.8265655E-4,-1.3899253E-3,-2.0192966E-3,-1.5203754E-3,1.1085597E-3,1.3522801E-2,4.515513E-3,1.463209E-3,-3.4414468E-4,-1.2525907E-3,-1.8923646E-3,-3.0713002E-4,-3.6319948E-4,-3.2174028E-4,-2.9519596E-4,-3.3734847E-4,-2.8800563E-4,-1.8721564E-4,-2.987959E-4,-3.0233664E-4,-1.6777728E-4,5.142435E-4,1.668673E-5,-6.4091124E-5,-2.180035E-4,-2.7149232E-4,-3.188805E-4,-3.0842173E-4,-1.3030723E-4,7.4775884E-4,1.1442332E-4,1.0537521E-3,2.9180418E-3,4.1683775E-4,8.991036E-4,9.047806E-5,4.837667E-4,-1.2647851E-4,2.0456635E-5,-7.677433E-5,-2.0712697E-4,-2.50049E-4,-3.0095375E-4],"categories":[],"categories_nodes":[],"categories_segments":[],"categories_sizes":[],"default_left":[0,0,0,0,0,0,0,0,0,0,0,0,0,0,0,0,0,0,0,0,0,0,0,0,0,0,0,0,0,0,0,0,0,0,0,0,0,0,0,0,0,0,0,0,0,0,0,0,0,0,0,0,0,0,0,0,0,0,0,0,0,0,0],"id":4,"left_children":[1,3,5,7,9,11,13,15,17,19,21,23,25,27,29,31,33,35,37,39,41,43,45,47,49,51,53,55,57,59,61,-1,-1,-1,-1,-1,-1,-1,-1,-1,-1,-1,-1,-1,-1,-1,-1,-1,-1,-1,-1,-1,-1,-1,-1,-1,-1,-1,-1,-1,-1,-1,-1],"loss_changes":[3.40745E2,5.233049E1,3.062235E2,6.829239E0,1.63527E1,7.769568E2,2.3543663E1,8.2437134E-1,1.4475403E0,2.7091908E1,7.85141E-1,6.901796E1,2.561432E2,6.0859733E0,2.844841E0,6.036835E-1,1.15486145E-1,7.935524E-2,1.8461456E0,2.0219212E0,1.9951946E1,2.04072E-1,1.0867691E-1,1.1034729E1,1.956637E1,1.3251837E2,9.8996216E1,3.312067E0,3.0266771E0,1.120285E0,4.3490982E-1,0E0,0E0,0E0,0E0,0E0,0E0,0E0,0E0,0E0,0E0,0E0,0E0,0E0,0E0,0E0,0E0,0E0,0E0,0E0,0E0,0E0,0E0,0E0,0E0,0E0,0E0,0E0,0E0,0E0,0E0,0E0,0E0],"parents":[2147483647,0,0,1,1,2,2,3,3,4,4,5,5,6,6,7,7,8,8,9,9,10,10,11,11,12,12,13,13,14,14,15,15,16,16,17,17,18,18,19,19,20,20,21,21,22,22,23,23,24,24,25,25,26,26,27,27,28,28,29,29,30,30],"right_children":[2,4,6,8,10,12,14,16,18,20,22,24,26,28,30,32,34,36,38,40,42,44,46,48,50,52,54,56,58,60,62,-1,-1,-1,-1,-1,-1,-1,-1,-1,-1,-1,-1,-1,-1,-1,-1,-1,-1,-1,-1,-1,-1,-1,-1,-1,-1,-1,-1,-1,-1,-1,-1],"split_conditions":[-1.1032411E1,-2.2453846E1,1.2482473E1,-3.505285E1,2.9950619E1,-1.00386E1,2.9950619E1,-6.005703E1,-4.504409E1,-1.8025904E1,4.9965153E1,-2.0049334E1,6.1E0,1.19E1,4.9965153E1,-2.496814E1,-5.005485E1,-6.996063E1,3.506124E1,-4.504409E1,6.1E0,4.3E0,6.996195E1,-4.504409E1,6.1E0,-8.8692E3,-7.4769917E0,-4.7218E3,-3.0477E3,1.19E1,6.996195E1,-3.0713002E-4,-3.6319948E-4,-3.2174028E-4,-2.9519596E-4,-3.3734847E-4,-2.8800563E-4,-1.8721564E-4,-2.987959E-4,-3.0233664E-4,-1.6777728E-4,5.142435E-4,1.668673E-5,-6.4091124E-5,-2.180035E-4,-2.7149232E-4,-3.188805E-4,-3.0842173E-4,-1.3030723E-4,7.4775884E-4,1.1442332E-4,1.0537521E-3,2.9180418E-3,4.1683775E-4,8.991036E-4,9.047806E-5,4.837667E-4,-1.2647851E-4,2.0456635E-5,-7.677433E-5,-2.0712697E-4,-2.50049E-4,-3.0095375E-4],"split_indices":[0,0,1,0,1,1,1,0,1,1,1,1,4,4,1,1,0,1,1,1,4,4,1,1,4,6,0,6,6,4,1,0,0,0,0,0,0,0,0,0,0,0,0,0,0,0,0,0,0,0,0,0,0,0,0,0,0,0,0,0,0,0,0],"split_type":[0,0,0,0,0,0,0,0,0,0,0,0,0,0,0,0,0,0,0,0,0,0,0,0,0,0,0,0,0,0,0,0,0,0,0,0,0,0,0,0,0,0,0,0,0,0,0,0,0,0,0,0,0,0,0,0,0,0,0,0,0,0,0],"sum_hessian":[2.3588506E8,1.0415798E8,1.3172707E8,6.1756732E7,4.2401256E7,8.81996E7,4.3527468E7,3.87151E7,2.3041632E7,3.418797E7,8.213288E6,4.6204548E7,4.1995056E7,1.4807331E7,2.8720138E7,2.21224E7,1.6592701E7,3.200192E6,1.984144E7,1.0051198E7,2.4136768E7,3.342039E6,4.871249E6,3.1605508E7,1.4599038E7,3.438722E6,3.8556336E7,2.185787E6,1.2621544E7,1.1791636E7,1.6928502E7,5.88728E6,1.623512E7,5.533358E6,1.1059343E7,2.061955E6,1.138237E6,1.5597164E7,4.244276E6,5.072905E6,4.978293E6,1.97495E6,2.216182E7,2.06602E5,3.135437E6,1.643282E6,3.227967E6,1.7345074E7,1.4260435E7,1.19544E6,1.3403598E7,1.640927E6,1.797795E6,1.7730664E7,2.082567E7,1.468824E6,7.16963E5,6.191438E6,6.430106E6,1.740293E6,1.0051343E7,5.686336E6,1.1242166E7],"tree_param":{"num_deleted":"0","num_feature":"8","num_nodes":"63","size_leaf_vector":"1"}},{"base_weights":[-5.663025E-8,-1.0913229E-3,9.6368877E-4,-1.6388139E-3,-3.7535332E-4,4.0852414E-3,2.645331E-4,-1.8332541E-3,-1.2035394E-3,4.0264423E-3,-5.340328E-4,1.3011596E-2,3.4975496E-3,9.3091093E-4,-5.6392554E-4,-1.9489044E-3,-1.6469337E-3,8.487864E-4,-1.2774987E-3,9.820199E-3,3.101107E-3,9.298758E-5,-1.0967936E-3,2.1301877E-2,7.6302714E-3,6.2428964E-3,3.0617232E-3,1.3434927E-3,6.050321E-4,-1.990472E-4,-1.2231641E-3,-3.500443E-4,-2.8900502E-4,-2.2632403E-4,-2.6459876E-4,4.0214954E-4,4.823707E-5,-1.408986E-4,-2.3215082E-4,2.449827E-3,8.7392266E-4,8.0021453E-4,3.4816863E-4,9.4586925E-5,-3.601619E-5,-1.2099953E-4,-2.3612611E-4,4.238147E-3,2.3022771E-3,8.0356875E-4,1.2326807E-3,1.3032913E-3,7.4759143E-4,6.182076E-4,4.1431986E-4,1.1421065E-4,2.2406066E-4,2.2726468E-5,1.0525328E-4,2.9305859E-6,-6.68636E-5,-1.5085269E-4,-2.4068468E-4],"categories":[],"categories_nodes":[],"categories_segments":[],"categories_sizes":[],"default_left":[0,0,0,0,0,0,0,0,0,0,0,0,0,0,0,0,0,0,0,0,0,0,0,0,0,0,0,0,0,0,0,0,0,0,0,0,0,0,0,0,0,0,0,0,0,0,0,0,0,0,0,0,0,0,0,0,0,0,0,0,0,0,0],"id":5,"left_children":[1,3,5,7,9,11,13,15,17,19,21,23,25,27,29,31,33,35,37,39,41,43,45,47,49,51,53,55,57,59,61,-1,-1,-1,-1,-1,-1,-1,-1,-1,-1,-1,-1,-1,-1,-1,-1,-1,-1,-1,-1,-1,-1,-1,-1,-1,-1,-1,-1,-1,-1,-1,-1],"loss_changes":[2.4808348E2,4.3363525E1,2.7337936E2,5.305603E0,3.348258E1,1.2024716E2,5.649882E1,9.3370056E-1,2.9381065E0,8.942045E0,1.6326515E1,6.3167328E1,2.5731812E1,7.6258965E0,1.0974015E1,2.2839355E-1,2.6829147E-1,6.503613E-1,1.7070122E0,5.974287E0,2.5056953E0,3.9189184E0,3.377224E0,2.306726E1,1.1467743E0,9.071922E0,5.892044E0,2.1889915E0,1.3891115E0,1.5837045E0,1.3482571E0,0E0,0E0,0E0,0E0,0E0,0E0,0E0,0E0,0E0,0E0,0E0,0E0,0E0,0E0,0E0,0E0,0E0,0E0,0E0,0E0,0E0,0E0,0E0,0E0,0E0,0E0,0E0,0E0,0E0,0E0,0E0,0E0],"parents":[2147483647,0,0,1,1,2,2,3,3,4,4,5,5,6,6,7,7,8,8,9,9,10,10,11,11,12,12,13,13,14,14,15,15,16,16,17,17,18,18,19,19,20,20,21,21,22,22,23,23,24,24,25,25,26,26,27,27,28,28,29,29,30,30],"right_children":[2,4,6,8,10,12,14,16,18,20,22,24,26,28,30,32,34,36,38,40,42,44,46,48,50,52,54,56,58,60,62,-1,-1,-1,-1,-1,-1,-1,-1,-1,-1,-1,-1,-1,-1,-1,-1,-1,-1,-1,-1,-1,-1,-1,-1,-1,-1,-1,-1,-1,-1,-1,-1],"split_conditions":[-1.0042502E1,-2.0038923E1,5.09E0,-3.4967197E1,3.03E0,2.23E0,8.39E0,-5.9968674E1,3.03E0,3.8E1,7.38E0,2.09E2,3.03E0,6.62E0,1.082E1,3.47E0,7.13E0,2.02E0,7.16E0,1.76E0,2.35E2,5.36E0,9.97E0,1.76E0,-8.488147E0,2.29E2,2.21E2,-8.488147E0,-8.531764E0,9.44E0,1.279E1,-3.500443E-4,-2.8900502E-4,-2.2632403E-4,-2.6459876E-4,4.0214954E-4,4.823707E-5,-1.408986E-4,-2.3215082E-4,2.449827E-3,8.7392266E-4,8.0021453E-4,3.4816863E-4,9.4586925E-5,-3.601619E-5,-1.2099953E-4,-2.3612611E-4,4.238147E-3,2.3022771E-3,8.0356875E-4,1.2326807E-3,1.3032913E-3,7.4759143E-4,6.182076E-4,4.1431986E-4,1.1421065E-4,2.2406066E-4,2.2726468E-5,1.0525328E-4,2.9305859E-6,-6.68636E-5,-1.5085269E-4,-2.4068468E-4],"split_indices":[0,0,7,0,7,7,7,0,7,5,7,5,7,7,7,7,7,7,7,7,5,7,7,7,0,5,5,0,0,7,7,0,0,0,0,0,0,0,0,0,0,0,0,0,0,0,0,0,0,0,0,0,0,0,0,0,0,0,0,0,0,0,0],"split_type":[0,0,0,0,0,0,0,0,0,0,0,0,0,0,0,0,0,0,0,0,0,0,0,0,0,0,0,0,0,0,0,0,0,0,0,0,0,0,0,0,0,0,0,0,0,0,0,0,0,0,0,0,0,0,0,0,0,0,0,0,0,0,0],"sum_hessian":[2.3588742E8,1.1062489E8,1.2526254E8,6.2688184E7,4.7936704E7,2.2921932E7,1.0234061E8,4.333163E7,1.935655E7,1.667933E6,4.6268772E7,1.415908E6,2.1506024E7,5.671855E7,4.5622056E7,2.6736264E7,1.6595368E7,6.73285E5,1.8683264E7,2.29702E5,1.438231E6,2.1884908E7,2.4383864E7,5.57319E5,8.58589E5,2.946362E6,1.8559664E7,2.5029606E7,3.1688948E7,2.9367568E7,1.625449E7,1.458868E6,2.5277396E7,7.613201E6,8.982167E6,1.50443E5,5.22842E5,8.297424E6,1.0385841E7,8.7324E4,1.42378E5,3.72238E5,1.065993E6,8.372424E6,1.3512483E7,1.5166413E7,9.217451E6,2.57086E5,3.00233E5,1.76357E5,6.82232E5,1.001258E6,1.945104E6,4.090708E6,1.4468955E7,5.135059E6,1.9894548E7,5.567174E6,2.6121774E7,1.5571376E7,1.3796192E7,1.0351772E7,5.902718E6],"tree_param":{"num_deleted":"0","num_feature":"8","num_nodes":"63","size_leaf_vector":"1"}},{"base_weights":[-3.440769E-8,-9.579433E-4,7.943219E-4,-1.40135E-3,-3.5173015E-4,1.7813141E-3,-1.0055667E-3,-1.5878346E-3,-1.0879351E-3,2.9749859E-3,-4.996665E-4,-7.2066044E-4,4.7819633E-3,-1.7385022E-4,-1.524097E-3,-1.6652452E-3,-1.4191396E-3,3.0540375E-4,-1.149896E-3,4.327428E-3,-2.7417642E-4,-8.037067E-5,-1.0652044E-3,-1.3515621E-3,1.0728758E-3,1.4238697E-2,3.6702123E-3,1.3875989E-3,-5.708229E-4,-1.111632E-3,-1.7049831E-3,-2.1642513E-4,-2.8695198E-4,-1.9022585E-4,-2.1755324E-4,-2.1549292E-4,1.0434772E-4,-1.4197259E-4,-2.0972356E-4,-7.759271E-5,1.0143598E-3,1.6121853E-4,-2.1601013E-4,4.273342E-5,-1.9021155E-4,-1.3031247E-4,-2.2285404E-4,-2.632567E-4,-7.956639E-5,5.8785465E-4,4.200186E-5,5.294577E-3,1.8842402E-3,7.8510895E-4,2.589884E-4,9.777779E-4,1.6843963E-4,-4.7326943E-5,-2.0024544E-4,-9.536757E-5,-1.9039762E-4,-2.2701839E-4,-2.759251E-4],"categories":[],"categories_nodes":[],"categories_segments":[],"categories_sizes":[],"default_left":[0,0,0,0,0,0,0,0,0,0,0,0,0,0,0,0,0,0,0,0,0,0,0,0,0,0,0,0,0,0,0,0,0,0,0,0,0,0,0,0,0,0,0,0,0,0,0,0,0,0,0,0,0,0,0,0,0,0,0,0,0,0,0],"id":6,"left_children":[1,3,5,7,9,11,13,15,17,19,21,23,25,27,29,31,33,35,37,39,41,43,45,47,49,51,53,55,57,59,61,-1,-1,-1,-1,-1,-1,-1,-1,-1,-1,-1,-1,-1,-1,-1,-1,-1,-1,-1,-1,-1,-1,-1,-1,-1,-1,-1,-1,-1,-1,-1,-1],"loss_changes":[1.7948317E2,2.8742683E1,2.2906989E2,3.6095657E0,2.223108E1,6.2522144E2,1.9694878E1,5.0564575E-1,1.988966E0,8.451302E0,1.0255491E1,5.1386974E1,3.981048E2,1.0870598E1,2.0987396E0,1.4625473E0,5.7390213E-2,6.66828E-1,1.1138897E0,1.6019814E1,8.890036E-1,1.0774184E1,1.5210667E0,1.1130405E1,2.6667892E1,1.4067828E2,1.02987305E2,4.827425E0,2.7279153E0,6.4345646E-1,5.03788E-1,0E0,0E0,0E0,0E0,0E0,0E0,0E0,0E0,0E0,0E0,0E0,0E0,0E0,0E0,0E0,0E0,0E0,0E0,0E0,0E0,0E0,0E0,0E0,0E0,0E0,0E0,0E0,0E0,0E0,0E0,0E0,0E0],"parents":[2147483647,0,0,1,1,2,2,3,3,4,4,5,5,6,6,7,7,8,8,9,9,10,10,11,11,12,12,13,13,14,14,15,15,16,16,17,17,18,18,19,19,20,20,21,21,22,22,23,23,24,24,25,25,26,26,27,27,28,28,29,29,30,30],"right_children":[2,4,6,8,10,12,14,16,18,20,22,24,26,28,30,32,34,36,38,40,42,44,46,48,50,52,54,56,58,60,62,-1,-1,-1,-1,-1,-1,-1,-1,-1,-1,-1,-1,-1,-1,-1,-1,-1,-1,-1,-1,-1,-1,-1,-1,-1,-1,-1,-1,-1,-1,-1,-1],"split_conditions":[-1.0998265E1,-2.2453846E1,1.0050658E1,-3.505285E1,3.23E0,-1.00386E1,2.9950619E1,1.745635E1,3.23E0,1.1978066E1,8.01E0,-1.995894E1,4.27E0,5.28E0,4.4957676E1,-1.2469678E1,4.97E0,-3.5054955E1,7.89E0,-1.8025904E1,3.506124E1,1.797222E1,1.082E1,-3.5054955E1,5.39E0,2.02E0,8.1E0,4.6E1,9.85E0,5.67E0,6.003921E1,-2.1642513E-4,-2.8695198E-4,-1.9022585E-4,-2.1755324E-4,-2.1549292E-4,1.0434772E-4,-1.4197259E-4,-2.0972356E-4,-7.759271E-5,1.0143598E-3,1.6121853E-4,-2.1601013E-4,4.273342E-5,-1.9021155E-4,-1.3031247E-4,-2.2285404E-4,-2.632567E-4,-7.956639E-5,5.8785465E-4,4.200186E-5,5.294577E-3,1.8842402E-3,7.8510895E-4,2.589884E-4,9.777779E-4,1.6843963E-4,-4.7326943E-5,-2.0024544E-4,-9.536757E-5,-1.9039762E-4,-2.2701839E-4,-2.759251E-4],"split_indices":[0,0,1,0,7,1,1,1,7,1,7,1,7,7,1,1,7,1,7,1,1,1,7,1,7,7,7,5,7,7,1,0,0,0,0,0,0,0,0,0,0,0,0,0,0,0,0,0,0,0,0,0,0,0,0,0,0,0,0,0,0,0,0],"split_type":[0,0,0,0,0,0,0,0,0,0,0,0,0,0,0,0,0,0,0,0,0,0,0,0,0,0,0,0,0,0,0,0,0,0,0,0,0,0,0,0,0,0,0,0,0,0,0,0,0,0,0,0,0,0,0,0,0,0,0,0,0,0,0],"sum_hessian":[2.3587622E8,1.06930024E8,1.2894619E8,6.175797E7,4.517206E7,8.327905E7,4.5667148E7,3.871952E7,2.3038444E7,1.923239E6,4.324882E7,4.54131E7,3.7865948E7,1.7537388E7,2.812976E7,2.65406E7,1.2178922E7,9.80886E5,2.2057558E7,1.357986E6,5.65253E5,2.4835508E7,1.8413312E7,3.359543E7,1.1817666E7,3.983304E6,3.3882644E7,3.554833E6,1.3982554E7,8.575501E6,1.955426E7,1.3985981E7,1.2554619E7,2.086752E6,1.009217E7,1.79521E5,8.01365E5,1.2123888E7,9.93367E6,4.54231E5,9.03755E5,2.62052E5,3.03201E5,1.899416E7,5.84135E6,1.2549926E7,5.863385E6,2.2526392E7,1.1069042E7,2.574813E6,9.242853E6,2.93828E5,3.689476E6,1.8775666E7,1.5106979E7,1.74373E5,3.38046E6,1.0480802E7,3.501752E6,2.13443E6,6.441071E6,8.06758E6,1.1486679E7],"tree_param":{"num_deleted":"0","num_feature":"8","num_nodes":"63","size_leaf_vector":"1"}},{"base_weights":[-3.674817E-8,-7.607964E-4,7.4962294E-4,-1.1525626E-3,-2.1377033E-4,1.6368363E-3,-8.389029E-4,-1.3244535E-3,-8.352475E-4,3.6959054E-3,-3.2381338E-4,-4.772457E-4,4.6477336E-3,-1.0150578E-4,-1.3003275E-3,-1.4779775E-3,-1.2323407E-3,1.0814286E-3,-8.892862E-4,7.03226E-3,1.8698393E-3,-1.4268247E-3,-8.995841E-5,-1.1499971E-3,1.0902314E-3,1.1527006E-2,3.2715732E-3,1.3307424E-3,-4.396336E-4,-9.278001E-4,-1.4494493E-3,-2.3577428E-4,-1.9095727E-4,-1.9474144E-4,-1.7191694E-4,-2.144542E-4,2.4066593E-4,-8.642637E-5,-1.6578237E-4,1.4204986E-3,9.7268996E-5,4.3783488E-4,-5.1601928E-5,-2.4877637E-4,-1.7054123E-4,8.035743E-5,-1.509091E-4,-2.2451648E-4,-6.625575E-5,1.6233999E-3,1.2962354E-4,3.5886762E-3,1.4357213E-3,3.7873277E-4,9.4221614E-4,6.404272E-4,1.4005875E-4,-2.8074875E-5,-1.558459E-4,-8.152332E-5,-1.6210816E-4,-1.9937294E-4,-2.4206017E-4],"categories":[],"categories_nodes":[],"categories_segments":[],"categories_sizes":[],"default_left":[0,0,0,0,0,0,0,0,0,0,0,0,0,0,0,0,0,0,0,0,0,0,0,0,0,0,0,0,0,0,0,0,0,0,0,0,0,0,0,0,0,0,0,0,0,0,0,0,0,0,0,0,0,0,0,0,0,0,0,0,0,0,0],"id":7,"left_children":[1,3,5,7,9,11,13,15,17,19,21,23,25,27,29,31,33,35,37,39,41,43,45,47,49,51,53,55,57,59,61,-1,-1,-1,-1,-1,-1,-1,-1,-1,-1,-1,-1,-1,-1,-1,-1,-1,-1,-1,-1,-1,-1,-1,-1,-1,-1,-1,-1,-1,-1,-1,-1],"loss_changes":[1.3452539E2,2.508963E1,1.6744223E2,3.7208405E0,2.1019392E1,4.852323E2,1.448665E1,6.2574005E-1,2.4826355E0,8.14839E0,1.2257117E1,4.7227135E1,2.976961E2,7.9361734E0,1.4548225E0,3.1912613E-1,1.5723419E-1,8.632176E-1,1.5761337E0,7.362257E0,2.0074852E0,5.582638E-1,2.2472235E1,7.6967964E0,2.9591774E1,1.27083374E2,5.8891235E1,3.651762E0,2.0060573E0,4.3997192E-1,3.6960983E-1,0E0,0E0,0E0,0E0,0E0,0E0,0E0,0E0,0E0,0E0,0E0,0E0,0E0,0E0,0E0,0E0,0E0,0E0,0E0,0E0,0E0,0E0,0E0,0E0,0E0,0E0,0E0,0E0,0E0,0E0,0E0,0E0],"parents":[2147483647,0,0,1,1,2,2,3,3,4,4,5,5,6,6,7,7,8,8,9,9,10,10,11,11,12,12,13,13,14,14,15,15,16,16,17,17,18,18,19,19,20,20,21,21,22,22,23,23,24,24,25,25,26,26,27,27,28,28,29,29,30,30],"right_children":[2,4,6,8,10,12,14,16,18,20,22,24,26,28,30,32,34,36,38,40,42,44,46,48,50,52,54,56,58,60,62,-1,-1,-1,-1,-1,-1,-1,-1,-1,-1,-1,-1,-1,-1,-1,-1,-1,-1,-1,-1,-1,-1,-1,-1,-1,-1,-1,-1,-1,-1,-1,-1],"split_conditions":[-9.945893E0,-1.9962595E1,1.0050658E1,-3.0051842E1,2.86E0,-9.950295E0,2.9950619E1,-7.0059906E1,2.86E0,2.09E2,-3.496166E1,-1.995894E1,4.92E0,5.17E0,4.003401E1,1.745635E1,-4.9968666E1,-3.5054955E1,6.92E0,1.3942124E1,9.0104E0,-5.994909E1,8.044785E0,-3.5054955E1,2.67E0,2.67E0,-3.478667E0,2.67E0,9.44E0,5.96E0,7.005262E1,-2.3577428E-4,-1.9095727E-4,-1.9474144E-4,-1.7191694E-4,-2.144542E-4,2.4066593E-4,-8.642637E-5,-1.6578237E-4,1.4204986E-3,9.7268996E-5,4.3783488E-4,-5.1601928E-5,-2.4877637E-4,-1.7054123E-4,8.035743E-5,-1.509091E-4,-2.2451648E-4,-6.625575E-5,1.6233999E-3,1.2962354E-4,3.5886762E-3,1.4357213E-3,3.7873277E-4,9.4221614E-4,6.404272E-4,1.4005875E-4,-2.8074875E-5,-1.558459E-4,-8.152332E-5,-1.6210816E-4,-1.9937294E-4,-2.4206017E-4],"split_indices":[0,0,1,0,7,1,1,0,7,5,1,1,7,7,1,1,0,1,7,1,1,1,1,1,7,7,0,7,7,7,1,0,0,0,0,0,0,0,0,0,0,0,0,0,0,0,0,0,0,0,0,0,0,0,0,0,0,0,0,0,0,0,0],"split_type":[0,0,0,0,0,0,0,0,0,0,0,0,0,0,0,0,0,0,0,0,0,0,0,0,0,0,0,0,0,0,0,0,0,0,0,0,0,0,0,0,0,0,0,0,0,0,0,0,0,0,0,0,0,0,0,0,0,0,0,0,0,0,0],"sum_hessian":[2.3588083E8,1.1707368E8,1.1880715E8,6.821781E7,4.8855864E7,7.623106E7,4.257609E7,4.4248316E7,2.3969496E7,1.337468E6,4.7518396E7,4.478533E7,3.1445728E7,1.6387472E7,2.6188616E7,1.659292E7,2.7655396E7,6.57264E5,2.3312232E7,4.73092E5,8.64376E5,8.312284E6,3.920611E7,3.133608E7,1.344925E7,5.241925E6,2.6203804E7,3.129877E6,1.3257595E7,7.486439E6,1.8702178E7,1.1380849E7,5.212071E6,1.5671737E7,1.1983658E7,1.13296E5,5.43968E5,9.514971E6,1.3797262E7,3.42358E5,1.30734E5,5.8647E5,2.77906E5,4.619901E6,3.692383E6,2.3295724E7,1.5910389E7,2.1036582E7,1.0299498E7,3.05319E5,1.3143931E7,7.14185E5,4.52774E6,2.0995292E7,5.208511E6,3.72509E5,2.757368E6,9.328166E6,3.929429E6,2.130985E6,5.355454E6,1.0796518E7,7.90566E6],"tree_param":{"num_deleted":"0","num_feature":"8","num_nodes":"63","size_leaf_vector":"1"}},{"base_weights":[2.5448552E-8,1.2224948E-3,-3.553174E-4,-5.979716E-4,2.135938E-3,-7.974519E-4,1.3757634E-4,-1.0398403E-3,1.6000895E-4,3.4059358E-3,-3.5637233E-4,-1.0346551E-3,-5.004865E-4,-1.0404537E-3,6.1903946E-4,-1.283185E-3,-7.358311E-4,3.9332765E-3,2.5314366E-5,-1.9428796E-4,6.4319633E-3,6.745543E-4,-1.1170709E-3,-1.1336209E-3,-8.585913E-4,-2.5634287E-4,-1.0447862E-3,-1.426717E-3,-8.0033636E-4,2.4238331E-3,-7.55974E-4,-1.2713959E-4,-2.1610165E-4,-9.795251E-5,-1.9267887E-4,-2.4533077E-4,7.783857E-4,4.7954916E-5,-1.9242986E-4,-1.8210092E-4,2.3212531E-4,4.396375E-3,9.029051E-4,9.7169366E-4,8.545134E-5,-1.1708727E-4,-2.290055E-4,-1.8252083E-4,-1.6255613E-4,-1.8974188E-4,-1.1602997E-4,-1.6384557E-4,-6.825981E-8,-1.3029449E-4,-2.1511609E-4,-2.2733715E-4,-1.9338542E-4,-6.326256E-5,-1.6167376E-4,1.0196704E-4,5.14718E-4,-4.3456228E-5,-1.6773546E-4],"categories":[],"categories_nodes":[],"categories_segments":[],"categories_sizes":[],"default_left":[0,0,0,0,0,0,0,0,0,0,0,0,0,0,0,0,0,0,0,0,0,0,0,0,0,0,0,0,0,0,0,0,0,0,0,0,0,0,0,0,0,0,0,0,0,0,0,0,0,0,0,0,0,0,0,0,0,0,0,0,0,0,0],"id":8,"left_children":[1,3,5,7,9,11,13,15,17,19,21,23,25,27,29,31,33,35,37,39,41,43,45,47,49,51,53,55,57,59,61,-1,-1,-1,-1,-1,-1,-1,-1,-1,-1,-1,-1,-1,-1,-1,-1,-1,-1,-1,-1,-1,-1,-1,-1,-1,-1,-1,-1,-1,-1,-1,-1],"loss_changes":[1.0246446E2,8.833733E1,3.982704E1,5.9446836E0,1.1196535E2,6.786186E0,4.901392E1,8.295021E-1,3.322093E0,2.5528696E2,9.364132E0,9.332123E-1,5.684927E0,2.3253822E0,1.5223535E2,4.2722988E-1,2.2651553E-1,1.575743E0,2.4304953E0,1.9006723E1,1.20175354E2,3.0857613E0,9.4704914E-1,1.4235306E-1,6.661186E-1,6.3174896E0,9.08494E-1,1.1741638E-1,1.6242113E0,4.6616943E1,5.88118E0,0E0,0E0,0E0,0E0,0E0,0E0,0E0,0E0,0E0,0E0,0E0,0E0,0E0,0E0,0E0,0E0,0E0,0E0,0E0,0E0,0E0,0E0,0E0,0E0,0E0,0E0,0E0,0E0,0E0,0E0,0E0,0E0],"parents":[2147483647,0,0,1,1,2,2,3,3,4,4,5,5,6,6,7,7,8,8,9,9,10,10,11,11,12,12,13,13,14,14,15,15,16,16,17,17,18,18,19,19,20,20,21,21,22,22,23,23,24,24,25,25,26,26,27,27,28,28,29,29,30,30],"right_children":[2,4,6,8,10,12,14,16,18,20,22,24,26,28,30,32,34,36,38,40,42,44,46,48,50,52,54,56,58,60,62,-1,-1,-1,-1,-1,-1,-1,-1,-1,-1,-1,-1,-1,-1,-1,-1,-1,-1,-1,-1,-1,-1,-1,-1,-1,-1,-1,-1,-1,-1,-1,-1],"split_conditions":[5.46E0,-1.5E1,-9.063805E0,-2.505364E1,1.1978066E1,-1.7551176E1,-1.752617E1,-5.005485E1,2.02E0,-1.404167E1,3.0041723E1,-3.0051842E1,9.44E0,-5.994909E1,8.968685E0,-2.496814E1,5.001306E1,-3.496166E1,3.496388E1,-3.496166E1,1.76E0,1.76E0,6.003921E1,-7.0059906E1,-3.5054955E1,-1.8025904E1,1.196E1,-7.005129E1,7.77E0,-8.95934E0,2.5035034E1,-1.2713959E-4,-2.1610165E-4,-9.795251E-5,-1.9267887E-4,-2.4533077E-4,7.783857E-4,4.7954916E-5,-1.9242986E-4,-1.8210092E-4,2.3212531E-4,4.396375E-3,9.029051E-4,9.7169366E-4,8.545134E-5,-1.1708727E-4,-2.290055E-4,-1.8252083E-4,-1.6255613E-4,-1.8974188E-4,-1.1602997E-4,-1.6384557E-4,-6.825981E-8,-1.3029449E-4,-2.1511609E-4,-2.2733715E-4,-1.9338542E-4,-6.326256E-5,-1.6167376E-4,1.0196704E-4,5.14718E-4,-4.3456228E-5,-1.6773546E-4],"split_indices":[7,0,0,0,1,0,1,0,7,1,1,0,7,1,1,1,1,1,1,1,7,7,1,0,1,1,7,1,7,1,1,0,0,0,0,0,0,0,0,0,0,0,0,0,0,0,0,0,0,0,0,0,0,0,0,0,0,0,0,0,0,0,0],"split_type":[0,0,0,0,0,0,0,0,0,0,0,0,0,0,0,0,0,0,0,0,0,0,0,0,0,0,0,0,0,0,0,0,0,0,0,0,0,0,0,0,0,0,0,0,0,0,0,0,0,0,0,0,0,0,0,0,0,0,0,0,0,0,0],"sum_hessian":[2.3587816E8,5.3122684E7,1.8275549E8,1.7749146E7,3.537354E7,9.63383E7,8.6417176E7,1.1212665E7,6.536481E6,2.3432912E7,1.1940626E7,5.355825E7,4.2780056E7,2.5071924E7,6.1345256E7,6.227692E6,4.984973E6,2.2529E5,6.311191E6,1.070117E7,1.2731743E7,5.06982E6,6.870806E6,3.428603E7,1.9272216E7,2.9533094E7,1.3246961E7,9.611089E6,1.5460834E7,2.652694E7,3.4818316E7,1.653766E6,4.573926E6,4.331259E6,6.53714E5,4.146E4,1.8383E5,5.15185E6,1.159341E6,6.749642E6,3.951528E6,2.25551E5,1.2506192E7,8.9994E4,4.979826E6,3.772181E6,3.098625E6,1.285766E7,2.1428372E7,3.335806E6,1.593641E7,6.921433E6,2.261166E7,9.120297E6,4.126664E6,5.83773E6,3.773359E6,6.539204E6,8.92163E6,9.713755E6,1.6813184E7,1.5223821E7,1.9594496E7],"tree_param":{"num_deleted":"0","num_feature":"8","num_nodes":"63","size_leaf_vector":"1"}},{"base_weights":[7.571076E-9,4.0856414E-4,-7.154345E-4,-5.837071E-4,1.729382E-3,-4.197104E-4,-1.0308512E-3,-1.0123479E-3,-6.299187E-5,1.145639E-2,1.5747882E-3,2.068768E-3,-4.592752E-4,-9.0263673E-4,-1.1534423E-3,-1.2668531E-3,-8.0330734E-4,4.31952E-3,-1.325807E-4,2.4732688E-2,8.50038E-3,9.649059E-4,2.4001105E-3,5.877609E-3,1.2195327E-3,-6.353883E-4,-1.5711912E-4,-9.4905763E-4,-8.326486E-4,-1.8401536E-3,-1.1455159E-3,-2.5154446E-4,-1.8308868E-4,-1.5120355E-4,-1.1382735E-4,1.6002926E-3,4.3482718E-4,-6.608742E-5,4.2648648E-5,2.5340407E-3,6.727748E-3,7.864936E-4,1.9779557E-3,3.1159795E-4,7.364361E-5,8.9874037E-4,3.0860986E-4,5.3559226E-4,1.972163E-3,5.518019E-5,3.665072E-4,-1.7458904E-5,-1.03765815E-4,1.1977759E-5,-6.553677E-5,-1.3699441E-4,-1.4909293E-4,-3.428339E-5,-1.2653181E-4,-3.5063917E-4,-2.357744E-4,-1.628334E-4,-1.8163242E-4],"categories":[],"categories_nodes":[],"categories_segments":[],"categories_sizes":[],"default_left":[0,0,0,0,0,0,0,0,0,0,0,0,0,0,0,0,0,0,0,0,0,0,0,0,0,0,0,0,0,0,0,0,0,0,0,0,0,0,0,0,0,0,0,0,0,0,0,0,0,0,0,0,0,0,0,0,0,0,0,0,0,0,0],"id":9,"left_children":[1,3,5,7,9,11,13,15,17,19,21,23,25,27,29,31,33,35,37,39,41,43,45,47,49,51,53,55,57,59,61,-1,-1,-1,-1,-1,-1,-1,-1,-1,-1,-1,-1,-1,-1,-1,-1,-1,-1,-1,-1,-1,-1,-1,-1,-1,-1,-1,-1,-1,-1,-1,-1],"loss_changes":[6.895225E1,1.9679037E2,7.997967E0,1.9137043E1,9.685893E1,4.3570714E0,6.52153E-1,2.5019493E0,1.1806143E1,3.9546997E1,3.1914642E1,2.240246E0,2.3180552E0,6.588936E-2,1.15448E-1,4.0236282E-1,2.349968E-1,5.4578733E0,4.893215E0,2.8941223E1,1.257938E1,1.9223286E1,3.3163177E1,2.1177588E0,5.902816E-1,8.053379E-1,1.0635343E0,1.9575119E-2,5.323553E-2,3.2301307E-2,8.218193E-2,0E0,0E0,0E0,0E0,0E0,0E0,0E0,0E0,0E0,0E0,0E0,0E0,0E0,0E0,0E0,0E0,0E0,0E0,0E0,0E0,0E0,0E0,0E0,0E0,0E0,0E0,0E0,0E0,0E0,0E0,0E0,0E0],"parents":[2147483647,0,0,1,1,2,2,3,3,4,4,5,5,6,6,7,7,8,8,9,9,10,10,11,11,12,12,13,13,14,14,15,15,16,16,17,17,18,18,19,19,20,20,21,21,22,22,23,23,24,24,25,25,26,26,27,27,28,28,29,29,30,30],"right_children":[2,4,6,8,10,12,14,16,18,20,22,24,26,28,30,32,34,36,38,40,42,44,46,48,50,52,54,56,58,60,62,-1,-1,-1,-1,-1,-1,-1,-1,-1,-1,-1,-1,-1,-1,-1,-1,-1,-1,-1,-1,-1,-1,-1,-1,-1,-1,-1,-1,-1,-1,-1,-1],"split_conditions":[9.9588785E0,-9.950295E0,3.506124E1,-3.0039852E1,5.6E1,5.6E1,6.003921E1,-6.0039845E1,5.6E1,9E-1,-2.7523E3,9E-1,-2.4066E3,-2.6031E3,4.6E1,7.7E0,-5.994909E1,9E-1,-2.7523E3,-4.5188E3,-3.9663E3,1.98E1,1.78E1,-4.3941E3,-3.9663E3,2.21E2,1.9959385E1,4.72E1,4.1E0,1.1E0,8.995138E1,-2.5154446E-4,-1.8308868E-4,-1.5120355E-4,-1.1382735E-4,1.6002926E-3,4.3482718E-4,-6.608742E-5,4.2648648E-5,2.5340407E-3,6.727748E-3,7.864936E-4,1.9779557E-3,3.1159795E-4,7.364361E-5,8.9874037E-4,3.0860986E-4,5.3559226E-4,1.972163E-3,5.518019E-5,3.665072E-4,-1.7458904E-5,-1.03765815E-4,1.1977759E-5,-6.553677E-5,-1.3699441E-4,-1.4909293E-4,-3.428339E-5,-1.2653181E-4,-3.5063917E-4,-2.357744E-4,-1.628334E-4,-1.8163242E-4],"split_indices":[1,1,1,1,5,5,1,1,5,4,6,4,6,6,5,4,1,4,6,6,6,4,4,6,6,5,1,4,4,4,1,0,0,0,0,0,0,0,0,0,0,0,0,0,0,0,0,0,0,0,0,0,0,0,0,0,0,0,0,0,0,0,0],"split_type":[0,0,0,0,0,0,0,0,0,0,0,0,0,0,0,0,0,0,0,0,0,0,0,0,0,0,0,0,0,0,0,0,0,0,0,0,0,0,0,0,0,0,0,0,0,0,0,0,0,0,0,0,0,0,0,0,0,0,0,0,0,0,0],"sum_hessian":[2.3589666E8,1.5015178E8,8.574488E7,8.573951E7,6.4412256E7,4.425391E7,4.149097E7,4.7027536E7,3.871198E7,1.007703E6,6.340455E7,6.92589E5,4.356132E7,2.0280352E7,2.1210616E7,2.1207528E7,2.5820008E7,6.05089E5,3.810689E7,1.83508E5,8.24195E5,3.6461132E7,2.694342E7,1.26268E5,5.66321E5,2.7520732E7,1.6040588E7,1.2193067E7,8.087286E6,2.42028E5,2.0968588E7,2.149781E6,1.9057748E7,4.606867E6,2.121314E7,1.10637E5,4.94452E5,2.1915848E7,1.6191043E7,1.32056E5,5.1452E4,4.86232E5,3.37963E5,1.0893285E7,2.5567848E7,2.347061E6,2.4596358E7,9.5853E4,3.0415E4,3.33938E5,2.32383E5,2.696871E6,2.4823862E7,8.684899E6,7.355689E6,6.786915E6,5.406152E6,1.43297E5,7.943989E6,8.4804E4,1.57224E5,1.0936623E7,1.0031965E7],"tree_param":{"num_deleted":"0","num_feature":"8","num_nodes":"63","size_leaf_vector":"1"}},{"base_weights":[-2.0908274E-8,-5.216101E-4,6.700035E-4,-8.219519E-4,-1.9470799E-4,4.23876E-3,4.3739105E-4,-9.839365E-4,-6.7234883E-4,2.2857944E-3,-2.7447048E-4,1.11321155E-2,3.5763886E-3,1.1367038E-3,-1.5401228E-4,-1.4016504E-3,-9.5983583E-4,-5.0901825E-4,-8.473513E-4,4.744429E-3,8.659556E-4,1.2462552E-5,-7.507362E-4,1.9972019E-2,6.5672346E-3,5.623894E-3,2.8197386E-3,1.6836633E-3,8.684109E-4,1.5068731E-4,-7.6860114E-4,-3.5491504E-4,-1.9444687E-4,-1.5562713E-4,-1.3739568E-4,1.1957948E-4,-8.072923E-5,-1.1526069E-4,-1.5444214E-4,1.6188883E-3,5.1268254E-4,5.9159393E-5,1.951488E-4,4.425243E-5,-2.2827344E-5,-8.80098E-5,-1.6960902E-4,3.4072946E-3,1.7739258E-3,1.3539107E-3,5.9073174E-4,1.3782572E-3,6.7949353E-4,3.5997544E-4,5.9512944E-4,2.2031707E-4,3.5398637E-4,1.136592E-4,2.1438344E-4,6.807646E-6,7.228434E-5,-7.7178294E-5,-1.6311789E-4],"categories":[],"categories_nodes":[],"categories_segments":[],"categories_sizes":[],"default_left":[0,0,0,0,0,0,0,0,0,0,0,0,0,0,0,0,0,0,0,0,0,0,0,0,0,0,0,0,0,0,0,0,0,0,0,0,0,0,0,0,0,0,0,0,0,0,0,0,0,0,0,0,0,0,0,0,0,0,0,0,0,0,0],"id":10,"left_children":[1,3,5,7,9,11,13,15,17,19,21,23,25,27,29,31,33,35,37,39,41,43,45,47,49,51,53,55,57,59,61,-1,-1,-1,-1,-1,-1,-1,-1,-1,-1,-1,-1,-1,-1,-1,-1,-1,-1,-1,-1,-1,-1,-1,-1,-1,-1,-1,-1,-1,-1,-1,-1],"loss_changes":[8.2434906E1,1.3022095E1,8.571068E1,1.6751022E0,1.2565071E1,2.8847595E1,4.0088264E1,3.3411407E-1,1.0271492E0,6.906741E0,8.408358E0,2.2350006E1,8.93E0,6.517475E0,9.834657E0,1.8392205E-1,1.0691452E-1,7.083869E-1,2.4961853E-1,5.811138E0,2.572974E-1,1.7862489E0,1.4416237E0,4.2145386E0,2.3610754E0,6.064728E0,2.0284576E0,2.1239166E0,1.8495922E0,1.2245529E0,1.4101992E0,0E0,0E0,0E0,0E0,0E0,0E0,0E0,0E0,0E0,0E0,0E0,0E0,0E0,0E0,0E0,0E0,0E0,0E0,0E0,0E0,0E0,0E0,0E0,0E0,0E0,0E0,0E0,0E0,0E0,0E0,0E0,0E0],"parents":[2147483647,0,0,1,1,2,2,3,3,4,4,5,5,6,6,7,7,8,8,9,9,10,10,11,11,12,12,13,13,14,14,15,15,16,16,17,17,18,18,19,19,20,20,21,21,22,22,23,23,24,24,25,25,26,26,27,27,28,28,29,29,30,30],"right_children":[2,4,6,8,10,12,14,16,18,20,22,24,26,28,30,32,34,36,38,40,42,44,46,48,50,52,54,56,58,60,62,-1,-1,-1,-1,-1,-1,-1,-1,-1,-1,-1,-1,-1,-1,-1,-1,-1,-1,-1,-1,-1,-1,-1,-1,-1,-1,-1,-1,-1,-1,-1,-1],"split_conditions":[-8.531764E0,-1.7551176E1,3.61E0,-4.005113E1,2.93E0,3.8E1,7.38E0,3.47E0,7.52E0,2.35E2,8.39E0,1.76E0,2.42E2,5.28E0,1.019E1,3.8E1,-8.003004E1,2.23E0,1.056E1,1.76E0,1.175E3,5.72E0,1.112E1,9E-1,2.42E0,2.59E0,-2.501942E0,-2.4485638E0,-1.5E0,-2.4485638E0,1.196E1,-3.5491504E-4,-1.9444687E-4,-1.5562713E-4,-1.3739568E-4,1.1957948E-4,-8.072923E-5,-1.1526069E-4,-1.5444214E-4,1.6188883E-3,5.1268254E-4,5.9159393E-5,1.951488E-4,4.425243E-5,-2.2827344E-5,-8.80098E-5,-1.6960902E-4,3.4072946E-3,1.7739258E-3,1.3539107E-3,5.9073174E-4,1.3782572E-3,6.7949353E-4,3.5997544E-4,5.9512944E-4,2.2031707E-4,3.5398637E-4,1.136592E-4,2.1438344E-4,6.807646E-6,7.228434E-5,-7.7178294E-5,-1.6311789E-4],"split_indices":[0,0,7,0,7,5,7,7,7,5,7,7,5,7,7,5,0,7,7,7,5,7,7,4,7,7,0,0,0,0,7,0,0,0,0,0,0,0,0,0,0,0,0,0,0,0,0,0,0,0,0,0,0,0,0,0,0,0,0,0,0,0,0],"split_type":[0,0,0,0,0,0,0,0,0,0,0,0,0,0,0,0,0,0,0,0,0,0,0,0,0,0,0,0,0,0,0,0,0,0,0,0,0,0,0,0,0,0,0,0,0,0,0,0,0,0,0,0,0,0,0,0,0,0,0,0,0,0,0],"sum_hessian":[2.3588046E8,1.3263164E8,1.03248824E8,6.912392E7,6.3507716E7,6.317974E6,9.693085E7,3.3188574E7,3.5935348E7,1.978519E6,6.15292E7,5.53863E5,5.764111E6,4.4413504E7,5.251734E7,1.810409E6,3.1378164E7,1.8587532E7,1.7347818E7,7.24299E5,1.25422E6,3.8396616E7,2.3132584E7,1.88612E5,3.65251E5,1.555338E6,4.208773E6,1.4616117E7,2.9797388E7,3.5110388E7,1.7406954E7,1.78262E5,1.632147E6,1.1324331E7,2.0053834E7,4.06113E5,1.8181418E7,1.2104704E7,5.243114E6,1.30284E5,5.94015E5,6.01847E5,6.52373E5,1.4136462E7,2.4260152E7,1.6158545E7,6.974039E6,1.41094E5,4.7518E4,1.88733E5,1.76518E5,3.65238E5,1.1901E6,3.081467E6,1.127306E6,1.1091652E7,3.524465E6,2.4885868E7,4.91152E6,2.6640436E7,8.46995E6,9.687443E6,7.719511E6],"tree_param":{"num_deleted":"0","num_feature":"8","num_nodes":"63","size_leaf_vector":"1"}},{"base_weights":[7.589437E-8,-4.3098195E-4,5.901965E-4,-6.986934E-4,-1.5557614E-4,5.0411965E-3,4.4702546E-4,-8.0153026E-4,-5.157418E-4,2.3900452E-3,-2.1473151E-4,1.04677435E-2,4.2439597E-3,1.118572E-3,-8.357844E-5,-8.7613746E-4,-7.2693994E-4,-2.823129E-4,-6.604715E-4,5.0864457E-3,1.8129201E-3,1.1348024E-4,-5.5093085E-4,7.7236188E-3,1.305126E-2,5.592611E-3,3.7480525E-3,1.7881836E-3,8.666594E-4,2.0745274E-4,-5.809385E-4,-2.0582545E-4,-1.2712936E-4,-1.06896834E-4,-1.2513757E-4,2.1939473E-4,-4.7768066E-5,-8.6065964E-5,-1.2883717E-4,4.7205837E-4,1.0376667E-3,3.875528E-4,1.9794305E-4,-2.2621225E-5,3.9628125E-5,-5.9231974E-5,-1.3669721E-4,1.4362405E-3,6.503117E-4,2.5854118E-3,1.3327558E-3,8.153455E-4,1.4522622E-3,5.446814E-4,1.0165377E-3,2.4191795E-4,3.9580165E-4,1.2318895E-4,3.066236E-4,2.0004094E-5,8.503994E-5,-5.837062E-5,-1.381519E-4],"categories":[],"categories_nodes":[],"categories_segments":[],"categories_sizes":[],"default_left":[0,0,0,0,0,0,0,0,0,0,0,0,0,0,0,0,0,0,0,0,0,0,0,0,0,0,0,0,0,0,0,0,0,0,0,0,0,0,0,0,0,0,0,0,0,0,0,0,0,0,0,0,0,0,0,0,0,0,0,0,0,0,0],"id":11,"left_children":[1,3,5,7,9,11,13,15,17,19,21,23,25,27,29,31,33,35,37,39,41,43,45,47,49,51,53,55,57,59,61,-1,-1,-1,-1,-1,-1,-1,-1,-1,-1,-1,-1,-1,-1,-1,-1,-1,-1,-1,-1,-1,-1,-1,-1,-1,-1,-1,-1,-1,-1,-1,-1],"loss_changes":[6.000544E1,1.0050638E1,6.3454285E1,1.3005219E0,1.011847E1,1.3424736E1,3.437519E1,2.4625587E-1,8.403287E-1,2.374669E0,7.2460465E0,2.817913E0,1.8095093E0,7.1826286E0,7.8005695E0,3.1394196E-1,3.3943176E-2,6.0034573E-1,2.6415825E-1,9.554906E-1,4.7791386E-1,1.3234953E0,1.8243122E0,1.2090559E0,3.569397E0,4.6685982E-1,7.0007133E-1,1.7363853E0,1.6540165E0,9.0550756E-1,1.2975917E0,0E0,0E0,0E0,0E0,0E0,0E0,0E0,0E0,0E0,0E0,0E0,0E0,0E0,0E0,0E0,0E0,0E0,0E0,0E0,0E0,0E0,0E0,0E0,0E0,0E0,0E0,0E0,0E0,0E0,0E0,0E0,0E0],"parents":[2147483647,0,0,1,1,2,2,3,3,4,4,5,5,6,6,7,7,8,8,9,9,10,10,11,11,12,12,13,13,14,14,15,15,16,16,17,17,18,18,19,19,20,20,21,21,22,22,23,23,24,24,25,25,26,26,27,27,28,28,29,29,30,30],"right_children":[2,4,6,8,10,12,14,16,18,20,22,24,26,28,30,32,34,36,38,40,42,44,46,48,50,52,54,56,58,60,62,-1,-1,-1,-1,-1,-1,-1,-1,-1,-1,-1,-1,-1,-1,-1,-1,-1,-1,-1,-1,-1,-1,-1,-1,-1,-1,-1,-1,-1,-1,-1,-1],"split_conditions":[-8.488147E0,-1.7551176E1,2.93E0,-3.0051842E1,2.67E0,1.76E0,7.13E0,-6.005703E1,6.62E0,1.76E0,7.52E0,-3.815E3,2.23E0,4.77E0,9.85E0,3.47E0,1.106E1,2.02E0,1.003E1,-3.815E3,2.23E0,-3.6287E3,1.056E1,4E-1,9E-1,-4.3764552E-1,-4.3764552E-1,-1.5E0,-4.3764552E-1,-1.5E0,1.206E1,-2.0582545E-4,-1.2712936E-4,-1.06896834E-4,-1.2513757E-4,2.1939473E-4,-4.7768066E-5,-8.6065964E-5,-1.2883717E-4,4.7205837E-4,1.0376667E-3,3.875528E-4,1.9794305E-4,-2.2621225E-5,3.9628125E-5,-5.9231974E-5,-1.3669721E-4,1.4362405E-3,6.503117E-4,2.5854118E-3,1.3327558E-3,8.153455E-4,1.4522622E-3,5.446814E-4,1.0165377E-3,2.4191795E-4,3.9580165E-4,1.2318895E-4,3.066236E-4,2.0004094E-5,8.503994E-5,-5.837062E-5,-1.381519E-4],"split_indices":[0,0,7,0,7,7,7,0,7,7,7,6,7,7,7,7,7,7,7,6,7,6,7,4,4,0,0,0,0,0,7,0,0,0,0,0,0,0,0,0,0,0,0,0,0,0,0,0,0,0,0,0,0,0,0,0,0,0,0,0,0,0,0],"split_type":[0,0,0,0,0,0,0,0,0,0,0,0,0,0,0,0,0,0,0,0,0,0,0,0,0,0,0,0,0,0,0,0,0,0,0,0,0,0,0,0,0,0,0,0,0,0,0,0,0,0,0,0,0,0,0,0,0,0,0,0,0,0,0],"sum_hessian":[2.3589259E8,1.3631808E8,9.957451E7,6.912465E7,6.719343E7,3.103102E6,9.6471416E7,4.425113E7,2.4873516E7,1.525985E6,6.5667444E7,3.97491E5,2.705611E6,4.2580452E7,5.389096E7,2.212306E7,2.2128068E7,9.519647E6,1.5353869E7,2.69031E5,1.256954E6,3.3228452E7,3.2438992E7,1.92756E5,2.04735E5,7.27397E5,1.978214E6,1.164001E7,3.0940444E7,3.3997348E7,1.9893612E7,1.206361E6,2.09167E7,1.9526964E7,2.601104E6,1.93167E5,9.32648E6,1.0685462E7,4.668407E6,1.30662E5,1.38369E5,4.90523E5,7.66431E5,1.2067039E7,2.1161414E7,2.2636906E7,9.802086E6,1.24647E5,6.8109E4,1.02138E5,1.02597E5,7.00508E5,2.6889E4,1.904738E6,7.3476E4,9.649913E6,1.990097E6,2.9791788E7,1.148654E6,2.8187624E7,5.809724E6,1.2719722E7,7.173891E6],"tree_param":{"num_deleted":"0","num_feature":"8","num_nodes":"63","size_leaf_vector":"1"}},{"base_weights":[5.0371995E-8,3.5117147E-4,-6.1478844E-4,-5.013827E-4,1.4860102E-3,-3.6985864E-4,-8.7601756E-4,-7.1740564E-4,2.87128E-4,6.3158115E-3,1.1711675E-3,-1.09507986E-4,-5.015129E-4,-1.6613693E-3,-8.4770186E-4,-1.0370425E-3,-5.185664E-4,4.003105E-3,1.6763326E-4,1.0637067E-2,4.2049983E-3,2.0906625E-3,4.4505575E-4,5.243411E-4,-2.6017588E-4,-4.4533753E-4,-8.118861E-4,-1.1725236E-3,-2.1283776E-3,-8.957488E-4,-6.6355674E-4,-3.775589E-4,-1.4754826E-4,-3.1216954E-5,-9.885741E-5,1.1367265E-3,2.9083114E-4,8.929572E-5,-7.8031444E-5,3.1664884E-3,1.148271E-3,8.169966E-4,3.9559224E-4,4.053653E-4,1.9773265E-4,1.2318995E-4,-7.970346E-5,5.3493184E-4,4.4778266E-5,-7.476097E-5,-1.0284343E-5,-7.101006E-5,-2.914233E-5,-1.9663636E-4,-9.097409E-5,-2.667519E-4,-1.5315479E-4,-5.3548446E-4,-2.8478468E-4,-1.1306867E-4,-1.4856187E-4,-1.1089695E-4,-9.340214E-5],"categories":[],"categories_nodes":[],"categories_segments":[],"categories_sizes":[],"default_left":[0,0,0,0,0,0,0,0,0,0,0,0,0,0,0,0,0,0,0,0,0,0,0,0,0,0,0,0,0,0,0,0,0,0,0,0,0,0,0,0,0,0,0,0,0,0,0,0,0,0,0,0,0,0,0,0,0,0,0,0,0,0,0],"id":12,"left_children":[1,3,5,7,9,11,13,15,17,19,21,23,25,27,29,31,33,35,37,39,41,43,45,47,49,51,53,55,57,59,61,-1,-1,-1,-1,-1,-1,-1,-1,-1,-1,-1,-1,-1,-1,-1,-1,-1,-1,-1,-1,-1,-1,-1,-1,-1,-1,-1,-1,-1,-1,-1,-1],"loss_changes":[5.092353E1,1.4526419E2,5.4860725E0,1.4603617E1,9.7940765E1,1.5167937E0,9.2266464E-1,4.277149E0,8.186724E0,3.5953262E1,4.037082E1,1.4193286E0,5.1242447E-1,3.2962918E-1,3.543167E-1,2.0392742E0,1.8094397E0,4.238963E0,5.25463E0,4.039598E1,5.154686E0,1.2608101E1,1.2410868E1,1.9606333E0,5.4813015E-1,1.7532873E-1,4.6165538E-1,6.4742565E-2,2.4462223E-1,4.268036E-1,2.5660515E-2,0E0,0E0,0E0,0E0,0E0,0E0,0E0,0E0,0E0,0E0,0E0,0E0,0E0,0E0,0E0,0E0,0E0,0E0,0E0,0E0,0E0,0E0,0E0,0E0,0E0,0E0,0E0,0E0,0E0,0E0,0E0,0E0],"parents":[2147483647,0,0,1,1,2,2,3,3,4,4,5,5,6,6,7,7,8,8,9,9,10,10,11,11,12,12,13,13,14,14,15,15,16,16,17,17,18,18,19,19,20,20,21,21,22,22,23,23,24,24,25,25,26,26,27,27,28,28,29,29,30,30],"right_children":[2,4,6,8,10,12,14,16,18,20,22,24,26,28,30,32,34,36,38,40,42,44,46,48,50,52,54,56,58,60,62,-1,-1,-1,-1,-1,-1,-1,-1,-1,-1,-1,-1,-1,-1,-1,-1,-1,-1,-1,-1,-1,-1,-1,-1,-1,-1,-1,-1,-1,-1,-1,-1],"split_conditions":[9.9588785E0,-9.950295E0,3.506124E1,-1.7445581E1,3.61E0,6.31E0,3.03E0,-5.994909E1,2.93E0,2.29E2,7.25E0,2.21E2,1.133E1,6.003921E1,9.85E0,3.03E0,6.13E0,2.35E2,8.32E0,2.23E0,1.0475972E0,1.0475972E0,1.056E1,2.23E0,-2.7523E3,-1.2827E3,1.4942289E1,4.6E1,3.8E1,5.997247E1,1.082E1,-3.775589E-4,-1.4754826E-4,-3.1216954E-5,-9.885741E-5,1.1367265E-3,2.9083114E-4,8.929572E-5,-7.8031444E-5,3.1664884E-3,1.148271E-3,8.169966E-4,3.9559224E-4,4.053653E-4,1.9773265E-4,1.2318995E-4,-7.970346E-5,5.3493184E-4,4.4778266E-5,-7.476097E-5,-1.0284343E-5,-7.101006E-5,-2.914233E-5,-1.9663636E-4,-9.097409E-5,-2.667519E-4,-1.5315479E-4,-5.3548446E-4,-2.8478468E-4,-1.1306867E-4,-1.4856187E-4,-1.1089695E-4,-9.340214E-5],"split_indices":[1,1,1,1,7,7,7,1,7,5,7,5,7,1,7,7,7,5,7,7,1,1,7,7,6,6,1,5,5,1,7,0,0,0,0,0,0,0,0,0,0,0,0,0,0,0,0,0,0,0,0,0,0,0,0,0,0,0,0,0,0,0,0],"split_type":[0,0,0,0,0,0,0,0,0,0,0,0,0,0,0,0,0,0,0,0,0,0,0,0,0,0,0,0,0,0,0,0,0,0,0,0,0,0,0,0,0,0,0,0,0,0,0,0,0,0,0,0,0,0,0,0,0,0,0,0,0,0,0],"sum_hessian":[2.3588498E8,1.5014208E8,8.574289E7,8.573395E7,6.440813E7,4.425199E7,4.1490896E7,6.729704E7,1.8436916E7,3.941657E6,6.046647E7,1.4861968E7,2.9390026E7,1.443886E6,4.004701E7,2.5808886E7,4.148815E7,5.74404E5,1.7862512E7,1.293533E6,2.648124E6,2.668038E7,3.3786092E7,2.854267E6,1.2007701E7,2.4885862E7,4.504164E6,7.05451E5,7.38435E5,3.1760174E7,8.286835E6,8.9857E5,2.4910316E7,1.2925059E7,2.8563092E7,2.10256E5,3.64148E5,1.1014292E7,6.848219E6,2.86679E5,1.006854E6,1.477739E6,1.170385E6,1.4888643E7,1.1791737E7,2.4389028E7,9.397066E6,1.97248E5,2.657019E6,5.352727E6,6.654974E6,2.2383812E7,2.502049E6,1.313315E6,3.190849E6,1.41115E5,5.64336E5,1.01535E5,6.369E5,1.2706098E7,1.9054076E7,2.904268E6,5.382567E6],"tree_param":{"num_deleted":"0","num_feature":"8","num_nodes":"63","size_leaf_vector":"1"}},{"base_weights":[5.1066188E-8,3.0169665E-4,-5.1933364E-4,-4.2614306E-4,1.2845518E-3,-2.8643795E-4,-7.242653E-4,-6.3916825E-4,1.532631E-4,7.7402378E-3,1.1819991E-3,2.3601759E-4,-3.4491622E-4,-6.071455E-4,-8.1634434E-4,-8.8147976E-4,-4.6959083E-4,5.304123E-3,1.1535574E-4,1.6959047E-2,5.6806975E-3,7.809545E-4,1.8701059E-3,3.4501066E-3,1.306891E-4,-5.1990745E-4,-2.0811154E-4,-7.434454E-4,-5.8354327E-4,-1.2191287E-3,-7.709142E-4,-1.8973148E-4,-1.179234E-4,-9.11967E-5,-5.5088854E-5,6.520263E-5,1.2324945E-3,-1.992954E-5,8.146551E-5,1.8109517E-3,5.474479E-3,2.433817E-4,1.1067349E-3,1.7732929E-4,3.8619462E-5,5.299088E-4,2.192379E-4,1.4191049E-3,2.8521952E-4,6.413924E-5,-5.1106847E-5,-1.06002226E-4,-6.0330414E-5,-1.4212611E-5,-5.820847E-5,-9.610762E-5,-1.2439712E-4,-8.012595E-5,-9.3712835E-5,-3.057794E-4,-1.6743004E-4,-1.2990458E-4,-1.0696836E-4],"categories":[],"categories_nodes":[],"categories_segments":[],"categories_sizes":[],"default_left":[0,0,0,0,0,0,0,0,0,0,0,0,0,0,0,0,0,0,0,0,0,0,0,0,0,0,0,0,0,0,0,0,0,0,0,0,0,0,0,0,0,0,0,0,0,0,0,0,0,0,0,0,0,0,0,0,0,0,0,0,0,0,0],"id":13,"left_children":[1,3,5,7,9,11,13,15,17,19,21,23,25,27,29,31,33,35,37,39,41,43,45,47,49,51,53,55,57,59,61,-1,-1,-1,-1,-1,-1,-1,-1,-1,-1,-1,-1,-1,-1,-1,-1,-1,-1,-1,-1,-1,-1,-1,-1,-1,-1,-1,-1,-1,-1,-1,-1],"loss_changes":[3.6953423E1,1.0673915E2,4.1359615E0,1.0581072E1,4.2029205E1,1.2392435E0,4.9711418E-1,2.5756016E0,4.499746E0,1.884797E1,1.7245087E1,1.3822418E0,8.732772E-1,6.526899E-2,4.722271E-1,9.431362E-1,5.2219963E-1,2.3877525E0,2.4289784E0,1.7304504E1,5.589817E0,8.292761E0,1.5628845E1,1.2059418E0,5.5333257E-1,3.518648E-1,4.1762215E-1,2.641666E-2,3.5185814E-2,2.20608E-1,1.2747955E-1,0E0,0E0,0E0,0E0,0E0,0E0,0E0,0E0,0E0,0E0,0E0,0E0,0E0,0E0,0E0,0E0,0E0,0E0,0E0,0E0,0E0,0E0,0E0,0E0,0E0,0E0,0E0,0E0,0E0,0E0,0E0,0E0],"parents":[2147483647,0,0,1,1,2,2,3,3,4,4,5,5,6,6,7,7,8,8,9,9,10,10,11,11,12,12,13,13,14,14,15,15,16,16,17,17,18,18,19,19,20,20,21,21,22,22,23,23,24,24,25,25,26,26,27,27,28,28,29,29,30,30],"right_children":[2,4,6,8,10,12,14,16,18,20,22,24,26,28,30,32,34,36,38,40,42,44,46,48,50,52,54,56,58,60,62,-1,-1,-1,-1,-1,-1,-1,-1,-1,-1,-1,-1,-1,-1,-1,-1,-1,-1,-1,-1,-1,-1,-1,-1,-1,-1,-1,-1,-1,-1,-1,-1],"split_conditions":[9.035362E0,-9.950295E0,3.496388E1,-1.8025904E1,5.6E1,2.21E2,5.9945225E1,-5.994909E1,3.8E1,9E-1,-2.4066E3,9E-1,-3.7772E3,1.19E1,7.7E0,1.69E1,-3.5054955E1,-8.8692E3,-2.4066E3,-3.6814E3,-8.0707E3,1.0475972E0,3.8E1,1.2037499E1,1.9959385E1,1.5017314E1,1.9959385E1,4.003401E1,4.003401E1,4.6E1,4.72E1,-1.8973148E-4,-1.179234E-4,-9.11967E-5,-5.5088854E-5,6.520263E-5,1.2324945E-3,-1.992954E-5,8.146551E-5,1.8109517E-3,5.474479E-3,2.433817E-4,1.1067349E-3,1.7732929E-4,3.8619462E-5,5.299088E-4,2.192379E-4,1.4191049E-3,2.8521952E-4,6.413924E-5,-5.1106847E-5,-1.06002226E-4,-6.0330414E-5,-1.4212611E-5,-5.820847E-5,-9.610762E-5,-1.2439712E-4,-8.012595E-5,-9.3712835E-5,-3.057794E-4,-1.6743004E-4,-1.2990458E-4,-1.0696836E-4],"split_indices":[1,1,1,1,5,5,1,1,5,4,6,4,6,4,4,4,1,6,6,6,6,1,4,1,1,1,1,1,1,5,4,0,0,0,0,0,0,0,0,0,0,0,0,0,0,0,0,0,0,0,0,0,0,0,0,0,0,0,0,0,0,0,0],"split_type":[0,0,0,0,0,0,0,0,0,0,0,0,0,0,0,0,0,0,0,0,0,0,0,0,0,0,0,0,0,0,0,0,0,0,0,0,0,0,0,0,0,0,0,0,0,0,0,0,0,0,0,0,0,0,0,0,0,0,0,0,0,0,0],"sum_hessian":[2.3586773E8,1.4921019E8,8.665753E7,8.572658E7,6.348362E7,4.0561356E7,4.6096172E7,6.2681144E7,2.3045432E7,9.92707E5,6.249091E7,4.083009E6,3.6478348E7,2.0289272E7,2.5806902E7,2.5806248E7,3.6874896E7,1.68361E5,2.2877072E7,1.81277E5,8.1143E5,3.9480668E7,2.3010248E7,1.29557E5,3.953452E6,1.6005368E7,2.047298E7,2.994773E6,1.7294498E7,2.615734E6,2.3191168E7,5.138588E6,2.066766E7,1.5675852E7,2.1199044E7,6.3012E4,1.05349E5,1.4476467E7,8.400604E6,1.45013E5,3.6264E4,2.39317E5,5.72113E5,2.2350026E7,1.713064E7,4.538632E6,1.8471616E7,2.6541E4,1.03016E5,2.425674E6,1.527778E6,6.187318E6,9.81805E6,1.2560304E7,7.912676E6,1.363534E6,1.631239E6,7.868122E6,9.426376E6,2.91904E5,2.32383E6,8.765122E6,1.4426046E7],"tree_param":{"num_deleted":"0","num_feature":"8","num_nodes":"63","size_leaf_vector":"1"}},{"base_weights":[-1.5919098E-7,-3.775616E-4,5.421026E-4,-5.790397E-4,-1.7846607E-4,1.1818015E-3,-4.5159803E-4,-7.084992E-4,-3.407608E-4,5.892724E-5,-5.756736E-4,-2.4361935E-4,3.8288909E-3,1.5178116E-4,-7.1441836E-4,-3.57756E-4,-1.1140077E-3,-5.0971936E-4,-3.1318303E-4,-4.8054964E-4,9.678821E-4,-4.7236617E-4,-7.083649E-4,-6.40836E-4,9.5084467E-4,1.5588152E-2,3.3059746E-3,3.6769987E-3,9.577861E-5,-1.086747E-3,-6.310712E-4,3.1168574E-6,-5.5713066E-5,-2.2485723E-4,-8.7484E-5,-1.1051782E-4,-4.2498574E-5,-3.978333E-5,-6.0475326E-5,-1.2684568E-4,-5.8936857E-5,9.0076827E-4,1.2087511E-4,-4.869775E-5,-1.096264E-4,-1.719583E-4,-7.8437915E-5,-1.391418E-4,-4.440006E-5,5.5697985E-4,8.767146E-5,4.7822148E-3,2.0128607E-3,8.4521243E-4,3.0338916E-4,2.0297635E-3,3.2702895E-4,-5.7540296E-5,6.267372E-5,-7.860727E-5,-2.044889E-4,-6.909039E-5,-1.0721914E-4],"categories":[],"categories_nodes":[],"categories_segments":[],"categories_sizes":[],"default_left":[0,0,0,0,0,0,0,0,0,0,0,0,0,0,0,0,0,0,0,0,0,0,0,0,0,0,0,0,0,0,0,0,0,0,0,0,0,0,0,0,0,0,0,0,0,0,0,0,0,0,0,0,0,0,0,0,0,0,0,0,0,0,0],"id":14,"left_children":[1,3,5,7,9,11,13,15,17,19,21,23,25,27,29,31,33,35,37,39,41,43,45,47,49,51,53,55,57,59,61,-1,-1,-1,-1,-1,-1,-1,-1,-1,-1,-1,-1,-1,-1,-1,-1,-1,-1,-1,-1,-1,-1,-1,-1,-1,-1,-1,-1,-1,-1,-1,-1],"loss_changes":[4.827557E1,5.579338E0,6.1534733E1,2.132515E0,6.596672E0,2.2221017E2,6.0120373E0,6.3710136E0,1.13398075E-1,2.147192E1,3.5873985E-1,1.8161816E1,1.26749115E2,2.2709472E0,8.195238E-1,1.2423706E-1,4.245838E0,1.7555118E-1,9.0295315E-2,8.791981E-1,1.3312717E1,5.618026E-1,9.3055534E-1,2.8407335E0,9.667792E0,3.101474E1,5.8982162E1,2.6533632E0,1.7481023E0,7.515693E-1,3.0796623E-1,0E0,0E0,0E0,0E0,0E0,0E0,0E0,0E0,0E0,0E0,0E0,0E0,0E0,0E0,0E0,0E0,0E0,0E0,0E0,0E0,0E0,0E0,0E0,0E0,0E0,0E0,0E0,0E0,0E0,0E0,0E0,0E0],"parents":[2147483647,0,0,1,1,2,2,3,3,4,4,5,5,6,6,7,7,8,8,9,9,10,10,11,11,12,12,13,13,14,14,15,15,16,16,17,17,18,18,19,19,20,20,21,21,22,22,23,23,24,24,25,25,26,26,27,27,28,28,29,29,30,30],"right_children":[2,4,6,8,10,12,14,16,18,20,22,24,26,28,30,32,34,36,38,40,42,44,46,48,50,52,54,56,58,60,62,-1,-1,-1,-1,-1,-1,-1,-1,-1,-1,-1,-1,-1,-1,-1,-1,-1,-1,-1,-1,-1,-1,-1,-1,-1,-1,-1,-1,-1,-1,-1,-1],"split_conditions":[-8.040716E0,-1.7551176E1,9.9588785E0,1.0050658E1,6.945779E0,-9.024927E0,1.9959385E1,-1.2469678E1,1.745635E1,-5.9623137E0,-1.097159E1,-1.752617E1,3.23E0,5.6E1,5.09E0,3.03E0,-3.0051842E1,-4.005113E1,-3.4967197E1,-6.996063E1,2.93E0,4.4957676E1,1.4942289E1,-4.0034054E1,4.39E0,3.8E1,6.62E0,1.76E0,-4.9541063E0,3.506124E1,3.506124E1,3.1168574E-6,-5.5713066E-5,-2.2485723E-4,-8.7484E-5,-1.1051782E-4,-4.2498574E-5,-3.978333E-5,-6.0475326E-5,-1.2684568E-4,-5.8936857E-5,9.0076827E-4,1.2087511E-4,-4.869775E-5,-1.096264E-4,-1.719583E-4,-7.8437915E-5,-1.391418E-4,-4.440006E-5,5.5697985E-4,8.767146E-5,4.7822148E-3,2.0128607E-3,8.4521243E-4,3.0338916E-4,2.0297635E-3,3.2702895E-4,-5.7540296E-5,6.267372E-5,-7.860727E-5,-2.044889E-4,-6.909039E-5,-1.0721914E-4],"split_indices":[0,0,1,1,1,1,1,1,1,1,0,1,7,5,7,7,0,0,0,1,7,1,1,1,7,5,7,7,0,1,1,0,0,0,0,0,0,0,0,0,0,0,0,0,0,0,0,0,0,0,0,0,0,0,0,0,0,0,0,0,0,0,0],"split_type":[0,0,0,0,0,0,0,0,0,0,0,0,0,0,0,0,0,0,0,0,0,0,0,0,0,0,0,0,0,0,0,0,0,0,0,0,0,0,0,0,0,0,0,0,0,0,0,0,0,0,0,0,0,0,0,0,0,0,0,0,0,0,0],"sum_hessian":[2.3589227E8,1.3908922E8,9.6803064E7,6.913098E7,6.995824E7,5.8891452E7,3.7911616E7,4.4793924E7,2.4337048E7,4.378806E7,2.617018E7,3.827883E7,2.061262E7,1.1503059E7,2.6408556E7,2.4018876E7,2.0775048E7,3.414946E6,2.0922102E7,2.7478942E7,1.6309119E7,1.4714294E7,1.1455885E7,2.8726044E7,9.552789E6,8.77585E5,1.9735034E7,1.79882E5,1.1323177E7,4.830358E6,2.1578198E7,8.36829E5,2.3182048E7,1.2040558E7,8.73449E6,1.704947E6,1.709999E6,1.3647975E7,7.274127E6,5.31929E6,2.2159652E7,5.08311E5,1.5800808E7,9.363328E6,5.350966E6,3.407451E6,8.048434E6,1.5683313E7,1.304273E7,1.118615E6,8.434174E6,1.03103E5,7.74482E5,7.011757E6,1.2723277E7,2.3718E4,1.56164E5,4.550117E6,6.77306E6,1.591559E6,3.238799E6,7.107204E6,1.4470994E7],"tree_param":{"num_deleted":"0","num_feature":"8","num_nodes":"63","size_leaf_vector":"1"}},{"base_weights":[7.0742034E-9,-3.0667317E-4,4.9406325E-4,-4.878892E-4,-1.3413448E-4,1.0935429E-3,-3.4124003E-4,-5.9848337E-4,-3.006834E-4,9.889128E-5,-5.077626E-4,-1.1545092E-4,4.1465424E-3,1.7362539E-4,-6.05558E-4,-3.3119347E-4,-9.876493E-4,-4.2710788E-4,-2.718298E-4,-4.114008E-4,1.0321778E-3,-3.898851E-4,-6.162118E-4,-5.418997E-4,9.79448E-4,1.1368296E-2,3.188142E-3,2.8082035E-3,8.878076E-5,-9.207288E-4,-5.349988E-4,-4.624276E-5,-9.3779374E-5,-2.0988057E-4,-7.572875E-5,-9.706569E-5,-3.1361862E-5,-3.400047E-5,-5.3291515E-5,-6.8494046E-5,3.2610562E-5,4.8426518E-4,9.754197E-5,-3.9246188E-5,-9.326992E-5,-1.452386E-4,-6.852789E-5,-1.1031898E-4,-1.8341198E-5,9.818726E-4,1.2005379E-4,1.3243286E-3,3.2530057E-3,3.3886897E-4,1.0687897E-3,1.2276664E-4,6.793436E-4,5.7883426E-5,-7.3357936E-5,-8.453385E-5,-1.902923E-4,-5.2938474E-5,-8.953579E-5],"categories":[],"categories_nodes":[],"categories_segments":[],"categories_sizes":[],"default_left":[0,0,0,0,0,0,0,0,0,0,0,0,0,0,0,0,0,0,0,0,0,0,0,0,0,0,0,0,0,0,0,0,0,0,0,0,0,0,0,0,0,0,0,0,0,0,0,0,0,0,0,0,0,0,0,0,0,0,0,0,0,0,0],"id":15,"left_children":[1,3,5,7,9,11,13,15,17,19,21,23,25,27,29,31,33,35,37,39,41,43,45,47,49,51,53,55,57,59,61,-1,-1,-1,-1,-1,-1,-1,-1,-1,-1,-1,-1,-1,-1,-1,-1,-1,-1,-1,-1,-1,-1,-1,-1,-1,-1,-1,-1,-1,-1,-1,-1],"loss_changes":[3.573837E1,4.5503244E0,4.5236343E1,1.4695873E0,6.4907846E0,1.941233E2,5.136621E0,4.641471E0,9.615731E-2,2.1866844E1,3.660779E-1,1.7590641E1,1.0325891E2,2.8620658E0,5.5464077E-1,1.7816114E-1,3.609953E0,2.3494744E-1,8.087933E-2,8.4417343E-1,1.361323E1,4.0810418E-1,8.367338E-1,2.2022343E0,1.0527392E1,4.5800705E1,4.8174957E1,1.3677592E0,2.129594E0,5.668826E-1,2.2969961E-1,0E0,0E0,0E0,0E0,0E0,0E0,0E0,0E0,0E0,0E0,0E0,0E0,0E0,0E0,0E0,0E0,0E0,0E0,0E0,0E0,0E0,0E0,0E0,0E0,0E0,0E0,0E0,0E0,0E0,0E0,0E0,0E0],"parents":[2147483647,0,0,1,1,2,2,3,3,4,4,5,5,6,6,7,7,8,8,9,9,10,10,11,11,12,12,13,13,14,14,15,15,16,16,17,17,18,18,19,19,20,20,21,21,22,22,23,23,24,24,25,25,26,26,27,27,28,28,29,29,30,30],"right_children":[2,4,6,8,10,12,14,16,18,20,22,24,26,28,30,32,34,36,38,40,42,44,46,48,50,52,54,56,58,60,62,-1,-1,-1,-1,-1,-1,-1,-1,-1,-1,-1,-1,-1,-1,-1,-1,-1,-1,-1,-1,-1,-1,-1,-1,-1,-1,-1,-1,-1,-1,-1,-1],"split_conditions":[-7.944072E0,-1.7517645E1,8.968685E0,9.9588785E0,6.001464E0,-8.95934E0,1.9959385E1,-9.950295E0,1.745635E1,-5.025185E0,-1.0998265E1,-1.752617E1,4.39E0,2.93E0,5.09E0,-1.2469678E1,-3.0051842E1,-4.005113E1,-3.0051842E1,-6.9737554E0,4.77E0,4.4957676E1,1.4942289E1,-3.496166E1,2.93E0,-2.974698E0,-2.9541156E0,-4.0067077E0,8.62E0,4.504392E1,3.496388E1,-4.624276E-5,-9.3779374E-5,-2.0988057E-4,-7.572875E-5,-9.706569E-5,-3.1361862E-5,-3.400047E-5,-5.3291515E-5,-6.8494046E-5,3.2610562E-5,4.8426518E-4,9.754197E-5,-3.9246188E-5,-9.326992E-5,-1.452386E-4,-6.852789E-5,-1.1031898E-4,-1.8341198E-5,9.818726E-4,1.2005379E-4,1.3243286E-3,3.2530057E-3,3.3886897E-4,1.0687897E-3,1.2276664E-4,6.793436E-4,5.7883426E-5,-7.3357936E-5,-8.453385E-5,-1.902923E-4,-5.2938474E-5,-8.953579E-5],"split_indices":[0,0,1,1,1,1,1,1,1,1,0,1,7,7,7,1,0,0,0,1,7,1,1,1,7,0,0,0,7,1,1,0,0,0,0,0,0,0,0,0,0,0,0,0,0,0,0,0,0,0,0,0,0,0,0,0,0,0,0,0,0,0,0],"split_type":[0,0,0,0,0,0,0,0,0,0,0,0,0,0,0,0,0,0,0,0,0,0,0,0,0,0,0,0,0,0,0,0,0,0,0,0,0,0,0,0,0,0,0,0,0,0,0,0,0,0,0,0,0,0,0,0,0,0,0,0,0,0,0],"sum_hessian":[2.3586994E8,1.4553229E8,9.0337656E7,7.098125E7,7.455103E7,5.259286E7,3.7744796E7,4.462089E7,2.6360358E7,4.591475E7,2.863628E7,3.7673916E7,1.4918944E7,1.2803955E7,2.4940842E7,2.6452552E7,1.8168338E7,4.898248E6,2.146211E7,2.96843E7,1.6230452E7,1.3721674E7,1.4914606E7,2.7113544E7,1.0560371E7,1.747927E6,1.3171017E7,3.99476E5,1.2404479E7,4.562274E6,2.0378568E7,2.4540386E7,1.912166E6,9.807742E6,8.360596E6,2.43812E6,2.460128E6,1.3925745E7,7.536365E6,2.7692544E7,1.991757E6,2.404191E6,1.3826261E7,8.835711E6,4.885963E6,4.647549E6,1.0267057E7,1.8554792E7,8.558753E6,3.29172E5,1.0231199E7,1.402711E6,3.45216E5,1.0656482E7,2.514535E6,1.85258E5,2.14218E5,8.192226E6,4.212253E6,2.251103E6,2.311171E6,5.170731E6,1.5207837E7],"tree_param":{"num_deleted":"0","num_feature":"8","num_nodes":"63","size_leaf_vector":"1"}},{"base_weights":[-9.1120626E-8,-2.485979E-4,4.4254365E-4,-3.9601684E-4,-7.3362324E-5,9.839667E-4,-2.6745073E-4,-4.714054E-4,-2.643148E-4,1.8129936E-4,-4.66155E-4,-7.641528E-5,4.055855E-3,1.2833806E-4,-5.4753484E-4,-2.953109E-4,-7.071199E-4,-1.8498607E-4,-3.008762E-4,-3.6477848E-4,1.2012349E-3,-6.4771855E-4,-3.8179988E-4,-4.5813216E-4,9.0181624E-4,1.857607E-2,3.589169E-3,8.844485E-4,-1.17574564E-4,-1.452587E-3,-5.148902E-4,-4.014485E-5,-6.0850532E-5,-1.7279499E-4,-4.2922562E-5,-1.7989485E-5,-5.577918E-5,-4.213813E-5,-5.6849527E-5,-3.9631384E-5,-9.788947E-5,9.959886E-4,1.5390934E-4,-1.1848281E-5,-1.1855858E-4,-3.3269695E-5,-7.749469E-5,-1.1670566E-4,-3.8954167E-5,3.366058E-4,3.3429624E-5,2.094948E-3,4.4586323E-3,3.4480932E-4,1.0060702E-3,-2.7552774E-6,2.3352048E-4,5.9295776E-6,-1.1596249E-4,-1.316511E-4,-3.130898E-4,-9.749727E-5,-6.1361075E-5],"categories":[],"categories_nodes":[],"categories_segments":[],"categories_sizes":[],"default_left":[0,0,0,0,0,0,0,0,0,0,0,0,0,0,0,0,0,0,0,0,0,0,0,0,0,0,0,0,0,0,0,0,0,0,0,0,0,0,0,0,0,0,0,0,0,0,0,0,0,0,0,0,0,0,0,0,0,0,0,0,0,0,0],"id":16,"left_children":[1,3,5,7,9,11,13,15,17,19,21,23,25,27,29,31,33,35,37,39,41,43,45,47,49,51,53,55,57,59,61,-1,-1,-1,-1,-1,-1,-1,-1,-1,-1,-1,-1,-1,-1,-1,-1,-1,-1,-1,-1,-1,-1,-1,-1,-1,-1,-1,-1,-1,-1,-1,-1],"loss_changes":[2.5945223E1,3.9023647E0,3.2601425E1,8.145809E-1,6.9039044E0,1.5673479E2,4.0675364E0,2.1657133E0,8.662319E-2,2.3321112E1,4.1577816E-1,1.3356643E1,8.36698E1,2.8272815E0,6.348381E-1,9.122443E-2,4.178108E0,1.1455086E-1,3.1870723E-2,7.8937316E-1,1.3910458E1,6.9876266E-1,3.9986968E-1,1.6333508E0,9.14949E0,1.9758545E1,4.8132828E1,2.2651875E0,1.1816237E0,2.729479E-1,2.96463E-1,0E0,0E0,0E0,0E0,0E0,0E0,0E0,0E0,0E0,0E0,0E0,0E0,0E0,0E0,0E0,0E0,0E0,0E0,0E0,0E0,0E0,0E0,0E0,0E0,0E0,0E0,0E0,0E0,0E0,0E0,0E0,0E0],"parents":[2147483647,0,0,1,1,2,2,3,3,4,4,5,5,6,6,7,7,8,8,9,9,10,10,11,11,12,12,13,13,14,14,15,15,16,16,17,17,18,18,19,19,20,20,21,21,22,22,23,23,24,24,25,25,26,26,27,27,28,28,29,29,30,30],"right_children":[2,4,6,8,10,12,14,16,18,20,22,24,26,28,30,32,34,36,38,40,42,44,46,48,50,52,54,56,58,60,62,-1,-1,-1,-1,-1,-1,-1,-1,-1,-1,-1,-1,-1,-1,-1,-1,-1,-1,-1,-1,-1,-1,-1,-1,-1,-1,-1,-1,-1,-1,-1,-1],"split_conditions":[-7.4769917E0,-1.4958041E1,8.021265E0,9.9588785E0,5.9626637E0,-8.95934E0,2.4967848E1,-9.950295E0,6.16E0,-5.9623137E0,1.4942289E1,-1.752617E1,2.93E0,5.63E0,3.03E0,-2.0038923E1,-2.9964088E1,6.003921E1,-2.0038923E1,9.24E0,2.93E0,-1.2042757E1,3.9988068E1,-5.994909E1,6.31E0,-3.5393972E0,-3.5393972E0,-4.02334E0,1.056E1,5.0031025E1,7.13E0,-4.014485E-5,-6.0850532E-5,-1.7279499E-4,-4.2922562E-5,-1.7989485E-5,-5.577918E-5,-4.213813E-5,-5.6849527E-5,-3.9631384E-5,-9.788947E-5,9.959886E-4,1.5390934E-4,-1.1848281E-5,-1.1855858E-4,-3.3269695E-5,-7.749469E-5,-1.1670566E-4,-3.8954167E-5,3.366058E-4,3.3429624E-5,2.094948E-3,4.4586323E-3,3.4480932E-4,1.0060702E-3,-2.7552774E-6,2.3352048E-4,5.9295776E-6,-1.1596249E-4,-1.316511E-4,-3.130898E-4,-9.749727E-5,-6.1361075E-5],"split_indices":[0,0,1,1,1,1,1,1,7,1,1,1,7,7,7,0,0,1,0,7,7,0,1,1,7,0,0,0,7,1,7,0,0,0,0,0,0,0,0,0,0,0,0,0,0,0,0,0,0,0,0,0,0,0,0,0,0,0,0,0,0,0,0],"split_type":[0,0,0,0,0,0,0,0,0,0,0,0,0,0,0,0,0,0,0,0,0,0,0,0,0,0,0,0,0,0,0,0,0,0,0,0,0,0,0,0,0,0,0,0,0,0,0,0,0,0,0,0,0,0,0,0,0,0,0,0,0,0,0],"sum_hessian":[2.3587051E8,1.5106093E8,8.4809576E7,8.204208E7,6.9018856E7,4.8116892E7,3.6692684E7,5.2175764E7,2.9866318E7,4.187183E7,2.714702E7,3.5769616E7,1.2347277E7,1.5205577E7,2.1487106E7,2.9864776E7,2.2310988E7,9.422331E6,2.0443988E7,2.7270884E7,1.4600948E7,8.611618E6,1.8535402E7,2.5729628E7,1.0039988E7,3.84488E5,1.1962789E7,3.731693E6,1.1473884E7,7.48043E5,2.0739064E7,2.387646E7,5.988316E6,1.084785E7,1.1463138E7,6.989205E6,2.433126E6,1.6284285E7,4.159702E6,2.0209346E7,7.061539E6,4.55601E5,1.4145347E7,1.727064E6,6.884554E6,8.476498E6,1.0058904E7,9.85009E6,1.5879538E7,3.372628E6,6.66736E6,2.72013E5,1.12475E5,8.461011E6,3.501778E6,1.592856E6,2.138837E6,9.255604E6,2.21828E6,3.92503E5,3.5554E5,9.10942E6,1.1629643E7],"tree_param":{"num_deleted":"0","num_feature":"8","num_nodes":"63","size_leaf_vector":"1"}},{"base_weights":[2.0005821E-9,-1.9797182E-4,4.1228795E-4,-3.353692E-4,-4.8711365E-5,8.387852E-4,-2.8611903E-4,-3.978852E-4,-2.2560348E-4,2.0284392E-4,-4.2286978E-4,-2.313974E-4,2.5064263E-3,1.7013507E-4,-4.3982983E-4,-2.3715544E-4,-5.798706E-4,-2.0133975E-4,-3.2767127E-4,-3.241899E-4,1.2797335E-3,-6.3848525E-4,-3.3998475E-4,-4.697429E-4,3.0206965E-4,3.5079517E-3,3.4900507E-4,4.8749377E-3,1.5238869E-4,-7.399381E-4,-3.878987E-4,-3.0350517E-5,-5.397722E-5,-1.542026E-4,-4.37632E-5,-4.8137274E-5,-2.5315134E-5,-1.2884076E-5,-8.520174E-5,-5.4812383E-5,5.931241E-5,1.7461166E-3,1.8051968E-4,-1.5702723E-4,-6.032086E-5,-3.9121296E-5,-7.501223E-5,-1.08193664E-4,-4.9737915E-5,8.0736115E-4,3.6469217E-5,2.5284917E-3,4.9446133E-4,9.95692E-4,3.7381997E-5,9.29466E-6,1.261205E-3,1.2859965E-4,1.147531E-5,-2.559113E-4,-1.0343427E-4,-4.170706E-5,-7.4275726E-5],"categories":[],"categories_nodes":[],"categories_segments":[],"categories_sizes":[],"default_left":[0,0,0,0,0,0,0,0,0,0,0,0,0,0,0,0,0,0,0,0,0,0,0,0,0,0,0,0,0,0,0,0,0,0,0,0,0,0,0,0,0,0,0,0,0,0,0,0,0,0,0,0,0,0,0,0,0,0,0,0,0,0,0],"id":17,"left_children":[1,3,5,7,9,11,13,15,17,19,21,23,25,27,29,31,33,35,37,39,41,43,45,47,49,51,53,55,57,59,61,-1,-1,-1,-1,-1,-1,-1,-1,-1,-1,-1,-1,-1,-1,-1,-1,-1,-1,-1,-1,-1,-1,-1,-1,-1,-1,-1,-1,-1,-1,-1,-1],"loss_changes":[1.9252453E1,3.268035E0,2.27928E1,5.6938076E-1,7.1889787E0,8.478642E1,2.034626E0,1.54634E0,7.4566245E-2,2.5921955E1,5.487714E-1,3.679404E0,4.0125015E1,6.104132E-1,3.382063E-1,1.1992395E-1,3.20127E0,9.474623E-2,3.36035E-1,9.097283E-1,1.1859438E1,8.2292724E-1,2.8115606E-1,6.9510794E-1,2.6759133E0,3.581346E1,3.6949635E0,4.671694E-1,3.8963395E-1,1.5580237E-1,2.1800065E-1,0E0,0E0,0E0,0E0,0E0,0E0,0E0,0E0,0E0,0E0,0E0,0E0,0E0,0E0,0E0,0E0,0E0,0E0,0E0,0E0,0E0,0E0,0E0,0E0,0E0,0E0,0E0,0E0,0E0,0E0,0E0,0E0],"parents":[2147483647,0,0,1,1,2,2,3,3,4,4,5,5,6,6,7,7,8,8,9,9,10,10,11,11,12,12,13,13,14,14,15,15,16,16,17,17,18,18,19,19,20,20,21,21,22,22,23,23,24,24,25,25,26,26,27,27,28,28,29,29,30,30],"right_children":[2,4,6,8,10,12,14,16,18,20,22,24,26,28,30,32,34,36,38,40,42,44,46,48,50,52,54,56,58,60,62,-1,-1,-1,-1,-1,-1,-1,-1,-1,-1,-1,-1,-1,-1,-1,-1,-1,-1,-1,-1,-1,-1,-1,-1,-1,-1,-1,-1,-1,-1,-1,-1],"split_conditions":[-6.560512E0,-1.4047009E1,1.1978066E1,9.9588785E0,5.0259414E0,-1.196699E1,1.9959385E1,-1.2469678E1,7.005262E1,-5.025185E0,1.2037499E1,-2.0049334E1,7.954432E0,2.9E1,1.19E1,-2.2453846E1,-3.505285E1,-7.0059906E1,-3.505285E1,-6.044609E0,3.8E1,-4.7218E3,5.9945225E1,-6.996063E1,4.6E1,5.6E1,5.6E1,-8.8486E3,2.21E2,3.8E1,4.504392E1,-3.0350517E-5,-5.397722E-5,-1.542026E-4,-4.37632E-5,-4.8137274E-5,-2.5315134E-5,-1.2884076E-5,-8.520174E-5,-5.4812383E-5,5.931241E-5,1.7461166E-3,1.8051968E-4,-1.5702723E-4,-6.032086E-5,-3.9121296E-5,-7.501223E-5,-1.08193664E-4,-4.9737915E-5,8.0736115E-4,3.6469217E-5,2.5284917E-3,4.9446133E-4,9.95692E-4,3.7381997E-5,9.29466E-6,1.261205E-3,1.2859965E-4,1.147531E-5,-2.559113E-4,-1.0343427E-4,-4.170706E-5,-7.4275726E-5],"split_indices":[0,0,1,1,1,1,1,1,1,1,1,1,1,5,4,0,0,0,0,1,5,6,1,1,5,5,5,6,5,5,1,0,0,0,0,0,0,0,0,0,0,0,0,0,0,0,0,0,0,0,0,0,0,0,0,0,0,0,0,0,0,0,0],"split_type":[0,0,0,0,0,0,0,0,0,0,0,0,0,0,0,0,0,0,0,0,0,0,0,0,0,0,0,0,0,0,0,0,0,0,0,0,0,0,0,0,0,0,0,0,0,0,0,0,0,0,0,0,0,0,0,0,0,0,0,0,0,0,0],"sum_hessian":[2.3587384E8,1.5935422E8,7.6519624E7,8.297448E7,7.637974E7,4.75079E7,2.9011724E7,5.2865464E7,3.0109012E7,4.5672844E7,3.0706898E7,2.8937628E7,1.8570272E7,7.310937E6,2.1700786E7,2.8072128E7,2.4793336E7,2.432616E7,5.782852E6,3.0665188E7,1.5007656E7,8.526423E6,2.2180476E7,2.0001322E7,8.936306E6,1.2682675E7,5.887596E6,2.7472E4,7.283465E6,3.201191E6,1.8499596E7,2.1866644E7,6.205484E6,9.702183E6,1.5091154E7,5.207812E6,1.9118348E7,2.882808E6,2.900044E6,2.900358E7,1.661606E6,1.09665E5,1.4897991E7,3.125731E6,5.400692E6,1.4840889E7,7.339586E6,7.090796E6,1.2910526E7,1.02488E5,8.833818E6,1.97852E5,1.2484823E7,9.1963E4,5.795633E6,1.163E4,1.5842E4,7.07859E5,6.575606E6,1.58643E5,3.042548E6,9.139935E6,9.35966E6],"tree_param":{"num_deleted":"0","num_feature":"8","num_nodes":"63","size_leaf_vector":"1"}},{"base_weights":[-4.0226098E-8,3.249975E-4,-1.780599E-4,-5.547016E-4,5.1274046E-4,-5.1768853E-5,-4.228932E-4,-1.2724198E-3,-4.8537872E-4,1.1636554E-3,-1.6905581E-4,8.0007056E-5,-2.4735232E-4,-3.623537E-4,-7.8476407E-4,-1.8460328E-3,-6.734702E-4,-7.2541746E-4,-3.3969467E-4,5.514535E-3,1.0200673E-3,1.2338224E-4,-3.7036612E-4,-1.8971416E-4,6.052639E-4,-1.8398091E-4,-3.513292E-4,-4.3601228E-4,-1.912783E-4,-1.0232425E-3,-2.5078846E-4,-5.191691E-4,-2.4133633E-4,-1.475755E-4,-5.452218E-5,-1.3935017E-4,-8.169189E-5,-6.267934E-5,-3.5320376E-5,1.2586617E-3,5.9155904E-4,6.0248985E-5,2.5317125E-4,3.305745E-4,1.495062E-5,-3.9180006E-5,-8.458444E-5,-4.2981133E-5,9.4075895E-6,1.34207E-4,2.6399395E-5,-5.7249526E-5,-2.1693184E-5,-4.7992242E-5,-6.467114E-5,-2.8525414E-5,-8.220667E-5,-1.0621703E-5,-3.1386473E-5,-3.0138146E-5,-2.2003078E-4,-5.960488E-5,-2.1003412E-5],"categories":[],"categories_nodes":[],"categories_segments":[],"categories_sizes":[],"default_left":[0,0,0,0,0,0,0,0,0,0,0,0,0,0,0,0,0,0,0,0,0,0,0,0,0,0,0,0,0,0,0,0,0,0,0,0,0,0,0,0,0,0,0,0,0,0,0,0,0,0,0,0,0,0,0,0,0,0,0,0,0,0,0],"id":18,"left_children":[1,3,5,7,9,11,13,15,17,19,21,23,25,27,29,31,33,35,37,39,41,43,45,47,49,51,53,55,57,59,61,-1,-1,-1,-1,-1,-1,-1,-1,-1,-1,-1,-1,-1,-1,-1,-1,-1,-1,-1,-1,-1,-1,-1,-1,-1,-1,-1,-1,-1,-1,-1,-1],"loss_changes":[1.3647539E1,1.3784808E1,4.712072E0,7.3038626E-1,3.0526134E1,2.5911226E0,1.1360931E0,4.4423127E-1,4.6813583E-1,2.1984013E1,1.9777935E0,8.509696E0,2.6666188E-1,5.59824E-1,9.4644785E-1,2.529409E-1,6.0856044E-2,1.8610907E-1,6.7871094E-2,5.0797577E0,1.4066727E1,6.7570335E-1,4.2038345E-1,9.7002435E-1,2.532143E0,1.9564408E-1,3.838253E-2,8.553319E-1,2.8937548E-2,1.87429E0,3.725417E-2,0E0,0E0,0E0,0E0,0E0,0E0,0E0,0E0,0E0,0E0,0E0,0E0,0E0,0E0,0E0,0E0,0E0,0E0,0E0,0E0,0E0,0E0,0E0,0E0,0E0,0E0,0E0,0E0,0E0,0E0,0E0,0E0],"parents":[2147483647,0,0,1,1,2,2,3,3,4,4,5,5,6,6,7,7,8,8,9,9,10,10,11,11,12,12,13,13,14,14,15,15,16,16,17,17,18,18,19,19,20,20,21,21,22,22,23,23,24,24,25,25,26,26,27,27,28,28,29,29,30,30],"right_children":[2,4,6,8,10,12,14,16,18,20,22,24,26,28,30,32,34,36,38,40,42,44,46,48,50,52,54,56,58,60,62,-1,-1,-1,-1,-1,-1,-1,-1,-1,-1,-1,-1,-1,-1,-1,-1,-1,-1,-1,-1,-1,-1,-1,-1,-1,-1,-1,-1,-1,-1,-1,-1],"split_conditions":[6.45E0,-3.5054955E1,9.59E0,2.93E0,7.954432E0,7.954432E0,1.359E1,-6.0039845E1,-7.005129E1,2.23E0,2.4967848E1,-7.9888434E0,4.4957676E1,1.5017314E1,1.4942289E1,1.76E0,-4.504409E1,5.09E0,-4.99664E1,1.76E0,-7.9888434E0,1.76E0,6.996195E1,-1.7445581E1,1.0475972E0,2.98E1,8.995138E1,-2.9949564E1,1.9959385E1,-2.0049334E1,3.506124E1,-5.191691E-4,-2.4133633E-4,-1.475755E-4,-5.452218E-5,-1.3935017E-4,-8.169189E-5,-6.267934E-5,-3.5320376E-5,1.2586617E-3,5.9155904E-4,6.0248985E-5,2.5317125E-4,3.305745E-4,1.495062E-5,-3.9180006E-5,-8.458444E-5,-4.2981133E-5,9.4075895E-6,1.34207E-4,2.6399395E-5,-5.7249526E-5,-2.1693184E-5,-4.7992242E-5,-6.467114E-5,-2.8525414E-5,-8.220667E-5,-1.0621703E-5,-3.1386473E-5,-3.0138146E-5,-2.2003078E-4,-5.960488E-5,-2.1003412E-5],"split_indices":[7,1,7,7,1,1,7,1,1,7,1,1,1,1,1,7,1,7,1,7,1,7,1,1,1,4,1,1,1,1,1,0,0,0,0,0,0,0,0,0,0,0,0,0,0,0,0,0,0,0,0,0,0,0,0,0,0,0,0,0,0,0,0],"split_type":[0,0,0,0,0,0,0,0,0,0,0,0,0,0,0,0,0,0,0,0,0,0,0,0,0,0,0,0,0,0,0,0,0,0,0,0,0,0,0,0,0,0,0,0,0,0,0,0,0,0,0,0,0,0,0,0,0,0,0,0,0,0,0],"sum_hessian":[2.3585906E8,8.346474E7,1.5239432E8,1.4679874E7,6.878486E7,1.0053559E8,5.1858732E7,1.293007E6,1.3386867E7,3.5189364E7,3.3595496E7,6.0065788E7,4.04698E7,4.442638E7,7.432351E6,6.60472E5,6.32535E5,5.056099E6,8.330768E6,1.12422E6,3.4065144E7,1.3697504E7,1.9897994E7,3.968659E7,2.03792E7,2.5144712E7,1.532509E7,3.1055192E7,1.337119E7,5.137773E6,2.294578E6,8.4553E4,5.75919E5,3.16074E5,3.16461E5,2.378236E6,2.677863E6,4.760477E6,3.570291E6,3.97074E5,7.27146E5,1.7685902E7,1.6379241E7,1.54354E5,1.354315E7,1.272187E7,7.176124E6,2.868406E7,1.100253E7,1.2171874E7,8.207325E6,4.175153E6,2.0969558E7,1.1000031E7,4.325059E6,9.721776E6,2.1333416E7,1.735233E6,1.1635957E7,1.800439E6,3.337334E6,9.87632E5,1.306946E6],"tree_param":{"num_deleted":"0","num_feature":"8","num_nodes":"63","size_leaf_vector":"1"}},{"base_weights":[7.69747E-8,3.6641405E-4,-1.21288496E-4,-4.6981956E-4,5.7455583E-4,-8.171371E-6,-3.3637416E-4,-7.591914E-4,-2.3222365E-4,1.285068E-3,-1.2806189E-4,1.21130724E-4,-2.0009554E-4,-2.660967E-4,-5.74982E-4,-1.96282E-3,-6.785226E-4,-3.4332E-4,-6.071079E-5,7.5655403E-3,1.182515E-3,2.0239614E-4,-3.0561458E-4,-1.3566796E-4,6.2125735E-4,-1.3052158E-4,-3.0970227E-4,-3.9692008E-4,-2.3166643E-4,-7.5369014E-4,-1.7468388E-4,-4.7921887E-4,-1.8126178E-4,-1.2873774E-4,-7.6698765E-5,-1.6148243E-4,-4.6806083E-5,-1.9299807E-5,-1.0491668E-7,2.0832652E-3,1.3113298E-4,7.426534E-5,2.6226635E-4,1.7208718E-4,-1.1155896E-5,-2.6164587E-5,-7.164549E-5,-3.781405E-5,1.40679895E-5,1.4631194E-4,4.378823E-5,-3.1240997E-5,-8.5164316E-7,-4.0233805E-5,-5.577646E-5,-7.201499E-5,-3.1607906E-5,-4.6343685E-5,-2.7064243E-5,-1.43447505E-5,-1.5879009E-4,-3.884933E-5,-1.3230966E-5],"categories":[],"categories_nodes":[],"categories_segments":[],"categories_sizes":[],"default_left":[0,0,0,0,0,0,0,0,0,0,0,0,0,0,0,0,0,0,0,0,0,0,0,0,0,0,0,0,0,0,0,0,0,0,0,0,0,0,0,0,0,0,0,0,0,0,0,0,0,0,0,0,0,0,0,0,0,0,0,0,0,0,0],"id":19,"left_children":[1,3,5,7,9,11,13,15,17,19,21,23,25,27,29,31,33,35,37,39,41,43,45,47,49,51,53,55,57,59,61,-1,-1,-1,-1,-1,-1,-1,-1,-1,-1,-1,-1,-1,-1,-1,-1,-1,-1,-1,-1,-1,-1,-1,-1,-1,-1,-1,-1,-1,-1,-1,-1],"loss_changes":[1.0487479E1,1.0216969E1,4.3108287E0,8.043275E-1,2.3463718E1,2.8815448E0,1.0240183E0,5.121412E-1,1.2240708E-1,1.5051636E1,1.3865619E0,8.910078E0,3.564254E-1,2.1248078E-1,9.939246E-1,3.0791724E-1,1.4854789E-1,8.941656E-2,1.0298546E-2,1.5885183E1,8.945137E0,2.159886E0,3.4689963E-1,1.2245634E0,2.745247E0,2.7752882E-1,4.67757E-2,1.5222394E-1,1.478951E-1,1.9273605E0,3.126633E-2,0E0,0E0,0E0,0E0,0E0,0E0,0E0,0E0,0E0,0E0,0E0,0E0,0E0,0E0,0E0,0E0,0E0,0E0,0E0,0E0,0E0,0E0,0E0,0E0,0E0,0E0,0E0,0E0,0E0,0E0,0E0,0E0],"parents":[2147483647,0,0,1,1,2,2,3,3,4,4,5,5,6,6,7,7,8,8,9,9,10,10,11,11,12,12,13,13,14,14,15,15,16,16,17,17,18,18,19,19,20,20,21,21,22,22,23,23,24,24,25,25,26,26,27,27,28,28,29,29,30,30],"right_children":[2,4,6,8,10,12,14,16,18,20,22,24,26,28,30,32,34,36,38,40,42,44,46,48,50,52,54,56,58,60,62,-1,-1,-1,-1,-1,-1,-1,-1,-1,-1,-1,-1,-1,-1,-1,-1,-1,-1,-1,-1,-1,-1,-1,-1,-1,-1,-1,-1,-1,-1,-1,-1],"split_conditions":[5.67E0,-3.0039852E1,9.24E0,-6.0039845E1,7.954432E0,7.954432E0,1.242E1,2.42E0,-4.0034054E1,1.76E0,1.9959385E1,-7.9888434E0,4.003401E1,-8.8692E3,1.4942289E1,2.09E2,4.54E0,4.6E1,-2.7523E3,4.6E1,-8.95934E0,2.29E2,5.0031025E1,-1.995894E1,-9.724491E-1,1.116E3,7.9969154E1,1.4942289E1,-7.968169E0,-2.9949564E1,4.4957676E1,-4.7921887E-4,-1.8126178E-4,-1.2873774E-4,-7.6698765E-5,-1.6148243E-4,-4.6806083E-5,-1.9299807E-5,-1.0491668E-7,2.0832652E-3,1.3113298E-4,7.426534E-5,2.6226635E-4,1.7208718E-4,-1.1155896E-5,-2.6164587E-5,-7.164549E-5,-3.781405E-5,1.40679895E-5,1.4631194E-4,4.378823E-5,-3.1240997E-5,-8.5164316E-7,-4.0233805E-5,-5.577646E-5,-7.201499E-5,-3.1607906E-5,-4.6343685E-5,-2.7064243E-5,-1.43447505E-5,-1.5879009E-4,-3.884933E-5,-1.3230966E-5],"split_indices":[7,1,7,1,1,1,7,7,1,7,1,1,1,6,1,5,7,5,6,5,1,5,1,1,1,5,1,1,1,1,1,0,0,0,0,0,0,0,0,0,0,0,0,0,0,0,0,0,0,0,0,0,0,0,0,0,0,0,0,0,0,0,0],"split_type":[0,0,0,0,0,0,0,0,0,0,0,0,0,0,0,0,0,0,0,0,0,0,0,0,0,0,0,0,0,0,0,0,0,0,0,0,0,0,0,0,0,0,0,0,0,0,0,0,0,0,0,0,0,0,0,0,0,0,0,0,0,0,0],"sum_hessian":[2.3588214E8,5.869961E7,1.7718254E8,1.1698705E7,4.7000904E7,1.1611548E8,6.106706E7,5.274637E6,6.424068E6,2.3369164E7,2.3631738E7,6.937592E7,4.673956E7,4.717311E7,1.3893949E7,3.31307E5,4.94333E6,3.898706E6,2.525362E6,3.7546E5,2.2993704E7,8.259429E6,1.5372309E7,4.583906E7,2.353686E7,2.8591084E7,1.8148476E7,9.828424E6,3.734469E7,9.605633E6,4.288316E6,1.25826E5,2.05481E5,2.382384E6,2.560946E6,1.59512E5,3.739194E6,1.184302E6,1.34106E6,1.93044E5,1.82416E5,1.0382469E7,1.2611235E7,1.871245E6,6.388184E6,8.721383E6,6.650926E6,3.0409312E7,1.5429747E7,1.134108E7,1.219578E7,1.7618462E7,1.0972623E7,1.0883864E7,7.264612E6,6.793584E6,3.03484E6,1.4887406E7,2.2457282E7,3.041488E6,6.564145E6,2.171347E6,2.116969E6],"tree_param":{"num_deleted":"0","num_feature":"8","num_nodes":"63","size_leaf_vector":"1"}},{"base_weights":[-4.671271E-8,-1.3602262E-4,5.461012E-4,-2.4442677E-4,6.838382E-5,9.861854E-4,-1.8702396E-4,-1.373046E-4,-2.952328E-4,3.8994625E-4,-3.6108372E-4,-9.113969E-5,2.879241E-3,1.6061182E-4,-3.2863911E-4,-2.6091284E-4,-1.1686072E-4,-4.5294152E-4,-1.4480374E-4,-3.1194484E-4,2.2318973E-3,-7.533087E-4,-2.462044E-4,-2.9870553E-4,5.315453E-4,4.5109857E-3,8.38215E-4,2.9578018E-3,1.5003646E-4,-1.3969487E-3,-3.163029E-4,1.8997174E-5,-6.4343534E-5,2.160159E-6,-1.9733154E-5,-1.4345231E-4,-3.477445E-5,-1.955724E-5,-4.235868E-5,-3.247827E-5,-1.05140636E-4,1.8621442E-3,3.1052151E-4,-1.7911829E-4,-5.9561058E-5,-7.531457E-5,-3.128693E-5,-5.835233E-5,-5.62219E-6,6.137799E-4,6.917493E-5,3.6402122E-4,1.00413E-3,1.5555209E-3,1.1516904E-4,-6.0449533E-5,8.202086E-4,1.37921525E-5,9.216416E-5,-4.1416285E-4,-1.412534E-4,-7.336956E-5,-4.009682E-5],"categories":[],"categories_nodes":[],"categories_segments":[],"categories_sizes":[],"default_left":[0,0,0,0,0,0,0,0,0,0,0,0,0,0,0,0,0,0,0,0,0,0,0,0,0,0,0,0,0,0,0,0,0,0,0,0,0,0,0,0,0,0,0,0,0,0,0,0,0,0,0,0,0,0,0,0,0,0,0,0,0,0,0],"id":20,"left_children":[1,3,5,7,9,11,13,15,17,19,21,23,25,27,29,31,33,35,37,39,41,43,45,47,49,51,53,55,57,59,61,-1,-1,-1,-1,-1,-1,-1,-1,-1,-1,-1,-1,-1,-1,-1,-1,-1,-1,-1,-1,-1,-1,-1,-1,-1,-1,-1,-1,-1,-1,-1,-1],"loss_changes":[1.7517857E1,4.185009E0,1.5171257E1,6.716819E-1,9.038908E0,5.9926685E1,8.6836445E-1,1.0033107E-1,1.9859853E0,4.8388393E1,1.2627151E0,2.4203918E0,3.5493217E1,1.5102956E-1,1.6517258E-1,3.669702E-1,6.570822E-2,4.5489054E0,8.501738E-2,1.0059488E0,1.700893E1,9.969282E-1,2.0868874E-1,3.3133686E-1,1.1731144E0,2.694825E1,3.1782465E0,1.622354E-1,1.372092E-1,8.8850886E-2,1.049062E-1,0E0,0E0,0E0,0E0,0E0,0E0,0E0,0E0,0E0,0E0,0E0,0E0,0E0,0E0,0E0,0E0,0E0,0E0,0E0,0E0,0E0,0E0,0E0,0E0,0E0,0E0,0E0,0E0,0E0,0E0,0E0,0E0],"parents":[2147483647,0,0,1,1,2,2,3,3,4,4,5,5,6,6,7,7,8,8,9,9,10,10,11,11,12,12,13,13,14,14,15,15,16,16,17,17,18,18,19,19,20,20,21,21,22,22,23,23,24,24,25,25,26,26,27,27,28,28,29,29,30,30],"right_children":[2,4,6,8,10,12,14,16,18,20,22,24,26,28,30,32,34,36,38,40,42,44,46,48,50,52,54,56,58,60,62,-1,-1,-1,-1,-1,-1,-1,-1,-1,-1,-1,-1,-1,-1,-1,-1,-1,-1,-1,-1,-1,-1,-1,-1,-1,-1,-1,-1,-1,-1,-1,-1],"split_conditions":[-4.4604287E0,-9.464394E0,1.3942124E1,-1.2469678E1,5.9626637E0,-1.00386E1,2.4967848E1,-8.003129E1,9.9588785E0,-6.044609E0,1.0050658E1,-1.8025904E1,7.954432E0,2.9E1,4.6E1,-4.005113E1,2.21E2,-2.505364E1,-1.0042502E1,-1.00386E1,5.6E1,-3.815E3,1.01E1,-3.0039852E1,6.6E1,-7.9888434E0,3.8E1,-8.8486E3,-1.2717E3,9E-1,2.03E1,1.8997174E-5,-6.4343534E-5,2.160159E-6,-1.9733154E-5,-1.4345231E-4,-3.477445E-5,-1.955724E-5,-4.235868E-5,-3.247827E-5,-1.05140636E-4,1.8621442E-3,3.1052151E-4,-1.7911829E-4,-5.9561058E-5,-7.531457E-5,-3.128693E-5,-5.835233E-5,-5.62219E-6,6.137799E-4,6.917493E-5,3.6402122E-4,1.00413E-3,1.5555209E-3,1.1516904E-4,-6.0449533E-5,8.202086E-4,1.37921525E-5,9.216416E-5,-4.1416285E-4,-1.412534E-4,-7.336956E-5,-4.009682E-5],"split_indices":[0,0,1,1,1,1,1,1,1,1,1,1,1,5,5,0,5,0,0,1,5,6,4,1,5,1,5,6,6,4,4,0,0,0,0,0,0,0,0,0,0,0,0,0,0,0,0,0,0,0,0,0,0,0,0,0,0,0,0,0,0,0,0],"split_type":[0,0,0,0,0,0,0,0,0,0,0,0,0,0,0,0,0,0,0,0,0,0,0,0,0,0,0,0,0,0,0,0,0,0,0,0,0,0,0,0,0,0,0,0,0,0,0,0,0,0,0,0,0,0,0,0,0,0,0,0,0,0,0],"sum_hessian":[2.3588958E8,1.8886688E8,4.7022696E7,1.2341528E8,6.545161E7,2.9383944E7,1.763875E7,3.970311E7,8.371217E7,3.7427724E7,2.8023884E7,1.8726704E7,1.065724E7,5.105589E6,1.2533161E7,5.634663E6,3.406845E7,4.086725E7,4.284492E7,2.7100752E7,1.0326971E7,6.348525E6,2.167536E7,1.4044958E7,4.681746E6,5.922423E6,4.734817E6,1.9229E4,5.08636E6,1.43072E5,1.2390089E7,1.704218E6,3.930445E6,3.429739E6,3.0638708E7,1.2472043E7,2.8395208E7,3.8779948E7,4.064973E6,2.1762288E7,5.338463E6,1.61484E5,1.0165487E7,2.837427E6,3.511098E6,2.778478E6,1.889688E7,1.0436775E7,3.608183E6,9.0752E4,4.590994E6,3.029936E6,2.892487E6,3.4723E4,4.700094E6,8.222E3,1.1007E4,4.520865E6,5.65495E5,3.5799E4,1.07273E5,2.736474E6,9.653615E6],"tree_param":{"num_deleted":"0","num_feature":"8","num_nodes":"63","size_leaf_vector":"1"}},{"base_weights":[-2.764703E-8,-1.3339668E-4,4.083114E-4,2.0688116E-4,-1.7148758E-4,-1.9907326E-4,7.2310463E-4,-2.9513214E-4,6.4613775E-4,-2.1286415E-4,1.3418363E-4,-3.2563577E-4,3.3679673E-5,2.538853E-3,-6.2412337E-6,-9.107845E-4,-1.8199823E-4,1.146181E-3,-1.7395505E-4,-3.288635E-4,-1.4954408E-4,-1.453639E-4,5.214826E-4,-1.589125E-3,-3.0558126E-4,7.984807E-4,-5.2008272E-5,1.2497394E-3,4.8985514E-3,4.1750626E-4,-2.5049687E-4,-2.5110863E-4,-4.4922468E-5,-6.0702583E-5,-5.0437475E-6,9.22887E-6,4.388614E-4,7.206609E-6,-6.452433E-5,-5.9557653E-5,-2.5073276E-5,-3.2079683E-5,1.2164379E-6,-5.0227765E-5,4.646443E-6,1.393715E-4,-1.566689E-5,-3.4591317E-4,-1.07847016E-4,-6.730602E-5,-3.5104647E-5,5.867706E-4,1.0164442E-4,-3.0197272E-5,5.1551968E-5,5.49915E-4,1.4682095E-4,4.953691E-4,1.3225445E-3,5.497451E-4,5.2986925E-5,-1.2565882E-5,-4.690263E-5],"categories":[],"categories_nodes":[],"categories_segments":[],"categories_sizes":[],"default_left":[0,0,0,0,0,0,0,0,0,0,0,0,0,0,0,0,0,0,0,0,0,0,0,0,0,0,0,0,0,0,0,0,0,0,0,0,0,0,0,0,0,0,0,0,0,0,0,0,0,0,0,0,0,0,0,0,0,0,0,0,0,0,0],"id":21,"left_children":[1,3,5,7,9,11,13,15,17,19,21,23,25,27,29,31,33,35,37,39,41,43,45,47,49,51,53,55,57,59,61,-1,-1,-1,-1,-1,-1,-1,-1,-1,-1,-1,-1,-1,-1,-1,-1,-1,-1,-1,-1,-1,-1,-1,-1,-1,-1,-1,-1,-1,-1,-1,-1],"loss_changes":[1.2846017E1,2.30464E0,1.1103797E1,3.947187E0,2.0224395E0,5.8397365E-1,5.06548E1,5.8181727E-1,3.9149466E0,1.0344958E0,2.0641143E0,3.253833E-1,4.5760474E-1,3.33433E1,2.8244572E0,6.0504234E-1,2.3315336E-1,1.1447332E1,2.0567745E-1,5.483818E-1,9.238751E-1,3.6998567E-1,2.039319E0,1.2516868E-1,1.2944973E-1,2.6469415E-1,3.7096667E-1,4.640764E0,2.4219658E1,2.0822573E0,1.794784E-1,0E0,0E0,0E0,0E0,0E0,0E0,0E0,0E0,0E0,0E0,0E0,0E0,0E0,0E0,0E0,0E0,0E0,0E0,0E0,0E0,0E0,0E0,0E0,0E0,0E0,0E0,0E0,0E0,0E0,0E0,0E0,0E0],"parents":[2147483647,0,0,1,1,2,2,3,3,4,4,5,5,6,6,7,7,8,8,9,9,10,10,11,11,12,12,13,13,14,14,15,15,16,16,17,17,18,18,19,19,20,20,21,21,22,22,23,23,24,24,25,25,26,26,27,27,28,28,29,29,30,30],"right_children":[2,4,6,8,10,12,14,16,18,20,22,24,26,28,30,32,34,36,38,40,42,44,46,48,50,52,54,56,58,60,62,-1,-1,-1,-1,-1,-1,-1,-1,-1,-1,-1,-1,-1,-1,-1,-1,-1,-1,-1,-1,-1,-1,-1,-1,-1,-1,-1,-1,-1,-1,-1,-1],"split_conditions":[-5.446103E0,2.21E2,-1.5951352E1,-1.4047009E1,-1.2827E3,-3.0039852E1,7.954432E0,5.6E1,7.0010624E0,-5.3258E3,-1.105813E1,5.6E1,2.21E2,-7.968169E0,1.8032436E1,-3.998243E1,-4.005113E1,-6.9737554E0,3.496388E1,1.4942289E1,-9.017503E0,-2.505364E1,6.945779E0,-5.994909E1,-7.005129E1,2.9E1,-1.8687E3,2.21E2,-2.4485638E0,6.6E1,3.496388E1,-2.5110863E-4,-4.4922468E-5,-6.0702583E-5,-5.0437475E-6,9.22887E-6,4.388614E-4,7.206609E-6,-6.452433E-5,-5.9557653E-5,-2.5073276E-5,-3.2079683E-5,1.2164379E-6,-5.0227765E-5,4.646443E-6,1.393715E-4,-1.566689E-5,-3.4591317E-4,-1.07847016E-4,-6.730602E-5,-3.5104647E-5,5.867706E-4,1.0164442E-4,-3.0197272E-5,5.1551968E-5,5.49915E-4,1.4682095E-4,4.953691E-4,1.3225445E-3,5.497451E-4,5.2986925E-5,-1.2565882E-5,-4.690263E-5],"split_indices":[0,5,1,0,6,1,1,5,1,6,0,5,5,1,1,0,0,1,1,1,0,0,1,1,1,5,6,5,0,5,1,0,0,0,0,0,0,0,0,0,0,0,0,0,0,0,0,0,0,0,0,0,0,0,0,0,0,0,0,0,0,0,0],"split_type":[0,0,0,0,0,0,0,0,0,0,0,0,0,0,0,0,0,0,0,0,0,0,0,0,0,0,0,0,0,0,0,0,0,0,0,0,0,0,0,0,0,0,0,0,0,0,0,0,0,0,0,0,0,0,0,0,0,0,0,0,0,0,0],"sum_hessian":[2.3588078E8,1.7780672E8,5.807407E7,1.7900048E7,1.5990667E8,1.9824076E7,3.824999E7,8.353304E6,9.546743E6,1.4084189E8,1.9064776E7,1.2841396E7,6.982681E6,1.0961273E7,2.728872E7,1.296733E6,7.056571E6,5.930612E6,3.616131E6,4.973314E7,9.110875E7,1.1072665E7,7.99211E6,2.00637E5,1.2640759E7,7.03514E5,6.279167E6,7.088691E6,3.872582E6,9.978133E6,1.7310588E7,5.76683E5,7.2005E5,2.821671E6,4.2349E6,3.684739E6,2.245873E6,1.937404E6,1.678727E6,3.4982204E7,1.4750935E7,6.470858E7,2.6400176E7,5.337359E6,5.735306E6,4.83992E6,3.15219E6,1.1E5,9.0637E4,4.213095E6,8.427664E6,2.6287E4,6.77227E5,4.558926E6,1.720241E6,7.14681E5,6.37401E6,2.751722E6,1.12086E6,1.93613E5,9.78452E6,4.702683E6,1.2607905E7],"tree_param":{"num_deleted":"0","num_feature":"8","num_nodes":"63","size_leaf_vector":"1"}},{"base_weights":[-1.5680437E-8,-9.282289E-5,4.468145E-4,-1.0519103E-5,-2.5477447E-4,1.4977917E-3,2.0516894E-4,-1.7355657E-4,2.7506618E-4,-8.94761E-5,-3.2008276E-4,4.560443E-3,1.3007155E-3,4.6281205E-4,-1.7418493E-4,-3.133801E-4,-8.020664E-5,2.7226126E-3,2.326191E-4,-6.468847E-5,-1.7121472E-4,-2.4231321E-4,-5.6070363E-4,6.441093E-3,3.5316632E-3,2.0345587E-3,1.1416726E-3,6.896522E-4,3.6210514E-4,-4.1266307E-5,-4.394574E-4,-3.7689283E-4,-4.5003693E-5,1.0415822E-4,-1.4044505E-5,6.3629646E-4,2.837515E-4,2.3829778E-5,1.0318148E-4,-2.6408054E-5,-8.138333E-6,-3.823378E-5,-2.22378E-5,-8.062124E-5,-3.3269986E-5,-4.907695E-5,-1.0457643E-4,7.04365E-4,1.2133766E-3,4.4692055E-4,6.4464903E-4,2.4923283E-4,3.826018E-4,1.5855792E-4,2.9797692E-4,9.111944E-5,1.9045558E-4,2.2547905E-5,6.602115E-5,-1.930606E-5,1.1051413E-5,-5.4120068E-5,-1.1929363E-4],"categories":[],"categories_nodes":[],"categories_segments":[],"categories_sizes":[],"default_left":[0,0,0,0,0,0,0,0,0,0,0,0,0,0,0,0,0,0,0,0,0,0,0,0,0,0,0,0,0,0,0,0,0,0,0,0,0,0,0,0,0,0,0,0,0,0,0,0,0,0,0,0,0,0,0,0,0,0,0,0,0,0,0],"id":22,"left_children":[1,3,5,7,9,11,13,15,17,19,21,23,25,27,29,31,33,35,37,39,41,43,45,47,49,51,53,55,57,59,61,-1,-1,-1,-1,-1,-1,-1,-1,-1,-1,-1,-1,-1,-1,-1,-1,-1,-1,-1,-1,-1,-1,-1,-1,-1,-1,-1,-1,-1,-1,-1,-1],"loss_changes":[9.781668E0,2.6033597E0,1.0302447E1,6.0296683E0,7.1046305E-1,4.5772705E0,3.2236876E0,1.0760167E0,4.8893948E0,3.776273E-2,8.8276386E-1,8.870487E-1,8.315878E-1,4.4872093E-1,4.703803E-1,9.6937466E-1,5.1399934E-1,1.012866E0,1.5532856E0,1.6616024E-2,8.333117E-3,2.1585941E-1,3.6722088E-1,4.662938E-1,1.2534428E-1,2.4432516E-1,4.1864252E-1,2.8791428E-1,2.2481966E-1,8.932355E-2,1.24637306E-1,0E0,0E0,0E0,0E0,0E0,0E0,0E0,0E0,0E0,0E0,0E0,0E0,0E0,0E0,0E0,0E0,0E0,0E0,0E0,0E0,0E0,0E0,0E0,0E0,0E0,0E0,0E0,0E0,0E0,0E0,0E0,0E0],"parents":[2147483647,0,0,1,1,2,2,3,3,4,4,5,5,6,6,7,7,8,8,9,9,10,10,11,11,12,12,13,13,14,14,15,15,16,16,17,17,18,18,19,19,20,20,21,21,22,22,23,23,24,24,25,25,26,26,27,27,28,28,29,29,30,30],"right_children":[2,4,6,8,10,12,14,16,18,20,22,24,26,28,30,32,34,36,38,40,42,44,46,48,50,52,54,56,58,60,62,-1,-1,-1,-1,-1,-1,-1,-1,-1,-1,-1,-1,-1,-1,-1,-1,-1,-1,-1,-1,-1,-1,-1,-1,-1,-1,-1,-1,-1,-1,-1,-1],"split_conditions":[-3.5393972E0,8.56E0,5.14E0,-9.063805E0,-2.2551098E1,2.23E0,8.62E0,-2.505364E1,2.23E0,-2.7523E3,1.175E1,1.76E0,3.23E0,6.31E0,1.112E1,1.76E0,2.23E0,1.76E0,-1.2335E3,8.9E0,8.9E0,1.98E1,-1.0998265E1,-3.815E3,-1.5E0,-1.5E0,-4.3764552E-1,8.21E1,3.8E1,-1.5087835E0,1.424E1,-3.7689283E-4,-4.5003693E-5,1.0415822E-4,-1.4044505E-5,6.3629646E-4,2.837515E-4,2.3829778E-5,1.0318148E-4,-2.6408054E-5,-8.138333E-6,-3.823378E-5,-2.22378E-5,-8.062124E-5,-3.3269986E-5,-4.907695E-5,-1.0457643E-4,7.04365E-4,1.2133766E-3,4.4692055E-4,6.4464903E-4,2.4923283E-4,3.826018E-4,1.5855792E-4,2.9797692E-4,9.111944E-5,1.9045558E-4,2.2547905E-5,6.602115E-5,-1.930606E-5,1.1051413E-5,-5.4120068E-5,-1.1929363E-4],"split_indices":[0,7,7,0,0,7,7,0,7,6,7,7,7,7,7,7,7,7,6,7,7,4,0,6,0,0,0,4,4,0,7,0,0,0,0,0,0,0,0,0,0,0,0,0,0,0,0,0,0,0,0,0,0,0,0,0,0,0,0,0,0,0,0],"split_type":[0,0,0,0,0,0,0,0,0,0,0,0,0,0,0,0,0,0,0,0,0,0,0,0,0,0,0,0,0,0,0,0,0,0,0,0,0,0,0,0,0,0,0,0,0,0,0,0,0,0,0,0,0,0,0,0,0,0,0,0,0,0,0],"sum_hessian":[2.3587867E8,1.953121E8,4.0566576E7,1.2950013E8,6.581196E7,7.583598E6,3.298298E7,8.243749E7,4.7062644E7,1.8638084E7,4.717388E7,4.58487E5,7.125111E6,1.9642512E7,1.3340468E7,3.3003468E7,4.9434016E7,8.02279E5,4.6260364E7,1.4301182E7,4.336901E6,3.5651264E7,1.1522616E7,1.6212E5,2.96367E5,1.269139E6,5.855972E6,6.039243E6,1.3603268E7,8.887339E6,4.453129E6,1.99212E5,3.2804256E7,8.42076E5,4.859194E7,2.8364E5,5.18639E5,3.981082E7,6.449545E6,1.225002E6,1.307618E7,9.33861E5,3.40304E6,2.316702E6,3.333456E7,4.250097E6,7.272519E6,7.8739E4,8.3381E4,1.72221E5,1.24146E5,7.36712E5,5.32427E5,5.322835E6,5.33137E5,5.289727E6,7.49516E5,3.662746E6,9.940522E6,5.047515E6,3.839824E6,3.646969E6,8.0616E5],"tree_param":{"num_deleted":"0","num_feature":"8","num_nodes":"63","size_leaf_vector":"1"}},{"base_weights":[-8.069522E-8,3.1426287E-4,-7.42911E-5,-4.968753E-4,4.873662E-4,1.6567743E-5,-2.06944E-4,-1.4097705E-3,-4.3945675E-4,1.1517135E-3,-3.545224E-5,1.256428E-4,-1.1084001E-4,-1.7881255E-4,-5.1373703E-4,-2.3942306E-3,-8.2381803E-4,-6.3543074E-4,-2.5212768E-4,4.849179E-4,2.1648298E-3,2.5686465E-4,-2.57945E-4,-7.44235E-5,7.1660726E-4,-2.8333394E-4,-7.43757E-5,-1.8828832E-5,-2.129578E-4,4.982197E-5,-6.7158276E-4,-4.678146E-4,-1.8017595E-4,-2.1806524E-4,-6.621223E-5,-1.378562E-4,-8.181177E-5,-5.1877174E-5,-2.248054E-5,1.986895E-4,3.2490294E-5,1.0335358E-3,2.8013292E-4,1.8892979E-4,-1.1067149E-5,-2.022143E-4,-3.5195764E-5,-3.056258E-5,7.1406266E-6,1.4198027E-4,2.4222496E-5,-8.07236E-5,-2.7656448E-5,3.727688E-6,-2.6554277E-5,-1.1369375E-5,1.3815116E-5,-4.416724E-5,-1.1545101E-5,2.2113409E-5,-2.6077294E-5,-1.6410505E-4,-1.5108017E-5],