{"learner":{"attributes":{"best_iteration":"999","best_score":"0.00090017399323811","scikit_learn":"{\"_estimator_type\": \"regressor\"}"},"feature_names":[],"feature_types":[],"gradient_booster":{"model":{"gbtree_model_param":{"num_parallel_tree":"1","num_trees":"1000"},"iteration_indptr":[0,1,2,3,4,5,6,7,8,9,10,11,12,13,14,15,16,17,18,19,20,21,22,23,24,25,26,27,28,29,30,31,32,33,34,35,36,37,38,39,40,41,42,43,44,45,46,47,48,49,50,51,52,53,54,55,56,57,58,59,60,61,62,63,64,65,66,67,68,69,70,71,72,73,74,75,76,77,78,79,80,81,82,83,84,85,86,87,88,89,90,91,92,93,94,95,96,97,98,99,100,101,102,103,104,105,106,107,108,109,110,111,112,113,114,115,116,117,118,119,120,121,122,123,124,125,126,127,128,129,130,131,132,133,134,135,136,137,138,139,140,141,142,143,144,145,146,147,148,149,150,151,152,153,154,155,156,157,158,159,160,161,162,163,164,165,166,167,168,169,170,171,172,173,174,175,176,177,178,179,180,181,182,183,184,185,186,187,188,189,190,191,192,193,194,195,196,197,198,199,200,201,202,203,204,205,206,207,208,209,210,211,212,213,214,215,216,217,218,219,220,221,222,223,224,225,226,227,228,229,230,231,232,233,234,235,236,237,238,239,240,241,242,243,244,245,246,247,248,249,250,251,252,253,254,255,256,257,258,259,260,261,262,263,264,265,266,267,268,269,270,271,272,273,274,275,276,277,278,279,280,281,282,283,284,285,286,287,288,289,290,291,292,293,294,295,296,297,298,299,300,301,302,303,304,305,306,307,308,309,310,311,312,313,314,315,316,317,318,319,320,321,322,323,324,325,326,327,328,329,330,331,332,333,334,335,336,337,338,339,340,341,342,343,344,345,346,347,348,349,350,351,352,353,354,355,356,357,358,359,360,361,362,363,364,365,366,367,368,369,370,371,372,373,374,375,376,377,378,379,380,381,382,383,384,385,386,387,388,389,390,391,392,393,394,395,396,397,398,399,400,401,402,403,404,405,406,407,408,409,410,411,412,413,414,415,416,417,418,419,420,421,422,423,424,425,426,427,428,429,430,431,432,433,434,435,436,437,438,439,440,441,442,443,444,445,446,447,448,449,450,451,452,453,454,455,456,457,458,459,460,461,462,463,464,465,466,467,468,469,470,471,472,473,474,475,476,477,478,479,480,481,482,483,484,485,486,487,488,489,490,491,492,493,494,495,496,497,498,499,500,501,502,503,504,505,506,507,508,509,510,511,512,513,514,515,516,517,518,519,520,521,522,523,524,525,526,527,528,529,530,531,532,533,534,535,536,537,538,539,540,541,542,543,544,545,546,547,548,549,550,551,552,553,554,555,556,557,558,559,560,561,562,563,564,565,566,567,568,569,570,571,572,573,574,575,576,577,578,579,580,581,582,583,584,585,586,587,588,589,590,591,592,593,594,595,596,597,598,599,600,601,602,603,604,605,606,607,608,609,610,611,612,613,614,615,616,617,618,619,620,621,622,623,624,625,626,627,628,629,630,631,632,633,634,635,636,637,638,639,640,641,642,643,644,645,646,647,648,649,650,651,652,653,654,655,656,657,658,659,660,661,662,663,664,665,666,667,668,669,670,671,672,673,674,675,676,677,678,679,680,681,682,683,684,685,686,687,688,689,690,691,692,693,694,695,696,697,698,699,700,701,702,703,704,705,706,707,708,709,710,711,712,713,714,715,716,717,718,719,720,721,722,723,724,725,726,727,728,729,730,731,732,733,734,735,736,737,738,739,740,741,742,743,744,745,746,747,748,749,750,751,752,753,754,755,756,757,758,759,760,761,762,763,764,765,766,767,768,769,770,771,772,773,774,775,776,777,778,779,780,781,782,783,784,785,786,787,788,789,790,791,792,793,794,795,796,797,798,799,800,801,802,803,804,805,806,807,808,809,810,811,812,813,814,815,816,817,818,819,820,821,822,823,824,825,826,827,828,829,830,831,832,833,834,835,836,837,838,839,840,841,842,843,844,845,846,847,848,849,850,851,852,853,854,855,856,857,858,859,860,861,862,863,864,865,866,867,868,869,870,871,872,873,874,875,876,877,878,879,880,881,882,883,884,885,886,887,888,889,890,891,892,893,894,895,896,897,898,899,900,901,902,903,904,905,906,907,908,909,910,911,912,913,914,915,916,917,918,919,920,921,922,923,924,925,926,927,928,929,930,931,932,933,934,935,936,937,938,939,940,941,942,943,944,945,946,947,948,949,950,951,952,953,954,955,956,957,958,959,960,961,962,963,964,965,966,967,968,969,970,971,972,973,974,975,976,977,978,979,980,981,982,983,984,985,986,987,988,989,990,991,992,993,994,995,996,997,998,999,1000],"tree_info":[0,0,0,0,0,0,0,0,0,0,0,0,0,0,0,0,0,0,0,0,0,0,0,0,0,0,0,0,0,0,0,0,0,0,0,0,0,0,0,0,0,0,0,0,0,0,0,0,0,0,0,0,0,0,0,0,0,0,0,0,0,0,0,0,0,0,0,0,0,0,0,0,0,0,0,0,0,0,0,0,0,0,0,0,0,0,0,0,0,0,0,0,0,0,0,0,0,0,0,0,0,0,0,0,0,0,0,0,0,0,0,0,0,0,0,0,0,0,0,0,0,0,0,0,0,0,0,0,0,0,0,0,0,0,0,0,0,0,0,0,0,0,0,0,0,0,0,0,0,0,0,0,0,0,0,0,0,0,0,0,0,0,0,0,0,0,0,0,0,0,0,0,0,0,0,0,0,0,0,0,0,0,0,0,0,0,0,0,0,0,0,0,0,0,0,0,0,0,0,0,0,0,0,0,0,0,0,0,0,0,0,0,0,0,0,0,0,0,0,0,0,0,0,0,0,0,0,0,0,0,0,0,0,0,0,0,0,0,0,0,0,0,0,0,0,0,0,0,0,0,0,0,0,0,0,0,0,0,0,0,0,0,0,0,0,0,0,0,0,0,0,0,0,0,0,0,0,0,0,0,0,0,0,0,0,0,0,0,0,0,0,0,0,0,0,0,0,0,0,0,0,0,0,0,0,0,0,0,0,0,0,0,0,0,0,0,0,0,0,0,0,0,0,0,0,0,0,0,0,0,0,0,0,0,0,0,0,0,0,0,0,0,0,0,0,0,0,0,0,0,0,0,0,0,0,0,0,0,0,0,0,0,0,0,0,0,0,0,0,0,0,0,0,0,0,0,0,0,0,0,0,0,0,0,0,0,0,0,0,0,0,0,0,0,0,0,0,0,0,0,0,0,0,0,0,0,0,0,0,0,0,0,0,0,0,0,0,0,0,0,0,0,0,0,0,0,0,0,0,0,0,0,0,0,0,0,0,0,0,0,0,0,0,0,0,0,0,0,0,0,0,0,0,0,0,0,0,0,0,0,0,0,0,0,0,0,0,0,0,0,0,0,0,0,0,0,0,0,0,0,0,0,0,0,0,0,0,0,0,0,0,0,0,0,0,0,0,0,0,0,0,0,0,0,0,0,0,0,0,0,0,0,0,0,0,0,0,0,0,0,0,0,0,0,0,0,0,0,0,0,0,0,0,0,0,0,0,0,0,0,0,0,0,0,0,0,0,0,0,0,0,0,0,0,0,0,0,0,0,0,0,0,0,0,0,0,0,0,0,0,0,0,0,0,0,0,0,0,0,0,0,0,0,0,0,0,0,0,0,0,0,0,0,0,0,0,0,0,0,0,0,0,0,0,0,0,0,0,0,0,0,0,0,0,0,0,0,0,0,0,0,0,0,0,0,0,0,0,0,0,0,0,0,0,0,0,0,0,0,0,0,0,0,0,0,0,0,0,0,0,0,0,0,0,0,0,0,0,0,0,0,0,0,0,0,0,0,0,0,0,0,0,0,0,0,0,0,0,0,0,0,0,0,0,0,0,0,0,0,0,0,0,0,0,0,0,0,0,0,0,0,0,0,0,0,0,0,0,0,0,0,0,0,0,0,0,0,0,0,0,0,0,0,0,0,0,0,0,0,0,0,0,0,0,0,0,0,0,0,0,0,0,0,0,0,0,0,0,0,0,0,0,0,0,0,0,0,0,0,0,0,0,0,0,0,0,0,0,0,0,0,0,0,0,0,0,0,0,0,0,0,0,0,0,0,0,0,0,0,0,0,0,0,0,0,0,0,0,0,0,0,0,0,0,0,0,0,0,0,0,0,0,0,0,0,0,0,0,0,0,0,0,0,0,0,0,0,0,0,0,0,0,0,0,0,0,0,0,0,0,0,0,0,0,0,0,0,0,0,0,0,0,0,0,0,0,0,0,0,0,0,0,0,0,0,0,0,0,0,0,0,0,0,0,0,0,0,0,0,0,0,0,0,0,0,0,0,0,0,0,0,0,0,0,0,0,0,0,0,0,0,0,0,0,0,0,0,0,0,0,0,0,0,0,0,0,0,0,0,0,0,0,0,0,0,0,0,0,0,0,0,0,0,0,0,0,0,0,0,0,0,0,0,0,0,0,0,0,0,0,0,0,0,0,0,0,0,0,0,0,0,0,0,0,0,0,0,0,0,0,0,0,0,0,0,0,0,0,0,0,0,0,0,0,0,0,0,0,0,0,0,0,0,0,0,0,0,0,0,0],"trees":[{"base_weights":[-9.9274764E-8,-4.328815E-3,2.0415518E-3,-5.3200335E-3,-2.417818E-3,4.0700403E-3,-4.5108446E-3,-5.7472982E-3,-4.4653625E-3,-1.7282936E-3,-5.0943187E-3,-3.2725527E-3,8.810189E-3,-2.9452322E-3,-5.432615E-3,-5.8995257E-3,-5.44296E-3,-2.6273795E-3,-4.664098E-3,-4.8827487E-3,-4.6562732E-4,-4.2213383E-3,-5.653135E-3,-4.818145E-3,5.7072454E-4,2.498299E-2,7.1646282E-3,4.900385E-4,-3.3164455E-3,-4.6665655E-3,-5.7343966E-3,-8.3690113E-4,-8.905421E-4,-6.9735723E-4,-8.303667E-4,-3.0922407E-4,-7.417173E-4,-6.6271145E-4,-8.5097714E-4,-8.320277E-4,-5.638891E-4,8.65228E-4,-1.6502099E-4,-3.2026946E-4,-6.670187E-4,-7.9331273E-4,-8.7849336E-4,-8.363014E-4,-5.471479E-4,1.1885951E-3,-2.6589636E-5,7.102005E-3,3.2633436E-3,1.3127103E-3,2.1568642E-4,6.8175304E-4,-4.0585255E-5,-3.833651E-4,-6.0263317E-4,-4.55945E-4,-7.263542E-4,-8.252289E-4,-8.82983E-4],"categories":[],"categories_nodes":[],"categories_segments":[],"categories_sizes":[],"default_left":[0,0,0,0,0,0,0,0,0,0,0,0,0,0,0,0,0,0,0,0,0,0,0,0,0,0,0,0,0,0,0,0,0,0,0,0,0,0,0,0,0,0,0,0,0,0,0,0,0,0,0,0,0,0,0,0,0,0,0,0,0,0,0],"id":0,"left_children":[1,3,5,7,9,11,13,15,17,19,21,23,25,27,29,31,33,35,37,39,41,43,45,47,49,51,53,55,57,59,61,-1,-1,-1,-1,-1,-1,-1,-1,-1,-1,-1,-1,-1,-1,-1,-1,-1,-1,-1,-1,-1,-1,-1,-1,-1,-1,-1,-1,-1,-1,-1,-1],"loss_changes":[2.0845708E3,1.4319324E2,2.130313E3,1.8176758E1,4.7648575E1,4.259711E3,5.467871E1,1.5374756E0,6.059967E0,8.1770386E1,2.5800934E0,2.85208E2,1.9793452E3,1.7905075E1,5.5131836E0,2.649536E-1,8.1533813E-1,2.1228895E0,3.7167358E0,4.3785706E0,5.799122E1,9.708786E-1,2.390747E-1,3.0349182E1,7.574193E1,4.9574658E2,6.134243E2,4.223189E0,6.7579346E0,1.927597E0,6.0614014E-1,0E0,0E0,0E0,0E0,0E0,0E0,0E0,0E0,0E0,0E0,0E0,0E0,0E0,0E0,0E0,0E0,0E0,0E0,0E0,0E0,0E0,0E0,0E0,0E0,0E0,0E0,0E0,0E0,0E0,0E0,0E0,0E0],"parents":[2147483647,0,0,1,1,2,2,3,3,4,4,5,5,6,6,7,7,8,8,9,9,10,10,11,11,12,12,13,13,14,14,15,15,16,16,17,17,18,18,19,19,20,20,21,21,22,22,23,23,24,24,25,25,26,26,27,27,28,28,29,29,30,30],"right_children":[2,4,6,8,10,12,14,16,18,20,22,24,26,28,30,32,34,36,38,40,42,44,46,48,50,52,54,56,58,60,62,-1,-1,-1,-1,-1,-1,-1,-1,-1,-1,-1,-1,-1,-1,-1,-1,-1,-1,-1,-1,-1,-1,-1,-1,-1,-1,-1,-1,-1,-1,-1,-1],"split_conditions":[-1.7449549E1,-2.505364E1,2.004871E1,-4.005113E1,2.9950619E1,-1.4985306E1,4.4957676E1,-6.005703E1,4.31E0,-2.0049334E1,4.504392E1,-2.9949564E1,4.22E0,4.31E0,5.9945225E1,4.41E0,4.41E0,3.506124E1,3.506124E1,-4.49559E1,4.22E0,4.31E0,6.996195E1,-4.504409E1,4.22E0,2.3E0,1.1978066E1,2.47E0,3.0041723E1,4.31E0,7.005262E1,-8.3690113E-4,-8.905421E-4,-6.9735723E-4,-8.303667E-4,-3.0922407E-4,-7.417173E-4,-6.6271145E-4,-8.5097714E-4,-8.320277E-4,-5.638891E-4,8.65228E-4,-1.6502099E-4,-3.2026946E-4,-6.670187E-4,-7.9331273E-4,-8.7849336E-4,-8.363014E-4,-5.471479E-4,1.1885951E-3,-2.6589636E-5,7.102005E-3,3.2633436E-3,1.3127103E-3,2.1568642E-4,6.8175304E-4,-4.0585255E-5,-3.833651E-4,-6.0263317E-4,-4.55945E-4,-7.263542E-4,-8.252289E-4,-8.82983E-4],"split_indices":[0,0,1,0,1,1,1,0,7,1,1,1,7,7,1,7,7,1,1,1,7,7,1,1,7,7,1,7,1,7,1,0,0,0,0,0,0,0,0,0,0,0,0,0,0,0,0,0,0,0,0,0,0,0,0,0,0,0,0,0,0,0,0],"split_type":[0,0,0,0,0,0,0,0,0,0,0,0,0,0,0,0,0,0,0,0,0,0,0,0,0,0,0,0,0,0,0,0,0,0,0,0,0,0,0,0,0,0,0,0,0,0,0,0,0,0,0,0,0,0,0,0,0,0,0,0,0,0,0],"sum_hessian":[2.358718E8,7.559501E7,1.602768E8,4.977639E7,2.5818618E7,1.2238797E8,3.7888824E7,3.3186098E7,1.6590293E7,2.052972E7,5.288897E6,4.8013696E7,7.437427E7,1.4040784E7,2.3848042E7,2.2121224E7,1.1064873E7,1.618822E6,1.4971471E7,5.868569E6,1.4661152E7,2.064208E6,3.224689E6,3.4242796E7,1.3770902E7,6.868605E6,6.750566E7,1.369276E6,1.2671508E7,6.739745E6,1.7108296E7,2.31487E6,1.9806356E7,1.15821E6,9.906663E6,1.301107E6,3.17715E5,1.2036811E7,2.93466E6,3.688353E6,2.180216E6,1.354432E6,1.330672E7,2.0132E5,1.862888E6,1.155524E6,2.069165E6,2.0792208E7,1.3450588E7,1.27147E6,1.2499432E7,8.66219E5,6.002386E6,5.285929E7,1.4646378E7,2.16272E5,1.153004E6,6.077568E6,6.59394E6,6.57237E5,6.082508E6,6.760921E6,1.0347376E7],"tree_param":{"num_deleted":"0","num_feature":"8","num_nodes":"63","size_leaf_vector":"1"}},{"base_weights":[-3.187996E-8,-4.128868E-3,1.3201367E-3,-4.726515E-3,-3.0413396E-3,4.551771E-3,-3.3790716E-3,-4.963805E-3,-4.1730725E-3,-1.0633855E-3,-3.4175727E-3,1.2441824E-2,2.9788082E-3,-1.0938005E-3,-4.317256E-3,-5.0902E-3,-4.768332E-3,-2.780127E-3,-4.3149707E-3,2.85979E-3,-1.4817783E-3,-2.9209543E-3,-3.7942661E-3,2.3012828E-2,9.99041E-3,-8.600176E-4,3.940272E-3,1.1481545E-3,-1.9328517E-3,-3.5371159E-3,-4.821571E-3,-7.3135295E-4,-7.6979905E-4,-6.408247E-4,-7.2858745E-4,-1.8813244E-4,-4.6308106E-4,-5.9570756E-4,-6.7551027E-4,9.0040435E-4,2.7694125E-4,-4.7819215E-4,-1.3002736E-4,-6.4455124E-4,-4.0421463E-4,-6.251703E-4,-5.224099E-4,6.4575053E-3,3.0406627E-3,2.4325952E-4,1.9197013E-3,4.567168E-5,-2.5924545E-4,9.408156E-4,3.303347E-4,-2.931001E-4,3.167259E-4,-1.9778547E-4,-3.9918246E-4,-3.2992515E-4,-5.7300343E-4,-6.70861E-4,-7.4829016E-4],"categories":[],"categories_nodes":[],"categories_segments":[],"categories_sizes":[],"default_left":[0,0,0,0,0,0,0,0,0,0,0,0,0,0,0,0,0,0,0,0,0,0,0,0,0,0,0,0,0,0,0,0,0,0,0,0,0,0,0,0,0,0,0,0,0,0,0,0,0,0,0,0,0,0,0,0,0,0,0,0,0,0,0],"id":1,"left_children":[1,3,5,7,9,11,13,15,17,19,21,23,25,27,29,31,33,35,37,39,41,43,45,47,49,51,53,55,57,59,61,-1,-1,-1,-1,-1,-1,-1,-1,-1,-1,-1,-1,-1,-1,-1,-1,-1,-1,-1,-1,-1,-1,-1,-1,-1,-1,-1,-1,-1,-1,-1,-1],"loss_changes":[1.28574E3,3.714441E1,2.714273E3,4.843445E0,1.5082764E1,1.3143479E3,1.5614764E2,6.3775635E-1,2.1875763E0,5.31675E0,3.185608E0,4.56177E2,3.2590698E2,3.9874146E1,2.0314209E1,1.4053345E-1,4.472046E-1,4.794531E-1,6.502838E-1,9.943032E-1,3.0708742E0,2.286171E0,1.1268463E0,1.8204895E2,3.3575122E2,1.7882492E1,2.8618726E2,1.7251245E1,6.9012375E0,7.6715393E0,1.8289795E0,0E0,0E0,0E0,0E0,0E0,0E0,0E0,0E0,0E0,0E0,0E0,0E0,0E0,0E0,0E0,0E0,0E0,0E0,0E0,0E0,0E0,0E0,0E0,0E0,0E0,0E0,0E0,0E0,0E0,0E0,0E0,0E0],"parents":[2147483647,0,0,1,1,2,2,3,3,4,4,5,5,6,6,7,7,8,8,9,9,10,10,11,11,12,12,13,13,14,14,15,15,16,16,17,17,18,18,19,19,20,20,21,21,22,22,23,23,24,24,25,25,26,26,27,27,28,28,29,29,30,30],"right_children":[2,4,6,8,10,12,14,16,18,20,22,24,26,28,30,32,34,36,38,40,42,44,46,48,50,52,54,56,58,60,62,-1,-1,-1,-1,-1,-1,-1,-1,-1,-1,-1,-1,-1,-1,-1,-1,-1,-1,-1,-1,-1,-1,-1,-1,-1,-1,-1,-1,-1,-1,-1,-1],"split_conditions":[-2.0049334E1,-4.0034054E1,1.4942289E1,-5.994909E1,5.14E0,5.21E0,2.9950619E1,-7.005129E1,4.22E0,2.47E0,8.13E0,3E0,-1.2026178E1,6.19E0,4.504392E1,5.17E0,5.04E0,2.47E0,7.32E0,1.74E0,2.28E2,2.28E2,-3.496166E1,1.74E0,2.21E2,8.13E0,8.13E0,2.28E2,9.32E0,5.28E0,6.003921E1,-7.3135295E-4,-7.6979905E-4,-6.408247E-4,-7.2858745E-4,-1.8813244E-4,-4.6308106E-4,-5.9570756E-4,-6.7551027E-4,9.0040435E-4,2.7694125E-4,-4.7819215E-4,-1.3002736E-4,-6.4455124E-4,-4.0421463E-4,-6.251703E-4,-5.224099E-4,6.4575053E-3,3.0406627E-3,2.4325952E-4,1.9197013E-3,4.567168E-5,-2.5924545E-4,9.408156E-4,3.303347E-4,-2.931001E-4,3.167259E-4,-1.9778547E-4,-3.9918246E-4,-3.2992515E-4,-5.7300343E-4,-6.70861E-4,-7.4829016E-4],"split_indices":[1,1,1,1,7,7,1,1,7,7,7,7,1,7,1,7,7,7,7,7,5,5,1,7,5,7,7,5,7,7,1,0,0,0,0,0,0,0,0,0,0,0,0,0,0,0,0,0,0,0,0,0,0,0,0,0,0,0,0,0,0,0,0],"split_type":[0,0,0,0,0,0,0,0,0,0,0,0,0,0,0,0,0,0,0,0,0,0,0,0,0,0,0,0,0,0,0,0,0,0,0,0,0,0,0,0,0,0,0,0,0,0,0,0,0,0,0,0,0,0,0,0,0,0,0,0,0,0,0],"sum_hessian":[2.358827E8,5.714895E7,1.7873374E8,3.6881104E7,2.0267848E7,1.0590389E8,7.282986E7,2.5813488E7,1.1067614E7,3.239096E6,1.7028752E7,1.7603572E7,8.830032E7,2.119708E7,5.1632776E7,1.5676726E7,1.0136763E7,1.023218E6,1.0044396E7,3.12148E5,2.926948E6,7.345168E6,9.683583E6,3.313795E6,1.4289777E7,1.7685924E7,7.06144E7,5.772606E6,1.5424474E7,2.027254E7,3.1360236E7,2.556256E6,1.312047E7,1.540527E6,8.596236E6,1.7142E5,8.51798E5,3.557541E6,6.486855E6,7.6114E4,2.36034E5,7.75436E5,2.151512E6,1.036921E6,6.308247E6,4.403581E6,5.280002E6,3.98857E5,2.914938E6,3.589743E6,1.0700034E7,7.554395E6,1.0131529E7,3.015591E7,4.045849E7,1.367861E6,4.404745E6,8.367536E6,7.056938E6,3.539135E6,1.6733405E7,1.014756E7,2.1212676E7],"tree_param":{"num_deleted":"0","num_feature":"8","num_nodes":"63","size_leaf_vector":"1"}},{"base_weights":[-2.4265391E-8,-3.2312914E-3,1.973083E-3,-4.2974898E-3,-1.5028459E-3,3.693523E-3,-2.9853971E-3,-4.7997227E-3,-3.5438824E-3,5.437312E-4,-2.1390598E-3,-1.9737424E-3,8.08731E-3,-1.3409256E-3,-3.7883027E-3,-4.3925545E-3,-4.9500247E-3,-1.8907916E-3,-3.6323771E-3,1.4644841E-3,-2.8020397E-3,-3.8972986E-3,-1.7490253E-3,-3.2617305E-3,1.3804702E-3,1.8488169E-2,6.108426E-3,3.458785E-3,-1.5977616E-3,-3.212937E-3,-4.138439E-3,-6.7252805E-4,-6.452403E-4,-8.073712E-4,-6.684485E-4,-4.2129695E-4,-1.4603676E-4,-5.937313E-4,-4.9596577E-4,-3.4812323E-4,4.9197016E-4,-2.0912259E-4,-5.367617E-4,-6.390589E-4,-5.208518E-4,-1.5677874E-4,-5.5738236E-4,-5.68737E-4,-2.6507524E-4,1.4258372E-3,1.4180102E-4,5.7694074E-3,2.4535176E-3,1.1372969E-3,2.8538948E-4,1.712178E-3,4.2323387E-4,-8.767634E-5,-3.337873E-4,-3.6686342E-4,-5.250309E-4,-5.460793E-4,-6.2949513E-4],"categories":[],"categories_nodes":[],"categories_segments":[],"categories_sizes":[],"default_left":[0,0,0,0,0,0,0,0,0,0,0,0,0,0,0,0,0,0,0,0,0,0,0,0,0,0,0,0,0,0,0,0,0,0,0,0,0,0,0,0,0,0,0,0,0,0,0,0,0,0,0,0,0,0,0,0,0,0,0,0,0,0,0],"id":2,"left_children":[1,3,5,7,9,11,13,15,17,19,21,23,25,27,29,31,33,35,37,39,41,43,45,47,49,51,53,55,57,59,61,-1,-1,-1,-1,-1,-1,-1,-1,-1,-1,-1,-1,-1,-1,-1,-1,-1,-1,-1,-1,-1,-1,-1,-1,-1,-1,-1,-1,-1,-1,-1,-1],"loss_changes":[1.503925E3,1.6480817E2,1.2493816E3,2.093451E1,4.4425034E1,2.707459E3,4.9811676E1,2.03125E0,3.235962E0,2.4925974E1,1.784919E1,2.0513863E2,1.2605762E3,1.525721E1,5.106781E0,7.4020386E-2,5.1757812E0,9.462404E-1,2.2297668E0,4.3600178E1,1.908618E0,7.291336E-1,2.9489594E1,2.716922E1,4.657805E1,4.1679907E2,3.188999E2,3.1869512E0,7.469431E0,2.1135483E0,4.5663452E-1,0E0,0E0,0E0,0E0,0E0,0E0,0E0,0E0,0E0,0E0,0E0,0E0,0E0,0E0,0E0,0E0,0E0,0E0,0E0,0E0,0E0,0E0,0E0,0E0,0E0,0E0,0E0,0E0,0E0,0E0,0E0,0E0],"parents":[2147483647,0,0,1,1,2,2,3,3,4,4,5,5,6,6,7,7,8,8,9,9,10,10,11,11,12,12,13,13,14,14,15,15,16,16,17,17,18,18,19,19,20,20,21,21,22,22,23,23,24,24,25,25,26,26,27,27,28,28,29,29,30,30],"right_children":[2,4,6,8,10,12,14,16,18,20,22,24,26,28,30,32,34,36,38,40,42,44,46,48,50,52,54,56,58,60,62,-1,-1,-1,-1,-1,-1,-1,-1,-1,-1,-1,-1,-1,-1,-1,-1,-1,-1,-1,-1,-1,-1,-1,-1,-1,-1,-1,-1,-1,-1,-1,-1],"split_conditions":[-1.3944756E1,-2.2551098E1,1.9959385E1,-4.005113E1,5.92E0,-1.2469678E1,3.506124E1,-2.0049334E1,3.51E0,2.004871E1,-3.0018288E1,-2.496814E1,5.14E0,3.51E0,5.9945225E1,-7.0059906E1,1.3942124E1,-3.0051842E1,-3.0051842E1,-1.6015852E1,4.003401E1,-5.994909E1,2.004871E1,-3.5054955E1,3.51E0,2.47E0,9.9588785E0,1.74E0,7.32E0,6.19E0,4.41E0,-6.7252805E-4,-6.452403E-4,-8.073712E-4,-6.684485E-4,-4.2129695E-4,-1.4603676E-4,-5.937313E-4,-4.9596577E-4,-3.4812323E-4,4.9197016E-4,-2.0912259E-4,-5.367617E-4,-6.390589E-4,-5.208518E-4,-1.5677874E-4,-5.5738236E-4,-5.68737E-4,-2.6507524E-4,1.4258372E-3,1.4180102E-4,5.7694074E-3,2.4535176E-3,1.1372969E-3,2.8538948E-4,1.712178E-3,4.2323387E-4,-8.767634E-5,-3.337873E-4,-3.6686342E-4,-5.250309E-4,-5.460793E-4,-6.2949513E-4],"split_indices":[0,0,1,0,7,1,1,1,7,1,1,1,7,7,1,0,1,0,0,1,1,1,1,1,7,7,1,7,7,7,7,0,0,0,0,0,0,0,0,0,0,0,0,0,0,0,0,0,0,0,0,0,0,0,0,0,0,0,0,0,0,0,0],"split_type":[0,0,0,0,0,0,0,0,0,0,0,0,0,0,0,0,0,0,0,0,0,0,0,0,0,0,0,0,0,0,0,0,0,0,0,0,0,0,0,0,0,0,0,0,0,0,0,0,0,0,0,0,0,0,0,0,0,0,0,0,0,0,0],"sum_hessian":[2.3588627E8,8.943033E7,1.4645594E8,5.531132E7,3.4119004E7,1.0872998E8,3.772596E7,3.3191322E7,2.212E7,8.091196E6,2.6027808E7,4.7483744E7,6.124624E7,1.2376673E7,2.5349284E7,8.948857E6,2.4242464E7,1.123979E6,2.099602E7,6.345046E6,1.74615E6,4.725536E6,2.1302272E7,3.430928E7,1.3174463E7,9.790124E6,5.1456116E7,6.28645E5,1.1748028E7,9.590158E6,1.5759127E7,4.474083E6,4.474774E6,1.2922879E7,1.1319586E7,5.61792E5,5.62187E5,1.0499732E7,1.0496288E7,2.056605E6,4.288441E6,6.20651E5,1.125499E6,2.548234E6,2.177302E6,1.5688273E7,5.613999E6,2.532951E7,8.97977E6,6.69677E5,1.2504786E7,9.43932E5,8.846192E6,3.810549E7,1.3350626E7,4.6617E4,5.82028E5,4.492934E6,7.255094E6,2.612695E6,6.977463E6,1.649156E6,1.4109971E7],"tree_param":{"num_deleted":"0","num_feature":"8","num_nodes":"63","size_leaf_vector":"1"}},{"base_weights":[5.077402E-8,-2.5954475E-3,1.8064189E-3,-3.6529636E-3,-1.1855812E-3,3.428552E-3,-2.2992855E-3,-4.079757E-3,-3.012542E-3,3.552601E-3,-1.4390775E-3,-1.4219069E-3,7.8822225E-3,-4.911208E-4,-3.0889956E-3,-3.7336317E-3,-4.2074877E-3,-2.5339E-3,-3.2614435E-3,-2.0504259E-3,4.7512166E-3,-3.180315E-3,-1.0132362E-3,-2.737732E-3,1.5901108E-3,1.4974749E-2,5.2271346E-3,1.026797E-3,-1.2801532E-3,-2.4484606E-3,-3.437624E-3,-5.656424E-4,-5.3231424E-4,-6.862829E-4,-5.6818145E-4,-5.544854E-4,-3.498882E-4,-5.7910284E-4,-4.7365655E-4,-4.758756E-4,-9.633691E-5,1.0813576E-3,-1.1330075E-4,-5.449299E-4,-4.089984E-4,-3.226917E-5,-4.4257028E-4,-5.021947E-4,-2.549291E-4,6.539717E-4,2.247496E-5,6.35749E-4,2.7456481E-3,-4.3977494E-4,8.941522E-4,-3.1133476E-4,2.836138E-4,-5.601457E-4,-1.6175816E-4,3.219481E-5,-3.8175934E-4,-4.7056255E-4,-5.383616E-4],"categories":[],"categories_nodes":[],"categories_segments":[],"categories_sizes":[],"default_left":[0,0,0,0,0,0,0,0,0,0,0,0,0,0,0,0,0,0,0,0,0,0,0,0,0,0,0,0,0,0,0,0,0,0,0,0,0,0,0,0,0,0,0,0,0,0,0,0,0,0,0,0,0,0,0,0,0,0,0,0,0,0,0],"id":3,"left_children":[1,3,5,7,9,11,13,15,17,19,21,23,25,27,29,31,33,35,37,39,41,43,45,47,49,51,53,55,57,59,61,-1,-1,-1,-1,-1,-1,-1,-1,-1,-1,-1,-1,-1,-1,-1,-1,-1,-1,-1,-1,-1,-1,-1,-1,-1,-1,-1,-1,-1,-1,-1,-1],"loss_changes":[1.1058507E3,1.4431238E2,9.2624854E2,1.5116943E1,4.9827953E1,2.1535317E3,5.6241226E1,1.4673462E0,2.635025E0,1.4148735E1,2.9198471E1,1.8912476E2,9.786719E2,1.4339759E1,6.121765E0,6.1706543E-2,3.7406921E0,1.7710838E0,9.045105E-1,5.8662593E-1,2.3488552E1,1.5886307E0,4.891944E1,2.1040543E1,5.7875988E1,5.0604102E2,2.264231E2,1.097596E1,3.9008255E0,2.485611E0,8.079834E-1,0E0,0E0,0E0,0E0,0E0,0E0,0E0,0E0,0E0,0E0,0E0,0E0,0E0,0E0,0E0,0E0,0E0,0E0,0E0,0E0,0E0,0E0,0E0,0E0,0E0,0E0,0E0,0E0,0E0,0E0,0E0,0E0],"parents":[2147483647,0,0,1,1,2,2,3,3,4,4,5,5,6,6,7,7,8,8,9,9,10,10,11,11,12,12,13,13,14,14,15,15,16,16,17,17,18,18,19,19,20,20,21,21,22,22,23,23,24,24,25,25,26,26,27,27,28,28,29,29,30,30],"right_children":[2,4,6,8,10,12,14,16,18,20,22,24,26,28,30,32,34,36,38,40,42,44,46,48,50,52,54,56,58,60,62,-1,-1,-1,-1,-1,-1,-1,-1,-1,-1,-1,-1,-1,-1,-1,-1,-1,-1,-1,-1,-1,-1,-1,-1,-1,-1,-1,-1,-1,-1,-1,-1],"split_conditions":[-1.2042757E1,-2.2551098E1,1.745635E1,-4.005113E1,3.51E0,-1.196699E1,3.0041723E1,-2.0049334E1,6.79E0,-3.496166E1,-2.9949564E1,-2.0049334E1,6.19E0,6.79E0,4.9965153E1,-5.005485E1,1.3942124E1,-4.504409E1,-4.504409E1,-5.994909E1,1.5963363E1,-5.994909E1,1.797222E1,-4.49559E1,6.79E0,2.28E2,2.28E2,2.28E2,2.28E2,3.12E0,6.996195E1,-5.656424E-4,-5.3231424E-4,-6.862829E-4,-5.6818145E-4,-5.544854E-4,-3.498882E-4,-5.7910284E-4,-4.7365655E-4,-4.758756E-4,-9.633691E-5,1.0813576E-3,-1.1330075E-4,-5.449299E-4,-4.089984E-4,-3.226917E-5,-4.4257028E-4,-5.021947E-4,-2.549291E-4,6.539717E-4,2.247496E-5,6.35749E-4,2.7456481E-3,-4.3977494E-4,8.941522E-4,-3.1133476E-4,2.836138E-4,-5.601457E-4,-1.6175816E-4,3.219481E-5,-3.8175934E-4,-4.7056255E-4,-5.383616E-4],"split_indices":[0,0,1,0,7,1,1,1,7,1,1,1,7,7,1,0,1,1,1,1,1,1,1,1,7,5,5,5,5,7,1,0,0,0,0,0,0,0,0,0,0,0,0,0,0,0,0,0,0,0,0,0,0,0,0,0,0,0,0,0,0,0,0],"split_type":[0,0,0,0,0,0,0,0,0,0,0,0,0,0,0,0,0,0,0,0,0,0,0,0,0,0,0,0,0,0,0,0,0,0,0,0,0,0,0,0,0,0,0,0,0,0,0,0,0,0,0,0,0,0,0,0,0,0,0,0,0,0,0],"sum_hessian":[2.3586826E8,9.679187E7,1.3907638E8,5.5307036E7,4.148484E7,9.968971E7,3.9386664E7,3.3189024E7,2.2118012E7,2.106757E6,3.9378084E7,4.7719148E7,5.197057E7,1.1972881E7,2.7413782E7,8.946328E6,2.4242696E7,7.56685E6,1.4551161E7,3.71262E5,1.735495E6,7.737979E6,3.1640104E7,3.3210752E7,1.4508395E7,1.4155915E7,3.7814652E7,4.095013E6,7.877868E6,9.661926E6,1.7751856E7,7.443735E6,1.502593E6,1.2920053E7,1.1322643E7,1.116801E6,6.450049E6,2.147212E6,1.2403949E7,2.0662E5,1.64642E5,1.199916E6,5.35579E5,3.873718E6,3.864261E6,2.240826E7,9.231843E6,2.0916512E7,1.229424E7,4.963474E6,9.544921E6,3.350857E6,1.0805058E7,3.120644E6,3.469401E7,8.91993E5,3.20302E6,5.98467E5,7.279401E6,3.3821E5,9.323716E6,5.948264E6,1.1803592E7],"tree_param":{"num_deleted":"0","num_feature":"8","num_nodes":"63","size_leaf_vector":"1"}},{"base_weights":[5.2162246E-8,-2.0906518E-3,1.6531937E-3,-2.9923448E-3,-7.7735045E-4,3.1781492E-3,-1.7692099E-3,-3.4040029E-3,-2.3006669E-3,-2.4231772E-3,-2.659902E-4,-1.115641E-3,7.5947787E-3,4.5867E-5,-2.5201957E-3,-3.547853E-3,-3.0442802E-3,-2.1414477E-3,-3.137278E-3,-2.8385217E-3,-1.6415225E-3,7.342743E-4,-2.273279E-3,-2.1681746E-3,1.8849617E-3,1.6224202E-2,6.3257287E-3,3.3383965E-3,-1.3894697E-4,-1.919268E-3,-2.9079653E-3,-4.8080075E-4,-5.5110507E-4,-4.655628E-4,-4.39488E-4,-4.5921118E-4,-2.8267942E-4,-4.193334E-4,-4.905456E-4,-4.709206E-4,-3.7701448E-4,-7.194038E-5,-2.895422E-4,5.013222E-4,1.2950792E-5,-1.9710769E-4,-4.3111408E-4,-3.9946768E-4,-1.0929136E-4,8.852332E-4,2.0022353E-4,1.8283661E-3,3.8400248E-3,1.1378982E-3,3.7362697E-4,2.078929E-4,1.1079677E-3,-9.114082E-5,7.803886E-5,-1.2569157E-4,-3.117205E-4,-3.9754872E-4,-4.5755555E-4],"categories":[],"categories_nodes":[],"categories_segments":[],"categories_sizes":[],"default_left":[0,0,0,0,0,0,0,0,0,0,0,0,0,0,0,0,0,0,0,0,0,0,0,0,0,0,0,0,0,0,0,0,0,0,0,0,0,0,0,0,0,0,0,0,0,0,0,0,0,0,0,0,0,0,0,0,0,0,0,0,0,0,0],"id":4,"left_children":[1,3,5,7,9,11,13,15,17,19,21,23,25,27,29,31,33,35,37,39,41,43,45,47,49,51,53,55,57,59,61,-1,-1,-1,-1,-1,-1,-1,-1,-1,-1,-1,-1,-1,-1,-1,-1,-1,-1,-1,-1,-1,-1,-1,-1,-1,-1,-1,-1,-1,-1,-1,-1],"loss_changes":[8.152729E2,1.2334329E2,6.874852E2,1.758429E1,3.568533E1,1.7280833E3,5.534588E1,2.003357E0,3.0692444E0,3.2631798E0,6.495308E1,1.4592487E2,4.9192017E2,7.2308235E0,6.692398E0,1.1952515E0,7.520294E-2,4.5752563E0,1.674614E-1,6.4214706E-1,1.1701574E0,3.6482956E1,6.200672E0,2.4371872E1,2.6513012E1,2.178783E2,1.892605E2,4.99154E0,3.4760265E0,1.9350433E0,6.4045715E-1,0E0,0E0,0E0,0E0,0E0,0E0,0E0,0E0,0E0,0E0,0E0,0E0,0E0,0E0,0E0,0E0,0E0,0E0,0E0,0E0,0E0,0E0,0E0,0E0,0E0,0E0,0E0,0E0,0E0,0E0,0E0,0E0],"parents":[2147483647,0,0,1,1,2,2,3,3,4,4,5,5,6,6,7,7,8,8,9,9,10,10,11,11,12,12,13,13,14,14,15,15,16,16,17,17,18,18,19,19,20,20,21,21,22,22,23,23,24,24,25,25,26,26,27,27,28,28,29,29,30,30],"right_children":[2,4,6,8,10,12,14,16,18,20,22,24,26,28,30,32,34,36,38,40,42,44,46,48,50,52,54,56,58,60,62,-1,-1,-1,-1,-1,-1,-1,-1,-1,-1,-1,-1,-1,-1,-1,-1,-1,-1,-1,-1,-1,-1,-1,-1,-1,-1,-1,-1,-1,-1,-1,-1],"split_conditions":[-1.1032411E1,-2.2453846E1,1.4942289E1,-3.505285E1,-1.8025904E1,-1.00386E1,2.9950619E1,-5.005485E1,4.4957676E1,-3.99683E1,1.5963363E1,-1.995894E1,5.5E0,2E0,4.504392E1,-2.0049334E1,1.3942124E1,-3.5054955E1,5.9945225E1,-6.0039845E1,9.8E0,9.8E0,3.506124E1,-3.496166E1,5.1E0,-4.0674E3,8.968685E0,-5.5222E3,-2.1402E3,5.5E0,6.996195E1,-4.8080075E-4,-5.5110507E-4,-4.655628E-4,-4.39488E-4,-4.5921118E-4,-2.8267942E-4,-4.193334E-4,-4.905456E-4,-4.709206E-4,-3.7701448E-4,-7.194038E-5,-2.895422E-4,5.013222E-4,1.2950792E-5,-1.9710769E-4,-4.3111408E-4,-3.9946768E-4,-1.0929136E-4,8.852332E-4,2.0022353E-4,1.8283661E-3,3.8400248E-3,1.1378982E-3,3.7362697E-4,2.078929E-4,1.1079677E-3,-9.114082E-5,7.803886E-5,-1.2569157E-4,-3.117205E-4,-3.9754872E-4,-4.5755555E-4],"split_indices":[0,0,1,0,1,1,1,0,1,1,1,1,4,4,1,1,1,1,1,1,4,4,1,1,4,6,1,6,6,4,1,0,0,0,0,0,0,0,0,0,0,0,0,0,0,0,0,0,0,0,0,0,0,0,0,0,0,0,0,0,0,0,0],"split_type":[0,0,0,0,0,0,0,0,0,0,0,0,0,0,0,0,0,0,0,0,0,0,0,0,0,0,0,0,0,0,0,0,0,0,0,0,0,0,0,0,0,0,0,0,0,0,0,0,0,0,0,0,0,0,0,0,0,0,0,0,0,0,0],"sum_hessian":[2.3588506E8,1.0415798E8,1.3172707E8,6.1756732E7,4.2401256E7,9.112402E7,4.060306E7,3.87151E7,2.3041632E7,1.0051198E7,3.2350056E7,4.6204548E7,4.4919464E7,1.1882922E7,2.8720138E7,2.7655758E7,1.1059343E7,1.9357602E7,3.68403E6,6.563549E6,3.487649E6,2.1590942E7,1.0759115E7,3.4205976E7,1.1998571E7,5.758971E6,3.9160496E7,6.31553E5,1.1251369E7,1.126412E7,1.7456018E7,7.445381E6,2.0210376E7,7.275695E6,3.783648E6,4.225856E6,1.5131746E7,1.032284E6,2.651746E6,3.408331E6,3.155218E6,6.9422E5,2.793429E6,4.296793E6,1.7294148E7,4.143629E6,6.615486E6,2.5454392E7,8.751583E6,1.445425E6,1.0553146E7,4.026224E6,1.732747E6,2.9474332E7,9.686161E6,4.26059E5,2.05494E5,6.576118E6,4.675251E6,1.442934E6,9.821186E6,6.213852E6,1.1242166E7],"tree_param":{"num_deleted":"0","num_feature":"8","num_nodes":"63","size_leaf_vector":"1"}},{"base_weights":[-3.88049E-8,-1.6985877E-3,1.5000247E-3,-2.5434417E-3,-6.306202E-4,9.584498E-3,1.0673419E-3,-2.893393E-3,-1.9555145E-3,8.668526E-4,-1.4092361E-3,3.5877377E-3,1.2634744E-2,2.603735E-3,-1.1317853E-4,-3.0615546E-3,-2.6692024E-3,-3.553485E-4,-2.0694972E-3,-2.2350326E-3,1.7309834E-3,-3.8760563E-3,-1.2063519E-3,2.0887302E-2,2.0828473E-3,2.3603057E-2,1.0963896E-2,-2.043014E-3,3.5740044E-3,-3.466526E-3,1.19431745E-4,-5.111998E-4,-4.4887437E-4,-4.2480294E-4,-3.881652E-4,2.8345393E-4,-1.248426E-4,-4.5613814E-4,-2.923844E-4,1.5313375E-3,-3.7013562E-4,1.0636003E-3,1.8377678E-4,-5.585061E-4,-6.522741E-4,-9.535386E-5,-3.0756692E-4,2.8765386E-3,5.959401E-3,1.0582668E-3,2.0749368E-4,3.2702365E-3,4.4430317E-3,1.8800932E-3,1.3601806E-3,-2.1690552E-4,-3.8624296E-4,7.527998E-4,4.198086E-4,-4.7336426E-4,-6.0624676E-4,1.3490241E-4,-1.5151779E-4],"categories":[],"categories_nodes":[],"categories_segments":[],"categories_sizes":[],"default_left":[0,0,0,0,0,0,0,0,0,0,0,0,0,0,0,0,0,0,0,0,0,0,0,0,0,0,0,0,0,0,0,0,0,0,0,0,0,0,0,0,0,0,0,0,0,0,0,0,0,0,0,0,0,0,0,0,0,0,0,0,0,0,0],"id":5,"left_children":[1,3,5,7,9,11,13,15,17,19,21,23,25,27,29,31,33,35,37,39,41,43,45,47,49,51,53,55,57,59,61,-1,-1,-1,-1,-1,-1,-1,-1,-1,-1,-1,-1,-1,-1,-1,-1,-1,-1,-1,-1,-1,-1,-1,-1,-1,-1,-1,-1,-1,-1,-1,-1],"loss_changes":[6.0102496E2,9.981424E1,4.3816992E2,1.2707733E1,5.696949E1,1.1639856E2,2.1565237E2,1.4596863E0,4.2033997E0,4.4802216E1,1.6088501E1,5.585553E1,7.730066E1,2.3292581E2,5.2446E1,5.292969E-1,2.2001648E-1,1.6408633E0,2.5134583E0,1.0538343E1,3.5439503E1,1.7620087E-1,1.4307781E1,5.5326233E0,6.8655844E0,6.0436707E0,1.0896454E1,2.8338814E0,4.786786E1,7.794914E-1,5.5390163E1,0E0,0E0,0E0,0E0,0E0,0E0,0E0,0E0,0E0,0E0,0E0,0E0,0E0,0E0,0E0,0E0,0E0,0E0,0E0,0E0,0E0,0E0,0E0,0E0,0E0,0E0,0E0,0E0,0E0,0E0,0E0,0E0],"parents":[2147483647,0,0,1,1,2,2,3,3,4,4,5,5,6,6,7,7,8,8,9,9,10,10,11,11,12,12,13,13,14,14,15,15,16,16,17,17,18,18,19,19,20,20,21,21,22,22,23,23,24,24,25,25,26,26,27,27,28,28,29,29,30,30],"right_children":[2,4,6,8,10,12,14,16,18,20,22,24,26,28,30,32,34,36,38,40,42,44,46,48,50,52,54,56,58,60,62,-1,-1,-1,-1,-1,-1,-1,-1,-1,-1,-1,-1,-1,-1,-1,-1,-1,-1,-1,-1,-1,-1,-1,-1,-1,-1,-1,-1,-1,-1,-1,-1],"split_conditions":[-1.0042502E1,-2.2453846E1,3.51E0,-3.505285E1,6.79E0,2.32E2,7.71E0,-6.005703E1,3.81E0,2.28E2,2.28E2,1.74E0,2.08E0,2.21E2,2.28E2,5.21E0,-5.005485E1,2.3E0,2.28E2,1.74E0,3.12E0,1.01E1,1.003E1,-1.2421E3,2.08E0,-1.3689E3,3E0,5.48E0,5.6E0,1.01E1,1.044E1,-5.111998E-4,-4.4887437E-4,-4.2480294E-4,-3.881652E-4,2.8345393E-4,-1.248426E-4,-4.5613814E-4,-2.923844E-4,1.5313375E-3,-3.7013562E-4,1.0636003E-3,1.8377678E-4,-5.585061E-4,-6.522741E-4,-9.535386E-5,-3.0756692E-4,2.8765386E-3,5.959401E-3,1.0582668E-3,2.0749368E-4,3.2702365E-3,4.4430317E-3,1.8800932E-3,1.3601806E-3,-2.1690552E-4,-3.8624296E-4,7.527998E-4,4.198086E-4,-4.7336426E-4,-6.0624676E-4,1.3490241E-4,-1.5151779E-4],"split_indices":[0,0,7,0,7,5,7,0,7,5,5,7,7,5,5,7,0,7,5,7,7,7,7,6,7,6,7,7,7,7,7,0,0,0,0,0,0,0,0,0,0,0,0,0,0,0,0,0,0,0,0,0,0,0,0,0,0,0,0,0,0,0,0],"split_type":[0,0,0,0,0,0,0,0,0,0,0,0,0,0,0,0,0,0,0,0,0,0,0,0,0,0,0,0,0,0,0,0,0,0,0,0,0,0,0,0,0,0,0,0,0,0,0,0,0,0,0,0,0,0,0,0,0,0,0,0,0,0,0],"sum_hessian":[2.3588742E8,1.1062489E8,1.2526254E8,6.1764136E7,4.8860748E7,6.363502E6,1.1889904E8,3.871805E7,2.3046092E7,1.6714531E7,3.2146216E7,2.145489E6,4.218013E6,5.1662576E7,6.723646E7,2.212353E7,1.6594516E7,1.532455E6,2.1513636E7,3.641826E6,1.3072705E7,2.442951E6,2.9703266E7,1.71699E5,1.97379E6,5.57603E5,3.66041E6,8.924062E6,4.273851E7,4.361426E6,6.287504E7,3.677043E6,1.8446488E7,5.532668E6,1.1061848E7,2.68511E5,1.263944E6,2.370086E6,1.9143552E7,6.6805E4,3.575021E6,1.127311E6,1.1945394E7,1.84628E6,5.96671E5,1.7722064E7,1.1981201E7,1.57412E5,1.4287E4,2.43444E5,1.730346E6,4.2913E5,1.28473E5,2.002324E6,1.658086E6,4.204971E6,4.719091E6,1.4925771E7,2.7812744E7,2.831458E6,1.529968E6,3.719388E7,2.568116E7],"tree_param":{"num_deleted":"0","num_feature":"8","num_nodes":"63","size_leaf_vector":"1"}},{"base_weights":[-2.5096597E-7,-1.3952592E-3,1.3295751E-3,-2.1277491E-3,-4.607694E-4,2.7859781E-3,-1.582136E-3,-2.4097483E-3,-1.5124402E-3,3.4502053E-3,-7.044401E-4,-1.1304783E-3,7.2685103E-3,-7.051474E-5,-2.3605484E-3,-2.5632316E-3,-2.1539757E-3,-8.6244283E-4,-1.8503796E-3,5.0745322E-3,-4.572762E-4,-2.9264444E-3,-4.25021E-4,-2.1948041E-3,1.153398E-3,2.5221413E-2,6.306863E-3,-2.3527194E-3,2.5413014E-4,-1.7176816E-3,-2.6426148E-3,-4.0285135E-4,-3.2710482E-4,-2.3949277E-4,-3.283055E-4,-3.1819282E-4,-7.67399E-5,-4.3527473E-4,-2.6458697E-4,-2.1795991E-5,1.3186953E-3,2.5096227E-4,-2.905049E-4,-3.3202942E-4,-4.758322E-4,1.1907452E-4,-1.7383121E-4,-4.3559985E-4,-2.4174803E-4,5.236856E-4,3.092201E-5,8.663615E-3,3.3933574E-3,1.5042811E-3,5.9567636E-4,1.4800797E-3,-3.7335718E-4,2.0093156E-4,-1.2659523E-4,-1.4669787E-4,-2.769424E-4,-3.4768248E-4,-4.15848E-4],"categories":[],"categories_nodes":[],"categories_segments":[],"categories_sizes":[],"default_left":[0,0,0,0,0,0,0,0,0,0,0,0,0,0,0,0,0,0,0,0,0,0,0,0,0,0,0,0,0,0,0,0,0,0,0,0,0,0,0,0,0,0,0,0,0,0,0,0,0,0,0,0,0,0,0,0,0,0,0,0,0,0,0],"id":6,"left_children":[1,3,5,7,9,11,13,15,17,19,21,23,25,27,29,31,33,35,37,39,41,43,45,47,49,51,53,55,57,59,61,-1,-1,-1,-1,-1,-1,-1,-1,-1,-1,-1,-1,-1,-1,-1,-1,-1,-1,-1,-1,-1,-1,-1,-1,-1,-1,-1,-1,-1,-1,-1,-1],"loss_changes":[4.3757828E2,7.879797E1,5.120952E2,1.1197601E1,4.820572E1,1.4131616E3,4.7376312E1,1.7371826E0,4.454914E0,1.8829994E1,2.9563942E1,1.0442844E2,6.4802527E2,1.01400385E1,4.819275E0,1.2954102E0,3.2123566E-1,3.0639653E0,1.213131E0,4.0656696E1,2.745566E0,9.319496E-1,3.7833733E1,1.2119324E1,3.0242271E1,1.613739E2,3.0969446E2,2.839404E0,1.42807665E1,7.7098656E-1,7.7801514E-1,0E0,0E0,0E0,0E0,0E0,0E0,0E0,0E0,0E0,0E0,0E0,0E0,0E0,0E0,0E0,0E0,0E0,0E0,0E0,0E0,0E0,0E0,0E0,0E0,0E0,0E0,0E0,0E0,0E0,0E0,0E0,0E0],"parents":[2147483647,0,0,1,1,2,2,3,3,4,4,5,5,6,6,7,7,8,8,9,9,10,10,11,11,12,12,13,13,14,14,15,15,16,16,17,17,18,18,19,19,20,20,21,21,22,22,23,23,24,24,25,25,26,26,27,27,28,28,29,29,30,30],"right_children":[2,4,6,8,10,12,14,16,18,20,22,24,26,28,30,32,34,36,38,40,42,44,46,48,50,52,54,56,58,60,62,-1,-1,-1,-1,-1,-1,-1,-1,-1,-1,-1,-1,-1,-1,-1,-1,-1,-1,-1,-1,-1,-1,-1,-1,-1,-1,-1,-1,-1,-1,-1,-1],"split_conditions":[-9.984633E0,-2.000889E1,1.3942124E1,-3.0051842E1,3.64E0,-1.00386E1,2.9950619E1,-5.005485E1,6.79E0,1.1978066E1,2.28E2,-2.0049334E1,3.51E0,2.28E2,4.4957676E1,2.9950619E1,3.64E0,2.28E2,2.28E2,-1.2026178E1,3.496388E1,5.24E0,7.5E0,-5.994909E1,6.35E0,1.74E0,7.35E0,1.74E0,8.27E0,4.99E0,5.9945225E1,-4.0285135E-4,-3.2710482E-4,-2.3949277E-4,-3.283055E-4,-3.1819282E-4,-7.67399E-5,-4.3527473E-4,-2.6458697E-4,-2.1795991E-5,1.3186953E-3,2.5096227E-4,-2.905049E-4,-3.3202942E-4,-4.758322E-4,1.1907452E-4,-1.7383121E-4,-4.3559985E-4,-2.4174803E-4,5.236856E-4,3.092201E-5,8.663615E-3,3.3933574E-3,1.5042811E-3,5.9567636E-4,1.4800797E-3,-3.7335718E-4,2.0093156E-4,-1.2659523E-4,-1.4669787E-4,-2.769424E-4,-3.4768248E-4,-4.15848E-4],"split_indices":[0,0,1,0,7,1,1,0,7,1,5,1,7,5,1,1,7,5,5,1,1,7,7,1,7,7,7,7,7,7,1,0,0,0,0,0,0,0,0,0,0,0,0,0,0,0,0,0,0,0,0,0,0,0,0,0,0,0,0,0,0,0,0],"split_type":[0,0,0,0,0,0,0,0,0,0,0,0,0,0,0,0,0,0,0,0,0,0,0,0,0,0,0,0,0,0,0,0,0,0,0,0,0,0,0,0,0,0,0,0,0,0,0,0,0,0,0,0,0,0,0,0,0,0,0,0,0,0,0],"sum_hessian":[2.3587622E8,1.1511685E8,1.2075937E8,6.4533188E7,5.058366E7,8.049615E7,4.0263216E7,4.4252196E7,2.0280994E7,2.96674E6,4.761692E7,4.296072E7,3.753543E7,1.3685994E7,2.6577222E7,2.7656282E7,1.6595913E7,6.937438E6,1.3343556E7,2.095604E6,8.71136E5,5.319002E6,4.229792E7,2.9304376E7,1.3656345E7,1.908363E6,3.562707E7,1.704389E6,1.1981605E7,8.104954E6,1.8472268E7,2.0950328E7,6.705954E6,9.73408E5,1.5622505E7,1.512067E6,5.425371E6,1.013929E6,1.2329627E7,8.7157E5,1.224034E6,3.57024E5,5.14112E5,1.363591E6,3.955411E6,1.5896149E7,2.6401768E7,1.3223138E7,1.6081238E7,3.937787E6,9.718558E6,1.41165E5,1.767198E6,1.3737607E7,2.1889464E7,1.8804E4,1.685585E6,6.025605E6,5.956E6,1.200402E6,6.904552E6,5.272352E6,1.3199916E7],"tree_param":{"num_deleted":"0","num_feature":"8","num_nodes":"63","size_leaf_vector":"1"}},{"base_weights":[-1.0471118E-7,-1.1120075E-3,1.239377E-3,-1.7750595E-3,-3.060452E-4,2.5436427E-3,-1.3208694E-3,-2.048323E-3,-1.270608E-3,4.4810665E-3,-4.8005092E-4,-7.4047525E-4,6.9775498E-3,4.1764826E-5,-1.9868135E-3,-2.1856553E-3,-1.8386812E-3,2.425372E-3,-1.3284826E-3,6.4039375E-3,-8.252039E-5,-1.9017033E-3,-4.301785E-5,-1.7228066E-3,1.7176307E-3,2.0205855E-2,5.856992E-3,4.2107417E-3,-1.0949484E-4,-1.3988402E-3,-2.2367672E-3,-2.8075936E-4,-3.4496185E-4,-3.250205E-4,-2.68801E-4,-2.154733E-4,4.9679587E-4,-1.7331218E-4,-3.2088035E-4,1.1223549E-4,1.6527985E-3,2.9052346E-4,-2.889838E-4,-3.3587063E-4,-1.8494064E-4,1.7381029E-4,-2.1691767E-4,-3.1746214E-4,-8.5794425E-5,1.6792353E-3,2.0603431E-4,1.0839604E-3,3.9357124E-3,-3.3128716E-4,1.0252878E-3,1.8161602E-3,4.8910617E-4,-3.443188E-4,2.5028925E-5,-4.6373676E-5,-2.2368801E-4,-3.0372967E-4,-3.5912712E-4],"categories":[],"categories_nodes":[],"categories_segments":[],"categories_sizes":[],"default_left":[0,0,0,0,0,0,0,0,0,0,0,0,0,0,0,0,0,0,0,0,0,0,0,0,0,0,0,0,0,0,0,0,0,0,0,0,0,0,0,0,0,0,0,0,0,0,0,0,0,0,0,0,0,0,0,0,0,0,0,0,0,0,0],"id":7,"left_children":[1,3,5,7,9,11,13,15,17,19,21,23,25,27,29,31,33,35,37,39,41,43,45,47,49,51,53,55,57,59,61,-1,-1,-1,-1,-1,-1,-1,-1,-1,-1,-1,-1,-1,-1,-1,-1,-1,-1,-1,-1,-1,-1,-1,-1,-1,-1,-1,-1,-1,-1,-1,-1],"loss_changes":[3.2508698E2,6.644638E1,3.724635E2,9.403717E0,4.6748505E1,1.0760396E3,3.4160492E1,1.273941E0,5.1271553E0,1.7273136E1,3.3645924E1,1.0250898E2,4.6609412E2,7.7930207E0,3.7163086E0,9.5751953E-1,2.6821136E-1,1.2653062E0,3.3112984E0,3.6144722E1,2.1728952E0,2.8733978E0,6.984192E1,1.3739487E1,3.9525368E1,1.9225854E2,2.2872394E2,3.2461185E0,7.204179E0,7.5959396E-1,5.9186554E-1,0E0,0E0,0E0,0E0,0E0,0E0,0E0,0E0,0E0,0E0,0E0,0E0,0E0,0E0,0E0,0E0,0E0,0E0,0E0,0E0,0E0,0E0,0E0,0E0,0E0,0E0,0E0,0E0,0E0,0E0,0E0,0E0],"parents":[2147483647,0,0,1,1,2,2,3,3,4,4,5,5,6,6,7,7,8,8,9,9,10,10,11,11,12,12,13,13,14,14,15,15,16,16,17,17,18,18,19,19,20,20,21,21,22,22,23,23,24,24,25,25,26,26,27,27,28,28,29,29,30,30],"right_children":[2,4,6,8,10,12,14,16,18,20,22,24,26,28,30,32,34,36,38,40,42,44,46,48,50,52,54,56,58,60,62,-1,-1,-1,-1,-1,-1,-1,-1,-1,-1,-1,-1,-1,-1,-1,-1,-1,-1,-1,-1,-1,-1,-1,-1,-1,-1,-1,-1,-1,-1,-1,-1],"split_conditions":[-9.063805E0,-1.9962595E1,1.3942124E1,-3.0051842E1,3.12E0,-9.950295E0,2.5035034E1,-5.9968674E1,2.47E0,1.0050658E1,-1.8025904E1,-1.8025904E1,3.98E0,3.12E0,4.003401E1,-2.0049334E1,2.28E2,-3.498095E1,3.506124E1,-9.950295E0,3.506124E1,-3.5054955E1,7.954432E0,-3.0039852E1,3.12E0,2.28E2,2.28E2,1.74E0,2.21E2,3.98E0,6.003921E1,-2.8075936E-4,-3.4496185E-4,-3.250205E-4,-2.68801E-4,-2.154733E-4,4.9679587E-4,-1.7331218E-4,-3.2088035E-4,1.1223549E-4,1.6527985E-3,2.9052346E-4,-2.889838E-4,-3.3587063E-4,-1.8494064E-4,1.7381029E-4,-2.1691767E-4,-3.1746214E-4,-8.5794425E-5,1.6792353E-3,2.0603431E-4,1.0839604E-3,3.9357124E-3,-3.3128716E-4,1.0252878E-3,1.8161602E-3,4.8910617E-4,-3.443188E-4,2.5028925E-5,-4.6373676E-5,-2.2368801E-4,-3.0372967E-4,-3.5912712E-4],"split_indices":[0,0,1,0,7,1,1,0,7,1,1,1,7,7,1,1,5,1,1,1,1,1,1,1,7,5,5,7,5,7,1,0,0,0,0,0,0,0,0,0,0,0,0,0,0,0,0,0,0,0,0,0,0,0,0,0,0,0,0,0,0,0,0],"split_type":[0,0,0,0,0,0,0,0,0,0,0,0,0,0,0,0,0,0,0,0,0,0,0,0,0,0,0,0,0,0,0,0,0,0,0,0,0,0,0,0,0,0,0,0,0,0,0,0,0,0,0,0,0,0,0,0,0,0,0,0,0,0,0],"sum_hessian":[2.3588083E8,1.24339496E8,1.1154133E8,6.821781E7,5.6121684E7,7.389634E7,3.764499E7,4.4248316E7,2.3969496E7,1.968405E6,5.415328E7,4.2452504E7,3.1443832E7,1.2358141E7,2.5286852E7,2.6734828E7,1.7513488E7,3.69546E5,2.3599952E7,1.384883E6,5.83522E5,1.273307E7,4.142021E7,3.0331248E7,1.2121257E7,2.455567E6,2.8988264E7,4.32681E5,1.192546E7,7.543074E6,1.7743778E7,7.126318E6,1.9608508E7,2.181006E6,1.5332482E7,6.8999E4,3.00547E5,1.9448248E7,4.151704E6,6.22258E5,7.62625E5,2.78522E5,3.05E5,8.46297E6,4.2701E6,2.2310928E7,1.910928E7,2.2601244E7,7.730003E6,4.2464E5,1.1696617E7,7.79129E5,1.676438E6,3.135622E6,2.5852644E7,4.6462E4,3.86219E5,1.338434E6,1.0587026E7,5.89698E5,6.953376E6,7.562931E6,1.0180847E7],"tree_param":{"num_deleted":"0","num_feature":"8","num_nodes":"63","size_leaf_vector":"1"}},{"base_weights":[5.2668717E-8,-8.910216E-4,1.1447329E-3,-1.5015474E-3,-2.2645367E-4,2.3971577E-3,-1.0151344E-3,-1.7480983E-3,-1.0873211E-3,9.4164326E-4,-9.237336E-4,-5.84333E-4,7.0339204E-3,2.2421137E-4,-1.6313972E-3,-1.8540121E-3,-1.5442895E-3,-1.0468245E-5,-1.2353715E-3,1.8192215E-3,-1.1302127E-3,-5.5955444E-4,-1.9440913E-3,-1.3657985E-3,1.9087694E-3,1.24799395E-2,4.201279E-3,8.255892E-4,-1.1348075E-3,-9.879619E-4,-1.8603002E-3,-2.4223235E-4,-3.2298738E-4,-1.3151111E-4,-2.3487884E-4,4.926203E-4,-3.543566E-5,-2.8787283E-4,-1.6388112E-4,-9.961836E-5,6.183736E-4,-2.4367351E-5,-3.023959E-4,-3.7712693E-5,-2.731197E-4,-2.4073989E-4,-3.5913644E-4,-2.8324343E-4,-7.9781355E-5,6.4400985E-4,7.280257E-5,4.6792096E-3,1.6687464E-3,8.844969E-4,1.9795219E-4,1.7928308E-3,1.1471801E-4,-1.0428971E-4,-3.1024893E-4,4.6987367E-5,-1.7503093E-4,-2.4283164E-4,-3.0101484E-4],"categories":[],"categories_nodes":[],"categories_segments":[],"categories_sizes":[],"default_left":[0,0,0,0,0,0,0,0,0,0,0,0,0,0,0,0,0,0,0,0,0,0,0,0,0,0,0,0,0,0,0,0,0,0,0,0,0,0,0,0,0,0,0,0,0,0,0,0,0,0,0,0,0,0,0,0,0,0,0,0,0,0,0],"id":8,"left_children":[1,3,5,7,9,11,13,15,17,19,21,23,25,27,29,31,33,35,37,39,41,43,45,47,49,51,53,55,57,59,61,-1,-1,-1,-1,-1,-1,-1,-1,-1,-1,-1,-1,-1,-1,-1,-1,-1,-1,-1,-1,-1,-1,-1,-1,-1,-1,-1,-1,-1,-1,-1,-1],"loss_changes":[2.4059459E2,5.3813324E1,2.7928973E2,7.059738E0,5.1724277E1,9.0345276E2,2.894278E1,9.3540955E-1,4.1120815E0,4.3161285E1,1.4777065E1,7.749373E1,3.945536E2,1.0285712E1,3.7277222E0,2.0404434E0,2.1336365E-1,2.3188457E0,2.2145615E0,9.537871E1,6.0545425E0,1.1389658E1,1.5969543E0,1.3194935E1,3.2220043E1,2.2191113E2,8.219614E1,5.9023776E0,1.5841227E0,1.5461059E0,6.601105E-1,0E0,0E0,0E0,0E0,0E0,0E0,0E0,0E0,0E0,0E0,0E0,0E0,0E0,0E0,0E0,0E0,0E0,0E0,0E0,0E0,0E0,0E0,0E0,0E0,0E0,0E0,0E0,0E0,0E0,0E0,0E0,0E0],"parents":[2147483647,0,0,1,1,2,2,3,3,4,4,5,5,6,6,7,7,8,8,9,9,10,10,11,11,12,12,13,13,14,14,15,15,16,16,17,17,18,18,19,19,20,20,21,21,22,22,23,23,24,24,25,25,26,26,27,27,28,28,29,29,30,30],"right_children":[2,4,6,8,10,12,14,16,18,20,22,24,26,28,30,32,34,36,38,40,42,44,46,48,50,52,54,56,58,60,62,-1,-1,-1,-1,-1,-1,-1,-1,-1,-1,-1,-1,-1,-1,-1,-1,-1,-1,-1,-1,-1,-1,-1,-1,-1,-1,-1,-1,-1,-1,-1,-1],"split_conditions":[-8.531764E0,-1.7551176E1,1.0050658E1,-3.4967197E1,6.99E0,-9.950295E0,2.4967848E1,1.3942124E1,4.66E0,1.0050658E1,1.107E1,-1.752617E1,6.79E0,9.56E0,3.506124E1,-1.2026178E1,3E0,2.08E0,-3.5054955E1,-8.035383E0,3.506124E1,2.5035034E1,1.279E1,-3.5054955E1,6.99E0,2.78E0,1.014E1,1.74E0,1.213E1,4.66E0,5.9945225E1,-2.4223235E-4,-3.2298738E-4,-1.3151111E-4,-2.3487884E-4,4.926203E-4,-3.543566E-5,-2.8787283E-4,-1.6388112E-4,-9.961836E-5,6.183736E-4,-2.4367351E-5,-3.023959E-4,-3.7712693E-5,-2.731197E-4,-2.4073989E-4,-3.5913644E-4,-2.8324343E-4,-7.9781355E-5,6.4400985E-4,7.280257E-5,4.6792096E-3,1.6687464E-3,8.844969E-4,1.9795219E-4,1.7928308E-3,1.1471801E-4,-1.0428971E-4,-3.1024893E-4,4.6987367E-5,-1.7503093E-4,-2.4283164E-4,-3.0101484E-4],"split_indices":[0,0,1,0,7,1,1,1,7,1,7,1,7,7,1,1,7,7,1,1,1,1,7,1,7,7,7,7,7,7,1,0,0,0,0,0,0,0,0,0,0,0,0,0,0,0,0,0,0,0,0,0,0,0,0,0,0,0,0,0,0,0,0],"split_type":[0,0,0,0,0,0,0,0,0,0,0,0,0,0,0,0,0,0,0,0,0,0,0,0,0,0,0,0,0,0,0,0,0,0,0,0,0,0,0,0,0,0,0,0,0,0,0,0,0,0,0,0,0,0,0,0,0,0,0,0,0,0,0],"sum_hessian":[2.3587816E8,1.3263145E8,1.0324672E8,6.912638E7,6.3505064E7,6.5351732E7,3.7894984E7,4.333376E7,2.5792624E7,2.3738264E7,3.9766804E7,3.9775584E7,2.5576148E7,1.2585237E7,2.5309748E7,2.8515196E7,1.4818564E7,3.117477E6,2.2675146E7,1.6675151E7,7.063112E6,2.9306816E7,1.0459988E7,3.0283264E7,9.492321E6,8.75118E6,1.6824968E7,8.724548E6,3.860689E6,6.64132E6,1.8668428E7,1.5849424E7,1.2665771E7,4.63822E5,1.4354742E7,1.9993E5,2.917547E6,3.91805E6,1.8757096E7,8.023912E6,8.651239E6,3.375313E6,3.687799E6,2.3552632E7,5.754182E6,5.965439E6,4.494549E6,1.8618144E7,1.1665119E7,3.548155E6,5.944166E6,5.90815E5,8.160365E6,1.0592782E7,6.232187E6,4.7416E4,8.677132E6,2.624811E6,1.235878E6,8.02775E5,5.838545E6,7.049145E6,1.1619284E7],"tree_param":{"num_deleted":"0","num_feature":"8","num_nodes":"63","size_leaf_vector":"1"}},{"base_weights":[1.9028578E-8,-1.2902347E-3,5.150857E-4,-1.7491385E-3,-9.115495E-4,2.1299745E-3,-1.0115779E-3,-1.8833883E-3,-1.4807946E-3,1.7100635E-4,-9.986516E-4,-2.2093575E-3,2.7473734E-3,-4.236033E-4,-1.5288504E-3,-1.4989598E-3,-1.9380917E-3,-1.5679711E-3,-1.3762575E-3,-3.7622658E-4,1.7717318E-3,-1.7986041E-3,-8.9853635E-4,1.0722862E-2,-2.5375227E-3,5.999537E-3,1.8294154E-3,-2.1410312E-3,-1.793239E-4,-1.2982353E-3,-1.7101316E-3,-3.2988057E-4,-2.2156756E-4,-3.2993822E-4,-2.8108608E-4,-1.9008496E-4,-2.4160014E-4,-1.827291E-4,-2.1217231E-4,-1.8235472E-4,-6.022282E-6,6.830594E-4,1.5805679E-4,-2.2324163E-4,-3.924092E-4,-1.789764E-4,-7.49771E-5,1.0793183E-3,5.8581755E-3,-1.5645554E-4,-4.3283557E-4,6.391986E-4,1.4708966E-3,8.732662E-5,4.180199E-4,-4.9886055E-4,-2.2921574E-4,8.1524464E-5,-7.245312E-5,-1.7896328E-4,-2.0790518E-4,-1.982992E-4,-2.648021E-4],"categories":[],"categories_nodes":[],"categories_segments":[],"categories_sizes":[],"default_left":[0,0,0,0,0,0,0,0,0,0,0,0,0,0,0,0,0,0,0,0,0,0,0,0,0,0,0,0,0,0,0,0,0,0,0,0,0,0,0,0,0,0,0,0,0,0,0,0,0,0,0,0,0,0,0,0,0,0,0,0,0,0,0],"id":9,"left_children":[1,3,5,7,9,11,13,15,17,19,21,23,25,27,29,31,33,35,37,39,41,43,45,47,49,51,53,55,57,59,61,-1,-1,-1,-1,-1,-1,-1,-1,-1,-1,-1,-1,-1,-1,-1,-1,-1,-1,-1,-1,-1,-1,-1,-1,-1,-1,-1,-1,-1,-1,-1,-1],"loss_changes":[1.5676906E2,1.1695831E1,4.1565076E2,1.0961838E0,3.476963E0,2.1949792E2,2.6358383E1,4.2650604E-1,9.2466354E-2,2.4053633E0,2.7332344E0,4.3309006E1,2.1412354E2,1.7016344E1,1.9274521E0,3.8640976E-2,2.9799652E-1,7.104111E-2,2.78759E-2,5.7733613E-1,1.3974288E0,9.62986E-1,3.563095E0,2.5238955E1,5.176773E0,1.0446362E2,6.679259E1,3.667513E0,7.7949953E0,1.8732071E-1,5.5319977E-1,0E0,0E0,0E0,0E0,0E0,0E0,0E0,0E0,0E0,0E0,0E0,0E0,0E0,0E0,0E0,0E0,0E0,0E0,0E0,0E0,0E0,0E0,0E0,0E0,0E0,0E0,0E0,0E0,0E0,0E0,0E0,0E0],"parents":[2147483647,0,0,1,1,2,2,3,3,4,4,5,5,6,6,7,7,8,8,9,9,10,10,11,11,12,12,13,13,14,14,15,15,16,16,17,17,18,18,19,19,20,20,21,21,22,22,23,23,24,24,25,25,26,26,27,27,28,28,29,29,30,30],"right_children":[2,4,6,8,10,12,14,16,18,20,22,24,26,28,30,32,34,36,38,40,42,44,46,48,50,52,54,56,58,60,62,-1,-1,-1,-1,-1,-1,-1,-1,-1,-1,-1,-1,-1,-1,-1,-1,-1,-1,-1,-1,-1,-1,-1,-1,-1,-1,-1,-1,-1,-1,-1,-1],"split_conditions":[-1.7445581E1,-4.99664E1,9.035362E0,-6.996063E1,2.9E0,2.28E2,3.496388E1,2.28E2,-5.994909E1,-4.0674E3,2.28E2,4E-1,1.38E1,2.28E2,5.9945225E1,2.2E1,1.19E1,2.28E2,9.5E0,2.97E2,8E-1,-2.0049334E1,-2.9949564E1,-3.1256E3,3.6E0,-3.635E3,-2.5386E3,1.4942289E1,2.03E1,4.003401E1,2.28E2,-3.2988057E-4,-2.2156756E-4,-3.2993822E-4,-2.8108608E-4,-1.9008496E-4,-2.4160014E-4,-1.827291E-4,-2.1217231E-4,-1.8235472E-4,-6.022282E-6,6.830594E-4,1.5805679E-4,-2.2324163E-4,-3.924092E-4,-1.789764E-4,-7.49771E-5,1.0793183E-3,5.8581755E-3,-1.5645554E-4,-4.3283557E-4,6.391986E-4,1.4708966E-3,8.732662E-5,4.180199E-4,-4.9886055E-4,-2.2921574E-4,8.1524464E-5,-7.245312E-5,-1.7896328E-4,-2.0790518E-4,-1.982992E-4,-2.648021E-4],"split_indices":[1,1,1,1,4,5,1,5,1,6,5,4,4,5,1,5,4,5,4,5,4,1,1,6,4,6,6,1,4,1,5,0,0,0,0,0,0,0,0,0,0,0,0,0,0,0,0,0,0,0,0,0,0,0,0,0,0,0,0,0,0,0,0],"split_type":[0,0,0,0,0,0,0,0,0,0,0,0,0,0,0,0,0,0,0,0,0,0,0,0,0,0,0,0,0,0,0,0,0,0,0,0,0,0,0,0,0,0,0,0,0,0,0,0,0,0,0,0,0,0,0,0,0,0,0,0,0,0,0],"sum_hessian":[2.3589666E8,6.7302456E7,1.6859419E8,3.0428348E7,3.6874108E7,8.192976E7,8.666444E7,2.0281632E7,1.0146715E7,2.745942E6,3.412817E7,1.0204981E7,7.1724776E7,4.0560276E7,4.610416E7,2.526519E6,1.7755112E7,5.532764E6,4.613951E6,2.046362E6,6.9958E5,3.7961E6,3.0332066E7,2.5255E5,9.952431E6,1.5788586E7,5.593619E7,5.050722E6,3.550955E7,2.0291082E7,2.581308E7,7.6423E4,2.450096E6,3.499133E6,1.425598E7,6.87848E5,4.844916E6,8.98511E5,3.71544E6,5.85034E5,1.461328E6,1.43516E5,5.56064E5,2.751548E6,1.044552E6,1.7442032E7,1.2890033E7,2.24589E5,2.7961E4,1.879977E6,8.072454E6,1.0838967E7,4.949619E6,2.429097E7,3.164522E7,1.722109E6,3.328613E6,1.0505562E7,2.5003992E7,9.233368E6,1.1057714E7,3.214793E6,2.2598288E7],"tree_param":{"num_deleted":"0","num_feature":"8","num_nodes":"63","size_leaf_vector":"1"}},{"base_weights":[-1.0640406E-7,-7.354314E-4,1.0563437E-3,-1.2617998E-3,-2.1530717E-4,7.0903157E-3,8.3715597E-4,-1.4904526E-3,-9.7064493E-4,8.5712E-3,-2.840326E-4,2.5045949E-3,9.473653E-3,1.6202056E-3,-3.0186886E-4,-1.6419E-3,-1.3768724E-3,-7.526952E-4,-1.4008323E-3,4.3687867E-3,1.1701437E-2,-2.3651936E-3,-5.750958E-6,1.3455941E-2,1.0906719E-3,1.631203E-2,7.840013E-3,-1.5265106E-3,2.2227296E-3,1.08263026E-4,-1.1780342E-3,-3.1379485E-4,-2.3282411E-4,-2.1652287E-4,-1.9653953E-4,2.4489546E-4,-1.1930253E-4,-1.8629781E-4,-2.5022795E-4,1.2603278E-3,2.2962963E-4,1.4147615E-3,2.078258E-3,-3.0179336E-4,-3.9574716E-4,1.2386928E-4,-1.5074848E-4,2.5564826E-3,1.6356196E-3,6.4771087E-4,5.5251814E-5,2.0450042E-3,2.8288823E-3,1.1044169E-3,1.6603983E-3,-2.9616492E-4,-1.3571767E-4,5.330045E-4,2.4927122E-4,-3.534956E-4,3.73969E-5,-1.2245943E-4,-2.4650598E-4],"categories":[],"categories_nodes":[],"categories_segments":[],"categories_sizes":[],"default_left":[0,0,0,0,0,0,0,0,0,0,0,0,0,0,0,0,0,0,0,0,0,0,0,0,0,0,0,0,0,0,0,0,0,0,0,0,0,0,0,0,0,0,0,0,0,0,0,0,0,0,0,0,0,0,0,0,0,0,0,0,0,0,0],"id":10,"left_children":[1,3,5,7,9,11,13,15,17,19,21,23,25,27,29,31,33,35,37,39,41,43,45,47,49,51,53,55,57,59,61,-1,-1,-1,-1,-1,-1,-1,-1,-1,-1,-1,-1,-1,-1,-1,-1,-1,-1,-1,-1,-1,-1,-1,-1,-1,-1,-1,-1,-1,-1,-1,-1],"loss_changes":[1.8323999E2,3.807627E1,1.2802869E2,4.6018066E0,4.2242043E1,3.70849E1,8.3313255E1,6.6599274E-1,2.8508587E0,7.141693E0,4.0199223E1,1.7968395E1,2.494281E1,1.0495099E2,1.3674778E1,6.701584E-1,9.816742E-2,2.0533934E0,4.34227E-1,2.6528783E0,1.520771E0,7.898102E-1,5.0872055E1,1.2144661E0,2.3958898E0,2.937294E0,2.7773666E0,2.4773483E0,3.4676025E1,9.012117E0,2.0419083E0,0E0,0E0,0E0,0E0,0E0,0E0,0E0,0E0,0E0,0E0,0E0,0E0,0E0,0E0,0E0,0E0,0E0,0E0,0E0,0E0,0E0,0E0,0E0,0E0,0E0,0E0,0E0,0E0,0E0,0E0,0E0,0E0],"parents":[2147483647,0,0,1,1,2,2,3,3,4,4,5,5,6,6,7,7,8,8,9,9,10,10,11,11,12,12,13,13,14,14,15,15,16,16,17,17,18,18,19,19,20,20,21,21,22,22,23,23,24,24,25,25,26,26,27,27,28,28,29,29,30,30],"right_children":[2,4,6,8,10,12,14,16,18,20,22,24,26,28,30,32,34,36,38,40,42,44,46,48,50,52,54,56,58,60,62,-1,-1,-1,-1,-1,-1,-1,-1,-1,-1,-1,-1,-1,-1,-1,-1,-1,-1,-1,-1,-1,-1,-1,-1,-1,-1,-1,-1,-1,-1,-1,-1],"split_conditions":[-8.040716E0,-1.7551176E1,3.12E0,-3.505285E1,2.08E0,2.21E2,8.83E0,-7.0059906E1,9.29E0,1.86E2,2.21E2,1.74E0,2.08E0,2.28E2,1.167E1,5.21E0,-5.005485E1,2.3E0,1.167E1,1.74E0,1.139E3,5.69E0,8.59E0,2E-1,2.08E0,1.139E3,2.001E3,-3.5393972E0,5.77E0,2.28E2,1.325E1,-3.1379485E-4,-2.3282411E-4,-2.1652287E-4,-1.9653953E-4,2.4489546E-4,-1.1930253E-4,-1.8629781E-4,-2.5022795E-4,1.2603278E-3,2.2962963E-4,1.4147615E-3,2.078258E-3,-3.0179336E-4,-3.9574716E-4,1.2386928E-4,-1.5074848E-4,2.5564826E-3,1.6356196E-3,6.4771087E-4,5.5251814E-5,2.0450042E-3,2.8288823E-3,1.1044169E-3,1.6603983E-3,-2.9616492E-4,-1.3571767E-4,5.330045E-4,2.4927122E-4,-3.534956E-4,3.73969E-5,-1.2245943E-4,-2.4650598E-4],"split_indices":[0,0,7,0,7,5,7,0,7,5,5,7,7,5,7,7,0,7,7,7,5,7,7,4,7,5,5,0,7,5,7,0,0,0,0,0,0,0,0,0,0,0,0,0,0,0,0,0,0,0,0,0,0,0,0,0,0,0,0,0,0,0,0],"split_type":[0,0,0,0,0,0,0,0,0,0,0,0,0,0,0,0,0,0,0,0,0,0,0,0,0,0,0,0,0,0,0,0,0,0,0,0,0,0,0,0,0,0,0,0,0,0,0,0,0,0,0,0,0,0,0,0,0,0,0,0,0,0,0],"sum_hessian":[2.3588046E8,1.3907768E8,9.6802776E7,6.912392E7,6.995376E7,3.39316E6,9.340962E7,3.871771E7,3.0406212E7,5.4291E5,6.9410856E7,1.160422E6,2.232738E6,5.5354708E7,3.8054908E7,1.6592845E7,2.2124866E7,2.0181484E7,1.0224728E7,2.31764E5,3.11146E5,8.186579E6,6.122427E7,1.32689E5,1.027733E6,4.30532E5,1.802206E6,8.895814E6,4.6458896E7,2.5921218E7,1.2133689E7,2.758458E6,1.3834387E7,1.1062055E7,1.1062811E7,3.54549E5,1.9826936E7,6.413931E6,3.810797E6,9.572E4,1.36044E5,1.51493E5,1.59653E5,3.569723E6,4.616856E6,3.341609E7,2.7808184E7,5.5152E4,7.7537E4,1.87951E5,8.39782E5,2.09853E5,2.20679E5,1.570167E6,2.32039E5,5.170634E6,3.72518E6,1.3776915E7,3.268198E7,1.403011E6,2.4518208E7,6.827614E6,5.306075E6],"tree_param":{"num_deleted":"0","num_feature":"8","num_nodes":"63","size_leaf_vector":"1"}},{"base_weights":[2.0496121E-7,-6.0704834E-4,9.3115756E-4,-1.0726363E-3,-1.7002178E-4,3.6459416E-3,5.57866E-4,-1.2177766E-3,-7.225424E-4,4.413613E-3,-2.7822758E-4,1.4347309E-2,3.3012922E-3,1.1263248E-3,-3.5982742E-4,-1.3607879E-3,-1.0994707E-3,-3.3408945E-4,-9.967396E-4,1.0183543E-2,3.2874946E-3,1.5114335E-4,-1.1092494E-3,1.1168933E-2,1.815668E-2,6.1123567E-3,2.8676356E-3,6.425898E-4,1.4767882E-3,-5.0668004E-5,-1.10972E-3,-2.5855814E-4,-1.9326825E-4,-1.5853127E-4,-1.8815896E-4,4.2220444E-4,-5.91515E-5,-1.2657698E-4,-2.082284E-4,1.2564099E-3,2.2507163E-3,4.2602286E-4,7.5065944E-4,1.6287615E-4,-2.4372587E-6,-1.2596858E-4,-2.6300017E-4,1.2863379E-3,1.8699511E-3,4.9576988E-3,2.3803988E-3,7.9045846E-4,1.1515178E-3,3.8978757E-4,6.107175E-4,6.346294E-5,1.865897E-4,2.9045765E-4,1.614234E-4,-4.8731683E-5,5.42702E-5,-1.3756457E-4,-2.570119E-4],"categories":[],"categories_nodes":[],"categories_segments":[],"categories_sizes":[],"default_left":[0,0,0,0,0,0,0,0,0,0,0,0,0,0,0,0,0,0,0,0,0,0,0,0,0,0,0,0,0,0,0,0,0,0,0,0,0,0,0,0,0,0,0,0,0,0,0,0,0,0,0,0,0,0,0,0,0,0,0,0,0,0,0],"id":11,"left_children":[1,3,5,7,9,11,13,15,17,19,21,23,25,27,29,31,33,35,37,39,41,43,45,47,49,51,53,55,57,59,61,-1,-1,-1,-1,-1,-1,-1,-1,-1,-1,-1,-1,-1,-1,-1,-1,-1,-1,-1,-1,-1,-1,-1,-1,-1,-1,-1,-1,-1,-1,-1,-1],"loss_changes":[1.3335576E2,2.9049381E1,9.437417E1,3.512413E0,3.6524765E1,4.151895E1,4.270843E1,8.2676697E-1,2.1578026E0,1.1035381E1,2.5670755E1,4.252449E0,1.32947235E1,8.570412E0,7.2599607E0,5.807686E-1,1.7647552E-1,1.5904404E0,7.107668E-1,2.4167156E0,1.091402E0,7.421732E0,4.2535934E0,6.441517E-1,5.44236E0,1.9213943E0,3.0602112E0,2.8034153E0,5.397743E0,2.507895E0,1.0630198E0,0E0,0E0,0E0,0E0,0E0,0E0,0E0,0E0,0E0,0E0,0E0,0E0,0E0,0E0,0E0,0E0,0E0,0E0,0E0,0E0,0E0,0E0,0E0,0E0,0E0,0E0,0E0,0E0,0E0,0E0,0E0,0E0],"parents":[2147483647,0,0,1,1,2,2,3,3,4,4,5,5,6,6,7,7,8,8,9,9,10,10,11,11,12,12,13,13,14,14,15,15,16,16,17,17,18,18,19,19,20,20,21,21,22,22,23,23,24,24,25,25,26,26,27,27,28,28,29,29,30,30],"right_children":[2,4,6,8,10,12,14,16,18,20,22,24,26,28,30,32,34,36,38,40,42,44,46,48,50,52,54,56,58,60,62,-1,-1,-1,-1,-1,-1,-1,-1,-1,-1,-1,-1,-1,-1,-1,-1,-1,-1,-1,-1,-1,-1,-1,-1,-1,-1,-1,-1,-1,-1,-1,-1],"split_conditions":[-7.994443E0,-1.7551176E1,4.66E0,-2.9964088E1,2.78E0,1.74E0,9.29E0,-6.005703E1,7.32E0,1.74E0,9.32E0,-3.1256E3,2.66E0,-2.9919E3,1.213E1,5.21E0,1.044E1,2.08E0,1.107E1,-1.7058E3,-1.4409E3,4.66E0,1.213E1,-8.8313E3,3E-1,-2.0721E3,-1.5E0,-2.4485638E0,6.99E0,-2.0874E3,1.451E1,-2.5855814E-4,-1.9326825E-4,-1.5853127E-4,-1.8815896E-4,4.2220444E-4,-5.91515E-5,-1.2657698E-4,-2.082284E-4,1.2564099E-3,2.2507163E-3,4.2602286E-4,7.5065944E-4,1.6287615E-4,-2.4372587E-6,-1.2596858E-4,-2.6300017E-4,1.2863379E-3,1.8699511E-3,4.9576988E-3,2.3803988E-3,7.9045846E-4,1.1515178E-3,3.8978757E-4,6.107175E-4,6.346294E-5,1.865897E-4,2.9045765E-4,1.614234E-4,-4.8731683E-5,5.42702E-5,-1.3756457E-4,-2.570119E-4],"split_indices":[0,0,7,0,7,7,7,0,7,7,7,6,7,6,7,7,7,7,7,6,6,7,7,6,4,6,0,0,7,6,7,0,0,0,0,0,0,0,0,0,0,0,0,0,0,0,0,0,0,0,0,0,0,0,0,0,0,0,0,0,0,0,0],"split_type":[0,0,0,0,0,0,0,0,0,0,0,0,0,0,0,0,0,0,0,0,0,0,0,0,0,0,0,0,0,0,0,0,0,0,0,0,0,0,0,0,0,0,0,0,0,0,0,0,0,0,0,0,0,0,0,0,0,0,0,0,0,0,0],"sum_hessian":[2.3589259E8,1.4276685E8,9.3125736E7,6.912465E7,7.364221E7,1.1257187E7,8.186855E7,4.886601E7,2.025864E7,1.698376E6,7.194383E7,3.51237E5,1.090595E7,5.0553524E7,3.1315024E7,2.212306E7,2.6742946E7,8.382797E6,1.1875842E7,2.77342E5,1.421034E6,4.743513E7,2.4508702E7,1.91479E5,1.59758E5,1.457577E6,9.448373E6,2.1238548E7,2.9314976E7,2.2173516E7,9.14151E6,3.676423E6,1.8446638E7,2.0975732E7,5.767214E6,1.57397E5,8.2254E6,8.5402E6,3.335642E6,2.0172E5,7.5622E4,1.127313E6,2.93721E5,7.204723E6,4.023041E7,1.7279618E7,7.229084E6,6.3853E4,1.27626E5,2.1266E4,1.38492E5,9.4733E5,5.10247E5,7.722419E6,1.725954E6,1.5559113E7,5.679435E6,1.3652792E7,1.5662185E7,1.3319021E7,8.854494E6,6.930247E6,2.211263E6],"tree_param":{"num_deleted":"0","num_feature":"8","num_nodes":"63","size_leaf_vector":"1"}},{"base_weights":[1.8786444E-7,-1.0964674E-3,4.3795136E-4,-1.3688288E-3,-6.3314126E-4,1.8377439E-3,-8.5675076E-4,-1.591803E-3,-1.1456866E-3,-8.009013E-5,-8.573149E-4,8.9744665E-3,1.5218947E-3,-2.0563092E-4,-1.203219E-3,-1.899076E-3,-1.326568E-3,-2.2297224E-3,-1.1371861E-3,-1.1614052E-3,2.494107E-4,-1.7271697E-3,-7.8526867E-4,2.1289259E-3,1.2492989E-2,-2.2726872E-3,1.9937768E-3,-2.072405E-3,4.9813323E-5,-9.60438E-4,-1.4165711E-3,-6.839694E-4,-2.780614E-4,-2.216801E-4,-1.6518171E-4,-4.2935504E-4,-2.4693445E-4,-1.775534E-4,-1.4545942E-4,-9.843629E-5,-2.8435886E-4,4.1669694E-4,1.6121905E-5,-2.1329189E-4,-3.257215E-4,-8.91699E-5,-1.5519417E-4,2.6294051E-3,7.636487E-5,3.4176887E-3,1.5812634E-3,-1.6917045E-4,-4.1287483E-4,5.144815E-4,5.3019186E-5,-4.8134322E-4,-2.3672235E-4,8.735811E-5,-1.04997904E-4,-1.272283E-4,-1.679155E-4,-2.4020886E-4,-1.7006902E-4],"categories":[],"categories_nodes":[],"categories_segments":[],"categories_sizes":[],"default_left":[0,0,0,0,0,0,0,0,0,0,0,0,0,0,0,0,0,0,0,0,0,0,0,0,0,0,0,0,0,0,0,0,0,0,0,0,0,0,0,0,0,0,0,0,0,0,0,0,0,0,0,0,0,0,0,0,0,0,0,0,0,0,0],"id":12,"left_children":[1,3,5,7,9,11,13,15,17,19,21,23,25,27,29,31,33,35,37,39,41,43,45,47,49,51,53,55,57,59,61,-1,-1,-1,-1,-1,-1,-1,-1,-1,-1,-1,-1,-1,-1,-1,-1,-1,-1,-1,-1,-1,-1,-1,-1,-1,-1,-1,-1,-1,-1,-1,-1],"loss_changes":[1.1324262E2,8.492355E0,3.0553436E2,2.1087494E0,3.0888605E0,1.8259866E2,1.9757736E1,1.7277374E0,1.9520187E-1,2.5603251E0,1.1110268E0,8.269147E1,1.3890219E2,1.450484E1,2.9609756E0,1.1846428E0,3.8794327E-1,6.0836792E-2,1.6367531E-1,6.2257123E-1,1.9766111E0,1.8389368E-1,7.78965E-1,2.9075356E1,4.553653E1,4.7131233E0,1.6252475E2,2.0566978E0,1.0684443E1,4.7720337E-1,1.5901604E0,0E0,0E0,0E0,0E0,0E0,0E0,0E0,0E0,0E0,0E0,0E0,0E0,0E0,0E0,0E0,0E0,0E0,0E0,0E0,0E0,0E0,0E0,0E0,0E0,0E0,0E0,0E0,0E0,0E0,0E0,0E0,0E0],"parents":[2147483647,0,0,1,1,2,2,3,3,4,4,5,5,6,6,7,7,8,8,9,9,10,10,11,11,12,12,13,13,14,14,15,15,16,16,17,17,18,18,19,19,20,20,21,21,22,22,23,23,24,24,25,25,26,26,27,27,28,28,29,29,30,30],"right_children":[2,4,6,8,10,12,14,16,18,20,22,24,26,28,30,32,34,36,38,40,42,44,46,48,50,52,54,56,58,60,62,-1,-1,-1,-1,-1,-1,-1,-1,-1,-1,-1,-1,-1,-1,-1,-1,-1,-1,-1,-1,-1,-1,-1,-1,-1,-1,-1,-1,-1,-1,-1,-1],"split_conditions":[-1.7445581E1,-3.502677E1,9.0104E0,-6.0039845E1,6.35E0,3.32E0,2.004871E1,7.71E0,2.08E0,2.28E2,2.21E2,2.21E2,2.21E2,2.21E2,4.9965153E1,2.08E0,1.044E1,-4.504409E1,1.044E1,-2.0049334E1,2.66E0,-2.0049334E1,9.59E0,1.74E0,2.08E0,5.24E0,8.59E0,1.2037499E1,8.9E0,3.506124E1,8.81E0,-6.839694E-4,-2.780614E-4,-2.216801E-4,-1.6518171E-4,-4.2935504E-4,-2.4693445E-4,-1.775534E-4,-1.4545942E-4,-9.843629E-5,-2.8435886E-4,4.1669694E-4,1.6121905E-5,-2.1329189E-4,-3.257215E-4,-8.91699E-5,-1.5519417E-4,2.6294051E-3,7.636487E-5,3.4176887E-3,1.5812634E-3,-1.6917045E-4,-4.1287483E-4,5.144815E-4,5.3019186E-5,-4.8134322E-4,-2.3672235E-4,8.735811E-5,-1.04997904E-4,-1.272283E-4,-1.679155E-4,-2.4020886E-4,-1.7006902E-4],"split_indices":[1,1,1,1,7,7,1,7,7,5,5,5,5,5,1,7,7,1,7,1,7,1,7,7,7,7,7,1,7,1,7,0,0,0,0,0,0,0,0,0,0,0,0,0,0,0,0,0,0,0,0,0,0,0,0,0,0,0,0,0,0,0,0],"split_type":[0,0,0,0,0,0,0,0,0,0,0,0,0,0,0,0,0,0,0,0,0,0,0,0,0,0,0,0,0,0,0,0,0,0,0,0,0,0,0,0,0,0,0,0,0,0,0,0,0,0,0,0,0,0,0,0,0,0,0,0,0,0,0],"sum_hessian":[2.3588498E8,6.729704E7,1.6858794E8,4.2382764E7,2.4914274E7,8.1006344E7,8.758159E7,2.1199352E7,2.1183412E7,7.185983E6,1.7728292E7,3.433148E6,7.757319E7,3.041761E7,5.7163984E7,9.821366E6,1.1377986E7,1.64817E5,2.1018594E7,1.67831E6,5.507673E6,1.35604E6,1.6372251E7,1.165529E6,2.267619E6,8.579797E6,6.899339E7,3.661264E6,2.6756346E7,2.6737924E7,3.042606E7,1.64532E5,9.656834E6,6.807546E6,4.57044E6,7.9076E4,8.5741E4,1.6450283E7,4.568311E6,9.943E5,6.8401E5,2.9272E5,5.214953E6,8.03836E5,5.52204E5,9.27516E6,7.097091E6,1.10923E5,1.054606E6,3.61406E5,1.906213E6,2.53382E6,6.045977E6,3.6786628E7,3.2206768E7,1.109635E6,2.551629E6,1.5644344E7,1.1112002E7,1.5673088E7,1.1064835E7,1.8399982E7,1.2026078E7],"tree_param":{"num_deleted":"0","num_feature":"8","num_nodes":"63","size_leaf_vector":"1"}},{"base_weights":[-1.3026037E-7,-8.5837854E-4,4.1929426E-4,-1.1355014E-3,-4.2998846E-4,1.9935207E-3,-6.333713E-4,-1.3159079E-3,-9.1598823E-4,-1.4815135E-3,-2.804694E-4,-1.2668971E-3,2.457503E-3,-4.457015E-5,-1.0226917E-3,-8.320564E-4,-1.3847293E-3,-9.4521354E-4,-8.201606E-4,-8.4689196E-4,-1.7981457E-3,-3.0928364E-5,-5.921939E-4,7.444327E-3,-1.5386306E-3,4.6931584E-3,1.5997943E-3,-1.8627995E-3,2.1408491E-4,-8.376435E-4,-1.2333721E-3,-3.7598854E-4,-1.18442375E-4,-2.5049105E-4,-1.8220334E-4,-1.1811338E-4,-1.4637214E-4,-1.3718197E-4,-1.1181413E-4,-2.6150276E-5,-1.5370296E-4,4.40623E-4,-2.736401E-4,-4.4297412E-5,1.0159947E-4,-1.3952615E-4,-4.6936653E-5,3.3757226E-3,7.1493397E-4,-4.1736985E-4,-1.8734879E-4,5.580535E-4,1.3764554E-3,1.1364451E-4,3.93163E-4,1.062835E-3,-2.8684008E-4,-2.3692875E-5,1.2078025E-4,-1.0114728E-4,-1.3963575E-4,-1.12108515E-4,-1.9538093E-4],"categories":[],"categories_nodes":[],"categories_segments":[],"categories_sizes":[],"default_left":[0,0,0,0,0,0,0,0,0,0,0,0,0,0,0,0,0,0,0,0,0,0,0,0,0,0,0,0,0,0,0,0,0,0,0,0,0,0,0,0,0,0,0,0,0,0,0,0,0,0,0,0,0,0,0,0,0,0,0,0,0,0,0],"id":13,"left_children":[1,3,5,7,9,11,13,15,17,19,21,23,25,27,29,31,33,35,37,39,41,43,45,47,49,51,53,55,57,59,61,-1,-1,-1,-1,-1,-1,-1,-1,-1,-1,-1,-1,-1,-1,-1,-1,-1,-1,-1,-1,-1,-1,-1,-1,-1,-1,-1,-1,-1,-1,-1,-1],"loss_changes":[8.490539E1,9.192101E0,2.6255447E2,1.8618698E0,4.7817435E0,9.6047226E1,2.1765194E1,8.593254E-1,5.9396744E-2,7.6081085E-1,2.0713031E0,1.8723099E1,1.0657898E2,1.7773415E1,2.2282906E0,2.2837687E-1,1.095684E0,7.847309E-2,3.4961462E-2,1.5070003E-1,3.1247044E-1,2.7692757E0,1.1174803E0,9.65029E0,2.7633362E0,6.721231E1,3.4549973E1,2.0834255E0,7.2760787E0,4.6350098E-1,8.98407E-1,0E0,0E0,0E0,0E0,0E0,0E0,0E0,0E0,0E0,0E0,0E0,0E0,0E0,0E0,0E0,0E0,0E0,0E0,0E0,0E0,0E0,0E0,0E0,0E0,0E0,0E0,0E0,0E0,0E0,0E0,0E0,0E0],"parents":[2147483647,0,0,1,1,2,2,3,3,4,4,5,5,6,6,7,7,8,8,9,9,10,10,11,11,12,12,13,13,14,14,15,15,16,16,17,17,18,18,19,19,20,20,21,21,22,22,23,23,24,24,25,25,26,26,27,27,28,28,29,29,30,30],"right_children":[2,4,6,8,10,12,14,16,18,20,22,24,26,28,30,32,34,36,38,40,42,44,46,48,50,52,54,56,58,60,62,-1,-1,-1,-1,-1,-1,-1,-1,-1,-1,-1,-1,-1,-1,-1,-1,-1,-1,-1,-1,-1,-1,-1,-1,-1,-1,-1,-1,-1,-1,-1,-1],"split_conditions":[-1.2469678E1,-3.0039852E1,7.954432E0,-5.994909E1,2.28E2,2.28E2,2.004871E1,2.28E2,1.479E3,-2.0049334E1,5.05E1,2.2E1,1.86E1,2.28E2,5.0031025E1,4E-1,2.74E1,2.28E2,-2.9615E3,3.6E0,2E-1,-2.2246E3,-1.9593E3,2E-1,-8.95934E0,-2.1893E3,-1.9593E3,2E-1,-2.023E3,3.496388E1,2.28E2,-3.7598854E-4,-1.18442375E-4,-2.5049105E-4,-1.8220334E-4,-1.1811338E-4,-1.4637214E-4,-1.3718197E-4,-1.1181413E-4,-2.6150276E-5,-1.5370296E-4,4.40623E-4,-2.736401E-4,-4.4297412E-5,1.0159947E-4,-1.3952615E-4,-4.6936653E-5,3.3757226E-3,7.1493397E-4,-4.1736985E-4,-1.8734879E-4,5.580535E-4,1.3764554E-3,1.1364451E-4,3.93163E-4,1.062835E-3,-2.8684008E-4,-2.3692875E-5,1.2078025E-4,-1.0114728E-4,-1.3963575E-4,-1.12108515E-4,-1.9538093E-4],"split_indices":[1,1,1,1,5,5,1,5,5,1,4,5,4,5,1,4,4,5,6,4,4,6,6,4,1,6,6,4,6,1,5,0,0,0,0,0,0,0,0,0,0,0,0,0,0,0,0,0,0,0,0,0,0,0,0,0,0,0,0,0,0,0,0],"split_type":[0,0,0,0,0,0,0,0,0,0,0,0,0,0,0,0,0,0,0,0,0,0,0,0,0,0,0,0,0,0,0,0,0,0,0,0,0,0,0,0,0,0,0,0,0,0,0,0,0,0,0,0,0,0,0,0,0,0,0,0,0,0,0],"sum_hessian":[2.3586773E8,7.7428824E7,1.584389E8,4.701507E7,3.0413754E7,6.3490684E7,9.4948216E7,2.5806248E7,2.1208826E7,3.786235E6,2.662752E7,7.909611E6,5.558107E7,3.779211E7,5.71561E7,3.213515E6,2.2592732E7,1.6252249E7,4.956577E6,1.260279E6,2.525956E6,1.4788813E7,1.1838706E7,2.39264E5,7.670347E6,1.5411172E7,4.01699E7,4.706627E6,3.3085488E7,3.0429116E7,2.6726984E7,7.9431E4,3.134084E6,8.438583E6,1.4154149E7,2.639879E6,1.361237E7,2.190291E6,2.766286E6,2.63504E5,9.96775E5,1.3856E4,2.5121E6,1.0768871E7,4.019942E6,5.356463E6,6.482243E6,3.6122E4,2.03142E5,1.448754E6,6.221593E6,1.2663376E7,2.747796E6,2.2015652E7,1.8154248E7,2.5875E4,4.680752E6,2.030556E7,1.2779926E7,1.1059928E7,1.9369188E7,3.329981E6,2.3397004E7],"tree_param":{"num_deleted":"0","num_feature":"8","num_nodes":"63","size_leaf_vector":"1"}},{"base_weights":[-2.2727042E-7,-5.299212E-4,8.531032E-4,-8.8213873E-4,-1.9452369E-4,1.8041229E-3,-7.2607567E-4,-1.0558078E-3,-5.2509434E-4,-9.043557E-4,1.9864665E-4,-4.757813E-4,5.8797626E-3,1.4158907E-4,-1.1378862E-3,-5.372864E-4,-1.4777847E-3,8.743981E-5,-5.499562E-4,-1.2857333E-3,-7.63904E-4,1.8245436E-3,-7.0724596E-4,-1.0478543E-3,7.822267E-4,1.4250337E-2,4.7284365E-3,-1.5058387E-3,3.6693312E-4,-7.7686814E-4,-1.2740003E-3,-7.601323E-5,-1.187258E-4,-3.0514802E-4,-1.09014174E-4,1.2751891E-4,-7.239074E-5,-1.00382866E-4,-7.5278156E-5,-2.3289553E-4,-1.3731836E-4,-2.709381E-5,-1.548471E-4,9.09178E-4,1.8621406E-4,-2.2822968E-4,-8.938324E-5,-2.1857907E-4,-1.10259374E-4,-3.3868384E-4,1.8221972E-4,7.002166E-4,2.746135E-3,1.0564266E-3,3.789798E-4,-3.3624342E-4,-1.5058967E-4,1.7943267E-4,-2.5157435E-5,-1.3507248E-4,-8.339188E-5,-4.651814E-4,-1.8115458E-4],"categories":[],"categories_nodes":[],"categories_segments":[],"categories_sizes":[],"default_left":[0,0,0,0,0,0,0,0,0,0,0,0,0,0,0,0,0,0,0,0,0,0,0,0,0,0,0,0,0,0,0,0,0,0,0,0,0,0,0,0,0,0,0,0,0,0,0,0,0,0,0,0,0,0,0,0,0,0,0,0,0,0,0],"id":14,"left_children":[1,3,5,7,9,11,13,15,17,19,21,23,25,27,29,31,33,35,37,39,41,43,45,47,49,51,53,55,57,59,61,-1,-1,-1,-1,-1,-1,-1,-1,-1,-1,-1,-1,-1,-1,-1,-1,-1,-1,-1,-1,-1,-1,-1,-1,-1,-1,-1,-1,-1,-1,-1,-1],"loss_changes":[1.06624245E2,1.7193806E1,1.3568436E2,4.402096E0,2.0806696E1,5.2395984E2,1.2133701E1,1.0450409E1,3.5378838E-1,1.4234848E0,7.066684E1,2.6023369E1,1.9494098E2,4.0575314E0,1.1316051E0,1.6632795E-1,1.1006077E1,3.93966E-1,1.2807512E-1,7.068882E-1,3.0406933E0,4.241039E1,2.7938833E0,3.1825905E0,1.4864773E1,9.508667E1,9.061896E1,4.85672E-1,4.2628846E0,1.7218876E-1,2.0260124E0,0E0,0E0,0E0,0E0,0E0,0E0,0E0,0E0,0E0,0E0,0E0,0E0,0E0,0E0,0E0,0E0,0E0,0E0,0E0,0E0,0E0,0E0,0E0,0E0,0E0,0E0,0E0,0E0,0E0,0E0,0E0,0E0],"parents":[2147483647,0,0,1,1,2,2,3,3,4,4,5,5,6,6,7,7,8,8,9,9,10,10,11,11,12,12,13,13,14,14,15,15,16,16,17,17,18,18,19,19,20,20,21,21,22,22,23,23,24,24,25,25,26,26,27,27,28,28,29,29,30,30],"right_children":[2,4,6,8,10,12,14,16,18,20,22,24,26,28,30,32,34,36,38,40,42,44,46,48,50,52,54,56,58,60,62,-1,-1,-1,-1,-1,-1,-1,-1,-1,-1,-1,-1,-1,-1,-1,-1,-1,-1,-1,-1,-1,-1,-1,-1,-1,-1,-1,-1,-1,-1,-1,-1],"split_conditions":[-7.944072E0,-1.7517645E1,1.0050658E1,1.3942124E1,-7.052315E0,-9.024927E0,2.004871E1,-1.7445581E1,3.23E0,-5.994909E1,4.950624E0,-1.995894E1,4.66E0,2.21E2,3.506124E1,-2.2453846E1,-3.0051842E1,3.506124E1,2.9950619E1,8.59E0,6.55E0,4.66E0,2.21E2,-5.0029785E1,2.28E2,2.28E2,2.9562817E0,1.4942289E1,7.46E0,1.123E3,3.12E0,-7.601323E-5,-1.187258E-4,-3.0514802E-4,-1.09014174E-4,1.2751891E-4,-7.239074E-5,-1.00382866E-4,-7.5278156E-5,-2.3289553E-4,-1.3731836E-4,-2.709381E-5,-1.548471E-4,9.09178E-4,1.8621406E-4,-2.2822968E-4,-8.938324E-5,-2.1857907E-4,-1.10259374E-4,-3.3868384E-4,1.8221972E-4,7.002166E-4,2.746135E-3,1.0564266E-3,3.789798E-4,-3.3624342E-4,-1.5058967E-4,1.7943267E-4,-2.5157435E-5,-1.3507248E-4,-8.339188E-5,-4.651814E-4,-1.8115458E-4],"split_indices":[0,0,1,1,1,1,1,1,7,1,1,1,7,5,1,0,0,1,1,7,7,7,5,1,5,5,1,1,7,5,7,0,0,0,0,0,0,0,0,0,0,0,0,0,0,0,0,0,0,0,0,0,0,0,0,0,0,0,0,0,0,0,0],"split_type":[0,0,0,0,0,0,0,0,0,0,0,0,0,0,0,0,0,0,0,0,0,0,0,0,0,0,0,0,0,0,0,0,0,0,0,0,0,0,0,0,0,0,0,0,0,0,0,0,0,0,0,0,0,0,0,0,0,0,0,0,0,0,0],"sum_hessian":[2.3589227E8,1.4554629E8,9.034598E7,7.099301E7,7.455328E7,5.6387856E7,3.3958132E7,4.7761476E7,2.3231532E7,2.6574864E7,4.797842E7,3.616002E7,2.0227836E7,1.0929728E7,2.3028404E7,2.1429324E7,2.6332152E7,9.06156E5,2.2325376E7,7.152693E6,1.9422172E7,1.7167024E7,3.0811394E7,2.48566E7,1.1303419E7,2.445817E6,1.778202E7,1.315135E6,9.614593E6,6.305145E6,1.6723258E7,1.9131628E7,2.297696E6,1.5124416E7,1.1207736E7,3.87587E5,5.18569E5,6.416476E6,1.5908901E7,4.156559E6,2.996134E6,6.120906E6,1.3301265E7,2.076944E6,1.5090081E7,3.706705E6,2.7104688E7,1.0766659E7,1.4089942E7,1.407996E6,9.895423E6,7.2754E5,1.718277E6,8.669532E6,9.112488E6,5.33311E5,7.81824E5,3.76883E6,5.845763E6,4.042948E6,2.262197E6,5.85579E5,1.6137679E7],"tree_param":{"num_deleted":"0","num_feature":"8","num_nodes":"63","size_leaf_vector":"1"}},{"base_weights":[-7.758603E-8,-4.3445965E-4,7.736096E-4,-7.180592E-4,-1.1346742E-4,1.6251173E-3,-5.913347E-4,-8.3890953E-4,-4.6223227E-4,3.6544574E-3,-1.880821E-4,-2.7456944E-4,5.7531055E-3,1.6925632E-4,-9.653467E-4,-4.8795555E-4,-1.1117307E-3,-1.8746447E-4,-5.100265E-4,5.741758E-3,-2.8067673E-4,-8.1601576E-4,1.8549734E-4,-7.416335E-4,1.3267739E-3,2.166722E-2,5.1745423E-3,4.429959E-4,-6.8034686E-4,-1.1811386E-3,-7.791266E-4,-6.539883E-5,-1.1218273E-4,-2.7169104E-4,-8.694228E-5,5.779526E-6,-8.921959E-5,-7.005703E-5,-1.0266259E-4,1.494174E-4,1.8342505E-3,1.8554536E-4,-2.7596613E-4,-1.0230121E-4,-1.9370728E-4,2.83092E-4,-1.02222395E-4,-1.5453654E-4,-4.1043363E-6,1.0894956E-3,1.3561768E-4,4.8081325E-3,2.0049778E-3,1.2415774E-3,4.1108884E-4,-3.1272342E-5,1.2211759E-4,-6.542533E-5,-1.9151965E-4,-8.907162E-5,-2.1042563E-4,-1.3327714E-4,-9.245342E-5],"categories":[],"categories_nodes":[],"categories_segments":[],"categories_sizes":[],"default_left":[0,0,0,0,0,0,0,0,0,0,0,0,0,0,0,0,0,0,0,0,0,0,0,0,0,0,0,0,0,0,0,0,0,0,0,0,0,0,0,0,0,0,0,0,0,0,0,0,0,0,0,0,0,0,0,0,0,0,0,0,0,0,0],"id":15,"left_children":[1,3,5,7,9,11,13,15,17,19,21,23,25,27,29,31,33,35,37,39,41,43,45,47,49,51,53,55,57,59,61,-1,-1,-1,-1,-1,-1,-1,-1,-1,-1,-1,-1,-1,-1,-1,-1,-1,-1,-1,-1,-1,-1,-1,-1,-1,-1,-1,-1,-1,-1,-1,-1],"loss_changes":[7.9270195E1,1.3751383E1,9.857257E1,2.4795418E0,1.9921225E1,4.0957153E2,9.268718E0,5.215351E0,3.379078E-1,1.13015995E1,1.6299343E1,2.675216E1,1.5155634E2,2.4979184E0,8.7770844E-1,3.217783E-1,1.1407688E1,3.5096753E-1,1.6428375E-1,2.7675362E1,1.1283755E0,1.6510391E0,6.427522E1,5.7084856E0,2.026553E1,4.97854E1,1.1994327E2,1.964012E0,3.8118017E-1,1.3174124E0,2.0875168E-1,0E0,0E0,0E0,0E0,0E0,0E0,0E0,0E0,0E0,0E0,0E0,0E0,0E0,0E0,0E0,0E0,0E0,0E0,0E0,0E0,0E0,0E0,0E0,0E0,0E0,0E0,0E0,0E0,0E0,0E0,0E0,0E0],"parents":[2147483647,0,0,1,1,2,2,3,3,4,4,5,5,6,6,7,7,8,8,9,9,10,10,11,11,12,12,13,13,14,14,15,15,16,16,17,17,18,18,19,19,20,20,21,21,22,22,23,23,24,24,25,25,26,26,27,27,28,28,29,29,30,30],"right_children":[2,4,6,8,10,12,14,16,18,20,22,24,26,28,30,32,34,36,38,40,42,44,46,48,50,52,54,56,58,60,62,-1,-1,-1,-1,-1,-1,-1,-1,-1,-1,-1,-1,-1,-1,-1,-1,-1,-1,-1,-1,-1,-1,-1,-1,-1,-1,-1,-1,-1,-1,-1,-1],"split_conditions":[-7.4769917E0,-1.4989947E1,1.0027696E1,1.3942124E1,2.66E0,-8.95934E0,2.004871E1,-1.7445581E1,4.99E0,8.004571E0,-6.9737554E0,-1.5951352E1,3.12E0,1.014E1,7.71E0,-2.000889E1,-3.505285E1,5.9945225E1,-2.2453846E1,-6.044609E0,3.496388E1,-1.2026178E1,4.950624E0,-2.9949564E1,3.81E0,2.9562817E0,2.0239964E0,-4.518787E0,1.279E1,3.506124E1,1.044E1,-6.539883E-5,-1.1218273E-4,-2.7169104E-4,-8.694228E-5,5.779526E-6,-8.921959E-5,-7.005703E-5,-1.0266259E-4,1.494174E-4,1.8342505E-3,1.8554536E-4,-2.7596613E-4,-1.0230121E-4,-1.9370728E-4,2.83092E-4,-1.02222395E-4,-1.5453654E-4,-4.1043363E-6,1.0894956E-3,1.3561768E-4,4.8081325E-3,2.0049778E-3,1.2415774E-3,4.1108884E-4,-3.1272342E-5,1.2211759E-4,-6.542533E-5,-1.9151965E-4,-8.907162E-5,-2.1042563E-4,-1.3327714E-4,-9.245342E-5],"split_indices":[0,0,1,1,7,1,1,1,7,1,1,1,7,7,7,0,0,1,0,1,1,1,1,1,7,1,1,0,7,1,7,0,0,0,0,0,0,0,0,0,0,0,0,0,0,0,0,0,0,0,0,0,0,0,0,0,0,0,0,0,0,0,0],"split_type":[0,0,0,0,0,0,0,0,0,0,0,0,0,0,0,0,0,0,0,0,0,0,0,0,0,0,0,0,0,0,0,0,0,0,0,0,0,0,0,0,0,0,0,0,0,0,0,0,0,0,0,0,0,0,0,0,0,0,0,0,0,0,0],"sum_hessian":[2.3586994E8,1.5105885E8,8.481109E7,8.020075E7,7.08581E7,5.2228704E7,3.2582384E7,5.446974E7,2.5731016E7,1.375926E6,6.948217E7,3.5768264E7,1.6460438E7,1.0740499E7,2.1841884E7,2.3823488E7,3.0646252E7,3.812583E6,2.1918432E7,8.99047E5,4.76879E5,2.5917892E7,4.3564276E7,2.7691486E7,8.07678E6,5.77431E5,1.5883007E7,8.123222E6,2.617277E6,1.0117601E7,1.1724284E7,1.985434E7,3.969147E6,1.3240155E7,1.7406096E7,2.452113E6,1.36047E6,1.7584602E7,4.333831E6,5.19198E5,3.79849E5,2.41652E5,2.35227E5,2.0218276E7,5.699616E6,1.4703325E7,2.886095E7,1.9722408E7,7.969079E6,5.36813E5,7.539967E6,2.56482E5,3.20949E5,6.982356E6,8.900651E6,2.948076E6,5.175146E6,1.857036E6,7.60241E5,2.772544E6,7.345057E6,7.011977E6,4.712307E6],"tree_param":{"num_deleted":"0","num_feature":"8","num_nodes":"63","size_leaf_vector":"1"}},{"base_weights":[-7.76074E-8,-2.4447014E-4,1.0314966E-3,-2.7482412E-5,-7.552418E-4,1.9521838E-3,-4.973995E-4,-5.810514E-4,3.9887277E-4,-5.653069E-4,-1.0819978E-3,-3.5650164E-4,6.060625E-3,3.0743622E-4,-8.2795706E-4,-8.534882E-4,-3.9941986E-4,1.0143679E-3,-5.9087336E-4,-7.459346E-4,-4.353618E-4,-1.3119617E-3,-5.433481E-4,-8.7148335E-4,4.949321E-4,8.624663E-3,2.0253637E-3,2.8705287E-3,2.2468362E-4,-1.1985411E-3,-7.2460994E-4,-1.6290823E-4,-1.912468E-5,1.2663122E-4,-6.410387E-5,-6.328669E-5,5.494892E-4,-4.7859514E-5,-1.5670604E-4,-8.203567E-5,-2.06348E-4,4.2013515E-5,-9.598376E-5,-8.695809E-5,-2.78769E-4,-1.0556041E-4,-6.767321E-5,-1.753527E-4,-1.0062142E-4,1.1227857E-3,5.7811023E-5,2.5724296E-3,9.6993457E-4,4.678515E-4,7.753315E-6,1.0211095E-3,3.4936448E-4,5.411645E-5,-6.584143E-5,-1.1501659E-5,-2.1660177E-4,-1.2084433E-4,-7.6781565E-5],"categories":[],"categories_nodes":[],"categories_segments":[],"categories_sizes":[],"default_left":[0,0,0,0,0,0,0,0,0,0,0,0,0,0,0,0,0,0,0,0,0,0,0,0,0,0,0,0,0,0,0,0,0,0,0,0,0,0,0,0,0,0,0,0,0,0,0,0,0,0,0,0,0,0,0,0,0,0,0,0,0,0,0],"id":16,"left_children":[1,3,5,7,9,11,13,15,17,19,21,23,25,27,29,31,33,35,37,39,41,43,45,47,49,51,53,55,57,59,61,-1,-1,-1,-1,-1,-1,-1,-1,-1,-1,-1,-1,-1,-1,-1,-1,-1,-1,-1,-1,-1,-1,-1,-1,-1,-1,-1,-1,-1,-1,-1,-1],"loss_changes":[5.9465088E1,2.1134727E1,6.359344E1,3.1587631E1,3.5286674E0,2.6745447E2,4.5174828E0,2.8814392E0,4.6057625E1,8.439541E-1,2.5889378E0,7.915661E0,1.0496106E2,1.0485489E0,4.6098614E-1,3.9327965E0,1.2139568E0,1.7735355E2,3.5760155E0,1.8855448E0,3.060083E0,5.8613434E0,9.2464924E-2,6.716461E-1,5.209114E0,1.141384E2,8.507685E0,3.295598E-1,4.3251544E-1,7.2281194E-1,1.6221619E-1,0E0,0E0,0E0,0E0,0E0,0E0,0E0,0E0,0E0,0E0,0E0,0E0,0E0,0E0,0E0,0E0,0E0,0E0,0E0,0E0,0E0,0E0,0E0,0E0,0E0,0E0,0E0,0E0,0E0,0E0,0E0,0E0],"parents":[2147483647,0,0,1,1,2,2,3,3,4,4,5,5,6,6,7,7,8,8,9,9,10,10,11,11,12,12,13,13,14,14,15,15,16,16,17,17,18,18,19,19,20,20,21,21,22,22,23,23,24,24,25,25,26,26,27,27,28,28,29,29,30,30],"right_children":[2,4,6,8,10,12,14,16,18,20,22,24,26,28,30,32,34,36,38,40,42,44,46,48,50,52,54,56,58,60,62,-1,-1,-1,-1,-1,-1,-1,-1,-1,-1,-1,-1,-1,-1,-1,-1,-1,-1,-1,-1,-1,-1,-1,-1,-1,-1,-1,-1,-1,-1,-1,-1],"split_conditions":[-4.02334E0,9.59E0,1.2482473E1,-1.4047009E1,1.199E1,-1.00386E1,2.4967848E1,-4.005113E1,7.0282454E0,-5.9623137E0,1.4942289E1,-2.5031105E1,8.004571E0,3E0,5.73E0,2.9950619E1,2.47E0,-6.044609E0,4.003401E1,-1.2469678E1,3.048019E0,-1.404167E1,3.496388E1,-6.0039845E1,2.47E0,5.56E0,9.1E0,1.74E0,1.107E1,3.496388E1,1.044E1,-1.6290823E-4,-1.912468E-5,1.2663122E-4,-6.410387E-5,-6.328669E-5,5.494892E-4,-4.7859514E-5,-1.5670604E-4,-8.203567E-5,-2.06348E-4,4.2013515E-5,-9.598376E-5,-8.695809E-5,-2.78769E-4,-1.0556041E-4,-6.767321E-5,-1.753527E-4,-1.0062142E-4,1.1227857E-3,5.7811023E-5,2.5724296E-3,9.6993457E-4,4.678515E-4,7.753315E-6,1.0211095E-3,3.4936448E-4,5.411645E-5,-6.584143E-5,-1.1501659E-5,-2.1660177E-4,-1.2084433E-4,-7.6781565E-5],"split_indices":[0,7,1,0,7,1,1,0,1,1,1,1,1,7,7,1,7,1,1,1,1,1,1,1,7,7,7,7,7,1,7,0,0,0,0,0,0,0,0,0,0,0,0,0,0,0,0,0,0,0,0,0,0,0,0,0,0,0,0,0,0,0,0],"split_type":[0,0,0,0,0,0,0,0,0,0,0,0,0,0,0,0,0,0,0,0,0,0,0,0,0,0,0,0,0,0,0,0,0,0,0,0,0,0,0,0,0,0,0,0,0,0,0,0,0,0,0,0,0,0,0,0,0,0,0,0,0,0,0],"sum_hessian":[2.3587051E8,1.9069301E8,4.5177504E7,1.3383624E8,5.6856764E7,2.819733E7,1.6980176E7,5.823081E7,7.560543E7,3.59563E7,2.0900464E7,1.8052796E7,1.0144534E7,4.943596E6,1.2036579E7,2.3292862E7,3.4937944E7,4.661616E7,2.8989274E7,1.5044282E7,2.0912018E7,1.464719E7,6.253275E6,1.1248965E7,6.803831E6,6.203059E6,3.941475E6,1.54617E5,4.788979E6,2.624737E6,9.411842E6,1.7641508E7,5.651353E6,7.67667E5,3.417028E7,3.022669E7,1.6389471E7,1.8130536E7,1.0858739E7,1.1431288E7,3.612994E6,4.649149E6,1.6262869E7,6.259811E6,8.387379E6,2.282472E6,3.970803E6,4.530979E6,6.717986E6,1.04958E5,6.698873E6,1.253252E6,4.949807E6,2.536151E6,1.405324E6,1.8692E4,1.35925E5,3.974012E6,8.14967E5,4.71206E5,2.153531E6,6.815986E6,2.595856E6],"tree_param":{"num_deleted":"0","num_feature":"8","num_nodes":"63","size_leaf_vector":"1"}},{"base_weights":[-3.5534345E-8,-3.0957544E-4,6.4458983E-4,-1.02775E-3,-2.0739523E-4,1.3479532E-3,-3.7585635E-4,-3.6632278E-4,-1.6246759E-3,-5.4837175E-4,1.0757421E-4,-1.9900901E-4,5.4206196E-3,2.0736596E-4,-7.019793E-4,-1.2614731E-4,-6.887811E-4,-2.1003222E-3,-3.436382E-4,-6.7360007E-4,-3.1512376E-4,4.9809174E-4,-5.21692E-4,-6.0707505E-4,8.453852E-4,3.7605402E-3,9.478065E-3,-1.7141334E-3,4.701285E-4,-6.090746E-4,-9.491459E-4,-2.5490517E-4,-1.2935125E-5,-7.932601E-5,-1.17481475E-4,-8.562862E-5,-4.4894541E-4,-1.6045115E-4,-3.2284024E-5,-3.7312428E-5,-1.3052815E-4,-3.7679303E-5,-1.3096817E-4,-6.869323E-5,3.4135435E-4,-5.2691867E-5,-1.3632268E-4,-1.20888515E-4,-2.228795E-5,-3.5817488E-4,1.9576131E-4,8.314122E-4,1.1276394E-4,2.036027E-3,6.0863735E-4,-4.6101803E-4,-1.5744605E-4,-7.1324816E-6,1.3617863E-4,-5.9911134E-5,-1.0269703E-4,-3.4067247E-4,-1.3123381E-4],"categories":[],"categories_nodes":[],"categories_segments":[],"categories_sizes":[],"default_left":[0,0,0,0,0,0,0,0,0,0,0,0,0,0,0,0,0,0,0,0,0,0,0,0,0,0,0,0,0,0,0,0,0,0,0,0,0,0,0,0,0,0,0,0,0,0,0,0,0,0,0,0,0,0,0,0,0,0,0,0,0,0,0],"id":17,"left_children":[1,3,5,7,9,11,13,15,17,19,21,23,25,27,29,31,33,35,37,39,41,43,45,47,49,51,53,55,57,59,61,-1,-1,-1,-1,-1,-1,-1,-1,-1,-1,-1,-1,-1,-1,-1,-1,-1,-1,-1,-1,-1,-1,-1,-1,-1,-1,-1,-1,-1,-1,-1,-1],"loss_changes":[4.706562E1,1.1693926E1,5.492154E1,7.8366604E0,1.4982519E1,2.8538568E2,5.9385285E0,7.2920346E-1,6.357025E0,1.9566479E0,1.782064E1,1.3990711E1,8.39899E1,5.6535296E0,4.5982838E-1,3.3884397E-1,6.070304E-2,1.0387131E1,2.6336616E-1,3.6403408E0,8.3475757E-1,7.604816E1,1.8320422E0,2.1520672E0,1.3707913E1,4.7450325E1,8.03721E1,1.2167063E0,2.2321162E0,2.3061085E-1,5.3701496E-1,0E0,0E0,0E0,0E0,0E0,0E0,0E0,0E0,0E0,0E0,0E0,0E0,0E0,0E0,0E0,0E0,0E0,0E0,0E0,0E0,0E0,0E0,0E0,0E0,0E0,0E0,0E0,0E0,0E0,0E0,0E0,0E0],"parents":[2147483647,0,0,1,1,2,2,3,3,4,4,5,5,6,6,7,7,8,8,9,9,10,10,11,11,12,12,13,13,14,14,15,15,16,16,17,17,18,18,19,19,20,20,21,21,22,22,23,23,24,24,25,25,26,26,27,27,28,28,29,29,30,30],"right_children":[2,4,6,8,10,12,14,16,18,20,22,24,26,28,30,32,34,36,38,40,42,44,46,48,50,52,54,56,58,60,62,-1,-1,-1,-1,-1,-1,-1,-1,-1,-1,-1,-1,-1,-1,-1,-1,-1,-1,-1,-1,-1,-1,-1,-1,-1,-1,-1,-1,-1,-1,-1,-1],"split_conditions":[-6.560512E0,2.28E2,9.9588785E0,-1.7449549E1,-1.5035799E1,-8.95934E0,2.004871E1,-3.4967197E1,1.4942289E1,-2.505364E1,6.02404E0,-1.752617E1,-2.9541156E0,2.21E2,7.005262E1,4E-1,-2.2551098E1,-1.4985306E1,1.9959385E1,-1.7445581E1,5.9945225E1,-5.025185E0,4.504392E1,-3.0039852E1,2.28E2,6.02404E0,7.954432E0,1.3942124E1,-2.9085E3,3.496388E1,2E0,-2.5490517E-4,-1.2935125E-5,-7.932601E-5,-1.17481475E-4,-8.562862E-5,-4.4894541E-4,-1.6045115E-4,-3.2284024E-5,-3.7312428E-5,-1.3052815E-4,-3.7679303E-5,-1.3096817E-4,-6.869323E-5,3.4135435E-4,-5.2691867E-5,-1.3632268E-4,-1.20888515E-4,-2.228795E-5,-3.5817488E-4,1.9576131E-4,8.314122E-4,1.1276394E-4,2.036027E-3,6.0863735E-4,-4.6101803E-4,-1.5744605E-4,-7.1324816E-6,1.3617863E-4,-5.9911134E-5,-1.0269703E-4,-3.4067247E-4,-1.3123381E-4],"split_indices":[0,5,1,0,0,1,1,0,1,0,1,1,0,5,1,4,0,1,1,1,1,1,1,1,5,1,1,1,6,1,4,0,0,0,0,0,0,0,0,0,0,0,0,0,0,0,0,0,0,0,0,0,0,0,0,0,0,0,0,0,0,0,0],"split_type":[0,0,0,0,0,0,0,0,0,0,0,0,0,0,0,0,0,0,0,0,0,0,0,0,0,0,0,0,0,0,0,0,0,0,0,0,0,0,0,0,0,0,0,0,0,0,0,0,0,0,0,0,0,0,0,0,0,0,0,0,0,0,0],"sum_hessian":[2.3587384E8,1.5935422E8,7.6519624E7,1.984854E7,1.3950568E8,4.5297436E7,3.1222186E7,9.415567E6,1.0432972E7,6.6987264E7,7.251842E7,3.2828032E7,1.2469404E7,1.1197366E7,2.002482E7,5.396278E6,4.019289E6,7.608102E6,2.82487E6,4.358627E7,2.3400992E7,4.4748104E7,2.7770314E7,2.3605056E7,9.222975E6,8.848923E6,3.620481E6,1.347021E6,9.850345E6,1.4554206E7,5.470614E6,1.33517E5,5.262761E6,1.492068E6,2.527221E6,2.803897E6,4.804205E6,4.24537E5,2.400333E6,1.3788212E7,2.979806E7,2.099558E7,2.405412E6,2.9098234E7,1.564987E7,1.928226E7,8.488055E6,1.6464387E7,7.14067E6,1.148068E6,8.074907E6,5.557197E6,3.291726E6,2.062305E6,1.558176E6,4.42276E5,9.04745E5,4.51303E6,5.337315E6,3.856039E6,1.0698167E7,2.90929E5,5.179685E6],"tree_param":{"num_deleted":"0","num_feature":"8","num_nodes":"63","size_leaf_vector":"1"}},{"base_weights":[-1.383719E-7,5.365639E-4,-2.7924168E-4,-6.8952574E-4,8.417422E-4,-1.282533E-4,-7.7517465E-4,-9.486452E-4,-3.7424453E-4,1.7679646E-3,-2.722251E-4,-5.082866E-4,-6.710393E-6,-9.649388E-4,-3.5037877E-4,-1.9477288E-3,-8.345778E-4,-5.101612E-4,-2.4984803E-4,1.0402024E-2,1.5672479E-3,1.7712604E-4,-6.4208906E-4,-6.606449E-4,-4.5069106E-4,3.2180524E-4,-2.9661812E-4,-4.3302905E-4,-1.3844795E-3,-4.3989063E-4,-2.3194314E-4,-5.842302E-4,-2.5698653E-4,-1.4109458E-4,-1.0060287E-4,-2.3017435E-4,-7.294436E-5,1.2569448E-5,-5.7463305E-5,6.3841767E-4,2.115512E-3,4.1551488E-5,3.5140314E-4,4.8575355E-4,1.5921098E-5,-6.452898E-5,-1.3499221E-4,-1.1082757E-4,-7.845659E-5,-7.3964504E-5,-6.0694154E-5,-2.9617242E-5,1.0687484E-4,-1.2273133E-5,-6.1071296E-5,-4.0627732E-5,-1.08421074E-4,-1.5645158E-4,-3.101994E-4,-6.121322E-5,-1.06997926E-4,-4.5746983E-5,-2.8616949E-5],"categories":[],"categories_nodes":[],"categories_segments":[],"categories_sizes":[],"default_left":[0,0,0,0,0,0,0,0,0,0,0,0,0,0,0,0,0,0,0,0,0,0,0,0,0,0,0,0,0,0,0,0,0,0,0,0,0,0,0,0,0,0,0,0,0,0,0,0,0,0,0,0,0,0,0,0,0,0,0,0,0,0,0],"id":18,"left_children":[1,3,5,7,9,11,13,15,17,19,21,23,25,27,29,31,33,35,37,39,41,43,45,47,49,51,53,55,57,59,61,-1,-1,-1,-1,-1,-1,-1,-1,-1,-1,-1,-1,-1,-1,-1,-1,-1,-1,-1,-1,-1,-1,-1,-1,-1,-1,-1,-1,-1,-1,-1,-1],"loss_changes":[3.5330597E1,3.0193033E1,1.1618923E1,1.313806E0,6.666373E1,5.494423E0,2.9193459E0,1.0059562E0,1.2265885E-1,6.113672E1,4.874999E0,2.5294065E-1,8.583637E0,5.586235E0,1.1855054E-1,4.1297984E-1,1.3770247E-1,8.474958E-2,1.6838986E-1,1.823227E1,3.4493805E1,2.8777678E0,8.791013E-1,8.509135E-2,4.085827E-2,8.571271E0,1.1366076E0,5.187421E-1,3.2663212E0,5.538261E-2,1.447171E-2,0E0,0E0,0E0,0E0,0E0,0E0,0E0,0E0,0E0,0E0,0E0,0E0,0E0,0E0,0E0,0E0,0E0,0E0,0E0,0E0,0E0,0E0,0E0,0E0,0E0,0E0,0E0,0E0,0E0,0E0,0E0,0E0],"parents":[2147483647,0,0,1,1,2,2,3,3,4,4,5,5,6,6,7,7,8,8,9,9,10,10,11,11,12,12,13,13,14,14,15,15,16,16,17,17,18,18,19,19,20,20,21,21,22,22,23,23,24,24,25,25,26,26,27,27,28,28,29,29,30,30],"right_children":[2,4,6,8,10,12,14,16,18,20,22,24,26,28,30,32,34,36,38,40,42,44,46,48,50,52,54,56,58,60,62,-1,-1,-1,-1,-1,-1,-1,-1,-1,-1,-1,-1,-1,-1,-1,-1,-1,-1,-1,-1,-1,-1,-1,-1,-1,-1,-1,-1,-1,-1,-1,-1],"split_conditions":[6.79E0,-3.0039852E1,1.128E1,-5.994909E1,9.9588785E0,-2.0049334E1,1.4942289E1,3.12E0,-4.49559E1,2.08E0,3.0041723E1,-7.005129E1,7.954432E0,-1.4985306E1,4.504392E1,1.74E0,-7.005129E1,2.08E0,4.31E0,-9.950295E0,-9.950295E0,2.08E0,6.003921E1,9.29E0,8.81E0,-7.9888434E0,1.8032436E1,-3.496166E1,1.333E1,1.516E1,1.213E1,-5.842302E-4,-2.5698653E-4,-1.4109458E-4,-1.0060287E-4,-2.3017435E-4,-7.294436E-5,1.2569448E-5,-5.7463305E-5,6.3841767E-4,2.115512E-3,4.1551488E-5,3.5140314E-4,4.8575355E-4,1.5921098E-5,-6.452898E-5,-1.3499221E-4,-1.1082757E-4,-7.845659E-5,-7.3964504E-5,-6.0694154E-5,-2.9617242E-5,1.0687484E-4,-1.2273133E-5,-6.1071296E-5,-4.0627732E-5,-1.08421074E-4,-1.5645158E-4,-3.101994E-4,-6.121322E-5,-1.06997926E-4,-4.5746983E-5,-2.8616949E-5],"split_indices":[7,1,7,1,1,1,1,7,1,7,1,1,1,1,1,7,1,7,7,1,1,7,1,7,7,1,1,1,7,7,7,0,0,0,0,0,0,0,0,0,0,0,0,0,0,0,0,0,0,0,0,0,0,0,0,0,0,0,0,0,0,0,0],"split_type":[0,0,0,0,0,0,0,0,0,0,0,0,0,0,0,0,0,0,0,0,0,0,0,0,0,0,0,0,0,0,0,0,0,0,0,0,0,0,0,0,0,0,0,0,0,0,0,0,0,0,0,0,0,0,0,0,0,0,0,0,0,0,0],"sum_hessian":[2.3585906E8,8.069206E7,1.5516699E8,1.6081748E7,6.461032E7,1.1895175E8,3.6215236E7,8.827066E6,7.254682E6,3.5277984E7,2.9332334E7,2.8824618E7,9.012714E7,2.5032678E7,1.1182558E7,9.0453E5,7.922536E6,3.466811E6,3.787871E6,8.01477E5,3.4476508E7,1.3243132E7,1.6089202E7,7.907301E6,2.0917316E7,4.2250264E7,4.7876868E7,1.1038123E7,1.3994555E7,6.368978E6,4.81358E6,9.7219E4,8.07311E5,4.81002E6,3.112516E6,7.8931E4,3.38788E6,1.080991E6,2.70688E6,3.01259E5,5.00218E5,1.2942219E7,2.153429E7,3.00128E5,1.2943004E7,8.831726E6,7.257476E6,5.041792E6,2.865509E6,1.0891072E7,1.0026245E7,1.8140516E7,2.410975E7,1.626558E7,3.1611288E7,7.077259E6,3.960864E6,9.332339E6,4.662216E6,5.705387E6,6.63591E5,1.735053E6,3.078527E6],"tree_param":{"num_deleted":"0","num_feature":"8","num_nodes":"63","size_leaf_vector":"1"}},{"base_weights":[-6.877008E-8,-9.7095664E-4,1.327148E-4,-1.2794908E-3,-2.8028892E-4,2.139712E-3,2.4911447E-5,-4.0932407E-4,-1.982166E-3,-4.5581232E-4,-4.8135364E-5,2.9667895E-3,-8.117804E-4,2.7349044E-4,-4.35502E-4,-2.096623E-4,-1.0857893E-3,9.863713E-3,-2.1184897E-3,-6.425597E-4,-3.879727E-4,-3.40951E-3,-9.370526E-6,4.0090632E-5,5.0887386E-3,-1.4358455E-4,-1.4804773E-3,-5.3687923E-4,5.057719E-4,-3.1823476E-4,-8.2613697E-4,-2.7779906E-4,-2.8610322E-5,1.1871205E-4,-1.7084998E-4,1.1552669E-3,5.0456272E-3,1.830844E-4,-3.260989E-4,4.0417252E-4,-1.02137295E-4,-3.804853E-5,-6.828015E-5,-3.5991432E-4,-5.842829E-4,-1.3601099E-4,8.2170436E-7,-1.7000426E-4,2.089531E-4,1.0774559E-3,3.031661E-4,8.65898E-5,-4.502585E-5,-5.4924254E-4,-1.8611913E-4,-1.0703235E-4,-5.493953E-5,1.6589319E-4,-4.4740515E-5,-5.703015E-5,-1.9726133E-6,-1.5586389E-4,-4.3868687E-5],"categories":[],"categories_nodes":[],"categories_segments":[],"categories_sizes":[],"default_left":[0,0,0,0,0,0,0,0,0,0,0,0,0,0,0,0,0,0,0,0,0,0,0,0,0,0,0,0,0,0,0,0,0,0,0,0,0,0,0,0,0,0,0,0,0,0,0,0,0,0,0,0,0,0,0,0,0,0,0,0,0,0,0],"id":19,"left_children":[1,3,5,7,9,11,13,15,17,19,21,23,25,27,29,31,33,35,37,39,41,43,45,47,49,51,53,55,57,59,61,-1,-1,-1,-1,-1,-1,-1,-1,-1,-1,-1,-1,-1,-1,-1,-1,-1,-1,-1,-1,-1,-1,-1,-1,-1,-1,-1,-1,-1,-1,-1,-1],"loss_changes":[3.0409445E1,6.0474453E0,4.489556E1,1.199424E1,3.5707545E-1,2.5821125E1,2.2537935E1,1.183656E0,1.7525578E1,6.321859E-2,4.9161315E-1,5.1311462E1,1.0345207E0,2.4071651E1,3.1628046E0,2.1033013E-1,1.9949126E-1,6.3458786E0,1.9883881E0,1.701963E-1,3.3052504E-2,2.1093547E-2,4.9698625E-2,5.513181E0,3.0771347E1,1.3072014E-1,6.0496616E-1,8.587456E-1,4.7963898E1,1.0038981E0,1.811718E0,0E0,0E0,0E0,0E0,0E0,0E0,0E0,0E0,0E0,0E0,0E0,0E0,0E0,0E0,0E0,0E0,0E0,0E0,0E0,0E0,0E0,0E0,0E0,0E0,0E0,0E0,0E0,0E0,0E0,0E0,0E0,0E0],"parents":[2147483647,0,0,1,1,2,2,3,3,4,4,5,5,6,6,7,7,8,8,9,9,10,10,11,11,12,12,13,13,14,14,15,15,16,16,17,17,18,18,19,19,20,20,21,21,22,22,23,23,24,24,25,25,26,26,27,27,28,28,29,29,30,30],"right_children":[2,4,6,8,10,12,14,16,18,20,22,24,26,28,30,32,34,36,38,40,42,44,46,48,50,52,54,56,58,60,62,-1,-1,-1,-1,-1,-1,-1,-1,-1,-1,-1,-1,-1,-1,-1,-1,-1,-1,-1,-1,-1,-1,-1,-1,-1,-1,-1,-1,-1,-1,-1,-1],"split_conditions":[2.21E2,1.4942289E1,3.81E0,-1.404167E1,4.504392E1,2.9950619E1,9.56E0,-2.496814E1,1.74E0,1.9959385E1,1.74E0,-1.2469678E1,5.9945225E1,-2.5031105E1,1.279E1,1.74E0,2.08E0,-1.2421E3,2.08E0,1.74E0,2.9950619E1,6.003921E1,2.08E0,-3.5054955E1,7.954432E0,3.0041723E1,2.08E0,-5.994909E1,1.2037499E1,1.829E3,1.745635E1,-2.7779906E-4,-2.8610322E-5,1.1871205E-4,-1.7084998E-4,1.1552669E-3,5.0456272E-3,1.830844E-4,-3.260989E-4,4.0417252E-4,-1.02137295E-4,-3.804853E-5,-6.828015E-5,-3.5991432E-4,-5.842829E-4,-1.3601099E-4,8.2170436E-7,-1.7000426E-4,2.089531E-4,1.0774559E-3,3.031661E-4,8.65898E-5,-4.502585E-5,-5.4924254E-4,-1.8611913E-4,-1.0703235E-4,-5.493953E-5,1.6589319E-4,-4.4740515E-5,-5.703015E-5,-1.9726133E-6,-1.5586389E-4,-4.3868687E-5],"split_indices":[5,1,7,1,1,1,7,1,7,1,7,1,1,1,7,7,7,6,7,7,1,1,7,1,1,1,7,1,1,5,1,0,0,0,0,0,0,0,0,0,0,0,0,0,0,0,0,0,0,0,0,0,0,0,0,0,0,0,0,0,0,0,0],"split_type":[0,0,0,0,0,0,0,0,0,0,0,0,0,0,0,0,0,0,0,0,0,0,0,0,0,0,0,0,0,0,0,0,0,0,0,0,0,0,0,0,0,0,0,0,0,0,0,0,0,0,0,0,0,0,0,0,0,0,0,0,0,0,0],"sum_hessian":[2.3588214E8,2.8379164E7,2.0750298E8,1.961623E7,8.762935E6,1.0577601E7,1.9692538E8,8.763653E6,1.0852577E7,4.990094E6,3.772841E6,8.262308E6,2.315293E6,1.2788161E8,6.904378E7,6.766493E6,1.99716E6,1.23471E5,1.0729106E7,1.329705E6,3.660389E6,4.3013E4,3.729828E6,3.472652E6,4.789656E6,1.158081E6,1.157212E6,2.8489424E7,9.9392184E7,5.310257E7,1.5941205E7,7.709E4,6.689403E6,5.505E4,1.94211E6,1.1318E5,1.0291E4,1.75426E5,1.055368E7,1.5109E4,1.314596E6,1.220983E6,2.439406E6,1.3969E4,2.9044E4,6.0711E4,3.669117E6,1.859677E6,1.612975E6,2.846394E6,1.943262E6,2.06671E5,9.5141E5,1.14573E5,1.042639E6,1.3996388E7,1.4493036E7,5.691076E7,4.2481424E7,4.4137676E7,8.964891E6,1.1394443E7,4.546762E6],"tree_param":{"num_deleted":"0","num_feature":"8","num_nodes":"63","size_leaf_vector":"1"}},{"base_weights":[1.237497E-7,-1.8158143E-4,8.750821E-4,-3.9865894E-4,1.9393153E-4,-3.052793E-4,1.551979E-3,-8.824043E-4,-2.8529527E-4,-3.742794E-4,6.054682E-4,-4.939641E-4,7.960008E-5,5.5307825E-3,2.9596657E-5,-2.1222225E-4,-1.3055366E-3,-4.4136593E-4,3.098048E-5,-5.51506E-4,-7.493665E-5,-1.4508757E-4,1.0652784E-3,-6.942592E-4,-3.6566108E-4,-1.3965571E-3,2.8950197E-4,2.5593925E-3,9.434892E-3,1.0802185E-3,-3.759686E-4,1.0923426E-5,-6.529059E-5,-2.606493E-4,-3.3136388E-5,-8.233674E-5,-3.5622965E-5,7.7307726E-5,-9.4567455E-5,-2.038798E-5,-1.3809351E-4,-2.4676776E-5,-4.9182154E-7,-8.548213E-5,3.668582E-5,5.037044E-4,-6.414749E-6,-2.5469952E-4,-9.206295E-5,-6.839558E-5,-4.759683E-5,3.1303117E-4,-2.2275158E-4,1.563986E-4,1.0787794E-7,1.3188978E-3,3.3145532E-4,2.060577E-3,8.77238E-4,-2.696293E-4,2.23414E-4,5.072066E-6,-7.780571E-5],"categories":[],"categories_nodes":[],"categories_segments":[],"categories_sizes":[],"default_left":[0,0,0,0,0,0,0,0,0,0,0,0,0,0,0,0,0,0,0,0,0,0,0,0,0,0,0,0,0,0,0,0,0,0,0,0,0,0,0,0,0,0,0,0,0,0,0,0,0,0,0,0,0,0,0,0,0,0,0,0,0,0,0],"id":20,"left_children":[1,3,5,7,9,11,13,15,17,19,21,23,25,27,29,31,33,35,37,39,41,43,45,47,49,51,53,55,57,59,61,-1,-1,-1,-1,-1,-1,-1,-1,-1,-1,-1,-1,-1,-1,-1,-1,-1,-1,-1,-1,-1,-1,-1,-1,-1,-1,-1,-1,-1,-1,-1,-1],"loss_changes":[3.7502777E1,1.5922059E1,3.2409843E1,6.7876606E0,1.6731607E1,1.0736216E0,1.5615584E2,6.6637554E0,4.9497128E0,1.5944524E0,1.4321105E1,2.5494075E-1,1.5069321E0,8.276199E1,7.9448447E0,5.782207E-1,6.7513065E0,1.4721937E0,1.0615624E1,2.8958902E0,7.174113E-2,2.6093965E0,6.537247E1,3.1300545E-1,2.640307E-2,1.8655956E-1,9.261054E-1,8.830105E0,4.7576355E1,6.1153154E0,7.868546E-1,0E0,0E0,0E0,0E0,0E0,0E0,0E0,0E0,0E0,0E0,0E0,0E0,0E0,0E0,0E0,0E0,0E0,0E0,0E0,0E0,0E0,0E0,0E0,0E0,0E0,0E0,0E0,0E0,0E0,0E0,0E0,0E0],"parents":[2147483647,0,0,1,1,2,2,3,3,4,4,5,5,6,6,7,7,8,8,9,9,10,10,11,11,12,12,13,13,14,14,15,15,16,16,17,17,18,18,19,19,20,20,21,21,22,22,23,23,24,24,25,25,26,26,27,27,28,28,29,29,30,30],"right_children":[2,4,6,8,10,12,14,16,18,20,22,24,26,28,30,32,34,36,38,40,42,44,46,48,50,52,54,56,58,60,62,-1,-1,-1,-1,-1,-1,-1,-1,-1,-1,-1,-1,-1,-1,-1,-1,-1,-1,-1,-1,-1,-1,-1,-1,-1,-1,-1,-1,-1,-1,-1,-1],"split_conditions":[-3.5393972E0,1.107E3,-1.39776535E1,2.21E2,-1.4958041E1,-2.9949564E1,8.044785E0,-1.7449549E1,-8.960548E0,8.968685E0,-7.968169E0,-6.996063E1,2.28E2,-7.9888434E0,1.602547E1,-4.005113E1,1.4942289E1,9.9588785E0,6.945779E0,-1.7445581E1,-2.9615E3,-3.496166E1,5.9626637E0,2.9E0,-4.504409E1,4E-1,1.86E1,2E0,-4.96198E0,2.28E2,2.9950619E1,1.0923426E-5,-6.529059E-5,-2.606493E-4,-3.3136388E-5,-8.233674E-5,-3.5622965E-5,7.7307726E-5,-9.4567455E-5,-2.038798E-5,-1.3809351E-4,-2.4676776E-5,-4.9182154E-7,-8.548213E-5,3.668582E-5,5.037044E-4,-6.414749E-6,-2.5469952E-4,-9.206295E-5,-6.839558E-5,-4.759683E-5,3.1303117E-4,-2.2275158E-4,1.563986E-4,1.0787794E-7,1.3188978E-3,3.3145532E-4,2.060577E-3,8.77238E-4,-2.696293E-4,2.23414E-4,5.072066E-6,-7.780571E-5],"split_indices":[0,5,1,5,0,1,1,0,0,1,1,1,5,1,1,0,1,1,1,1,6,1,1,4,1,4,4,4,1,5,1,0,0,0,0,0,0,0,0,0,0,0,0,0,0,0,0,0,0,0,0,0,0,0,0,0,0,0,0,0,0,0,0],"split_type":[0,0,0,0,0,0,0,0,0,0,0,0,0,0,0,0,0,0,0,0,0,0,0,0,0,0,0,0,0,0,0,0,0,0,0,0,0,0,0,0,0,0,0,0,0,0,0,0,0,0,0,0,0,0,0,0,0,0,0,0,0,0,0],"sum_hessian":[2.3588958E8,1.9532571E8,4.0563868E7,1.2377407E8,7.155164E7,1.478392E7,2.5779948E7,2.3499028E7,1.0027505E8,3.0054804E7,4.1496836E7,9.920469E6,4.863451E6,7.134268E6,1.864568E7,9.094548E6,1.4404481E7,6.71426E7,3.3132444E7,1.8878024E7,1.1176781E7,1.5764381E7,2.5732456E7,3.873503E6,6.046966E6,6.05463E5,4.257988E6,4.051047E6,3.083221E6,5.193041E6,1.3452638E7,3.992423E6,5.102125E6,1.030062E7,4.103861E6,4.3955988E7,2.3186612E7,1.9125622E7,1.4006823E7,8.880051E6,9.997973E6,4.967369E6,6.209412E6,7.542171E6,8.22221E6,8.384122E6,1.7348332E7,2.8761E5,3.585893E6,2.108519E6,3.938447E6,1.4993E4,5.9047E5,1.18014E6,3.077848E6,2.15193E5,3.835854E6,1.401761E6,1.68146E6,6.46505E5,4.546536E6,3.475317E6,9.977321E6],"tree_param":{"num_deleted":"0","num_feature":"8","num_nodes":"63","size_leaf_vector":"1"}},{"base_weights":[4.1074113E-8,-2.441588E-4,5.0856813E-4,-3.5813692E-4,1.0606157E-4,-3.071094E-4,9.627571E-4,-5.712764E-4,-2.5767848E-4,-3.6443357E-4,4.6655064E-4,-4.572215E-4,-1.3798356E-5,3.353132E-3,-1.3367672E-4,-7.0139614E-4,-2.6130036E-4,-4.1406113E-4,-1.277949E-4,-5.5538124E-4,-5.0559272E-5,-6.59202E-5,8.93297E-4,-4.7786783E-5,-5.154968E-4,-3.51794E-4,5.70756E-4,1.0768874E-3,5.298396E-3,2.9257315E-4,-4.2457288E-4,-4.55462E-5,-1.5324084E-4,-9.963903E-6,-5.299996E-5,-7.5521326E-5,-3.3251577E-5,-6.4486696E-5,1.5543257E-5,-1.9199904E-5,-1.6458603E-4,-3.9771574E-5,-2.6388461E-6,-7.469518E-5,3.1141917E-5,-5.800236E-5,1.7993429E-4,-1.668793E-4,-2.1705682E-6,-1.12022426E-4,-5.497322E-5,-1.7566982E-4,-2.2721271E-5,3.8975355E-5,2.0051829E-4,-5.7248133E-5,4.3273662E-4,6.124187E-4,1.6133008E-3,-2.3115207E-4,8.148441E-5,-5.334239E-5,-9.1203525E-5],"categories":[],"categories_nodes":[],"categories_segments":[],"categories_sizes":[],"default_left":[0,0,0,0,0,0,0,0,0,0,0,0,0,0,0,0,0,0,0,0,0,0,0,0,0,0,0,0,0,0,0,0,0,0,0,0,0,0,0,0,0,0,0,0,0,0,0,0,0,0,0,0,0,0,0,0,0,0,0,0,0,0,0],"id":21,"left_children":[1,3,5,7,9,11,13,15,17,19,21,23,25,27,29,31,33,35,37,39,41,43,45,47,49,51,53,55,57,59,61,-1,-1,-1,-1,-1,-1,-1,-1,-1,-1,-1,-1,-1,-1,-1,-1,-1,-1,-1,-1,-1,-1,-1,-1,-1,-1,-1,-1,-1,-1,-1,-1],"loss_changes":[2.9292206E1,6.3610964E0,2.835017E1,2.5742884E0,6.636425E0,1.2051003E0,1.2882776E2,1.5534286E0,1.6597414E0,1.0173168E0,5.034021E0,4.3197513E-1,1.8306803E0,6.844043E1,4.178314E0,3.45502E0,2.0422685E-1,6.3776016E-1,3.1209369E0,2.4440277E0,4.541923E-2,1.1647791E0,4.820902E0,8.002003E-2,5.462861E-1,9.63599E-1,8.085258E-1,1.8782314E1,5.5285126E1,6.2821655E0,2.5336862E-1,0E0,0E0,0E0,0E0,0E0,0E0,0E0,0E0,0E0,0E0,0E0,0E0,0E0,0E0,0E0,0E0,0E0,0E0,0E0,0E0,0E0,0E0,0E0,0E0,0E0,0E0,0E0,0E0,0E0,0E0,0E0,0E0],"parents":[2147483647,0,0,1,1,2,2,3,3,4,4,5,5,6,6,7,7,8,8,9,9,10,10,11,11,12,12,13,13,14,14,15,15,16,16,17,17,18,18,19,19,20,20,21,21,22,22,23,23,24,24,25,25,26,26,27,27,28,28,29,29,30,30],"right_children":[2,4,6,8,10,12,14,16,18,20,22,24,26,28,30,32,34,36,38,40,42,44,46,48,50,52,54,56,58,60,62,-1,-1,-1,-1,-1,-1,-1,-1,-1,-1,-1,-1,-1,-1,-1,-1,-1,-1,-1,-1,-1,-1,-1,-1,-1,-1,-1,-1,-1,-1,-1,-1],"split_conditions":[-6.560512E0,1.44E3,-1.2540639E1,-4.4166E3,-1.7551176E1,-2.9949564E1,8.021265E0,1.4942289E1,5.75E2,8.968685E0,-2.9335E3,2.28E2,1.107E3,-7.968169E0,2.004871E1,-1.2469678E1,-3.0051842E1,1.2037499E1,-1.7551176E1,-1.2469678E1,1.3942124E1,-6.6276E3,-2.9949564E1,2.2E1,-6.996063E1,2.28E2,-1.6177E3,-2.993151E0,-2.4485638E0,2.21E2,7.005262E1,-4.55462E-5,-1.5324084E-4,-9.963903E-6,-5.299996E-5,-7.5521326E-5,-3.3251577E-5,-6.4486696E-5,1.5543257E-5,-1.9199904E-5,-1.6458603E-4,-3.9771574E-5,-2.6388461E-6,-7.469518E-5,3.1141917E-5,-5.800236E-5,1.7993429E-4,-1.668793E-4,-2.1705682E-6,-1.12022426E-4,-5.497322E-5,-1.7566982E-4,-2.2721271E-5,3.8975355E-5,2.0051829E-4,-5.7248133E-5,4.3273662E-4,6.124187E-4,1.6133008E-3,-2.3115207E-4,8.148441E-5,-5.334239E-5,-9.1203525E-5],"split_indices":[0,5,1,6,0,1,1,1,5,1,6,5,5,1,1,1,0,1,0,1,1,6,1,5,1,5,6,0,0,5,1,0,0,0,0,0,0,0,0,0,0,0,0,0,0,0,0,0,0,0,0,0,0,0,0,0,0,0,0,0,0,0,0],"split_type":[0,0,0,0,0,0,0,0,0,0,0,0,0,0,0,0,0,0,0,0,0,0,0,0,0,0,0,0,0,0,0,0,0,0,0,0,0,0,0,0,0,0,0,0,0,0,0,0,0,0,0,0,0,0,0,0,0,0,0,0,0,0,0],"sum_hessian":[2.3588078E8,1.5935627E8,7.652451E7,1.20228344E8,3.9127936E7,2.7370272E7,4.915424E7,3.851413E7,8.1714216E7,1.697408E7,2.2153854E7,1.810461E7,9.265661E6,1.5456646E7,3.369759E7,2.7126952E7,1.1387175E7,3.7075044E7,4.4639172E7,1.0553676E7,6.420404E6,9.856034E6,1.229782E7,2.255782E6,1.5848828E7,5.870991E6,3.39467E6,7.122397E6,8.334249E6,1.3668765E7,2.0028828E7,1.2098523E7,1.502843E7,3.652725E6,7.73445E6,2.5311162E7,1.1763881E7,1.9361964E7,2.5277208E7,5.900086E6,4.65359E6,8.55018E5,5.565386E6,3.820896E6,6.035138E6,2.374407E6,9.923413E6,6.8442E4,2.18734E6,6.209409E6,9.639419E6,1.153397E6,4.717594E6,2.414617E6,9.80053E5,3.942203E6,3.180194E6,6.815916E6,1.518333E6,1.643839E6,1.2024926E7,1.4557019E7,5.47181E6],"tree_param":{"num_deleted":"0","num_feature":"8","num_nodes":"63","size_leaf_vector":"1"}},{"base_weights":[-2.4334252E-8,4.005875E-4,-2.3912074E-4,-2.6908706E-4,9.827946E-4,-1.2195333E-4,-5.6742755E-4,-6.18485E-4,2.1186655E-5,6.123994E-3,8.7373913E-4,-2.402918E-4,3.1020615E-4,-2.1933705E-4,-7.799365E-4,-1.445448E-3,-5.429812E-4,3.141538E-3,-1.055807E-5,8.328215E-3,4.048498E-3,5.353353E-4,1.3209797E-3,-6.5968174E-4,-1.8340923E-4,-1.4234209E-4,4.4306982E-4,-8.4729756E-5,-3.4580796E-4,-6.5379514E-4,-1.2372534E-3,-2.9947463E-4,-1.2088105E-4,-1.0428557E-4,-5.496224E-5,7.180244E-5,7.000675E-4,-4.132714E-5,2.976376E-5,8.667495E-4,1.7090605E-3,1.4134849E-3,5.5878854E-4,5.0864757E-5,1.9999311E-4,3.603359E-4,1.6421368E-4,-5.4647928E-5,-1.17813164E-4,-3.578214E-5,-4.431516E-6,-4.153164E-5,1.6876076E-5,4.205886E-5,1.1264577E-4,-6.195703E-6,-3.098483E-5,-4.7509886E-5,-9.2442715E-5,-1.178031E-4,-6.0810373E-5,-1.5908503E-4,-2.3783237E-4],"categories":[],"categories_nodes":[],"categories_segments":[],"categories_sizes":[],"default_left":[0,0,0,0,0,0,0,0,0,0,0,0,0,0,0,0,0,0,0,0,0,0,0,0,0,0,0,0,0,0,0,0,0,0,0,0,0,0,0,0,0,0,0,0,0,0,0,0,0,0,0,0,0,0,0,0,0,0,0,0,0,0,0],"id":22,"left_children":[1,3,5,7,9,11,13,15,17,19,21,23,25,27,29,31,33,35,37,39,41,43,45,47,49,51,53,55,57,59,61,-1,-1,-1,-1,-1,-1,-1,-1,-1,-1,-1,-1,-1,-1,-1,-1,-1,-1,-1,-1,-1,-1,-1,-1,-1,-1,-1,-1,-1,-1,-1,-1],"loss_changes":[2.2593603E1,3.4373283E1,5.682209E0,4.1583595E0,2.6441853E1,5.567468E0,2.8739815E0,1.161715E0,2.2183614E0,4.481472E0,6.989418E0,2.038794E0,1.407114E0,2.507255E-1,1.3916473E0,5.486083E-1,4.5833302E-1,9.1624236E-1,1.2275709E0,3.7133865E0,8.765068E-1,4.1165853E0,4.865616E0,3.7907553E-1,6.384616E-1,1.8210553E-1,9.061518E-1,3.774632E-2,5.9716105E-2,6.179037E-1,3.2095957E-1,0E0,0E0,0E0,0E0,0E0,0E0,0E0,0E0,0E0,0E0,0E0,0E0,0E0,0E0,0E0,0E0,0E0,0E0,0E0,0E0,0E0,0E0,0E0,0E0,0E0,0E0,0E0,0E0,0E0,0E0,0E0,0E0],"parents":[2147483647,0,0,1,1,2,2,3,3,4,4,5,5,6,6,7,7,8,8,9,9,10,10,11,11,12,12,13,13,14,14,15,15,16,16,17,17,18,18,19,19,20,20,21,21,22,22,23,23,24,24,25,25,26,26,27,27,28,28,29,29,30,30],"right_children":[2,4,6,8,10,12,14,16,18,20,22,24,26,28,30,32,34,36,38,40,42,44,46,48,50,52,54,56,58,60,62,-1,-1,-1,-1,-1,-1,-1,-1,-1,-1,-1,-1,-1,-1,-1,-1,-1,-1,-1,-1,-1,-1,-1,-1,-1,-1,-1,-1,-1,-1,-1,-1],"split_conditions":[6.99E0,-1.0955098E1,1.107E1,-2.505364E1,2.08E0,-4.518787E0,-1.3944756E1,3E0,1.74E0,1.74E0,-2.1402E3,-7.7318E3,-5.1839E3,-3.4967197E1,1.4E1,-5.9968674E1,-5.9968674E1,-4.4961E3,-2.9335E3,-3.1256E3,2E-1,-2.4485638E0,9.8E0,-2.2551098E1,-8.488147E0,-1.5087835E0,-1.5087835E0,-2.4397E3,1.516E1,-4.518787E0,1.55E1,-2.9947463E-4,-1.2088105E-4,-1.0428557E-4,-5.496224E-5,7.180244E-5,7.000675E-4,-4.132714E-5,2.976376E-5,8.667495E-4,1.7090605E-3,1.4134849E-3,5.5878854E-4,5.0864757E-5,1.9999311E-4,3.603359E-4,1.6421368E-4,-5.4647928E-5,-1.17813164E-4,-3.578214E-5,-4.431516E-6,-4.153164E-5,1.6876076E-5,4.205886E-5,1.1264577E-4,-6.195703E-6,-3.098483E-5,-4.7509886E-5,-9.2442715E-5,-1.178031E-4,-6.0810373E-5,-1.5908503E-4,-2.3783237E-4],"split_indices":[7,0,7,0,7,0,0,7,7,7,6,6,6,0,7,0,0,6,6,6,4,0,4,0,0,0,0,6,7,0,7,0,0,0,0,0,0,0,0,0,0,0,0,0,0,0,0,0,0,0,0,0,0,0,0,0,0,0,0,0,0,0,0],"split_type":[0,0,0,0,0,0,0,0,0,0,0,0,0,0,0,0,0,0,0,0,0,0,0,0,0,0,0,0,0,0,0,0,0,0,0,0,0,0,0,0,0,0,0,0,0,0,0,0,0,0,0,0,0,0,0,0,0,0,0,0,0,0,0],"sum_hessian":[2.3587867E8,8.816166E7,1.4771701E8,4.100095E7,4.7160708E7,1.0886488E8,3.885212E7,1.8605638E7,2.2395316E7,9.79595E5,4.618111E7,8.546261E7,2.3402272E7,1.4727847E7,2.4124272E7,1.556617E6,1.704902E7,2.25542E5,2.2169774E7,4.75064E5,5.04531E5,2.6289332E7,1.989178E7,1.020704E7,7.525557E7,5.311324E6,1.8090948E7,7.134431E6,7.593416E6,1.8908704E7,5.21557E6,8.36176E5,7.20441E5,9.15474E6,7.894281E6,8.2151E4,1.43391E5,9.775742E6,1.2394032E7,2.59345E5,2.15719E5,2.862E4,4.75911E5,2.1100242E7,5.189091E6,3.441696E6,1.6450084E7,3.047785E6,7.159255E6,5.540204E7,1.9853528E7,3.47622E6,1.835104E6,1.1836981E7,6.253968E6,5.25974E6,1.874691E6,6.856379E6,7.37037E5,1.2361531E7,6.547172E6,3.460235E6,1.755335E6],"tree_param":{"num_deleted":"0","num_feature":"8","num_nodes":"63","size_leaf_vector":"1"}},{"base_weights":[-2.5319133E-8,1.9083685E-3,-3.7791993E-5,2.749998E-3,-1.0960585E-3,-7.6477136E-4,5.6579254E-5,-1.4386824E-4,4.8925118E-3,-2.6242163E-3,-7.2850013E-4,1.4123464E-5,-1.0137979E-3,4.7827562E-4,-1.7456194E-4,-1.3885899E-3,1.2565363E-3,1.6825835E-3,8.256572E-3,-1.2494418E-3,-3.998808E-3,-2.4482896E-4,-1.4228108E-3,1.0676902E-4,-2.3148132E-4,-1.6750073E-3,-1.668618E-4,7.897965E-4,-3.8223687E-4,-4.6442874E-5,-4.3850736E-4,-4.4893645E-4,-1.5028294E-4,2.3333017E-5,3.617713E-4,1.0915127E-3,6.366409E-5,1.6161449E-3,4.4313207E-4,3.1002466E-5,-2.4685144E-4,-5.0948723E-4,-7.07675E-4,8.7584805E-5,-5.8959307E-5,-8.368674E-5,-3.0050712E-4,-7.5036523E-6,2.3736073E-5,-7.2954026E-6,-5.7430516E-5,-1.13464754E-4,-2.8815743E-4,-5.1538507E-5,1.1021301E-5,-2.381853E-5,2.5795517E-4,-2.3583563E-5,-1.0554394E-4,