{"learner":{"attributes":{"best_iteration":"999","best_score":"0.00351427065578713","scikit_learn":"{\"_estimator_type\": \"regressor\"}"},"feature_names":[],"feature_types":[],"gradient_booster":{"model":{"gbtree_model_param":{"num_parallel_tree":"1","num_trees":"1000"},"iteration_indptr":[0,1,2,3,4,5,6,7,8,9,10,11,12,13,14,15,16,17,18,19,20,21,22,23,24,25,26,27,28,29,30,31,32,33,34,35,36,37,38,39,40,41,42,43,44,45,46,47,48,49,50,51,52,53,54,55,56,57,58,59,60,61,62,63,64,65,66,67,68,69,70,71,72,73,74,75,76,77,78,79,80,81,82,83,84,85,86,87,88,89,90,91,92,93,94,95,96,97,98,99,100,101,102,103,104,105,106,107,108,109,110,111,112,113,114,115,116,117,118,119,120,121,122,123,124,125,126,127,128,129,130,131,132,133,134,135,136,137,138,139,140,141,142,143,144,145,146,147,148,149,150,151,152,153,154,155,156,157,158,159,160,161,162,163,164,165,166,167,168,169,170,171,172,173,174,175,176,177,178,179,180,181,182,183,184,185,186,187,188,189,190,191,192,193,194,195,196,197,198,199,200,201,202,203,204,205,206,207,208,209,210,211,212,213,214,215,216,217,218,219,220,221,222,223,224,225,226,227,228,229,230,231,232,233,234,235,236,237,238,239,240,241,242,243,244,245,246,247,248,249,250,251,252,253,254,255,256,257,258,259,260,261,262,263,264,265,266,267,268,269,270,271,272,273,274,275,276,277,278,279,280,281,282,283,284,285,286,287,288,289,290,291,292,293,294,295,296,297,298,299,300,301,302,303,304,305,306,307,308,309,310,311,312,313,314,315,316,317,318,319,320,321,322,323,324,325,326,327,328,329,330,331,332,333,334,335,336,337,338,339,340,341,342,343,344,345,346,347,348,349,350,351,352,353,354,355,356,357,358,359,360,361,362,363,364,365,366,367,368,369,370,371,372,373,374,375,376,377,378,379,380,381,382,383,384,385,386,387,388,389,390,391,392,393,394,395,396,397,398,399,400,401,402,403,404,405,406,407,408,409,410,411,412,413,414,415,416,417,418,419,420,421,422,423,424,425,426,427,428,429,430,431,432,433,434,435,436,437,438,439,440,441,442,443,444,445,446,447,448,449,450,451,452,453,454,455,456,457,458,459,460,461,462,463,464,465,466,467,468,469,470,471,472,473,474,475,476,477,478,479,480,481,482,483,484,485,486,487,488,489,490,491,492,493,494,495,496,497,498,499,500,501,502,503,504,505,506,507,508,509,510,511,512,513,514,515,516,517,518,519,520,521,522,523,524,525,526,527,528,529,530,531,532,533,534,535,536,537,538,539,540,541,542,543,544,545,546,547,548,549,550,551,552,553,554,555,556,557,558,559,560,561,562,563,564,565,566,567,568,569,570,571,572,573,574,575,576,577,578,579,580,581,582,583,584,585,586,587,588,589,590,591,592,593,594,595,596,597,598,599,600,601,602,603,604,605,606,607,608,609,610,611,612,613,614,615,616,617,618,619,620,621,622,623,624,625,626,627,628,629,630,631,632,633,634,635,636,637,638,639,640,641,642,643,644,645,646,647,648,649,650,651,652,653,654,655,656,657,658,659,660,661,662,663,664,665,666,667,668,669,670,671,672,673,674,675,676,677,678,679,680,681,682,683,684,685,686,687,688,689,690,691,692,693,694,695,696,697,698,699,700,701,702,703,704,705,706,707,708,709,710,711,712,713,714,715,716,717,718,719,720,721,722,723,724,725,726,727,728,729,730,731,732,733,734,735,736,737,738,739,740,741,742,743,744,745,746,747,748,749,750,751,752,753,754,755,756,757,758,759,760,761,762,763,764,765,766,767,768,769,770,771,772,773,774,775,776,777,778,779,780,781,782,783,784,785,786,787,788,789,790,791,792,793,794,795,796,797,798,799,800,801,802,803,804,805,806,807,808,809,810,811,812,813,814,815,816,817,818,819,820,821,822,823,824,825,826,827,828,829,830,831,832,833,834,835,836,837,838,839,840,841,842,843,844,845,846,847,848,849,850,851,852,853,854,855,856,857,858,859,860,861,862,863,864,865,866,867,868,869,870,871,872,873,874,875,876,877,878,879,880,881,882,883,884,885,886,887,888,889,890,891,892,893,894,895,896,897,898,899,900,901,902,903,904,905,906,907,908,909,910,911,912,913,914,915,916,917,918,919,920,921,922,923,924,925,926,927,928,929,930,931,932,933,934,935,936,937,938,939,940,941,942,943,944,945,946,947,948,949,950,951,952,953,954,955,956,957,958,959,960,961,962,963,964,965,966,967,968,969,970,971,972,973,974,975,976,977,978,979,980,981,982,983,984,985,986,987,988,989,990,991,992,993,994,995,996,997,998,999,1000],"tree_info":[0,0,0,0,0,0,0,0,0,0,0,0,0,0,0,0,0,0,0,0,0,0,0,0,0,0,0,0,0,0,0,0,0,0,0,0,0,0,0,0,0,0,0,0,0,0,0,0,0,0,0,0,0,0,0,0,0,0,0,0,0,0,0,0,0,0,0,0,0,0,0,0,0,0,0,0,0,0,0,0,0,0,0,0,0,0,0,0,0,0,0,0,0,0,0,0,0,0,0,0,0,0,0,0,0,0,0,0,0,0,0,0,0,0,0,0,0,0,0,0,0,0,0,0,0,0,0,0,0,0,0,0,0,0,0,0,0,0,0,0,0,0,0,0,0,0,0,0,0,0,0,0,0,0,0,0,0,0,0,0,0,0,0,0,0,0,0,0,0,0,0,0,0,0,0,0,0,0,0,0,0,0,0,0,0,0,0,0,0,0,0,0,0,0,0,0,0,0,0,0,0,0,0,0,0,0,0,0,0,0,0,0,0,0,0,0,0,0,0,0,0,0,0,0,0,0,0,0,0,0,0,0,0,0,0,0,0,0,0,0,0,0,0,0,0,0,0,0,0,0,0,0,0,0,0,0,0,0,0,0,0,0,0,0,0,0,0,0,0,0,0,0,0,0,0,0,0,0,0,0,0,0,0,0,0,0,0,0,0,0,0,0,0,0,0,0,0,0,0,0,0,0,0,0,0,0,0,0,0,0,0,0,0,0,0,0,0,0,0,0,0,0,0,0,0,0,0,0,0,0,0,0,0,0,0,0,0,0,0,0,0,0,0,0,0,0,0,0,0,0,0,0,0,0,0,0,0,0,0,0,0,0,0,0,0,0,0,0,0,0,0,0,0,0,0,0,0,0,0,0,0,0,0,0,0,0,0,0,0,0,0,0,0,0,0,0,0,0,0,0,0,0,0,0,0,0,0,0,0,0,0,0,0,0,0,0,0,0,0,0,0,0,0,0,0,0,0,0,0,0,0,0,0,0,0,0,0,0,0,0,0,0,0,0,0,0,0,0,0,0,0,0,0,0,0,0,0,0,0,0,0,0,0,0,0,0,0,0,0,0,0,0,0,0,0,0,0,0,0,0,0,0,0,0,0,0,0,0,0,0,0,0,0,0,0,0,0,0,0,0,0,0,0,0,0,0,0,0,0,0,0,0,0,0,0,0,0,0,0,0,0,0,0,0,0,0,0,0,0,0,0,0,0,0,0,0,0,0,0,0,0,0,0,0,0,0,0,0,0,0,0,0,0,0,0,0,0,0,0,0,0,0,0,0,0,0,0,0,0,0,0,0,0,0,0,0,0,0,0,0,0,0,0,0,0,0,0,0,0,0,0,0,0,0,0,0,0,0,0,0,0,0,0,0,0,0,0,0,0,0,0,0,0,0,0,0,0,0,0,0,0,0,0,0,0,0,0,0,0,0,0,0,0,0,0,0,0,0,0,0,0,0,0,0,0,0,0,0,0,0,0,0,0,0,0,0,0,0,0,0,0,0,0,0,0,0,0,0,0,0,0,0,0,0,0,0,0,0,0,0,0,0,0,0,0,0,0,0,0,0,0,0,0,0,0,0,0,0,0,0,0,0,0,0,0,0,0,0,0,0,0,0,0,0,0,0,0,0,0,0,0,0,0,0,0,0,0,0,0,0,0,0,0,0,0,0,0,0,0,0,0,0,0,0,0,0,0,0,0,0,0,0,0,0,0,0,0,0,0,0,0,0,0,0,0,0,0,0,0,0,0,0,0,0,0,0,0,0,0,0,0,0,0,0,0,0,0,0,0,0,0,0,0,0,0,0,0,0,0,0,0,0,0,0,0,0,0,0,0,0,0,0,0,0,0,0,0,0,0,0,0,0,0,0,0,0,0,0,0,0,0,0,0,0,0,0,0,0,0,0,0,0,0,0,0,0,0,0,0,0,0,0,0,0,0,0,0,0,0,0,0,0,0,0,0,0,0,0,0,0,0,0,0,0,0,0,0,0,0,0,0,0,0,0,0,0,0,0,0,0,0,0,0,0,0,0,0,0,0,0,0,0,0,0,0,0,0,0,0,0,0,0,0,0,0,0,0,0,0,0,0,0,0,0,0,0,0,0,0,0,0,0,0,0,0,0,0,0,0,0,0,0,0,0,0,0,0,0,0,0,0,0,0,0,0,0,0,0,0,0,0,0,0,0,0,0,0,0,0,0,0,0,0,0,0,0,0,0,0,0,0,0,0,0,0,0,0,0,0,0,0,0,0,0,0,0,0,0,0,0],"trees":[{"base_weights":[-2.3406335E-7,1.3215349E-2,-2.3537626E-2,-2.0118572E-2,6.816583E-2,-1.280663E-2,-2.5303893E-2,-2.3696376E-2,6.699757E-3,9.045961E-2,1.7865026E-2,-1.4318003E-2,2.1656113E-2,-2.1977365E-2,-2.7130377E-2,-2.6391014E-2,-1.7060703E-2,3.3586498E-3,6.9553256E-2,7.267349E-2,1.6330788E-1,1.1284572E-2,6.518488E-2,-1.6654834E-2,-6.7418595E-3,3.8248997E-2,4.517723E-3,-2.2653785E-2,-6.5349676E-3,-2.6187936E-2,-2.7689552E-2,-4.0695914E-3,-3.5235418E-3,-2.7255123E-3,1.237001E-3,-2.0920859E-4,2.905009E-3,1.5100396E-2,5.8126342E-3,2.9787696E-3,1.30055025E-2,1.056586E-2,2.82E-2,3.4022834E-3,1.517482E-4,7.1234372E-3,1.5591102E-2,-2.1794837E-3,-2.7821362E-3,-6.773381E-5,-1.6987433E-3,4.410392E-3,9.278626E-3,2.886705E-4,6.1288397E-3,-3.5463925E-3,-2.9170797E-3,2.6795827E-4,-2.0773085E-3,-3.963405E-3,-3.2655122E-3,-4.1642515E-3,-3.9499295E-3],"categories":[],"categories_nodes":[],"categories_segments":[],"categories_sizes":[],"default_left":[0,0,0,0,0,0,0,0,0,0,0,0,0,0,0,0,0,0,0,0,0,0,0,0,0,0,0,0,0,0,0,0,0,0,0,0,0,0,0,0,0,0,0,0,0,0,0,0,0,0,0,0,0,0,0,0,0,0,0,0,0,0,0],"id":0,"left_children":[1,3,5,7,9,11,13,15,17,19,21,23,25,27,29,31,33,35,37,39,41,43,45,47,49,51,53,55,57,59,61,-1,-1,-1,-1,-1,-1,-1,-1,-1,-1,-1,-1,-1,-1,-1,-1,-1,-1,-1,-1,-1,-1,-1,-1,-1,-1,-1,-1,-1,-1,-1,-1],"loss_changes":[1.18088125E5,4.4533344E5,2.587336E3,1.4519883E4,1.0294103E5,1.0048904E3,7.121719E2,2.387336E3,3.7405283E3,8.241391E4,8.77826E3,3.272141E2,2.3049963E2,4.3397656E2,3.9875E1,2.0371094E2,1.0825781E3,1.2869485E3,8.616831E2,3.7882406E4,2.8623125E4,2.8977295E3,2.3603018E3,5.6811523E1,1.2560603E2,8.600842E1,3.7576157E1,1.2620703E2,1.0610939E2,2.9222656E1,4.6484375E0,0E0,0E0,0E0,0E0,0E0,0E0,0E0,0E0,0E0,0E0,0E0,0E0,0E0,0E0,0E0,0E0,0E0,0E0,0E0,0E0,0E0,0E0,0E0,0E0,0E0,0E0,0E0,0E0,0E0,0E0,0E0,0E0],"parents":[2147483647,0,0,1,1,2,2,3,3,4,4,5,5,6,6,7,7,8,8,9,9,10,10,11,11,12,12,13,13,14,14,15,15,16,16,17,17,18,18,19,19,20,20,21,21,22,22,23,23,24,24,25,25,26,26,27,27,28,28,29,29,30,30],"right_children":[2,4,6,8,10,12,14,16,18,20,22,24,26,28,30,32,34,36,38,40,42,44,46,48,50,52,54,56,58,60,62,-1,-1,-1,-1,-1,-1,-1,-1,-1,-1,-1,-1,-1,-1,-1,-1,-1,-1,-1,-1,-1,-1,-1,-1,-1,-1,-1,-1,-1,-1,-1,-1],"split_conditions":[9.068479E0,-7.46783E0,1.2553925E1,-9.957797E0,5.5171623E0,-1E0,2.9941477E1,-1.7959108E1,-1.3E0,-7.1E0,-3.8E0,-1.08E1,5.8025E3,-1E0,4.9958324E1,-2.9947401E1,-1E0,-1.08E1,5.8025E3,-5.507569E0,-5.507569E0,7.4446006E0,-9E-1,2.544E3,3.8993E3,-3E-1,-0E0,-1.08E1,5.3482E3,-1.3E0,-1.3E0,-4.0695914E-3,-3.5235418E-3,-2.7255123E-3,1.237001E-3,-2.0920859E-4,2.905009E-3,1.5100396E-2,5.8126342E-3,2.9787696E-3,1.30055025E-2,1.056586E-2,2.82E-2,3.4022834E-3,1.517482E-4,7.1234372E-3,1.5591102E-2,-2.1794837E-3,-2.7821362E-3,-6.773381E-5,-1.6987433E-3,4.410392E-3,9.278626E-3,2.886705E-4,6.1288397E-3,-3.5463925E-3,-2.9170797E-3,2.6795827E-4,-2.0773085E-3,-3.963405E-3,-3.2655122E-3,-4.1642515E-3,-3.9499295E-3],"split_indices":[1,1,1,1,1,4,1,1,4,4,4,4,5,4,1,1,4,4,5,1,1,1,4,5,5,4,4,4,5,4,4,0,0,0,0,0,0,0,0,0,0,0,0,0,0,0,0,0,0,0,0,0,0,0,0,0,0,0,0,0,0,0,0],"split_type":[0,0,0,0,0,0,0,0,0,0,0,0,0,0,0,0,0,0,0,0,0,0,0,0,0,0,0,0,0,0,0,0,0,0,0,0,0,0,0,0,0,0,0,0,0,0,0,0,0,0,0,0,0,0,0,0,0,0,0,0,0,0,0],"sum_hessian":[3.796309E8,2.4312376E8,1.3650715E8,1.5132648E8,9.179728E7,1.929287E7,1.1721428E8,1.3351446E8,1.7812016E7,6.360636E7,2.8190924E7,1.8482324E7,8.10547E5,4.154657E7,7.566771E7,9.4954856E7,3.855961E7,1.6912974E7,8.99043E5,5.112423E7,1.2482127E7,2.4749218E7,3.441706E6,1.4125398E7,4.356925E6,4.11827E5,3.9872E5,3.980308E7,1.743488E6,2.8177384E7,4.749033E7,7.566313E7,1.9291724E7,3.694029E7,1.619318E6,1.3040717E7,3.872257E6,4.47243E5,4.518E5,1.0730293E7,4.039394E7,2.621707E6,9.86042E6,1.173253E7,1.3016688E7,2.362862E6,1.078844E6,6.65451E6,7.470888E6,1.836428E6,2.520497E6,2.99575E5,1.12252E5,3.72164E5,2.6556E4,3.0421768E7,9.381311E6,8.15565E5,9.27923E5,2.6755608E7,1.421774E6,4.509315E7,2.397176E6],"tree_param":{"num_deleted":"0","num_feature":"7","num_nodes":"63","size_leaf_vector":"1"}},{"base_weights":[6.14186E-7,1.1279541E-2,-2.2277588E-2,2.7741192E-2,-1.7944835E-2,-1.3003518E-2,-2.4732506E-2,-1.206337E-2,9.983193E-2,-5.869542E-3,-2.1273104E-2,-2.2554127E-2,-9.911055E-3,-2.1412374E-2,-2.5753707E-2,-1.8947449E-2,1.8661533E-2,1.2893496E-1,3.6594853E-2,-7.963266E-3,3.355555E-2,-1.8278375E-2,-2.2997975E-2,-2.3364196E-2,-1.955418E-2,-3.3839506E-3,-2.1937506E-2,-1.962734E-2,-2.2673024E-2,-2.7354449E-2,-2.351787E-2,-3.1993126E-3,-9.778829E-4,2.051468E-3,1.1901579E-2,1.6373621E-2,3.5797395E-2,4.007517E-3,1.3701695E-2,-1.7342825E-3,1.5325217E-3,8.718197E-3,1.933178E-3,-2.8489397E-3,-4.4158798E-5,-3.4698003E-3,-2.9439302E-3,-3.5765576E-3,-3.381396E-3,-3.012731E-3,-1.4338503E-3,7.451877E-4,-1.5186314E-3,-2.5529806E-3,-3.4552729E-3,-3.3833785E-3,-2.5656822E-3,-4.7171186E-3,-2.9674545E-3,-3.5330236E-3,-5.581107E-3,-3.3344612E-3,-3.6173502E-3],"categories":[],"categories_nodes":[],"categories_segments":[],"categories_sizes":[],"default_left":[0,0,0,0,0,0,0,0,0,0,0,0,0,0,0,0,0,0,0,0,0,0,0,0,0,0,0,0,0,0,0,0,0,0,0,0,0,0,0,0,0,0,0,0,0,0,0,0,0,0,0,0,0,0,0,0,0,0,0,0,0,0,0],"id":1,"left_children":[1,3,5,7,9,11,13,15,17,19,21,23,25,27,29,31,33,35,37,39,41,43,45,47,49,51,53,55,57,59,61,-1,-1,-1,-1,-1,-1,-1,-1,-1,-1,-1,-1,-1,-1,-1,-1,-1,-1,-1,-1,-1,-1,-1,-1,-1,-1,-1,-1,-1,-1,-1,-1],"loss_changes":[9.5392516E4,1.2124959E5,2.9050703E3,4.626322E5,3.649789E3,7.8879004E2,3.420703E2,2.1969873E4,1.0554919E5,1.6197251E3,3.6774414E2,1.5874756E1,1.583661E3,5.3405273E1,2.7616016E2,2.5113848E3,5.7514814E3,8.522375E4,9.7756875E3,1.2190121E3,5.023949E2,3.343506E2,2.0414062E1,2.0256348E0,7.3671265E0,7.361644E2,3.8309814E1,7.257446E1,3.5271533E2,1.6840078E3,2.4791016E1,0E0,0E0,0E0,0E0,0E0,0E0,0E0,0E0,0E0,0E0,0E0,0E0,0E0,0E0,0E0,0E0,0E0,0E0,0E0,0E0,0E0,0E0,0E0,0E0,0E0,0E0,0E0,0E0,0E0,0E0,0E0,0E0],"parents":[2147483647,0,0,1,1,2,2,3,3,4,4,5,5,6,6,7,7,8,8,9,9,10,10,11,11,12,12,13,13,14,14,15,15,16,16,17,17,18,18,19,19,20,20,21,21,22,22,23,23,24,24,25,25,26,26,27,27,28,28,29,29,30,30],"right_children":[2,4,6,8,10,12,14,16,18,20,22,24,26,28,30,32,34,36,38,40,42,44,46,48,50,52,54,56,58,60,62,-1,-1,-1,-1,-1,-1,-1,-1,-1,-1,-1,-1,-1,-1,-1,-1,-1,-1,-1,-1,-1,-1,-1,-1,-1,-1,-1,-1,-1,-1,-1,-1],"split_conditions":[3.494678E1,8.478323E0,7.003272E1,-6.0614266E0,1.2553925E1,-2.9947401E1,1.3997034E2,-9.461852E0,5.0319138E0,-1.3E0,2.006498E1,-3.996578E1,2.006498E1,-6.0614266E0,8.004204E0,-1.2959122E1,-2.1E0,-5.1E0,-5.1E0,1.1973164E1,5.3482E3,-9E-1,-9E-1,-5.0060863E1,-1.3E0,4.99713E1,3.004341E1,-3.996578E1,4.5E0,-7.515904E0,2.9997003E2,-3.1993126E-3,-9.778829E-4,2.051468E-3,1.1901579E-2,1.6373621E-2,3.5797395E-2,4.007517E-3,1.3701695E-2,-1.7342825E-3,1.5325217E-3,8.718197E-3,1.933178E-3,-2.8489397E-3,-4.4158798E-5,-3.4698003E-3,-2.9439302E-3,-3.5765576E-3,-3.381396E-3,-3.012731E-3,-1.4338503E-3,7.451877E-4,-1.5186314E-3,-2.5529806E-3,-3.4552729E-3,-3.3833785E-3,-2.5656822E-3,-4.7171186E-3,-2.9674545E-3,-3.5330236E-3,-5.581107E-3,-3.3344612E-3,-3.6173502E-3],"split_indices":[0,1,0,1,1,1,0,1,1,4,1,1,1,1,1,1,4,4,4,0,5,4,4,1,4,0,1,1,1,1,0,0,0,0,0,0,0,0,0,0,0,0,0,0,0,0,0,0,0,0,0,0,0,0,0,0,0,0,0,0,0,0,0],"split_type":[0,0,0,0,0,0,0,0,0,0,0,0,0,0,0,0,0,0,0,0,0,0,0,0,0,0,0,0,0,0,0,0,0,0,0,0,0,0,0,0,0,0,0,0,0,0,0,0,0,0,0,0,0,0,0,0,0,0,0,0,0,0,0],"sum_hessian":[3.796351E8,2.5203549E8,1.2759961E8,1.6122173E8,9.081376E7,2.6707038E7,1.0089257E8,1.0387025E8,5.735147E7,1.9622256E7,7.11915E7,6.532472E6,2.0174566E7,2.3732732E7,7.715984E7,8.485748E7,1.9012768E7,3.927588E7,1.8075594E7,1.863274E7,9.89517E5,2.6018332E7,4.5173176E7,5.143561E6,1.388911E6,1.3077194E7,7.097372E6,9.823312E6,1.3909421E7,4.4966332E7,3.2193504E7,7.121281E7,1.3644672E7,1.7569432E7,1.443336E6,3.3277208E7,5.998669E6,1.5312822E7,2.762772E6,1.5553947E7,3.078792E6,4.52121E5,5.37396E5,2.5024056E7,9.94278E5,4.3446184E7,1.72699E6,3.247853E6,1.895708E6,1.318884E6,7.0027E4,5.840374E6,7.23682E6,1.295105E6,5.802267E6,4.546094E6,5.277218E6,3.446215E6,1.0463206E7,3.2448646E7,1.2517686E7,1.0204641E7,2.1988864E7],"tree_param":{"num_deleted":"0","num_feature":"7","num_nodes":"63","size_leaf_vector":"1"}},{"base_weights":[4.0974214E-6,9.963886E-3,-1.8352045E-2,2.4356056E-2,-1.5105162E-2,-9.212232E-3,-2.079791E-2,-1.0996175E-2,8.7003574E-2,-1.3531214E-3,-1.759116E-2,-1.9121116E-2,-5.585399E-3,-1.7204281E-2,-2.176032E-2,-1.7438224E-2,9.657125E-3,7.6903276E-2,2.0990454E-1,-7.2049582E-3,1.3985244E-2,-1.4038261E-2,-1.914307E-2,-1.9863041E-2,-1.6164683E-2,2.7596364E-3,-1.8188795E-2,-1.668782E-2,-2.0214282E-2,-2.314509E-2,-1.9851288E-2,-2.8277787E-3,-1.8366969E-3,1.020191E-3,1.1217889E-2,1.433657E-2,3.1502256E-3,3.8446955E-2,1.4224647E-2,-1.2817467E-3,5.186418E-3,9.835243E-4,6.6590453E-3,-2.2148695E-3,1.3023332E-3,-2.6671824E-3,-2.9759712E-3,-3.0269308E-3,-2.8055948E-3,-2.5500525E-3,-8.967206E-4,-3.2460017E-4,2.131328E-3,-1.7696325E-3,-2.920619E-3,-2.715184E-3,-2.0409354E-3,-2.8821863E-3,-3.1010355E-3,-3.0464248E-3,-5.0084125E-3,-2.7974825E-3,-3.0681207E-3],"categories":[],"categories_nodes":[],"categories_segments":[],"categories_sizes":[],"default_left":[0,0,0,0,0,0,0,0,0,0,0,0,0,0,0,0,0,0,0,0,0,0,0,0,0,0,0,0,0,0,0,0,0,0,0,0,0,0,0,0,0,0,0,0,0,0,0,0,0,0,0,0,0,0,0,0,0,0,0,0,0,0,0],"id":2,"left_children":[1,3,5,7,9,11,13,15,17,19,21,23,25,27,29,31,33,35,37,39,41,43,45,47,49,51,53,55,57,59,61,-1,-1,-1,-1,-1,-1,-1,-1,-1,-1,-1,-1,-1,-1,-1,-1,-1,-1,-1,-1,-1,-1,-1,-1,-1,-1,-1,-1,-1,-1,-1,-1],"loss_changes":[6.940821E4,8.879613E4,2.985168E3,3.462725E5,3.0686934E3,1.0131223E3,3.6433984E2,1.32981045E4,7.001294E4,1.233458E3,4.1914844E2,1.6568115E1,2.1705454E3,3.459326E1,2.1965625E2,5.5933594E2,4.419918E3,5.4406125E4,2.287389E4,5.5691394E2,8.572346E2,3.820127E2,5.020117E1,2.2148438E0,1.2899261E1,6.9992426E2,6.736011E1,8.2728516E1,1.4959717E0,1.3989492E3,2.5300781E1,0E0,0E0,0E0,0E0,0E0,0E0,0E0,0E0,0E0,0E0,0E0,0E0,0E0,0E0,0E0,0E0,0E0,0E0,0E0,0E0,0E0,0E0,0E0,0E0,0E0,0E0,0E0,0E0,0E0,0E0,0E0,0E0],"parents":[2147483647,0,0,1,1,2,2,3,3,4,4,5,5,6,6,7,7,8,8,9,9,10,10,11,11,12,12,13,13,14,14,15,15,16,16,17,17,18,18,19,19,20,20,21,21,22,22,23,23,24,24,25,25,26,26,27,27,28,28,29,29,30,30],"right_children":[2,4,6,8,10,12,14,16,18,20,22,24,26,28,30,32,34,36,38,40,42,44,46,48,50,52,54,56,58,60,62,-1,-1,-1,-1,-1,-1,-1,-1,-1,-1,-1,-1,-1,-1,-1,-1,-1,-1,-1,-1,-1,-1,-1,-1,-1,-1,-1,-1,-1,-1,-1,-1],"split_conditions":[2.5044727E1,8.032123E0,6.995548E1,-6.518638E0,1.0046666E1,-2.4934635E1,1.199618E2,-1.0055537E1,-2.1E0,8.996979E0,1.79502E1,-3.4971214E1,1.79502E1,4.9958324E1,6.5041285E0,-1.5061038E1,-1E0,5.9667625E0,8.7195E3,-7E-1,-7.1E0,-7E-1,3.4970493E1,-4.496076E1,-2.1E0,-1.27E1,2.9941477E1,6.5041285E0,6.0041824E1,-5.507569E0,2.4998488E2,-2.8277787E-3,-1.8366969E-3,1.020191E-3,1.1217889E-2,1.433657E-2,3.1502256E-3,3.8446955E-2,1.4224647E-2,-1.2817467E-3,5.186418E-3,9.835243E-4,6.6590453E-3,-2.2148695E-3,1.3023332E-3,-2.6671824E-3,-2.9759712E-3,-3.0269308E-3,-2.8055948E-3,-2.5500525E-3,-8.967206E-4,-3.2460017E-4,2.131328E-3,-1.7696325E-3,-2.920619E-3,-2.715184E-3,-2.0409354E-3,-2.8821863E-3,-3.1010355E-3,-3.0464248E-3,-5.0084125E-3,-2.7974825E-3,-3.0681207E-3],"split_indices":[0,1,0,1,1,1,0,1,4,0,1,1,1,1,1,1,4,1,5,4,4,4,1,1,4,4,1,1,1,1,0,0,0,0,0,0,0,0,0,0,0,0,0,0,0,0,0,0,0,0,0,0,0,0,0,0,0,0,0,0,0,0,0],"split_type":[0,0,0,0,0,0,0,0,0,0,0,0,0,0,0,0,0,0,0,0,0,0,0,0,0,0,0,0,0,0,0,0,0,0,0,0,0,0,0,0,0,0,0,0,0,0,0,0,0,0,0,0,0,0,0,0,0,0,0,0,0,0,0],"sum_hessian":[3.7964646E8,2.4611038E8,1.3353608E8,1.5634978E8,8.97606E7,2.8190944E7,1.0534514E8,9.994848E7,5.6401304E7,1.3742097E7,7.6018504E7,7.553634E6,2.0637312E7,2.2252928E7,8.309221E7,7.618525E7,2.376323E7,5.2118116E7,4.283189E6,9.947112E6,3.794985E6,2.3110332E7,5.290817E7,6.0383E6,1.515334E6,1.2416214E7,8.221097E6,1.8993928E7,3.258999E6,4.8158804E7,3.49334E7,5.9885172E7,1.6300078E7,2.2765002E7,9.98228E5,3.906766E7,1.3050454E7,3.052238E6,1.230951E6,9.637999E6,3.09113E5,3.049925E6,7.4506E5,2.2393276E7,7.17057E5,1.7906972E7,3.5001196E7,4.743122E6,1.295178E6,1.400446E6,1.14888E5,8.682416E6,3.733798E6,1.373532E6,6.847565E6,1.3021472E7,5.972456E6,1.025937E6,2.233062E6,3.7718468E7,1.0440335E7,1.1672185E7,2.3261216E7],"tree_param":{"num_deleted":"0","num_feature":"7","num_nodes":"63","size_leaf_vector":"1"}},{"base_weights":[1.9759866E-6,8.147396E-3,-1.45057775E-2,-1.0288338E-2,4.6850726E-2,-1.0462592E-2,-1.6274018E-2,-1.4408994E-2,9.663353E-3,6.728711E-2,1.0416166E-2,-1.1904369E-2,-8.862767E-5,-1.501443E-2,-1.6934147E-2,-1.5613219E-2,-7.091958E-3,2.7833793E-3,3.1101681E-2,4.9220342E-2,1.1501379E-1,3.3898924E-3,2.8970947E-2,-9.928034E-3,-1.3618047E-2,7.470226E-3,-6.535938E-3,-1.5554208E-2,-1.0917126E-2,-1.6452618E-2,-1.7201666E-2,-2.5275433E-3,-2.0039459E-3,-1.4678058E-3,1.1773633E-3,1.3773511E-3,-4.336888E-4,7.145345E-3,1.9647775E-3,1.0054881E-2,4.9895523E-3,1.4898573E-2,3.0288486E-2,1.7077476E-3,-5.7288626E-4,6.656056E-3,1.6774625E-3,-1.754612E-3,-1.000705E-3,-2.1795281E-3,-1.7909143E-3,5.354536E-4,4.273112E-3,-2.8307745E-4,-1.710186E-3,-2.398265E-3,-2.1824893E-3,-1.1873287E-3,-2.0205826E-3,-2.5065674E-3,-2.2534314E-3,-2.5954812E-3,-2.517885E-3],"categories":[],"categories_nodes":[],"categories_segments":[],"categories_sizes":[],"default_left":[0,0,0,0,0,0,0,0,0,0,0,0,0,0,0,0,0,0,0,0,0,0,0,0,0,0,0,0,0,0,0,0,0,0,0,0,0,0,0,0,0,0,0,0,0,0,0,0,0,0,0,0,0,0,0,0,0,0,0,0,0,0,0],"id":3,"left_children":[1,3,5,7,9,11,13,15,17,19,21,23,25,27,29,31,33,35,37,39,41,43,45,47,49,51,53,55,57,59,61,-1,-1,-1,-1,-1,-1,-1,-1,-1,-1,-1,-1,-1,-1,-1,-1,-1,-1,-1,-1,-1,-1,-1,-1,-1,-1,-1,-1,-1,-1,-1,-1],"loss_changes":[4.4860375E4,1.734719E5,9.758867E2,1.3538844E4,5.8407047E4,6.212051E2,7.896289E1,1.2026504E3,4.157776E3,4.333236E4,3.6748718E3,1.235E2,2.4698128E2,7.222412E1,8.027344E0,3.2673242E2,7.7621985E2,7.749164E2,2.0385835E3,1.0361172E4,1.8817297E4,1.1784338E3,2.1212412E3,9.758215E1,2.990332E1,1.912438E2,6.186036E1,1.258252E1,2.9134827E1,8.202637E0,1.6914062E0,0E0,0E0,0E0,0E0,0E0,0E0,0E0,0E0,0E0,0E0,0E0,0E0,0E0,0E0,0E0,0E0,0E0,0E0,0E0,0E0,0E0,0E0,0E0,0E0,0E0,0E0,0E0,0E0,0E0,0E0,0E0,0E0],"parents":[2147483647,0,0,1,1,2,2,3,3,4,4,5,5,6,6,7,7,8,8,9,9,10,10,11,11,12,12,13,13,14,14,15,15,16,16,17,17,18,18,19,19,20,20,21,21,22,22,23,23,24,24,25,25,26,26,27,27,28,28,29,29,30,30],"right_children":[2,4,6,8,10,12,14,16,18,20,22,24,26,28,30,32,34,36,38,40,42,44,46,48,50,52,54,56,58,60,62,-1,-1,-1,-1,-1,-1,-1,-1,-1,-1,-1,-1,-1,-1,-1,-1,-1,-1,-1,-1,-1,-1,-1,-1,-1,-1,-1,-1,-1,-1,-1,-1],"split_conditions":[9.068479E0,-5.507569E0,1.79502E1,-9.461852E0,5.5171623E0,-3.8E0,3.504273E1,-1.2959122E1,-9.4E0,-1.11E1,-1.11E1,1.2553925E1,5.1922E3,-3.6E0,5.0058765E1,-2.9947401E1,-5.1E0,2.5647E3,5.1922E3,2.544E3,-1E0,7.4446006E0,5.1922E3,-2.17E1,-2.17E1,-4E-1,8.7195E3,-1.79E1,5.1922E3,-5.1E0,-7.1E0,-2.5275433E-3,-2.0039459E-3,-1.4678058E-3,1.1773633E-3,1.3773511E-3,-4.336888E-4,7.145345E-3,1.9647775E-3,1.0054881E-2,4.9895523E-3,1.4898573E-2,3.0288486E-2,1.7077476E-3,-5.7288626E-4,6.656056E-3,1.6774625E-3,-1.754612E-3,-1.000705E-3,-2.1795281E-3,-1.7909143E-3,5.354536E-4,4.273112E-3,-2.8307745E-4,-1.710186E-3,-2.398265E-3,-2.1824893E-3,-1.1873287E-3,-2.0205826E-3,-2.5065674E-3,-2.2534314E-3,-2.5954812E-3,-2.517885E-3],"split_indices":[1,1,1,1,1,4,1,1,4,4,4,1,5,4,1,1,4,5,5,5,4,1,5,4,4,4,5,4,5,4,4,0,0,0,0,0,0,0,0,0,0,0,0,0,0,0,0,0,0,0,0,0,0,0,0,0,0,0,0,0,0,0,0],"split_type":[0,0,0,0,0,0,0,0,0,0,0,0,0,0,0,0,0,0,0,0,0,0,0,0,0,0,0,0,0,0,0,0,0,0,0,0,0,0,0,0,0,0,0,0,0,0,0,0,0,0,0,0,0,0,0,0,0,0,0,0,0,0,0],"sum_hessian":[3.7962013E8,2.431198E8,1.3650032E8,1.6467798E8,7.8441816E7,4.153289E7,9.496742E7,1.3648874E8,2.8189242E7,5.0254012E7,2.8187806E7,3.6464976E7,5.067915E6,3.26563E7,6.231113E7,1.1720014E8,1.9288596E7,2.1340624E7,6.848617E6,3.6454348E7,1.3799664E7,2.0445544E7,7.742261E6,1.6934688E7,1.9530286E7,2.33286E6,2.735055E6,2.8854948E7,3.801352E6,2.2254112E7,4.0057016E7,7.566494E7,4.1535204E7,1.6342538E7,2.946059E6,1.0030175E7,1.131045E7,3.569978E6,3.278639E6,1.7225624E7,1.9228724E7,1.1689357E7,2.110307E6,9.694323E6,1.0751222E7,4.149313E6,3.592948E6,1.0972966E7,5.961722E6,1.2654165E7,6.876121E6,1.967683E6,3.65177E5,1.398654E6,1.336401E6,2.0144836E7,8.710111E6,1.747332E6,2.05402E6,1.8854062E7,3.40005E6,3.2194192E7,7.862822E6],"tree_param":{"num_deleted":"0","num_feature":"7","num_nodes":"63","size_leaf_vector":"1"}},{"base_weights":[4.132611E-7,8.336893E-3,-1.4598584E-2,-8.148395E-3,1.928597E-2,-5.814712E-3,-1.6707068E-2,-1.0749352E-2,-1.8270122E-4,1.091599E-2,3.8748957E-2,-6.816031E-3,5.9249233E-3,-1.3289769E-2,-1.7560918E-2,-1.12288175E-2,1.41000645E-2,-1.7597354E-3,3.5794266E-2,1.7590206E-2,4.4436916E-3,5.354389E-2,2.1312328E-2,-9.383585E-3,-4.3838304E-3,1.1574962E-2,-8.0539E-3,-1.2377268E-2,-1.4410623E-2,-1.7083338E-2,-1.9516326E-2,-1.9168466E-3,-1.1977372E-3,3.7952203E-3,-1.0990952E-3,-7.653405E-4,8.673731E-4,8.510749E-3,2.021442E-3,1.8875888E-3,4.406804E-3,1.2429434E-5,1.6030213E-3,6.923956E-3,1.7445391E-2,2.373478E-3,7.752745E-3,-1.0318098E-3,-1.6817267E-3,-6.4628504E-5,-1.1976396E-3,1.2339541E-3,3.0306478E-3,-1.4957149E-3,6.1525014E-4,-2.0524515E-3,-1.5352707E-3,-2.0882138E-3,-2.4420815E-3,-2.4207856E-3,-2.6097174E-3,-2.5865608E-3,-3.00409E-3],"categories":[],"categories_nodes":[],"categories_segments":[],"categories_sizes":[],"default_left":[0,0,0,0,0,0,0,0,0,0,0,0,0,0,0,0,0,0,0,0,0,0,0,0,0,0,0,0,0,0,0,0,0,0,0,0,0,0,0,0,0,0,0,0,0,0,0,0,0,0,0,0,0,0,0,0,0,0,0,0,0,0,0],"id":4,"left_children":[1,3,5,7,9,11,13,15,17,19,21,23,25,27,29,31,33,35,37,39,41,43,45,47,49,51,53,55,57,59,61,-1,-1,-1,-1,-1,-1,-1,-1,-1,-1,-1,-1,-1,-1,-1,-1,-1,-1,-1,-1,-1,-1,-1,-1,-1,-1,-1,-1,-1,-1,-1,-1],"loss_changes":[4.620207E4,4.3615906E4,2.5555645E3,1.9980669E3,2.3654102E4,3.1398328E2,3.2468164E2,8.661904E2,1.3468367E3,4.386127E3,1.1264531E4,1.5369177E2,1.6579527E2,2.2751953E1,8.3140625E1,3.586621E2,3.30311E2,5.733144E2,4.659607E2,2.9501494E3,1.4034045E3,1.0947008E4,3.3416133E3,5.4817993E1,1.7987953E2,4.319821E1,1.4083992E1,3.4297974E1,9.131592E0,2.128125E1,2.0291504E1,0E0,0E0,0E0,0E0,0E0,0E0,0E0,0E0,0E0,0E0,0E0,0E0,0E0,0E0,0E0,0E0,0E0,0E0,0E0,0E0,0E0,0E0,0E0,0E0,0E0,0E0,0E0,0E0,0E0,0E0,0E0,0E0],"parents":[2147483647,0,0,1,1,2,2,3,3,4,4,5,5,6,6,7,7,8,8,9,9,10,10,11,11,12,12,13,13,14,14,15,15,16,16,17,17,18,18,19,19,20,20,21,21,22,22,23,23,24,24,25,25,26,26,27,27,28,28,29,29,30,30],"right_children":[2,4,6,8,10,12,14,16,18,20,22,24,26,28,30,32,34,36,38,40,42,44,46,48,50,52,54,56,58,60,62,-1,-1,-1,-1,-1,-1,-1,-1,-1,-1,-1,-1,-1,-1,-1,-1,-1,-1,-1,-1,-1,-1,-1,-1,-1,-1,-1,-1,-1,-1,-1,-1],"split_conditions":[2.4966099E1,6.012092E0,5.0050648E1,4.549929E0,-1.27E1,-2.2E0,9.994115E1,-4E-1,-1E0,2.6172E3,5.1922E3,-3.36E1,8.7195E3,3.479E3,-7.1E0,-1.49E1,8.7195E3,-1.49E1,5.9137E3,-3.36E1,-3.3E1,-9E-1,-9E-1,2.097E3,3.5299E3,-5E-1,-2E-1,-2.75E1,8.7195E3,1.7995366E2,1.4004924E2,-1.9168466E-3,-1.1977372E-3,3.7952203E-3,-1.0990952E-3,-7.653405E-4,8.673731E-4,8.510749E-3,2.021442E-3,1.8875888E-3,4.406804E-3,1.2429434E-5,1.6030213E-3,6.923956E-3,1.7445391E-2,2.373478E-3,7.752745E-3,-1.0318098E-3,-1.6817267E-3,-6.4628504E-5,-1.1976396E-3,1.2339541E-3,3.0306478E-3,-1.4957149E-3,6.1525014E-4,-2.0524515E-3,-1.5352707E-3,-2.0882138E-3,-2.4420815E-3,-2.4207856E-3,-2.6097174E-3,-2.5865608E-3,-3.00409E-3],"split_indices":[0,0,0,0,4,4,0,4,4,5,5,4,5,5,4,4,5,4,5,4,4,4,4,5,5,4,4,4,5,0,0,0,0,0,0,0,0,0,0,0,0,0,0,0,0,0,0,0,0,0,0,0,0,0,0,0,0,0,0,0,0,0,0],"split_type":[0,0,0,0,0,0,0,0,0,0,0,0,0,0,0,0,0,0,0,0,0,0,0,0,0,0,0,0,0,0,0,0,0,0,0,0,0,0,0,0,0,0,0,0,0,0,0,0,0,0,0,0,0,0,0,0,0,0,0,0,0,0,0],"sum_hessian":[3.796258E8,2.4164117E8,1.379846E8,9.643917E7,1.45202E8,2.6710342E7,1.11274264E8,7.270089E7,2.373828E7,1.0153659E8,4.36654E7,2.4611162E7,2.09918E6,2.2244926E7,8.902934E7,7.132469E7,1.376199E6,2.274142E7,9.96859E5,4.998854E7,5.1548056E7,2.3622104E7,2.0043298E7,1.1972442E7,1.263872E7,1.494945E6,6.04235E5,1.2262163E7,9.982763E6,7.155346E7,1.7475884E7,4.8261864E7,2.3062828E7,9.03752E5,4.72447E5,1.5757895E7,6.983526E6,5.14258E5,4.82601E5,3.5087668E7,1.4900873E7,3.0349132E7,2.1198924E7,2.1135324E7,2.48678E6,1.6975396E7,3.067903E6,5.050972E6,6.92147E6,6.024417E6,6.614303E6,1.077014E6,4.17931E5,5.21905E5,8.233E4,7.618359E6,4.643804E6,7.912692E6,2.070071E6,1.7882224E7,5.367123E7,3.207841E6,1.4268042E7],"tree_param":{"num_deleted":"0","num_feature":"7","num_nodes":"63","size_leaf_vector":"1"}},{"base_weights":[-8.643175E-7,6.853522E-3,-1.2851311E-2,3.4765355E-2,2.1556006E-3,-5.868144E-3,-1.4265859E-2,4.1888E-3,5.2380823E-2,-8.850076E-3,9.538067E-3,3.438362E-3,-7.6312157E-3,-1.1839146E-2,-1.5046165E-2,3.752582E-2,1.1321285E-3,1.0413616E-1,4.4154532E-2,-1.09425E-2,-3.932519E-3,1.8155128E-2,1.806517E-3,1.153575E-2,5.1471544E-4,-5.5263527E-3,-9.873646E-3,-9.481087E-3,-1.2482905E-2,-1.4616021E-2,-1.6808018E-2,4.0507135E-3,9.401176E-3,-4.8775852E-4,1.7400881E-3,1.8974168E-2,9.596719E-3,8.05229E-3,4.0572267E-3,-1.3414248E-3,-1.8757536E-3,1.6761401E-4,-1.1817913E-3,3.6785612E-3,1.3446423E-3,8.040803E-4,-5.3003465E-4,2.385303E-3,4.181486E-4,4.4754427E-4,-6.640555E-4,-4.984637E-4,-1.1178143E-3,-1.3392186E-3,-1.7467099E-3,-1.1250292E-3,-1.7186102E-3,-1.7694444E-3,-2.021404E-3,-2.1360812E-3,-2.267454E-3,-2.4206894E-3,-2.6551953E-3],"categories":[],"categories_nodes":[],"categories_segments":[],"categories_sizes":[],"default_left":[0,0,0,0,0,0,0,0,0,0,0,0,0,0,0,0,0,0,0,0,0,0,0,0,0,0,0,0,0,0,0,0,0,0,0,0,0,0,0,0,0,0,0,0,0,0,0,0,0,0,0,0,0,0,0,0,0,0,0,0,0,0,0],"id":5,"left_children":[1,3,5,7,9,11,13,15,17,19,21,23,25,27,29,31,33,35,37,39,41,43,45,47,49,51,53,55,57,59,61,-1,-1,-1,-1,-1,-1,-1,-1,-1,-1,-1,-1,-1,-1,-1,-1,-1,-1,-1,-1,-1,-1,-1,-1,-1,-1,-1,-1,-1,-1,-1,-1],"loss_changes":[3.3439594E4,3.2464877E4,1.3044883E3,1.9211473E4,1.7217844E4,3.6499213E2,2.079414E2,1.3285337E3,9.634969E3,8.754336E2,8.450165E3,8.387558E1,8.827234E1,4.0560547E1,6.297461E1,2.8972913E2,5.480704E2,2.7866797E3,3.1824375E3,1.864834E2,5.0606998E2,3.510957E3,1.2687767E3,3.5899773E1,3.1759632E1,4.093048E1,1.5163269E1,2.2432617E1,1.4312256E1,1.2547852E1,9.760254E0,0E0,0E0,0E0,0E0,0E0,0E0,0E0,0E0,0E0,0E0,0E0,0E0,0E0,0E0,0E0,0E0,0E0,0E0,0E0,0E0,0E0,0E0,0E0,0E0,0E0,0E0,0E0,0E0,0E0,0E0,0E0,0E0],"parents":[2147483647,0,0,1,1,2,2,3,3,4,4,5,5,6,6,7,7,8,8,9,9,10,10,11,11,12,12,13,13,14,14,15,15,16,16,17,17,18,18,19,19,20,20,21,21,22,22,23,23,24,24,25,25,26,26,27,27,28,28,29,29,30,30],"right_children":[2,4,6,8,10,12,14,16,18,20,22,24,26,28,30,32,34,36,38,40,42,44,46,48,50,52,54,56,58,60,62,-1,-1,-1,-1,-1,-1,-1,-1,-1,-1,-1,-1,-1,-1,-1,-1,-1,-1,-1,-1,-1,-1,-1,-1,-1,-1,-1,-1,-1,-1,-1,-1],"split_conditions":[2.9973207E1,3.95E0,5.9979202E1,5.952884E0,6.4443774E0,4.1E0,1.199618E2,1.69E0,2.04E0,4.506927E0,6.74E0,2.57E0,6.98E0,4.61E0,-7.1E0,4.0366936E0,4.0366936E0,1.1022766E1,1.1022766E1,6.58E0,6.58E0,1.09661045E1,8.76E0,4.0036793E1,4.0036793E1,3.995974E1,9.22E0,8.001333E1,7.54E0,5.0002737E2,5.0002737E2,4.0507135E-3,9.401176E-3,-4.8775852E-4,1.7400881E-3,1.8974168E-2,9.596719E-3,8.05229E-3,4.0572267E-3,-1.3414248E-3,-1.8757536E-3,1.6761401E-4,-1.1817913E-3,3.6785612E-3,1.3446423E-3,8.040803E-4,-5.3003465E-4,2.385303E-3,4.181486E-4,4.4754427E-4,-6.640555E-4,-4.984637E-4,-1.1178143E-3,-1.3392186E-3,-1.7467099E-3,-1.1250292E-3,-1.7186102E-3,-1.7694444E-3,-2.021404E-3,-2.1360812E-3,-2.267454E-3,-2.4206894E-3,-2.6551953E-3],"split_indices":[0,6,0,0,0,6,0,6,6,0,6,6,6,6,4,0,0,0,0,6,6,0,6,0,0,0,6,0,6,0,0,0,0,0,0,0,0,0,0,0,0,0,0,0,0,0,0,0,0,0,0,0,0,0,0,0,0,0,0,0,0,0,0],"split_type":[0,0,0,0,0,0,0,0,0,0,0,0,0,0,0,0,0,0,0,0,0,0,0,0,0,0,0,0,0,0,0,0,0,0,0,0,0,0,0,0,0,0,0,0,0,0,0,0,0,0,0,0,0,0,0,0,0,0,0,0,0,0,0],"sum_hessian":[3.7964195E8,2.4758235E8,1.3205962E8,3.566793E7,2.1191442E8,2.2244706E7,1.0981491E8,1.303758E7,2.2630348E7,8.5079336E7,1.2683508E8,3.542955E6,1.8701752E7,2.6719288E7,8.3095624E7,1.095013E6,1.1942567E7,3.10368E6,1.9526668E7,5.9683828E7,2.5395512E7,5.998257E7,6.685251E7,9.3987E5,2.603085E6,9.64678E6,9.054971E6,5.73013E6,2.098916E7,6.678944E7,1.6306181E7,7.72032E5,3.22981E5,8.417564E6,3.525003E6,1.993681E6,1.109999E6,1.2541606E7,6.985063E6,2.6179784E7,3.3504044E7,1.1139681E7,1.425583E7,3.5431216E7,2.4551352E7,4.013873E7,2.671378E7,6.26951E5,3.12919E5,1.73585E6,8.67235E5,4.499201E6,5.147579E6,5.90337E6,3.151601E6,2.861751E6,2.868379E6,1.2409606E7,8.579553E6,3.8155584E7,2.8633856E7,9.317082E6,6.989099E6],"tree_param":{"num_deleted":"0","num_feature":"7","num_nodes":"63","size_leaf_vector":"1"}},{"base_weights":[-8.085426E-7,6.12757E-3,-1.0553261E-2,3.8032323E-2,2.9733821E-3,-5.2366294E-3,-1.2275762E-2,9.320501E-3,5.8301892E-2,-7.163164E-3,1.0131788E-2,1.5976889E-3,-7.1021407E-3,-1.0358494E-2,-1.2789203E-2,4.312386E-2,5.92455E-3,1.08438894E-1,5.0507084E-2,-8.621042E-3,-1.1050608E-3,2.1143744E-2,3.8185844E-3,9.804647E-3,-4.1411116E-4,-5.5868314E-3,-9.293848E-3,-9.281352E-3,-1.1170492E-2,-1.4062006E-2,-1.2626757E-2,4.5996853E-3,1.0853039E-2,5.8607136E-5,2.8393345E-3,1.9815164E-2,1.0431912E-2,9.138004E-3,5.005513E-3,-8.663163E-4,-1.4955235E-3,8.238487E-4,-6.9972535E-4,3.9589E-3,1.8769401E-3,1.2317316E-3,-1.3764836E-4,2.3549986E-3,5.072275E-4,3.1442204E-4,-7.67764E-4,-6.3853245E-4,-1.2121082E-3,-1.316074E-3,-1.7810857E-3,-1.1773745E-3,-1.5347123E-3,-1.5574532E-3,-1.7539626E-3,-1.9266267E-3,-2.256501E-3,-1.8766836E-3,-2.0508051E-3],"categories":[],"categories_nodes":[],"categories_segments":[],"categories_sizes":[],"default_left":[0,0,0,0,0,0,0,0,0,0,0,0,0,0,0,0,0,0,0,0,0,0,0,0,0,0,0,0,0,0,0,0,0,0,0,0,0,0,0,0,0,0,0,0,0,0,0,0,0,0,0,0,0,0,0,0,0,0,0,0,0,0,0],"id":6,"left_children":[1,3,5,7,9,11,13,15,17,19,21,23,25,27,29,31,33,35,37,39,41,43,45,47,49,51,53,55,57,59,61,-1,-1,-1,-1,-1,-1,-1,-1,-1,-1,-1,-1,-1,-1,-1,-1,-1,-1,-1,-1,-1,-1,-1,-1,-1,-1,-1,-1,-1,-1,-1,-1],"loss_changes":[2.4550566E4,2.4168027E4,1.2772812E3,1.2574541E4,1.5858469E4,4.351347E2,1.03700195E2,1.0264119E3,4.949711E3,7.9893164E2,8.905119E3,1.2083284E2,8.904297E1,1.9462402E1,1.7180664E1,2.9726392E2,5.847097E2,1.568291E3,1.9559863E3,2.7991357E2,4.1208E2,2.1145586E3,1.6939618E3,5.4558197E1,6.940918E1,5.2575714E1,1.4704102E1,1.3013794E1,5.2210693E0,1.1239014E1,8.8984375E0,0E0,0E0,0E0,0E0,0E0,0E0,0E0,0E0,0E0,0E0,0E0,0E0,0E0,0E0,0E0,0E0,0E0,0E0,0E0,0E0,0E0,0E0,0E0,0E0,0E0,0E0,0E0,0E0,0E0,0E0,0E0,0E0],"parents":[2147483647,0,0,1,1,2,2,3,3,4,4,5,5,6,6,7,7,8,8,9,9,10,10,11,11,12,12,13,13,14,14,15,15,16,16,17,17,18,18,19,19,20,20,21,21,22,22,23,23,24,24,25,25,26,26,27,27,28,28,29,29,30,30],"right_children":[2,4,6,8,10,12,14,16,18,20,22,24,26,28,30,32,34,36,38,40,42,44,46,48,50,52,54,56,58,60,62,-1,-1,-1,-1,-1,-1,-1,-1,-1,-1,-1,-1,-1,-1,-1,-1,-1,-1,-1,-1,-1,-1,-1,-1,-1,-1,-1,-1,-1,-1,-1,-1],"split_conditions":[2.253701E1,3.36E0,6.995548E1,6.4443774E0,6.4443774E0,4.61E0,1.199618E2,1.48E0,1.69E0,5.0299797E0,6.07E0,2.57E0,7.54E0,6.13E0,3.63E0,4.506927E0,4.506927E0,1.09661045E1,1.09661045E1,5.87E0,5.99E0,1.09661045E1,7.91E0,3.995974E1,4.0036793E1,4.0036793E1,8.7195E3,8.001333E1,8.001333E1,3.5002988E2,8.7195E3,4.5996853E-3,1.0853039E-2,5.8607136E-5,2.8393345E-3,1.9815164E-2,1.0431912E-2,9.138004E-3,5.005513E-3,-8.663163E-4,-1.4955235E-3,8.238487E-4,-6.9972535E-4,3.9589E-3,1.8769401E-3,1.2317316E-3,-1.3764836E-4,2.3549986E-3,5.072275E-4,3.1442204E-4,-7.67764E-4,-6.3853245E-4,-1.2121082E-3,-1.316074E-3,-1.7810857E-3,-1.1773745E-3,-1.5347123E-3,-1.5574532E-3,-1.7539626E-3,-1.9266267E-3,-2.256501E-3,-1.8766836E-3,-2.0508051E-3],"split_indices":[0,6,0,0,0,6,0,6,6,0,6,6,6,6,6,0,0,0,0,6,6,0,6,0,0,0,5,0,0,0,5,0,0,0,0,0,0,0,0,0,0,0,0,0,0,0,0,0,0,0,0,0,0,0,0,0,0,0,0,0,0,0,0],"split_type":[0,0,0,0,0,0,0,0,0,0,0,0,0,0,0,0,0,0,0,0,0,0,0,0,0,0,0,0,0,0,0,0,0,0,0,0,0,0,0,0,0,0,0,0,0,0,0,0,0,0,0,0,0,0,0,0,0,0,0,0,0,0,0],"sum_hessian":[3.7963174E8,2.4015867E8,1.3947309E8,2.1606628E7,2.1855205E8,3.412956E7,1.0534353E8,8.941295E6,1.2665332E7,9.0459016E7,1.2809303E8,7.318429E6,2.681113E7,2.2251794E7,8.3091736E7,8.16256E5,8.125039E6,1.704137E6,1.0961195E7,7.291265E7,1.7546364E7,4.667648E7,8.141655E7,1.440802E6,5.877627E6,1.5851601E7,1.0959529E7,9.564366E6,1.2687428E7,9.404535E6,7.36872E7,5.72309E5,2.43947E5,5.699633E6,2.425406E6,1.059525E6,6.44612E5,6.818234E6,4.142961E6,2.3450356E7,4.9462292E7,6.149465E6,1.1396898E7,2.9024752E7,1.765173E7,4.223901E7,3.9177544E7,7.51266E5,6.89536E5,3.83255E6,2.045077E6,1.0338341E7,5.51326E6,9.121134E6,1.838395E6,3.814354E6,5.750012E6,5.061109E6,7.626319E6,4.196597E6,5.207938E6,6.6353236E7,7.333961E6],"tree_param":{"num_deleted":"0","num_feature":"7","num_nodes":"63","size_leaf_vector":"1"}},{"base_weights":[6.15917E-8,5.4209414E-3,-8.731883E-3,-4.8271306E-3,1.2976978E-2,-3.71181E-3,-1.0271799E-2,2.0174501E-2,-5.5344454E-3,3.6667284E-2,6.5063774E-3,2.6646848E-3,-5.9209075E-3,-8.168359E-3,-1.0797222E-2,9.53999E-3,3.4130994E-2,-7.6866318E-3,-1.6788206E-3,7.4165374E-2,3.0181473E-2,1.1422232E-2,8.188191E-4,1.0198049E-2,6.1548233E-4,-4.173144E-3,-7.7383635E-3,-4.1027884E-3,-8.513956E-3,-1.0474768E-2,-1.2117749E-2,4.713959E-3,8.366252E-4,1.0526747E-2,4.1384664E-3,-6.719766E-4,-1.3049138E-3,9.005745E-4,-6.493712E-4,1.5925663E-2,9.440725E-3,5.32555E-3,3.0502279E-3,2.1739895E-3,8.6094294E-4,4.3769655E-4,-6.883774E-4,1.9356882E-3,6.0389325E-4,3.2336492E-4,-4.3532494E-4,-5.7492283E-4,-1.4082526E-3,-1.1146736E-3,-2.2991754E-3,-3.547211E-4,-9.136976E-4,-1.1722539E-3,-1.4205821E-3,-1.5083567E-3,-1.6300059E-3,-1.6339021E-3,-1.8788803E-3],"categories":[],"categories_nodes":[],"categories_segments":[],"categories_sizes":[],"default_left":[0,0,0,0,0,0,0,0,0,0,0,0,0,0,0,0,0,0,0,0,0,0,0,0,0,0,0,0,0,0,0,0,0,0,0,0,0,0,0,0,0,0,0,0,0,0,0,0,0,0,0,0,0,0,0,0,0,0,0,0,0,0,0],"id":7,"left_children":[1,3,5,7,9,11,13,15,17,19,21,23,25,27,29,31,33,35,37,39,41,43,45,47,49,51,53,55,57,59,61,-1,-1,-1,-1,-1,-1,-1,-1,-1,-1,-1,-1,-1,-1,-1,-1,-1,-1,-1,-1,-1,-1,-1,-1,-1,-1,-1,-1,-1,-1,-1,-1],"loss_changes":[1.7970078E4,1.8137328E4,1.1240947E3,1.7578911E3,2.0666846E4,4.808246E2,1.2298242E2,4.0591296E2,8.021763E2,7.034492E3,2.9608076E3,1.3558395E2,8.05282E1,3.1249146E1,3.791211E1,1.3461134E2,2.7887476E2,2.0149487E2,7.051283E2,1.5325938E3,1.2922656E3,9.912822E2,5.573405E2,3.1374954E1,3.741062E1,2.2937424E1,2.8975952E1,6.0219574E0,1.3704712E1,1.1753906E1,8.736572E0,0E0,0E0,0E0,0E0,0E0,0E0,0E0,0E0,0E0,0E0,0E0,0E0,0E0,0E0,0E0,0E0,0E0,0E0,0E0,0E0,0E0,0E0,0E0,0E0,0E0,0E0,0E0,0E0,0E0,0E0,0E0,0E0],"parents":[2147483647,0,0,1,1,2,2,3,3,4,4,5,5,6,6,7,7,8,8,9,9,10,10,11,11,12,12,13,13,14,14,15,15,16,16,17,17,18,18,19,19,20,20,21,21,22,22,23,23,24,24,25,25,26,26,27,27,28,28,29,29,30,30],"right_children":[2,4,6,8,10,12,14,16,18,20,22,24,26,28,30,32,34,36,38,40,42,44,46,48,50,52,54,56,58,60,62,-1,-1,-1,-1,-1,-1,-1,-1,-1,-1,-1,-1,-1,-1,-1,-1,-1,-1,-1,-1,-1,-1,-1,-1,-1,-1,-1,-1,-1,-1,-1,-1],"split_conditions":[2.2450943E1,6.4443774E0,5.0050648E1,2.25E0,4.61E0,4.95E0,9.994115E1,3.5472162E0,4.0366936E0,2.34E0,7.26E0,2.83E0,7.26E0,3.2E0,-7.1E0,1.3E0,1.3E0,4.99E0,5.12E0,1.48E0,1.09661045E1,1.09661045E1,9.81E0,3.995974E1,3.995974E1,8.7195E3,-7.1E0,7.996611E1,7.09E0,3.5002988E2,1.7995366E2,4.713959E-3,8.366252E-4,1.0526747E-2,4.1384664E-3,-6.719766E-4,-1.3049138E-3,9.005745E-4,-6.493712E-4,1.5925663E-2,9.440725E-3,5.32555E-3,3.0502279E-3,2.1739895E-3,8.6094294E-4,4.3769655E-4,-6.883774E-4,1.9356882E-3,6.0389325E-4,3.2336492E-4,-4.3532494E-4,-5.7492283E-4,-1.4082526E-3,-1.1146736E-3,-2.2991754E-3,-3.547211E-4,-9.136976E-4,-1.1722539E-3,-1.4205821E-3,-1.5083567E-3,-1.6300059E-3,-1.6339021E-3,-1.8788803E-3],"split_indices":[0,0,0,6,6,6,0,0,0,6,6,6,6,6,4,6,6,6,6,6,0,0,6,0,0,5,4,0,6,0,0,0,0,0,0,0,0,0,0,0,0,0,0,0,0,0,0,0,0,0,0,0,0,0,0,0,0,0,0,0,0,0,0],"split_type":[0,0,0,0,0,0,0,0,0,0,0,0,0,0,0,0,0,0,0,0,0,0,0,0,0,0,0,0,0,0,0,0,0,0,0,0,0,0,0,0,0,0,0,0,0,0,0,0,0,0,0,0,0,0,0,0,0,0,0,0,0,0,0],"sum_hessian":[3.7963763E8,2.3422709E8,1.4541054E8,9.940562E7,1.3482147E8,3.413421E7,1.11276344E8,2.734886E6,9.667073E7,2.8924058E7,1.0589741E8,8.782829E6,2.535138E7,2.224048E7,8.903586E7,1.552171E6,1.182715E6,6.204024E7,3.4630492E7,4.265102E6,2.4658956E7,5.6802252E7,4.909516E7,1.87818E6,6.904649E6,1.2923477E7,1.2427902E7,1.742454E6,2.0498028E7,7.1561544E7,1.747432E7,2.37938E5,1.314233E6,1.81653E5,1.001062E6,1.4891028E7,4.7149212E7,8.882431E6,2.574806E7,1.107608E6,3.157494E6,1.6007013E7,8.651943E6,3.6874372E7,1.9927878E7,3.5367132E7,1.3728026E7,1.30564E6,5.7254E5,4.801988E6,2.102661E6,1.2131801E7,7.91676E5,1.1944418E7,4.83484E5,9.29804E5,8.1265E5,1.184414E7,8.653887E6,3.4584292E7,3.697725E7,4.36668E6,1.3107639E7],"tree_param":{"num_deleted":"0","num_feature":"7","num_nodes":"63","size_leaf_vector":"1"}},{"base_weights":[-2.3280357E-7,4.652896E-3,-7.372903E-3,-3.747653E-3,1.1597436E-2,-3.239256E-3,-8.768674E-3,-5.4335464E-3,1.6079948E-3,6.5798014E-3,2.1504542E-2,-4.980451E-3,-9.427217E-4,-7.0183068E-3,-9.177067E-3,-5.603729E-3,1.6003944E-2,4.0394925E-3,-8.552185E-3,1.1501572E-2,3.674873E-3,3.5315875E-2,1.3668579E-2,-2.796235E-3,-6.0228496E-3,3.3478332E-3,-3.627215E-3,-6.506424E-3,-8.067129E-3,-8.9024715E-3,-1.0301785E-2,-6.56507E-4,-1.2029901E-3,4.174713E-3,7.747097E-4,4.7359642E-4,5.265458E-3,-6.9241883E-4,-1.6889899E-3,1.3554506E-3,3.0218782E-3,9.5165835E-4,-1.619086E-4,4.357075E-3,9.222724E-3,1.6341965E-3,5.9755514E-3,-6.1111985E-4,-1.385454E-4,-7.8651E-4,-1.1439556E-3,3.0072656E-4,1.5960285E-3,-3.0190035E-4,-1.1556342E-3,-1.1064549E-3,-8.300993E-4,-1.1441142E-3,-1.3765551E-3,-1.2929903E-3,-1.3989103E-3,-1.4692614E-3,-1.6592289E-3],"categories":[],"categories_nodes":[],"categories_segments":[],"categories_sizes":[],"default_left":[0,0,0,0,0,0,0,0,0,0,0,0,0,0,0,0,0,0,0,0,0,0,0,0,0,0,0,0,0,0,0,0,0,0,0,0,0,0,0,0,0,0,0,0,0,0,0,0,0,0,0,0,0,0,0,0,0,0,0,0,0,0,0],"id":8,"left_children":[1,3,5,7,9,11,13,15,17,19,21,23,25,27,29,31,33,35,37,39,41,43,45,47,49,51,53,55,57,59,61,-1,-1,-1,-1,-1,-1,-1,-1,-1,-1,-1,-1,-1,-1,-1,-1,-1,-1,-1,-1,-1,-1,-1,-1,-1,-1,-1,-1,-1,-1,-1,-1],"loss_changes":[1.3023607E4,1.3577613E4,8.4750195E2,9.5101746E2,6.3336836E3,1.4826807E2,7.849609E1,2.922666E2,6.2299414E2,1.2092256E3,4.635865E3,4.8016663E1,1.8416765E2,1.1153076E1,2.7498535E1,2.3563525E2,8.088849E1,5.5761743E2,5.1900085E1,6.6895166E2,6.750084E2,2.5436387E3,1.9838486E3,1.6303856E1,1.7843262E1,6.0268852E1,6.4743515E1,1.18098755E1,3.3251343E0,8.56543E0,6.7261963E0,0E0,0E0,0E0,0E0,0E0,0E0,0E0,0E0,0E0,0E0,0E0,0E0,0E0,0E0,0E0,0E0,0E0,0E0,0E0,0E0,0E0,0E0,0E0,0E0,0E0,0E0,0E0,0E0,0E0,0E0,0E0,0E0],"parents":[2147483647,0,0,1,1,2,2,3,3,4,4,5,5,6,6,7,7,8,8,9,9,10,10,11,11,12,12,13,13,14,14,15,15,16,16,17,17,18,18,19,19,20,20,21,21,22,22,23,23,24,24,25,25,26,26,27,27,28,28,29,29,30,30],"right_children":[2,4,6,8,10,12,14,16,18,20,22,24,26,28,30,32,34,36,38,40,42,44,46,48,50,52,54,56,58,60,62,-1,-1,-1,-1,-1,-1,-1,-1,-1,-1,-1,-1,-1,-1,-1,-1,-1,-1,-1,-1,-1,-1,-1,-1,-1,-1,-1,-1,-1,-1,-1,-1],"split_conditions":[2.002676E1,6.5069404E0,5.9979202E1,5.0299797E0,-1.49E1,-2.17E1,9.994115E1,-2E-1,9.702957E-1,2.0342E3,3.3341E3,1.7983E3,3.3341E3,4.6132E3,-7.1E0,8.9879405E-1,7.0052E3,-6E-1,9.945219E-1,-3.08E1,1.09661045E1,-2.6E0,-6E-1,-4.92E1,4.5412E3,-2.9E0,8.7195E3,-3.46E1,8.7195E3,5.0002737E2,5.0002737E2,-6.56507E-4,-1.2029901E-3,4.174713E-3,7.747097E-4,4.7359642E-4,5.265458E-3,-6.9241883E-4,-1.6889899E-3,1.3554506E-3,3.0218782E-3,9.5165835E-4,-1.619086E-4,4.357075E-3,9.222724E-3,1.6341965E-3,5.9755514E-3,-6.1111985E-4,-1.385454E-4,-7.8651E-4,-1.1439556E-3,3.0072656E-4,1.5960285E-3,-3.0190035E-4,-1.1556342E-3,-1.1064549E-3,-8.300993E-4,-1.1441142E-3,-1.3765551E-3,-1.2929903E-3,-1.3989103E-3,-1.4692614E-3,-1.6592289E-3],"split_indices":[0,0,0,0,4,4,0,4,2,5,5,5,5,5,4,2,5,4,2,4,0,4,4,4,5,4,5,4,5,0,0,0,0,0,0,0,0,0,0,0,0,0,0,0,0,0,0,0,0,0,0,0,0,0,0,0,0,0,0,0,0,0,0],"split_type":[0,0,0,0,0,0,0,0,0,0,0,0,0,0,0,0,0,0,0,0,0,0,0,0,0,0,0,0,0,0,0,0,0,0,0,0,0,0,0,0,0,0,0,0,0,0,0,0,0,0,0,0,0,0,0,0,0,0,0,0,0,0,0],"sum_hessian":[3.796308E8,2.3274069E8,1.4689011E8,1.05328616E8,1.2741207E8,3.707894E7,1.0981117E8,8.011073E7,2.5217888E7,8.457667E7,4.2835396E7,2.1089342E7,1.5989597E7,2.0774024E7,8.9037144E7,7.947978E7,6.30953E5,2.0348224E7,4.869663E6,3.139116E7,5.318551E7,1.5505703E7,2.7329692E7,6.81318E6,1.4276162E7,6.153931E6,9.835666E6,1.3960526E7,6.813499E6,7.156486E7,1.7472284E7,5.271145E7,2.6768328E7,3.01721E5,3.29232E5,1.9786308E7,5.61916E5,1.984679E6,2.884984E6,2.4425368E7,6.965792E6,3.406054E7,1.9124972E7,1.2509164E7,2.996539E6,2.4710324E7,2.61937E6,4.049633E6,2.763547E6,9.606549E6,4.669613E6,5.196858E6,9.57073E5,7.045546E6,2.79012E6,7.368556E6,6.59197E6,4.880169E6,1.93333E6,4.2930504E7,2.8634356E7,1.0481602E7,6.990683E6],"tree_param":{"num_deleted":"0","num_feature":"7","num_nodes":"63","size_leaf_vector":"1"}},{"base_weights":[7.006155E-7,1.5520711E-2,-1.3179348E-3,3.6296062E-2,1.3084933E-2,2.8418908E-3,-3.1741068E-3,4.452301E-2,2.7597295E-2,1.6681202E-2,9.695273E-3,4.7742967E-3,1.488184E-3,-1.8042137E-3,-5.39635E-3,4.0953074E-2,5.9832428E-2,2.6484242E-2,3.6223046E-2,2.2205958E-2,1.5109498E-2,1.242006E-2,7.5821974E-3,7.1695643E-3,2.8507167E-3,2.471578E-3,-8.4772625E-4,-1.536308E-3,-1.0026209E-2,-5.038303E-3,-1.379904E-2,7.1783126E-3,5.7660704E-3,9.792697E-3,8.648515E-3,4.2716907E-3,3.6194236E-3,5.8155805E-3,5.050733E-3,3.2067406E-3,4.2301225E-3,2.9374699E-3,1.9199038E-3,2.1084985E-3,1.5710468E-3,1.313149E-3,8.903788E-4,1.292329E-3,9.618784E-4,4.7289362E-4,-5.5785826E-4,5.591072E-4,2.6353725E-4,-7.3480755E-5,-1.7360558E-3,-1.2539123E-4,-3.639569E-4,-1.2452755E-3,-2.6549357E-3,-6.2874286E-4,-1.0653292E-3,-1.8407304E-3,-3.170048E-3],"categories":[],"categories_nodes":[],"categories_segments":[],"categories_sizes":[],"default_left":[0,0,0,0,0,0,0,0,0,0,0,0,0,0,0,0,0,0,0,0,0,0,0,0,0,0,0,0,0,0,0,0,0,0,0,0,0,0,0,0,0,0,0,0,0,0,0,0,0,0,0,0,0,0,0,0,0,0,0,0,0,0,0],"id":9,"left_children":[1,3,5,7,9,11,13,15,17,19,21,23,25,27,29,31,33,35,37,39,41,43,45,47,49,51,53,55,57,59,61,-1,-1,-1,-1,-1,-1,-1,-1,-1,-1,-1,-1,-1,-1,-1,-1,-1,-1,-1,-1,-1,-1,-1,-1,-1,-1,-1,-1,-1,-1,-1,-1],"loss_changes":[7.769589E3,1.5044751E3,2.7018394E3,2.2327246E2,3.243833E2,2.8242273E2,7.3656616E2,8.7630615E1,1.4558472E1,1.1211548E2,7.887256E1,2.0491937E2,1.4583987E2,3.297097E2,2.77604E2,2.2548096E1,3.5928955E0,6.3049316E0,1.1252289E0,1.4188477E1,1.0388501E2,1.9059631E1,1.4888519E1,2.1683777E1,4.892479E1,4.0098175E1,7.219657E1,9.036432E1,6.249814E1,1.5465112E2,4.2249634E1,0E0,0E0,0E0,0E0,0E0,0E0,0E0,0E0,0E0,0E0,0E0,0E0,0E0,0E0,0E0,0E0,0E0,0E0,0E0,0E0,0E0,0E0,0E0,0E0,0E0,0E0,0E0,0E0,0E0,0E0,0E0,0E0],"parents":[2147483647,0,0,1,1,2,2,3,3,4,4,5,5,6,6,7,7,8,8,9,9,10,10,11,11,12,12,13,13,14,14,15,15,16,16,17,17,18,18,19,19,20,20,21,21,22,22,23,23,24,24,25,25,26,26,27,27,28,28,29,29,30,30],"right_children":[2,4,6,8,10,12,14,16,18,20,22,24,26,28,30,32,34,36,38,40,42,44,46,48,50,52,54,56,58,60,62,-1,-1,-1,-1,-1,-1,-1,-1,-1,-1,-1,-1,-1,-1,-1,-1,-1,-1,-1,-1,-1,-1,-1,-1,-1,-1,-1,-1,-1,-1,-1,-1],"split_conditions":[3.2E0,1.48E0,5.72E0,1.3E0,2.57E0,4.42E0,8.18E0,-0E0,5.094E3,1.86E0,2.1668E3,2.29E3,3.9646E3,-5.2E0,-7.1E0,1.44E3,4.8762E3,7.880108E-1,7.431448E-1,5.6515E3,2.0342E3,2.93E0,2.93E0,3.73E0,-9E-1,4.95E0,-1E0,6.96E0,-1E0,1.036E1,-1.4E0,7.1783126E-3,5.7660704E-3,9.792697E-3,8.648515E-3,4.2716907E-3,3.6194236E-3,5.8155805E-3,5.050733E-3,3.2067406E-3,4.2301225E-3,2.9374699E-3,1.9199038E-3,2.1084985E-3,1.5710468E-3,1.313149E-3,8.903788E-4,1.292329E-3,9.618784E-4,4.7289362E-4,-5.5785826E-4,5.591072E-4,2.6353725E-4,-7.3480755E-5,-1.7360558E-3,-1.2539123E-4,-3.639569E-4,-1.2452755E-3,-2.6549357E-3,-6.2874286E-4,-1.0653292E-3,-1.8407304E-3,-3.170048E-3],"split_indices":[6,6,6,6,6,6,6,4,5,6,5,5,5,4,4,5,5,2,2,5,5,6,6,6,4,6,4,6,4,6,4,0,0,0,0,0,0,0,0,0,0,0,0,0,0,0,0,0,0,0,0,0,0,0,0,0,0,0,0,0,0,0,0],"split_type":[0,0,0,0,0,0,0,0,0,0,0,0,0,0,0,0,0,0,0,0,0,0,0,0,0,0,0,0,0,0,0,0,0,0,0,0,0,0,0,0,0,0,0,0,0,0,0,0,0,0,0,0,0,0,0,0,0,0,0,0,0,0,0],"sum_hessian":[3.7964813E8,2.9730268E7,3.499179E8,3.119896E6,2.6610372E7,1.0796343E8,2.4195445E8,1.603431E6,1.516465E6,1.2911685E7,1.3698687E7,4.44753E7,6.3488132E7,1.4968296E8,9.227149E7,1.300238E6,3.03193E5,1.343151E6,1.73314E5,2.85964E6,1.0052045E7,5.983292E6,7.715395E6,1.980894E7,2.466636E7,4.4678816E7,1.880932E7,1.4495958E8,4.723367E6,8.85004E7,3.771087E6,3.46995E5,9.53243E5,8.647E4,2.16723E5,7.27331E5,6.1582E5,8.6718E4,8.6596E4,2.512722E6,3.46918E5,3.423112E6,6.628933E6,3.250327E6,2.732965E6,4.506757E6,3.208638E6,6.807154E6,1.3001785E7,2.3582644E7,1.083716E6,1.6204436E7,2.8474378E7,1.820204E7,6.0728E5,8.112509E7,6.3834508E7,3.856687E6,8.6668E5,6.2755716E7,2.5744682E7,3.121092E6,6.49995E5],"tree_param":{"num_deleted":"0","num_feature":"7","num_nodes":"63","size_leaf_vector":"1"}},{"base_weights":[3.9636572E-7,1.1010468E-2,-1.3546649E-3,2.512684E-2,8.640612E-3,1.3207893E-3,-3.1258392E-3,3.7753463E-2,2.0499567E-2,1.1894342E-2,6.298761E-3,3.003194E-3,1.6701376E-4,-2.5809163E-3,-6.725243E-3,3.472305E-2,5.0738476E-2,1.9399364E-2,2.4954641E-2,1.522852E-2,9.843541E-3,8.630097E-3,4.7743493E-3,4.560234E-3,1.0832953E-3,5.0603645E-4,-5.1730503E-3,-1.9170507E-3,-4.6499944E-3,-5.670997E-3,-1.198743E-2,4.4011096E-3,5.6115584E-3,8.318098E-3,7.327979E-3,3.5109574E-3,2.6259758E-3,3.5987557E-3,4.561439E-3,2.5333278E-3,1.989721E-3,1.8222071E-3,1.3144024E-3,1.4730551E-3,1.1159413E-3,8.9405593E-4,5.382821E-4,8.2806963E-4,5.5263104E-4,2.0129255E-4,-8.4360986E-4,1.780284E-4,-2.6236858E-5,-6.193031E-4,-1.8496627E-3,-1.9460442E-4,-4.0491967E-4,-6.2394066E-4,-8.8979537E-4,-7.214014E-4,-1.1794805E-3,-1.508784E-3,-2.536616E-3],"categories":[],"categories_nodes":[],"categories_segments":[],"categories_sizes":[],"default_left":[0,0,0,0,0,0,0,0,0,0,0,0,0,0,0,0,0,0,0,0,0,0,0,0,0,0,0,0,0,0,0,0,0,0,0,0,0,0,0,0,0,0,0,0,0,0,0,0,0,0,0,0,0,0,0,0,0,0,0,0,0,0,0],"id":10,"left_children":[1,3,5,7,9,11,13,15,17,19,21,23,25,27,29,31,33,35,37,39,41,43,45,47,49,51,53,55,57,59,61,-1,-1,-1,-1,-1,-1,-1,-1,-1,-1,-1,-1,-1,-1,-1,-1,-1,-1,-1,-1,-1,-1,-1,-1,-1,-1,-1,-1,-1,-1,-1,-1],"loss_changes":[5.663904E3,1.3917847E3,1.6018322E3,3.4941333E2,2.7143726E2,2.6136072E2,3.9892407E2,6.310962E1,2.1450928E1,1.0194238E2,7.3615906E1,1.6373978E2,1.4459738E2,2.4263782E2,1.4835913E2,1.880774E1,2.6952515E0,2.6620117E1,4.552185E0,1.851184E1,2.2992798E1,1.1604492E1,1.761435E1,2.5441895E1,4.255509E1,3.4817673E1,3.5643494E1,6.48421E1,2.6975647E1,4.208374E1,4.2387512E1,0E0,0E0,0E0,0E0,0E0,0E0,0E0,0E0,0E0,0E0,0E0,0E0,0E0,0E0,0E0,0E0,0E0,0E0,0E0,0E0,0E0,0E0,0E0,0E0,0E0,0E0,0E0,0E0,0E0,0E0,0E0,0E0],"parents":[2147483647,0,0,1,1,2,2,3,3,4,4,5,5,6,6,7,7,8,8,9,9,10,10,11,11,12,12,13,13,14,14,15,15,16,16,17,17,18,18,19,19,20,20,21,21,22,22,23,23,24,24,25,25,26,26,27,27,28,28,29,29,30,30],"right_children":[2,4,6,8,10,12,14,16,18,20,22,24,26,28,30,32,34,36,38,40,42,44,46,48,50,52,54,56,58,60,62,-1,-1,-1,-1,-1,-1,-1,-1,-1,-1,-1,-1,-1,-1,-1,-1,-1,-1,-1,-1,-1,-1,-1,-1,-1,-1,-1,-1,-1,-1,-1,-1],"split_conditions":[3.57E0,1.86E0,6.33E0,1.3E0,2.83E0,4.92E0,8.6115E3,-0E0,-2E-1,2.1842E3,2.0623E3,2.7661E3,8.6115E3,9.12E0,-3.3E0,-2E-1,4.8762E3,1.6479E3,-0E0,2.49E0,2.25E0,7.431448E-1,7.431448E-1,4.31E0,-9E-1,7.431448E-1,-9E-1,7.49E0,1.085E1,1.126E1,-1.1E0,4.4011096E-3,5.6115584E-3,8.318098E-3,7.327979E-3,3.5109574E-3,2.6259758E-3,3.5987557E-3,4.561439E-3,2.5333278E-3,1.989721E-3,1.8222071E-3,1.3144024E-3,1.4730551E-3,1.1159413E-3,8.9405593E-4,5.382821E-4,8.2806963E-4,5.5263104E-4,2.0129255E-4,-8.4360986E-4,1.780284E-4,-2.6236858E-5,-6.193031E-4,-1.8496627E-3,-1.9460442E-4,-4.0491967E-4,-6.2394066E-4,-8.8979537E-4,-7.214014E-4,-1.1794805E-3,-1.508784E-3,-2.536616E-3],"split_indices":[6,6,6,6,6,6,5,4,4,5,5,5,5,6,4,4,5,5,4,6,6,2,2,6,4,2,4,6,6,6,4,0,0,0,0,0,0,0,0,0,0,0,0,0,0,0,0,0,0,0,0,0,0,0,0,0,0,0,0,0,0,0,0],"split_type":[0,0,0,0,0,0,0,0,0,0,0,0,0,0,0,0,0,0,0,0,0,0,0,0,0,0,0,0,0,0,0,0,0,0,0,0,0,0,0,0,0,0,0,0,0,0,0,0,0,0,0,0,0,0,0,0,0,0,0,0,0,0,0],"sum_hessian":[3.796355E8,4.1603216E7,3.3803226E8,5.980363E6,3.5622852E7,1.346445E8,2.0338776E8,1.603855E6,4.376508E6,1.4908801E7,2.0714052E7,5.477421E7,7.987029E7,1.7664502E8,2.674274E7,1.300379E6,3.03476E5,3.50976E6,8.66748E5,5.677823E6,9.230978E6,8.189524E6,1.2524528E7,3.0245264E7,2.4528944E7,7.5102296E7,4.767991E6,1.33735784E8,4.2909244E7,2.2279236E7,4.463503E6,4.33053E5,8.67326E5,8.6669E4,2.16807E5,1.126033E6,2.383727E6,7.36706E5,1.30042E5,3.076564E6,2.601259E6,2.947207E6,6.283771E6,4.095132E6,4.094392E6,6.261679E6,6.262849E6,1.4429169E7,1.5816096E7,2.3618162E7,9.10783E5,3.755471E7,3.7547584E7,4.160912E6,6.07079E5,7.462846E7,5.9107316E7,3.1036816E7,1.1872427E7,1.5993099E7,6.286137E6,3.207047E6,1.256456E6],"tree_param":{"num_deleted":"0","num_feature":"7","num_nodes":"63","size_leaf_vector":"1"}},{"base_weights":[8.2675854E-8,6.4991643E-3,-1.0643677E-2,-7.978934E-3,4.006854E-2,-1.4489775E-2,-4.6825395E-3,-1.0625241E-2,1.0347989E-2,6.6494666E-2,-1.1184557E-2,-7.5620734E-3,-2.0609459E-2,-1.1561578E-3,-5.7057426E-3,-1.4435945E-2,-4.6269977E-3,1.6569644E-2,-1.0990498E-2,1.3795249E-1,4.913543E-2,1.5246943E-2,-2.292616E-2,-6.4781657E-3,-1.1364076E-2,-4.791973E-3,-2.333861E-2,6.2537855E-3,-5.151029E-3,-1.0756135E-2,-4.6206256E-3,-1.17109E-3,-3.0435482E-3,-8.367854E-4,-2.0061493E-4,1.0604911E-2,1.8719005E-3,-6.6527294E-4,-2.01634E-3,2.7767293E-2,8.037262E-3,1.0695532E-2,2.1274427E-3,4.7367E-3,8.934254E-4,-4.2853025E-3,-1.4276472E-3,-7.4732356E-4,-1.2193031E-3,-7.701297E-4,-1.8891675E-3,-1.6306118E-3,1.2763905E-3,-5.7752817E-3,-2.8797158E-3,2.8028719E-3,6.821405E-4,-3.2798713E-4,-9.5219776E-4,-2.322643E-3,-1.3723067E-3,-5.438448E-4,-7.5333536E-4],"categories":[],"categories_nodes":[],"categories_segments":[],"categories_sizes":[],"default_left":[0,0,0,0,0,0,0,0,0,0,0,0,0,0,0,0,0,0,0,0,0,0,0,0,0,0,0,0,0,0,0,0,0,0,0,0,0,0,0,0,0,0,0,0,0,0,0,0,0,0,0,0,0,0,0,0,0,0,0,0,0,0,0],"id":11,"left_children":[1,3,5,7,9,11,13,15,17,19,21,23,25,27,29,31,33,35,37,39,41,43,45,47,49,51,53,55,57,59,61,-1,-1,-1,-1,-1,-1,-1,-1,-1,-1,-1,-1,-1,-1,-1,-1,-1,-1,-1,-1,-1,-1,-1,-1,-1,-1,-1,-1,-1,-1,-1,-1],"loss_changes":[2.6262129E4,1.1456448E5,3.2999053E3,7.987258E3,9.6203234E4,3.7089668E3,2.0366516E2,3.2894346E3,2.7587502E3,5.8134203E4,7.499181E3,1.6910034E2,2.0052363E3,3.7577997E2,2.3976465E2,3.415084E3,1.7500684E2,3.56219E3,7.539484E1,3.6448266E4,2.9215383E4,1.1277185E3,1.2658525E3,7.884277E1,6.977551E1,5.5267664E2,2.4872441E3,9.431859E1,2.9266068E1,5.8807068E1,1.4390625E1,0E0,0E0,0E0,0E0,0E0,0E0,0E0,0E0,0E0,0E0,0E0,0E0,0E0,0E0,0E0,0E0,0E0,0E0,0E0,0E0,0E0,0E0,0E0,0E0,0E0,0E0,0E0,0E0,0E0,0E0,0E0,0E0],"parents":[2147483647,0,0,1,1,2,2,3,3,4,4,5,5,6,6,7,7,8,8,9,9,10,10,11,11,12,12,13,13,14,14,15,15,16,16,17,17,18,18,19,19,20,20,21,21,22,22,23,23,24,24,25,25,26,26,27,27,28,28,29,29,30,30],"right_children":[2,4,6,8,10,12,14,16,18,20,22,24,26,28,30,32,34,36,38,40,42,44,46,48,50,52,54,56,58,60,62,-1,-1,-1,-1,-1,-1,-1,-1,-1,-1,-1,-1,-1,-1,-1,-1,-1,-1,-1,-1,-1,-1,-1,-1,-1,-1,-1,-1,-1,-1,-1,-1],"split_conditions":[8.032123E0,-5.507569E0,2.253701E1,-8.037731E0,1.754812E1,6.012092E0,1.79502E1,2.4966099E1,5.0050648E1,4.42E0,4.0036793E1,4.549929E0,1.0046666E1,8.004203E1,5.0015266E1,6.012092E0,-1.9016684E1,3.07E0,1.199618E2,4.982528E0,4.5E0,5.72E0,4.5E0,1.9958548E1,1.0046666E1,1.09661045E1,4.61E0,3.73E0,1.5998076E2,4.92E0,3.9964012E1,-1.17109E-3,-3.0435482E-3,-8.367854E-4,-2.0061493E-4,1.0604911E-2,1.8719005E-3,-6.6527294E-4,-2.01634E-3,2.7767293E-2,8.037262E-3,1.0695532E-2,2.1274427E-3,4.7367E-3,8.934254E-4,-4.2853025E-3,-1.4276472E-3,-7.4732356E-4,-1.2193031E-3,-7.701297E-4,-1.8891675E-3,-1.6306118E-3,1.2763905E-3,-5.7752817E-3,-2.8797158E-3,2.8028719E-3,6.821405E-4,-3.2798713E-4,-9.5219776E-4,-2.322643E-3,-1.3723067E-3,-5.438448E-4,-7.5333536E-4],"split_indices":[1,1,0,1,0,0,1,0,0,6,0,0,1,0,0,0,1,6,0,1,1,6,1,1,1,0,6,6,0,6,1,0,0,0,0,0,0,0,0,0,0,0,0,0,0,0,0,0,0,0,0,0,0,0,0,0,0,0,0,0,0,0,0],"split_type":[0,0,0,0,0,0,0,0,0,0,0,0,0,0,0,0,0,0,0,0,0,0,0,0,0,0,0,0,0,0,0,0,0,0,0,0,0,0,0,0,0,0,0,0,0,0,0,0,0,0,0,0,0,0,0,0,0,0,0,0,0,0,0],"sum_hessian":[3.7964957E8,2.3571931E8,1.4393026E8,1.6469026E8,7.102907E7,8.748521E7,5.644504E7,1.4391038E8,2.0779868E7,4.6865296E7,2.416377E7,4.1033652E7,4.645156E7,1.2694507E7,4.3750532E7,8.800226E7,5.5908124E7,1.6088848E7,4.69102E6,9.159788E6,3.770551E7,7.432494E6,1.6731276E7,3.1930604E7,9.103047E6,6.835383E6,3.9616176E7,4.446624E6,8.247883E6,7.737652E6,3.601288E7,4.1271812E7,4.6730444E7,4.3364184E7,1.2543943E7,1.130337E6,1.4958511E7,1.276913E6,3.414107E6,5.875445E6,3.284343E6,2.3072256E7,1.4633253E7,2.695108E6,4.737386E6,1.1775815E7,4.955461E6,1.674929E7,1.5181315E7,1.50131E6,7.601737E6,4.691384E6,2.143999E6,8.497353E6,3.1118824E7,5.36612E5,3.910012E6,2.372361E6,5.875522E6,1.963148E6,5.774504E6,1.0355943E7,2.5656938E7],"tree_param":{"num_deleted":"0","num_feature":"7","num_nodes":"63","size_leaf_vector":"1"}},{"base_weights":[-2.3917164E-7,5.7832575E-3,-8.725159E-3,-5.9726965E-3,4.179037E-2,-2.892475E-3,-9.89163E-3,-9.135425E-3,9.209468E-3,1.03921495E-1,3.325945E-2,3.3401556E-2,-3.3368669E-3,-1.6929992E-2,-8.706965E-3,-1.0258435E-2,-3.919146E-3,6.2288582E-2,6.8681096E-3,1.773408E-1,8.9574255E-2,4.9435694E-2,1.9835515E-2,4.7184203E-2,1.371977E-2,-4.4390894E-5,-6.0749296E-3,-2.7722716E-2,-1.5216114E-2,-1.0561838E-2,-7.042851E-3,-2.4266012E-3,-1.2963114E-3,4.065476E-3,-6.448669E-4,1.660319E-2,7.589461E-3,2.5267377E-3,1.3001902E-5,3.0601071E-2,1.37857245E-2,1.590195E-2,5.5371206E-3,9.589935E-3,4.101863E-3,4.2527425E-3,1.0280317E-3,1.130456E-2,4.8062615E-3,3.666513E-3,1.1953773E-3,5.749575E-4,-3.053276E-4,-7.7830744E-4,-1.1589741E-3,-1.8984436E-3,-4.642712E-3,-1.4774193E-3,-2.4548452E-3,-1.2734376E-3,-1.6508655E-3,-1.1915663E-3,-9.4074063E-4],"categories":[],"categories_nodes":[],"categories_segments":[],"categories_sizes":[],"default_left":[0,0,0,0,0,0,0,0,0,0,0,0,0,0,0,0,0,0,0,0,0,0,0,0,0,0,0,0,0,0,0,0,0,0,0,0,0,0,0,0,0,0,0,0,0,0,0,0,0,0,0,0,0,0,0,0,0,0,0,0,0,0,0],"id":12,"left_children":[1,3,5,7,9,11,13,15,17,19,21,23,25,27,29,31,33,35,37,39,41,43,45,47,49,51,53,55,57,59,61,-1,-1,-1,-1,-1,-1,-1,-1,-1,-1,-1,-1,-1,-1,-1,-1,-1,-1,-1,-1,-1,-1,-1,-1,-1,-1,-1,-1,-1,-1,-1,-1],"loss_changes":[1.915709E4,9.664184E4,1.0296533E3,8.26439E3,2.9784453E4,4.0679724E2,1.0515693E3,8.344082E2,3.6876821E3,7.1461484E3,1.0729152E4,8.2759186E1,2.2462466E2,3.3608252E2,3.3320264E2,1.1213291E3,2.974379E2,7.094004E2,1.9227744E3,2.526586E3,4.912754E3,7.175828E3,2.9851934E3,7.656299E1,7.7485447E0,8.734193E1,1.9910889E1,1.21118774E2,9.672656E1,4.696045E1,3.95354E1,0E0,0E0,0E0,0E0,0E0,0E0,0E0,0E0,0E0,0E0,0E0,0E0,0E0,0E0,0E0,0E0,0E0,0E0,0E0,0E0,0E0,0E0,0E0,0E0,0E0,0E0,0E0,0E0,0E0,0E0,0E0,0E0],"parents":[2147483647,0,0,1,1,2,2,3,3,4,4,5,5,6,6,7,7,8,8,9,9,10,10,11,11,12,12,13,13,14,14,15,15,16,16,17,17,18,18,19,19,20,20,21,21,22,22,23,23,24,24,25,25,26,26,27,27,28,28,29,29,30,30],"right_children":[2,4,6,8,10,12,14,16,18,20,22,24,26,28,30,32,34,36,38,40,42,44,46,48,50,52,54,56,58,60,62,-1,-1,-1,-1,-1,-1,-1,-1,-1,-1,-1,-1,-1,-1,-1,-1,-1,-1,-1,-1,-1,-1,-1,-1,-1,-1,-1,-1,-1,-1,-1,-1],"split_conditions":[7.4446006E0,-3.9845748E0,1.0046666E1,-8.487558E0,3.73E0,1.69E0,3.95E0,-1.2959122E1,2.57E0,2.04E0,6.58E0,9.068479E0,6.946584E-1,2.04E0,6.74E0,4.61E0,1.69E0,1.48E0,6.13E0,5.5171623E0,5.5171623E0,3.9632168E0,3.9632168E0,1.3E0,1.3E0,5.6E0,7.4E0,1.5050434E1,1.5050434E1,1.5050434E1,8.18E0,-2.4266012E-3,-1.2963114E-3,4.065476E-3,-6.448669E-4,1.660319E-2,7.589461E-3,2.5267377E-3,1.3001902E-5,3.0601071E-2,1.37857245E-2,1.590195E-2,5.5371206E-3,9.589935E-3,4.101863E-3,4.2527425E-3,1.0280317E-3,1.130456E-2,4.8062615E-3,3.666513E-3,1.1953773E-3,5.749575E-4,-3.053276E-4,-7.7830744E-4,-1.1589741E-3,-1.8984436E-3,-4.642712E-3,-1.4774193E-3,-2.4548452E-3,-1.2734376E-3,-1.6508655E-3,-1.1915663E-3,-9.4074063E-4],"split_indices":[1,1,1,1,6,6,6,1,6,6,6,1,2,6,6,6,6,6,6,1,1,1,1,6,6,6,6,1,1,1,6,0,0,0,0,0,0,0,0,0,0,0,0,0,0,0,0,0,0,0,0,0,0,0,0,0,0,0,0,0,0,0,0],"split_type":[0,0,0,0,0,0,0,0,0,0,0,0,0,0,0,0,0,0,0,0,0,0,0,0,0,0,0,0,0,0,0,0,0,0,0,0,0,0,0,0,0,0,0,0,0,0,0,0,0,0,0,0,0,0,0,0,0,0,0,0,0,0,0],"sum_hessian":[3.7964496E8,2.2830691E8,1.5133805E8,1.7211358E8,5.619333E7,2.5221832E7,1.2611621E8,1.4244056E8,2.9673032E7,6.784129E6,4.9409196E7,3.05085E5,2.4916748E7,1.8169164E7,1.0794704E8,1.17207096E8,2.523346E7,1.253601E6,2.8419432E7,1.109003E6,5.675126E6,2.24075E7,2.7001698E7,1.79432E5,1.25653E5,1.1313023E7,1.3603725E7,2.489862E6,1.5679303E7,5.1047684E7,5.689936E7,2.5141632E7,9.206546E7,3.05323E5,2.4928136E7,2.43915E5,1.009686E6,1.1500277E7,1.6919156E7,8.45198E5,2.63805E5,4.325003E6,1.350123E6,1.3528804E7,8.878695E6,1.6305428E7,1.069627E7,6.2716E4,1.16716E5,4.386E4,8.1793E4,3.838357E6,7.474666E6,8.85319E6,4.750535E6,4.39408E5,2.050454E6,2.765995E6,1.2913308E7,9.006357E6,4.204133E7,2.6243392E7,3.065597E7],"tree_param":{"num_deleted":"0","num_feature":"7","num_nodes":"63","size_leaf_vector":"1"}},{"base_weights":[-2.5008095E-8,4.915979E-3,-7.416575E-3,-4.9405647E-3,3.6186926E-2,-1.06866E-2,-2.486948E-3,-7.6885815E-3,8.384998E-3,6.7445636E-2,-1.4351096E-2,-5.451224E-3,-1.5528989E-2,9.3282666E-4,-3.636926E-3,-1.1005559E-2,-2.5471877E-3,1.4464607E-2,-1.3526886E-2,1.8408392E-1,5.75359E-2,1.2267002E-2,-2.6620906E-2,-4.667349E-3,-8.165809E-3,-2.6405146E-3,-1.873952E-2,1.0446351E-2,-2.6043078E-3,-9.095888E-3,-2.4829805E-3,-8.046468E-4,-2.4069124E-3,-5.4979505E-4,-1.2153042E-4,7.805399E-3,1.362464E-3,-1.5166018E-3,-3.732392E-3,3.683706E-2,1.5738955E-2,1.2426653E-2,3.7387495E-3,4.1377065E-3,7.69722E-4,-4.745242E-3,-1.8492437E-3,-1.7935453E-3,-6.317492E-4,-2.0109098E-3,-1.0925975E-3,-1.0420242E-3,1.5052211E-3,-5.2463347E-3,-2.4008094E-3,2.75478E-3,6.991836E-4,1.7684995E-4,-6.276589E-4,-2.0114507E-3,-1.1402845E-3,-7.5665547E-4,-3.482541E-4],"categories":[],"categories_nodes":[],"categories_segments":[],"categories_sizes":[],"default_left":[0,0,0,0,0,0,0,0,0,0,0,0,0,0,0,0,0,0,0,0,0,0,0,0,0,0,0,0,0,0,0,0,0,0,0,0,0,0,0,0,0,0,0,0,0,0,0,0,0,0,0,0,0,0,0,0,0,0,0,0,0,0,0],"id":13,"left_children":[1,3,5,7,9,11,13,15,17,19,21,23,25,27,29,31,33,35,37,39,41,43,45,47,49,51,53,55,57,59,61,-1,-1,-1,-1,-1,-1,-1,-1,-1,-1,-1,-1,-1,-1,-1,-1,-1,-1,-1,-1,-1,-1,-1,-1,-1,-1,-1,-1,-1,-1,-1,-1],"loss_changes":[1.3840732E4,7.036545E4,2.4393223E3,6.356346E3,8.643221E4,2.306378E3,2.3732678E2,2.4541396E3,3.9533462E3,3.907253E4,6.8286724E3,9.301819E1,1.9556211E3,5.1103384E2,2.844854E2,2.487255E3,1.0960065E2,4.6970454E3,2.5004468E2,1.2885961E4,2.5714766E4,7.210481E2,1.0256113E3,1.126723E2,4.5260864E1,5.144566E2,1.6796035E3,1.885604E2,6.617862E1,5.0788147E1,1.5401199E1,0E0,0E0,0E0,0E0,0E0,0E0,0E0,0E0,0E0,0E0,0E0,0E0,0E0,0E0,0E0,0E0,0E0,0E0,0E0,0E0,0E0,0E0,0E0,0E0,0E0,0E0,0E0,0E0,0E0,0E0,0E0,0E0],"parents":[2147483647,0,0,1,1,2,2,3,3,4,4,5,5,6,6,7,7,8,8,9,9,10,10,11,11,12,12,13,13,14,14,15,15,16,16,17,17,18,18,19,19,20,20,21,21,22,22,23,23,24,24,25,25,26,26,27,27,28,28,29,29,30,30],"right_children":[2,4,6,8,10,12,14,16,18,20,22,24,26,28,30,32,34,36,38,40,42,44,46,48,50,52,54,56,58,60,62,-1,-1,-1,-1,-1,-1,-1,-1,-1,-1,-1,-1,-1,-1,-1,-1,-1,-1,-1,-1,-1,-1,-1,-1,-1,-1,-1,-1,-1,-1,-1,-1],"split_conditions":[7.4446006E0,-3.5206988E0,2.2450943E1,-8.037731E0,1.745937E1,6.012092E0,1.79502E1,2.253701E1,4.0036793E1,3.2E0,3.998777E1,4.549929E0,1.0046666E1,5.0050648E1,4.0036793E1,6.012092E0,-3.002046E1,3.76E0,-5.507569E0,3.9632168E0,3.9632168E0,5.41E0,4.5E0,8.032123E0,3.95E0,1.1050032E1,3.95E0,1.0993162E1,1.0002778E2,4.95E0,5.9979202E1,-8.046468E-4,-2.4069124E-3,-5.4979505E-4,-1.2153042E-4,7.805399E-3,1.362464E-3,-1.5166018E-3,-3.732392E-3,3.683706E-2,1.5738955E-2,1.2426653E-2,3.7387495E-3,4.1377065E-3,7.69722E-4,-4.745242E-3,-1.8492437E-3,-1.7935453E-3,-6.317492E-4,-2.0109098E-3,-1.0925975E-3,-1.0420242E-3,1.5052211E-3,-5.2463347E-3,-2.4008094E-3,2.75478E-3,6.991836E-4,1.7684995E-4,-6.276589E-4,-2.0114507E-3,-1.1402845E-3,-7.5665547E-4,-3.482541E-4],"split_indices":[1,1,0,1,0,0,1,0,0,6,0,0,1,0,0,0,1,6,1,1,1,6,1,1,6,0,6,1,0,6,0,0,0,0,0,0,0,0,0,0,0,0,0,0,0,0,0,0,0,0,0,0,0,0,0,0,0,0,0,0,0,0,0],"split_type":[0,0,0,0,0,0,0,0,0,0,0,0,0,0,0,0,0,0,0,0,0,0,0,0,0,0,0,0,0,0,0,0,0,0,0,0,0,0,0,0,0,0,0,0,0,0,0,0,0,0,0,0,0,0,0,0,0,0,0,0,0,0,0],"sum_hessian":[3.7961635E8,2.2829365E8,1.5132272E8,1.7358118E8,5.4712464E7,9.097515E7,6.0347564E7,1.4390491E8,2.9676276E7,3.3804036E7,2.0908428E7,4.3713776E7,4.7261376E7,1.5186462E7,4.51611E7,8.747213E7,5.6432776E7,2.323074E7,6.445536E6,2.647128E6,3.1156908E7,6.596972E6,1.4311457E7,3.391915E7,9.794626E6,9.425058E6,3.783632E7,4.116003E6,1.1070459E7,7.880565E6,3.7280536E7,4.1276428E7,4.6195704E7,3.4332588E7,2.2100188E7,2.910549E6,2.0320192E7,4.954921E6,1.490615E6,1.489755E6,1.157373E6,1.7542584E7,1.3614325E7,2.096483E6,4.500489E6,1.0594696E7,3.716761E6,1.9956E6,3.192355E7,1.410819E6,8.383807E6,7.034991E6,2.390067E6,5.453253E6,3.2383068E7,1.737568E6,2.378435E6,3.261418E6,7.809041E6,2.027194E6,5.853371E6,2.20843E6,3.5072104E7],"tree_param":{"num_deleted":"0","num_feature":"7","num_nodes":"63","size_leaf_vector":"1"}},{"base_weights":[-1.1070023E-6,-7.3484397E-3,3.6540008E-3,-1.0746405E-2,-2.0595125E-3,1.886636E-2,-6.1280336E-3,-4.5095733E-3,-1.5391227E-2,-4.4429298E-3,-1.6286654E-3,3.2969177E-2,-1.1967286E-2,-8.744348E-3,-2.0683173E-3,-3.6047762E-3,-8.6874375E-3,-2.7718872E-2,-1.2024261E-2,-7.053014E-3,6.1123073E-3,-1.0099671E-3,-2.2692624E-3,5.6198365E-3,5.7111934E-2,4.028711E-3,-1.7751588E-2,-4.8893713E-3,-1.2467451E-2,9.509156E-4,-3.091485E-3,-7.5313135E-4,-3.0938955E-4,-2.3708532E-3,-1.197509E-3,-7.566441E-3,-3.8122525E-3,-2.4288814E-3,-1.3401423E-3,-1.295325E-3,-7.123363E-4,3.205932E-3,6.0259335E-4,-4.0856414E-4,1.39332315E-5,-2.763006E-4,-5.939168E-4,9.2108175E-3,6.0609763E-4,1.5628066E-2,5.4204813E-3,2.758199E-3,-1.697545E-5,-1.0700318E-3,-3.5732742E-3,-1.3798184E-3,-6.73227E-4,4.1455118E-4,-2.3208803E-3,1.2796193E-3,-3.775819E-4,-1.2117539E-3,-3.2571863E-4],"categories":[],"categories_nodes":[],"categories_segments":[],"categories_sizes":[],"default_left":[0,0,0,0,0,0,0,0,0,0,0,0,0,0,0,0,0,0,0,0,0,0,0,0,0,0,0,0,0,0,0,0,0,0,0,0,0,0,0,0,0,0,0,0,0,0,0,0,0,0,0,0,0,0,0,0,0,0,0,0,0,0,0],"id":14,"left_children":[1,3,5,7,9,11,13,15,17,19,21,23,25,27,29,31,33,35,37,39,41,43,45,47,49,51,53,55,57,59,61,-1,-1,-1,-1,-1,-1,-1,-1,-1,-1,-1,-1,-1,-1,-1,-1,-1,-1,-1,-1,-1,-1,-1,-1,-1,-1,-1,-1,-1,-1,-1,-1],"loss_changes":[1.0195719E4,2.2666558E3,3.7727184E4,2.2245156E3,5.066136E1,4.3146535E4,1.638959E3,1.23902954E2,1.8267969E3,2.0808205E2,1.6559708E1,4.495468E4,2.881273E3,1.3467495E3,1.868089E2,5.8839355E1,2.9242065E1,4.9431006E2,4.4526025E2,2.2079529E1,4.787327E1,4.017199E1,1.4823959E1,2.8121787E3,3.5706664E4,4.918578E2,1.4740762E3,7.970325E1,2.1847974E3,4.0236392E2,2.0722427E2,0E0,0E0,0E0,0E0,0E0,0E0,0E0,0E0,0E0,0E0,0E0,0E0,0E0,0E0,0E0,0E0,0E0,0E0,0E0,0E0,0E0,0E0,0E0,0E0,0E0,0E0,0E0,0E0,0E0,0E0,0E0,0E0],"parents":[2147483647,0,0,1,1,2,2,3,3,4,4,5,5,6,6,7,7,8,8,9,9,10,10,11,11,12,12,13,13,14,14,15,15,16,16,17,17,18,18,19,19,20,20,21,21,22,22,23,23,24,24,25,25,26,26,27,27,28,28,29,29,30,30],"right_children":[2,4,6,8,10,12,14,16,18,20,22,24,26,28,30,32,34,36,38,40,42,44,46,48,50,52,54,56,58,60,62,-1,-1,-1,-1,-1,-1,-1,-1,-1,-1,-1,-1,-1,-1,-1,-1,-1,-1,-1,-1,-1,-1,-1,-1,-1,-1,-1,-1,-1,-1,-1,-1],"split_conditions":[-1.0055537E1,2.9973207E1,6.9695125E0,5.952884E0,5.0050648E1,2.2450943E1,2.2450943E1,4.549929E0,4.61E0,-1.9016684E1,2.5001823E2,-4.439705E0,5.0050648E1,6.4443774E0,1.79502E1,-2.4934635E1,3.36E0,2.04E0,6.74E0,6.98E0,3.73E0,-4.9981323E1,-2.9947401E1,2.25E0,5.36E0,-6.518638E0,-5.507569E0,8.032123E0,9.068479E0,6.0026913E1,3.998777E1,-7.5313135E-4,-3.0938955E-4,-2.3708532E-3,-1.197509E-3,-7.566441E-3,-3.8122525E-3,-2.4288814E-3,-1.3401423E-3,-1.295325E-3,-7.123363E-4,3.205932E-3,6.0259335E-4,-4.0856414E-4,1.39332315E-5,-2.763006E-4,-5.939168E-4,9.2108175E-3,6.0609763E-4,1.5628066E-2,5.4204813E-3,2.758199E-3,-1.697545E-5,-1.0700318E-3,-3.5732742E-3,-1.3798184E-3,-6.73227E-4,4.1455118E-4,-2.3208803E-3,1.2796193E-3,-3.775819E-4,-1.2117539E-3,-3.2571863E-4],"split_indices":[1,0,1,0,0,0,0,0,6,1,0,1,0,0,1,1,6,6,6,6,6,1,1,6,6,1,1,1,1,0,0,0,0,0,0,0,0,0,0,0,0,0,0,0,0,0,0,0,0,0,0,0,0,0,0,0,0,0,0,0,0,0,0],"split_type":[0,0,0,0,0,0,0,0,0,0,0,0,0,0,0,0,0,0,0,0,0,0,0,0,0,0,0,0,0,0,0,0,0,0,0,0,0,0,0,0,0,0,0,0,0,0,0,0,0,0,0,0,0,0,0,0,0,0,0,0,0,0,0],"sum_hessian":[3.7965395E8,1.2612439E8,2.5352957E8,7.678957E7,4.933483E7,9.922365E7,1.5430592E8,3.2777536E7,4.4012028E7,7.552869E6,4.178196E7,6.808339E7,3.114025E7,9.3833944E7,6.0471976E7,2.69426E7,5.834936E6,9.441902E6,3.457013E7,6.055479E6,1.49739E6,2.125427E7,2.0527692E7,3.192181E7,3.6161584E7,8.27007E6,2.287018E7,4.610053E7,4.7733412E7,1.5305997E7,4.516598E7,1.4045439E7,1.2897161E7,5.25171E5,5.309765E6,8.69138E5,8.572764E6,1.4717157E7,1.9852968E7,3.589895E6,2.465584E6,1.80751E5,1.316639E6,8.322081E6,1.2932189E7,1.6385605E7,4.142087E6,8.78769E5,3.104304E7,1.1146174E7,2.5015412E7,1.851431E6,6.418639E6,8.31886E6,1.455132E7,3.92627E6,4.2174256E7,7.865829E6,3.9867584E7,4.804772E6,1.0501225E7,7.034811E6,3.813117E7],"tree_param":{"num_deleted":"0","num_feature":"7","num_nodes":"63","size_leaf_vector":"1"}},{"base_weights":[4.200047E-8,-5.6992383E-3,3.422615E-3,-6.486724E-3,-2.0421804E-3,2.0718379E-2,-4.8148874E-3,-5.1615424E-3,-9.102914E-3,-5.956504E-4,-4.443932E-3,8.729762E-3,3.492781E-2,-1.2338883E-4,-6.1717574E-3,-6.3941497E-3,-3.932892E-3,-8.263724E-3,-1.5639776E-2,-1.5032855E-3,3.620602E-3,1.0015825E-3,-5.186847E-3,2.0914085E-3,1.4246523E-2,5.992964E-2,2.235032E-2,-3.9916654E-4,3.46373E-2,-5.7818103E-3,-1.5973935E-2,-8.628042E-4,-1.2185236E-3,-4.921844E-4,-7.554341E-4,-1.519816E-3,-8.820957E-4,-3.1411466E-3,-1.7010244E-3,-4.5031958E-4,-1.0276683E-4,9.217009E-4,-6.831965E-4,-2.1986953E-6,7.7532366E-4,-5.867561E-4,-1.0635419E-3,8.888845E-4,-8.420077E-4,3.057613E-3,1.7472476E-4,6.3940664E-3,1.2486976E-2,3.0446623E-3,1.1102965E-2,3.6245477E-4,-5.2375E-4,9.301232E-3,3.0648208E-3,-7.254952E-4,-1.1830702E-3,-3.2308793E-3,-1.7191279E-3],"categories":[],"categories_nodes":[],"categories_segments":[],"categories_sizes":[],"default_left":[0,0,0,0,0,0,0,0,0,0,0,0,0,0,0,0,0,0,0,0,0,0,0,0,0,0,0,0,0,0,0,0,0,0,0,0,0,0,0,0,0,0,0,0,0,0,0,0,0,0,0,0,0,0,0,0,0,0,0,0,0,0,0],"id":15,"left_children":[1,3,5,7,9,11,13,15,17,19,21,23,25,27,29,31,33,35,37,39,41,43,45,47,49,51,53,55,57,59,61,-1,-1,-1,-1,-1,-1,-1,-1,-1,-1,-1,-1,-1,-1,-1,-1,-1,-1,-1,-1,-1,-1,-1,-1,-1,-1,-1,-1,-1,-1,-1,-1],"loss_changes":[7.4049346E3,4.1019775E2,3.3792535E4,4.0631885E2,8.767771E1,1.3035277E4,1.02274854E3,1.17813965E2,2.1616235E2,6.0274395E1,3.8377136E1,1.5199419E3,1.1011352E4,3.455146E2,4.7634375E2,4.3123535E1,2.801178E1,1.554895E2,1.0218555E2,1.58936615E1,5.757171E1,4.822794E0,2.0260376E1,5.5651373E2,1.8198833E3,4.7282383E3,2.4707578E3,3.1135593E2,1.1030325E2,2.384961E2,1.1975415E2,0E0,0E0,0E0,0E0,0E0,0E0,0E0,0E0,0E0,0E0,0E0,0E0,0E0,0E0,0E0,0E0,0E0,0E0,0E0,0E0,0E0,0E0,0E0,0E0,0E0,0E0,0E0,0E0,0E0,0E0,0E0,0E0],"parents":[2147483647,0,0,1,1,2,2,3,3,4,4,5,5,6,6,7,7,8,8,9,9,10,10,11,11,12,12,13,13,14,14,15,15,16,16,17,17,18,18,19,19,20,20,21,21,22,22,23,23,24,24,25,25,26,26,27,27,28,28,29,29,30,30],"right_children":[2,4,6,8,10,12,14,16,18,20,22,24,26,28,30,32,34,36,38,40,42,44,46,48,50,52,54,56,58,60,62,-1,-1,-1,-1,-1,-1,-1,-1,-1,-1,-1,-1,-1,-1,-1,-1,-1,-1,-1,-1,-1,-1,-1,-1,-1,-1,-1,-1,-1,-1,-1,-1],"split_conditions":[-8.487558E0,-1.2959122E1,6E0,-1.49E1,8.660254E-1,-1.5E0,1.0993162E1,2.6172E3,-9E-1,-6.2E0,-1.2461856E1,-3.3E1,1.9623407E0,-2E-1,-9E-1,-3.36E1,-3.3E1,5.1922E3,5.1922E3,-1.0055537E1,8.7195E3,-7.1E0,-9.957797E0,3.3341E3,6.0181E3,-2.12E1,-9E-1,7.880108E-1,7.958588E0,-1.49E1,5.1922E3,-8.628042E-4,-1.2185236E-3,-4.921844E-4,-7.554341E-4,-1.519816E-3,-8.820957E-4,-3.1411466E-3,-1.7010244E-3,-4.5031958E-4,-1.0276683E-4,9.217009E-4,-6.831965E-4,-2.1986953E-6,7.7532366E-4,-5.867561E-4,-1.0635419E-3,8.888845E-4,-8.420077E-4,3.057613E-3,1.7472476E-4,6.3940664E-3,1.2486976E-2,3.0446623E-3,1.1102965E-2,3.6245477E-4,-5.2375E-4,9.301232E-3,3.0648208E-3,-7.254952E-4,-1.1830702E-3,-3.2308793E-3,-1.7191279E-3],"split_indices":[1,1,1,4,2,1,1,5,4,4,1,4,1,4,4,4,4,5,5,1,5,4,1,5,5,4,4,2,1,4,5,0,0,0,0,0,0,0,0,0,0,0,0,0,0,0,0,0,0,0,0,0,0,0,0,0,0,0,0,0,0,0,0],"split_type":[0,0,0,0,0,0,0,0,0,0,0,0,0,0,0,0,0,0,0,0,0,0,0,0,0,0,0,0,0,0,0,0,0,0,0,0,0,0,0,0,0,0,0,0,0,0,0,0,0,0,0,0,0,0,0,0,0,0,0,0,0,0,0],"sum_hessian":[3.796195E8,1.4243546E8,2.3718403E8,1.17198696E8,2.5236768E7,7.651994E7,1.606641E8,7.7793736E7,3.940496E7,1.5750522E7,9.486245E6,4.150328E7,3.501666E7,3.6042828E7,1.2462126E8,3.8834348E7,3.8959384E7,3.4921776E7,4.483186E6,1.2960507E7,2.790015E6,1.138815E6,8.34743E6,1.8836816E7,2.2666464E7,1.1719787E7,2.3296874E7,3.5759132E7,2.83698E5,1.198533E8,4.767963E6,2.8319158E7,1.0515191E7,2.4493062E7,1.4466324E7,1.9574786E7,1.5346989E7,2.007742E6,2.475444E6,4.576545E6,8.383962E6,2.131824E6,6.58191E5,9.15547E5,2.23268E5,4.998713E6,3.348717E6,1.2577367E7,6.259449E6,1.5428053E7,7.23841E6,6.727542E6,4.992245E6,2.2406764E7,8.9011E5,1.871776E7,1.7041372E7,9.6929E4,1.86769E5,8.271761E7,3.713569E7,2.135093E6,2.63287E6],"tree_param":{"num_deleted":"0","num_feature":"7","num_nodes":"63","size_leaf_vector":"1"}},{"base_weights":[1.9578994E-7,2.466167E-3,-3.2186783E-3,1.9161897E-2,1.578992E-3,-1.6188748E-3,-4.269085E-3,3.839005E-3,2.9688327E-2,-1.6214807E-3,4.741173E-3,-5.9642555E-4,-2.862916E-3,-1.0069169E-2,-3.8812347E-3,-3.7379624E-4,8.834925E-3,7.3251404E-2,2.570702E-2,-3.2271212E-4,-3.7883339E-3,7.5165443E-3,-6.894921E-4,3.9093118E-4,-2.5044584E-3,-2.4168552E-3,-5.5693258E-3,-1.5417492E-2,-8.789374E-3,-4.957811E-3,-3.0742139E-3,1.455289E-3,-1.9401472E-4,1.937747E-3,-2.2012326E-4,1.2349406E-2,6.164119E-3,5.4755528E-3,3.3182201E-3,-3.1626606E-4,1.9556722E-4,-4.1339517E-4,-6.943237E-4,1.7112376E-3,8.410362E-4,8.72542E-5,-1.0491308E-3,5.271503E-4,-1.9351788E-5,-2.5366788E-4,-4.2083682E-4,-3.1365542E-4,-5.5614044E-4,-1.3799039E-3,-4.586735E-4,-2.8852304E-3,-2.005104E-3,-9.4982615E-4,-1.424687E-3,-9.4755366E-4,-7.091902E-4,-5.111614E-4,-4.008814E-4],"categories":[],"categories_nodes":[],"categories_segments":[],"categories_sizes":[],"default_left":[0,0,0,0,0,0,0,0,0,0,0,0,0,0,0,0,0,0,0,0,0,0,0,0,0,0,0,0,0,0,0,0,0,0,0,0,0,0,0,0,0,0,0,0,0,0,0,0,0,0,0,0,0,0,0,0,0,0,0,0,0,0,0],"id":16,"left_children":[1,3,5,7,9,11,13,15,17,19,21,23,25,27,29,31,33,35,37,39,41,43,45,47,49,51,53,55,57,59,61,-1,-1,-1,-1,-1,-1,-1,-1,-1,-1,-1,-1,-1,-1,-1,-1,-1,-1,-1,-1,-1,-1,-1,-1,-1,-1,-1,-1,-1,-1,-1,-1],"loss_changes":[3.0134004E3,3.183941E3,2.767312E2,1.7494062E3,2.0656929E3,8.3020966E1,2.2362415E2,9.295814E1,1.1150747E3,2.8547925E2,1.5474438E3,6.749197E1,3.554567E1,4.2647644E1,8.095398E1,2.2202879E1,8.5002625E1,1.5716113E2,2.2804663E2,1.8421684E2,3.2986084E1,5.0495337E2,2.7829355E2,3.8340252E1,2.9920578E0,1.06306305E1,3.798271E1,9.41507E0,8.753204E0,1.247345E1,7.134613E0,0E0,0E0,0E0,0E0,0E0,0E0,0E0,0E0,0E0,0E0,0E0,0E0,0E0,0E0,0E0,0E0,0E0,0E0,0E0,0E0,0E0,0E0,0E0,0E0,0E0,0E0,0E0,0E0,0E0,0E0,0E0,0E0],"parents":[2147483647,0,0,1,1,2,2,3,3,4,4,5,5,6,6,7,7,8,8,9,9,10,10,11,11,12,12,13,13,14,14,15,15,16,16,17,17,18,18,19,19,20,20,21,21,22,22,23,23,24,24,25,25,26,26,27,27,28,28,29,29,30,30],"right_children":[2,4,6,8,10,12,14,16,18,20,22,24,26,28,30,32,34,36,38,40,42,44,46,48,50,52,54,56,58,60,62,-1,-1,-1,-1,-1,-1,-1,-1,-1,-1,-1,-1,-1,-1,-1,-1,-1,-1,-1,-1,-1,-1,-1,-1,-1,-1,-1,-1,-1,-1,-1,-1],"split_conditions":[1.4976281E1,2.73E0,7.996611E1,5.518138E0,6.522107E0,6.74E0,2.93E0,3.027936E0,1.3E0,8.660254E-1,7.54E0,3.995974E1,8.7195E3,1.69E0,6.33E0,1.3E0,9.2718387E-1,1.09661045E1,1.86E0,3.4930863E0,9.702957E-1,4.95E0,8.7195E3,3.2E0,1.4771E3,9.73E0,2.4966099E1,1.3E0,1.3997034E2,3.73E0,8.18E0,1.455289E-3,-1.9401472E-4,1.937747E-3,-2.2012326E-4,1.2349406E-2,6.164119E-3,5.4755528E-3,3.3182201E-3,-3.1626606E-4,1.9556722E-4,-4.1339517E-4,-6.943237E-4,1.7112376E-3,8.410362E-4,8.72542E-5,-1.0491308E-3,5.271503E-4,-1.9351788E-5,-2.5366788E-4,-4.2083682E-4,-3.1365542E-4,-5.5614044E-4,-1.3799039E-3,-4.586735E-4,-2.8852304E-3,-2.005104E-3,-9.4982615E-4,-1.424687E-3,-9.4755366E-4,-7.091902E-4,-5.111614E-4,-4.008814E-4],"split_indices":[0,6,0,0,0,6,6,0,6,2,6,0,5,6,6,6,2,0,6,0,2,6,5,6,5,6,0,6,0,6,6,0,0,0,0,0,0,0,0,0,0,0,0,0,0,0,0,0,0,0,0,0,0,0,0,0,0,0,0,0,0,0,0],"split_type":[0,0,0,0,0,0,0,0,0,0,0,0,0,0,0,0,0,0,0,0,0,0,0,0,0,0,0,0,0,0,0,0,0,0,0,0,0,0,0,0,0,0,0,0,0,0,0,0,0,0,0,0,0,0,0,0,0,0,0,0,0,0,0],"sum_hessian":[3.7963376E8,2.1495629E8,1.6467747E8,1.0845982E7,2.041103E8,6.526964E7,9.940782E7,4.41673E6,6.429252E6,1.0144096E8,1.02669336E8,3.582549E7,2.9444152E7,6.230726E6,9.3177096E7,2.396167E6,2.020563E6,5.38376E5,5.890876E6,6.3425176E7,3.8015784E7,6.794544E7,3.4723896E7,2.360864E7,1.2216849E7,2.5277934E7,4.166219E6,1.203062E6,5.027664E6,3.9921412E7,5.325569E7,2.00411E5,2.195756E6,1.447029E6,5.73534E5,4.19851E5,1.18525E5,1.46862E6,4.422256E6,3.0232688E7,3.3192486E7,1.7060524E7,2.0955264E7,2.23657E7,4.5579744E7,2.8897452E7,5.826443E6,3.369195E6,2.0239444E7,3.300922E6,8.915927E6,2.0183166E7,5.094768E6,1.703721E6,2.462498E6,4.20352E5,7.8271E5,1.125267E6,3.902397E6,5.774999E6,3.4146412E7,2.9095856E7,2.4159828E7],"tree_param":{"num_deleted":"0","num_feature":"7","num_nodes":"63","size_leaf_vector":"1"}},{"base_weights":[-8.415577E-8,2.115387E-3,-2.7179031E-3,1.784095E-2,1.4218912E-3,-1.407039E-3,-3.6651404E-3,5.8924984E-3,2.9478725E-2,-1.8442426E-3,3.8258599E-3,-5.876752E-4,-2.475151E-3,-9.062111E-3,-3.3507454E-3,1.7020779E-2,3.204866E-3,6.581517E-2,2.5440566E-2,-1.0468239E-3,-3.7737577E-3,6.584169E-3,-1.0565066E-4,3.321886E-4,-2.2118862E-3,-2.2329004E-3,-8.248659E-3,-1.2683913E-2,-7.6104966E-3,-4.354125E-3,-2.6794658E-3,8.68733E-4,3.9337166E-3,1.0334688E-3,-4.3795953E-4,1.1485976E-2,5.5598896E-3,4.4787973E-3,1.7769248E-3,-9.468928E-6,-4.1909152E-4,-5.386073E-4,-1.202174E-3,1.4366065E-3,7.4013247E-4,5.8762995E-5,-2.1282174E-3,3.1081733E-4,-5.9646176E-5,-1.1975731E-3,-3.252744E-4,-2.8228332E-4,-5.4058706E-4,-2.1924044E-3,-5.891522E-4,-2.4800424E-3,-1.6909313E-3,-8.1142393E-4,-1.2088768E-3,-5.786831E-4,-7.347923E-4,-4.6210457E-4,-3.5597058E-4],"categories":[],"categories_nodes":[],"categories_segments":[],"categories_sizes":[],"default_left":[0,0,0,0,0,0,0,0,0,0,0,0,0,0,0,0,0,0,0,0,0,0,0,0,0,0,0,0,0,0,0,0,0,0,0,0,0,0,0,0,0,0,0,0,0,0,0,0,0,0,0,0,0,0,0,0,0,0,0,0,0,0,0],"id":17,"left_children":[1,3,5,7,9,11,13,15,17,19,21,23,25,27,29,31,33,35,37,39,41,43,45,47,49,51,53,55,57,59,61,-1,-1,-1,-1,-1,-1,-1,-1,-1,-1,-1,-1,-1,-1,-1,-1,-1,-1,-1,-1,-1,-1,-1,-1,-1,-1,-1,-1,-1,-1,-1,-1],"loss_changes":[2.1826748E3,2.3280327E3,2.0632043E2,1.2537654E3,1.6053131E3,6.1000656E1,1.6366882E2,1.3305891E2,6.7021265E2,1.333735E2,1.2771512E3,5.893081E1,4.231955E1,2.7915771E1,6.1392944E1,8.944623E1,8.087256E1,1.4128992E2,2.4689673E2,1.0541266E2,1.9676086E1,3.418169E2,3.4013904E2,3.1977285E1,3.5717545E0,1.3974899E1,3.3523727E1,8.252441E0,3.7433014E0,9.872009E0,6.7122803E0,0E0,0E0,0E0,0E0,0E0,0E0,0E0,0E0,0E0,0E0,0E0,0E0,0E0,0E0,0E0,0E0,0E0,0E0,0E0,0E0,0E0,0E0,0E0,0E0,0E0,0E0,0E0,0E0,0E0,0E0,0E0,0E0],"parents":[2147483647,0,0,1,1,2,2,3,3,4,4,5,5,6,6,7,7,8,8,9,9,10,10,11,11,12,12,13,13,14,14,15,15,16,16,17,17,18,18,19,19,20,20,21,21,22,22,23,23,24,24,25,25,26,26,27,27,28,28,29,29,30,30],"right_children":[2,4,6,8,10,12,14,16,18,20,22,24,26,28,30,32,34,36,38,40,42,44,46,48,50,52,54,56,58,60,62,-1,-1,-1,-1,-1,-1,-1,-1,-1,-1,-1,-1,-1,-1,-1,-1,-1,-1,-1,-1,-1,-1,-1,-1,-1,-1,-1,-1,-1,-1,-1,-1],"split_conditions":[1.4929788E1,2.57E0,8.001333E1,6.5069404E0,5.952884E0,6.84E0,2.83E0,1.48E0,1.3E0,9.2718387E-1,7.06E0,3.995974E1,-7.3E0,1.86E0,6.16E0,3.027936E0,8.660254E-1,1.0028649E1,1.09661045E1,7.4E0,-2.1E0,4.85E0,-6.1E0,4.19E0,1.3E0,1.006E1,2.4966099E1,1.3E0,1.200076E2,-1.11E1,7.54E0,8.68733E-4,3.9337166E-3,1.0334688E-3,-4.3795953E-4,1.1485976E-2,5.5598896E-3,4.4787973E-3,1.7769248E-3,-9.468928E-6,-4.1909152E-4,-5.386073E-4,-1.202174E-3,1.4366065E-3,7.4013247E-4,5.8762995E-5,-2.1282174E-3,3.1081733E-4,-5.9646176E-5,-1.1975731E-3,-3.252744E-4,-2.8228332E-4,-5.4058706E-4,-2.1924044E-3,-5.891522E-4,-2.4800424E-3,-1.6909313E-3,-8.1142393E-4,-1.2088768E-3,-5.786831E-4,-7.347923E-4,-4.6210457E-4,-3.5597058E-4],"split_indices":[0,6,0,0,0,6,6,6,6,2,6,0,4,6,6,0,2,0,0,6,4,6,4,6,6,6,0,6,0,4,6,0,0,0,0,0,0,0,0,0,0,0,0,0,0,0,0,0,0,0,0,0,0,0,0,0,0,0,0,0,0,0,0],"split_type":[0,0,0,0,0,0,0,0,0,0,0,0,0,0,0,0,0,0,0,0,0,0,0,0,0,0,0,0,0,0,0,0,0,0,0,0,0,0,0,0,0,0,0,0,0,0,0,0,0,0,0,0,0,0,0,0,0,0,0,0,0,0,0],"sum_hessian":[3.7963075E8,2.1347107E8,1.6615966E8,9.01643E6,2.0445464E8,6.970131E7,9.645836E7,4.448834E6,4.567596E6,8.668318E7,1.1777146E8,3.9443588E7,3.0257728E7,5.309768E6,9.114859E7,8.65438E5,3.583396E6,4.56837E5,4.110759E6,6.1335016E7,2.5348172E7,6.9212584E7,4.855887E7,2.5181928E7,1.4261659E7,2.9039268E7,1.218458E6,1.519238E6,3.79053E6,3.65365E7,5.461209E7,3.89831E5,4.75607E5,2.237301E6,1.346095E6,3.32437E5,1.244E5,3.102476E6,1.008283E6,3.9240852E7,2.2094164E7,2.4299342E7,1.048829E6,2.4594772E7,4.4617816E7,4.690225E7,1.656624E6,7.441429E6,1.77405E7,1.0641E5,1.4155249E7,2.3120008E7,5.919262E6,4.92585E5,7.25873E5,4.07488E5,1.11175E6,6.41868E5,3.148662E6,1.9115252E7,1.7421248E7,2.3643576E7,3.0968514E7],"tree_param":{"num_deleted":"0","num_feature":"7","num_nodes":"63","size_leaf_vector":"1"}},{"base_weights":[1.4461266E-7,2.9825652E-3,-4.4994955E-3,-3.1042693E-3,2.2292985E-2,-7.503426E-3,-3.184511E-5,-4.550777E-3,5.4008784E-3,4.4769052E-2,-1.3197842E-2,-2.60343E-3,-1.1735194E-2,1.9378966E-3,-9.718939E-4,-7.740146E-3,6.014836E-5,1.0086391E-2,-1.1129554E-2,1.03934094E-1,3.356252E-2,2.828011E-3,-2.194195E-2,-2.016548E-3,-5.0883545E-3,-1.776486E-2,-7.3413346E-3,6.127845E-3,-7.6164934E-4,-5.548569E-3,3.2969084E-4,-4.5392447E-4,-1.8584535E-3,-1.2909312E-4,3.0145337E-4,8.272985E-3,1.0611017E-3,-1.2310826E-3,-3.4617248E-3,2.10488E-2,6.263831E-3,7.646037E-3,1.4127885E-3,-2.2625625E-4,3.2106924E-3,-2.5658892E-3,-6.262766E-3,-1.228848E-3,-2.4455253E-4,-6.899507E-4,-2.4364972E-3,-1.816668E-4,-3.2885438E-3,-1.5166071E-3,-7.6836755E-4,2.238148E-3,6.309082E-4,-5.198118E-4,9.036555E-5,-1.1449166E-3,-3.7672196E-4,-1.5295316E-5,3.146191E-4],"categories":[],"categories_nodes":[],"categories_segments":[],"categories_sizes":[],"default_left":[0,0,0,0,0,0,0,0,0,0,0,0,0,0,0,0,0,0,0,0,0,0,0,0,0,0,0,0,0,0,0,0,0,0,0,0,0,0,0,0,0,0,0,0,0,0,0,0,0,0,0,0,0,0,0,0,0,0,0,0,0,0,0],"id":18,"left_children":[1,3,5,7,9,11,13,15,17,19,21,23,25,27,29,31,33,35,37,39,41,43,45,47,49,51,53,55,57,59,61,-1,-1,-1,-1,-1,-1,-1,-1,-1,-1,-1,-1,-1,-1,-1,-1,-1,-1,-1,-1,-1,-1,-1,-1,-1,-1,-1,-1,-1,-1,-1,-1],"loss_changes":[5.0942715E3,2.6833361E4,2.03073E3,2.135499E3,4.3644875E4,1.8761484E3,1.1264713E2,2.1816057E3,1.9541758E3,2.2211055E4,2.9728545E3,6.1147797E1,1.2862642E3,2.2230466E2,2.4531863E2,1.9220234E3,1.0888306E2,2.668769E3,1.9456482E2,1.2070375E4,1.1839506E4,6.0328357E2,1.3149268E3,8.089787E1,4.3668533E1,1.4089087E3,1.7257837E2,1.3013748E2,4.4083996E1,5.772049E1,2.4466759E1,0E0,0E0,0E0,0E0,0E0,0E0,0E0,0E0,0E0,0E0,0E0,0E0,0E0,0E0,0E0,0E0,0E0,0E0,0E0,0E0,0E0,0E0,0E0,0E0,0E0,0E0,0E0,0E0,0E0,0E0,0E0,0E0],"parents":[2147483647,0,0,1,1,2,2,3,3,4,4,5,5,6,6,7,7,8,8,9,9,10,10,11,11,12,12,13,13,14,14,15,15,16,16,17,17,18,18,19,19,20,20,21,21,22,22,23,23,24,24,25,25,26,26,27,27,28,28,29,29,30,30],"right_children":[2,4,6,8,10,12,14,16,18,20,22,24,26,28,30,32,34,36,38,40,42,44,46,48,50,52,54,56,58,60,62,-1,-1,-1,-1,-1,-1,-1,-1,-1,-1,-1,-1,-1,-1,-1,-1,-1,-1,-1,-1,-1,-1,-1,-1,-1,-1,-1,-1,-1,-1,-1,-1],"split_conditions":[7.4446006E0,-3.5206988E0,2.002676E1,-7.9660354E0,1.5032451E1,5.974045E0,2.006498E1,2.002676E1,3.995974E1,4.1E0,4.99713E1,4.549929E0,6.07E0,8.997188E1,5.0050648E1,6.4443774E0,-2.4934635E1,2.93E0,-7.1E0,4.5E0,4E0,5.5171623E0,-7.1E0,8.032123E0,-1E0,1.0046666E1,7.54E0,4.31E0,1.0993162E1,6.98E0,-7.1E0,-4.5392447E-4,-1.8584535E-3,-1.2909312E-4,3.0145337E-4,8.272985E-3,1.0611017E-3,-1.2310826E-3,-3.4617248E-3,2.10488E-2,6.263831E-3,7.646037E-3,1.4127885E-3,-2.2625625E-4,3.2106924E-3,-2.5658892E-3,-6.262766E-3,-1.228848E-3,-2.4455253E-4,-6.899507E-4,-2.4364972E-3,-1.816668E-4,-3.2885438E-3,-1.5166071E-3,-7.6836755E-4,2.238148E-3,6.309082E-4,-5.198118E-4,9.036555E-5,-1.1449166E-3,-3.7672196E-4,-1.5295316E-5,3.146191E-4],"split_indices":[1,1,0,1,0,0,1,0,0,6,0,0,6,0,0,0,1,6,4,1,1,1,4,1,4,1,6,6,1,6,4,0,0,0,0,0,0,0,0,0,0,0,0,0,0,0,0,0,0,0,0,0,0,0,0,0,0,0,0,0,0,0,0],"split_type":[0,0,0,0,0,0,0,0,0,0,0,0,0,0,0,0,0,0,0,0,0,0,0,0,0,0,0,0,0,0,0,0,0,0,0,0,0,0,0,0,0,0,0,0,0,0,0,0,0,0,0,0,0,0,0,0,0,0,0,0,0,0,0],"sum_hessian":[3.79608E8,2.2829264E8,1.5131536E8,1.7357888E8,5.4713772E7,9.04794E7,6.083597E7,1.4834858E8,2.5230288E7,3.3499068E7,2.1214704E7,4.192923E7,4.855017E7,1.9653916E7,4.1182052E7,8.7692104E7,6.065648E7,1.9658214E7,5.572075E6,5.33466E6,2.8164408E7,7.489058E6,1.3725647E7,3.391847E7,8.010761E6,2.0465494E7,2.8084672E7,7.701094E6,1.1952822E7,9.118673E6,3.206338E7,4.3544304E7,4.41478E7,4.119844E7,1.9458044E7,1.231675E6,1.842654E7,4.47709E6,1.094985E6,3.365076E6,1.969584E6,1.6363847E7,1.1800561E7,6.071721E6,1.417337E6,1.1032394E7,2.693253E6,1.996235E6,3.1922236E7,7.674551E6,3.3621E5,4.109166E6,1.6356328E7,1.2492652E7,1.5592021E7,1.381239E6,6.319855E6,4.008182E6,7.94464E6,5.407656E6,3.711017E6,2.5770628E7,6.292752E6],"tree_param":{"num_deleted":"0","num_feature":"7","num_nodes":"63","size_leaf_vector":"1"}},{"base_weights":[5.7839145E-7,-4.494492E-3,2.2367735E-3,-7.681867E-3,1.1281906E-4,1.1931834E-2,-3.6965813E-3,-1.9979414E-3,-1.2141962E-2,-2.503541E-3,7.256401E-4,2.2842363E-2,-9.034994E-3,-6.313616E-3,-1.4332346E-4,-1.076096E-3,-5.5206446E-3,-8.52086E-3,-2.0560369E-2,-4.3993737E-3,9.697138E-3,2.554733E-4,2.6508693E-3,5.6154174E-3,4.5784615E-2,1.827335E-3,-1.3892708E-2,-2.874578E-3,-1.0089918E-2,4.588632E-3,-1.0430713E-3,-3.8049137E-4,-2.7777598E-6,-7.5947435E-4,-2.3939146E-3,-1.7652998E-3,-8.055993E-4,-2.7092337E-3,-5.6569725E-3,-8.030344E-4,1.102165E-4,1.077621E-3,2.9987686E-3,8.547197E-5,-1.9035602E-5,2.471333E-4,5.1352085E-4,3.3572322E-4,3.2042405E-3,6.2888223E-3,2.0051641E-2,2.4379261E-3,-3.5922334E-4,-7.5444503E-4,-2.8494042E-3,-1.1902284E-3,-3.3712044E-4,-1.580704E-5,-1.8737859E-3,2.1562562E-3,-1.6147885E-4,-1.1147351E-3,1.4366567E-5],"categories":[],"categories_nodes":[],"categories_segments":[],"categories_sizes":[],"default_left":[0,0,0,0,0,0,0,0,0,0,0,0,0,0,0,0,0,0,0,0,0,0,0,0,0,0,0,0,0,0,0,0,0,0,0,0,0,0,0,0,0,0,0,0,0,0,0,0,0,0,0,0,0,0,0,0,0,0,0,0,0,0,0],"id":19,"left_children":[1,3,5,7,9,11,13,15,17,19,21,23,25,27,29,31,33,35,37,39,41,43,45,47,49,51,53,55,57,59,61,-1,-1,-1,-1,-1,-1,-1,-1,-1,-1,-1,-1,-1,-1,-1,-1,-1,-1,-1,-1,-1,-1,-1,-1,-1,-1,-1,-1,-1,-1,-1,-1],"loss_changes":[3.8160667E3,1.8520957E3,1.4583455E4,1.8898359E3,8.2689156E1,2.2017781E4,1.4624514E3,1.0643877E2,1.2733286E3,2.263824E2,3.7823074E1,2.5020137E4,1.7382544E3,1.1761692E3,2.8399472E2,4.012655E1,3.246527E1,2.9882617E2,5.3848E2,4.1498657E1,3.4052513E1,4.0366316E0,6.3575516E0,1.9227749E3,9.208832E3,6.20015E2,1.0295913E3,1.5041559E2,1.0352485E3,5.908337E2,4.077691E2,0E0,0E0,0E0,0E0,0E0,0E0,0E0,0E0,0E0,0E0,0E0,0E0,0E0,0E0,0E0,0E0,0E0,0E0,0E0,0E0,0E0,0E0,0E0,0E0,0E0,0E0,0E0,0E0,0E0,0E0,0E0,0E0],"parents":[2147483647,0,0,1,1,2,2,3,3,4,4,5,5,6,6,7,7,8,8,9,9,10,10,11,11,12,12,13,13,14,14,15,15,16,16,17,17,18,18,19,19,20,20,21,21,22,22,23,23,24,24,25,25,26,26,27,27,28,28,29,29,30,30],"right_children":[2,4,6,8,10,12,14,16,18,20,22,24,26,28,30,32,34,36,38,40,42,44,46,48,50,52,54,56,58,60,62,-1,-1,-1,-1,-1,-1,-1,-1,-1,-1,-1,-1,-1,-1,-1,-1,-1,-1,-1,-1,-1,-1,-1,-1,-1,-1,-1,-1,-1,-1,-1,-1],"split_conditions":[-1.0055537E1,2.4966099E1,6.0462246E0,5.952884E0,5.0050648E1,1.9968355E1,1.500931E1,4.506927E0,-1.27E1,-1.7007116E1,-7.1E0,-2.5453885E0,5.0050648E1,6.4443774E0,1.3E1,-3.4971214E1,-1E0,2.6172E3,-9E-1,-2.4934635E1,-7.1E0,3.4994046E2,-5.0027412E1,-4.9627934E0,-1E0,-6.518638E0,-5.507569E0,8.032123E0,9.068479E0,4.0036793E1,2.9973207E1,-3.8049137E-4,-2.7777598E-6,-7.5947435E-4,-2.3939146E-3,-1.7652998E-3,-8.055993E-4,-2.7092337E-3,-5.6569725E-3,-8.030344E-4,1.102165E-4,1.077621E-3,2.9987686E-3,8.547197E-5,-1.9035602E-5,2.471333E-4,5.1352085E-4,3.3572322E-4,3.2042405E-3,6.2888223E-3,2.0051641E-2,2.4379261E-3,-3.5922334E-4,-7.5444503E-4,-2.8494042E-3,-1.1902284E-3,-3.3712044E-4,-1.580704E-5,-1.8737859E-3,2.1562562E-3,-1.6147885E-4,-1.1147351E-3,1.4366567E-5],"split_indices":[1,0,1,0,0,0,0,0,4,1,4,1,0,0,1,1,4,5,4,1,4,0,1,1,4,1,1,1,1,0,0,0,0,0,0,0,0,0,0,0,0,0,0,0,0,0,0,0,0,0,0,0,0,0,0,0,0,0,0,0,0,0,0],"split_type":[0,0,0,0,0,0,0,0,0,0,0,0,0,0,0,0,0,0,0,0,0,0,0,0,0,0,0,0,0,0,0,0,0,0,0,0,0,0,0,0,0,0,0,0,0,0,0,0,0,0,0,0,0,0,0,0,0,0,0,0,0,0,0],"sum_hessian":[3.796381E8,1.26119656E8,2.5351846E8,7.4547256E7,5.15724E7,9.624872E7,1.5726974E8,3.2776732E7,4.1770524E7,9.787202E6,4.1785196E7,6.330607E7,3.2942644E7,9.05662E7,6.6703536E7,2.59785E7,6.798233E6,2.920728E7,1.2563245E7,8.470927E6,1.316275E6,3.3583624E7,8.201571E6,3.6156656E7,2.7149416E7,1.0179741E7,2.2762904E7,4.739975E7,4.316645E7,1.0656875E7,5.6046664E7,1.0910758E7,1.5067742E7,6.512809E6,2.85424E5,1.4380849E7,1.4826431E7,1.0965759E7,1.597486E6,7.143329E6,1.327598E6,1.058009E6,2.58266E5,1.8431608E7,1.5152018E7,3.56805E6,4.633521E6,2.9771276E7,6.385382E6,2.60075E7,1.141915E6,2.304871E6,7.87487E6,8.317564E6,1.444534E7,5.226439E6,4.217331E7,8.370812E6,3.4795636E7,3.907233E6,6.749642E6,8.47957E6,4.7567092E7],"tree_param":{"num_deleted":"0","num_feature":"7","num_nodes":"63","size_leaf_vector":"1"}},{"base_weights":[-4.3101142E-7,-3.8197404E-3,1.8996061E-3,-6.528839E-3,9.6167016E-5,1.0138318E-2,-3.141803E-3,-1.9972E-3,-1.0650589E-2,-2.4030504E-3,5.623721E-4,2.053688E-2,-5.9167403E-3,-5.4022446E-3,-1.6039974E-4,-9.88471E-4,-5.170921E-3,-2.5929824E-2,-8.078371E-3,-4.1835387E-3,8.822289E-3,1.6971306E-4,2.1696836E-3,3.8030352E-3,4.1773867E-2,3.7555571E-3,-1.1450919E-2,-2.441783E-3,-8.739001E-3,7.714249E-3,-6.206148E-4,-3.4318055E-4,-1.7104518E-5,-1.750736E-3,-6.115282E-4,-6.824372E-3,-3.4233357E-3,-1.7292043E-3,-5.1298644E-4,-7.4910757E-4,1.7551643E-5,4.239234E-3,1.0204735E-3,-3.6936646E-5,5.5272238E-5,1.8940607E-4,4.5832814E-4,1.004918E-2,4.1877135E-4,1.1565404E-2,3.1373564E-3,1.4271813E-3,-9.4554666E-4,-1.2628515E-3,-3.5806543E-3,-1.3867201E-3,-3.101249E-4,-2.4214815E-3,-9.2595903E-4,2.34857E-3,-2.6012247E-4,-8.0186373E-4,1.3590133E-5],"categories":[],"categories_nodes":[],"categories_segments":[],"categories_sizes":[],"default_left":[0,0,0,0,0,0,0,0,0,0,0,0,0,0,0,0,0,0,0,0,0,0,0,0,0,0,0,0,0,0,0,0,0,0,0,0,0,0,0,0,0,0,0,0,0,0,0,0,0,0,0,0,0,0,0,0,0,0,0,0,0,0,0],"id":20,"left_children":[1,3,5,7,9,11,13,15,17,19,21,23,25,27,29,31,33,35,37,39,41,43,45,47,49,51,53,55,57,59,61,-1,-1,-1,-1,-1,-1,-1,-1,-1,-1,-1,-1,-1,-1,-1,-1,-1,-1,-1,-1,-1,-1,-1,-1,-1,-1,-1,-1,-1,-1,-1,-1],"loss_changes":[2.7550327E3,1.3379901E3,1.0530028E4,1.392447E3,6.009179E1,1.6067687E4,1.0599601E3,1.13679E2,1.534334E3,1.6205528E2,2.7432617E1,2.0757908E4,2.025066E3,8.836821E2,2.4579712E2,3.0615978E1,6.0908966E1,3.4203345E2,5.3697876E2,2.4393242E1,4.35681E1,2.8881807E0,6.8563538E0,2.0875881E3,1.8969055E4,7.976096E2,9.061472E2,1.2069534E2,7.990022E2,2.8104993E2,2.1534448E2,0E0,0E0,0E0,0E0,0E0,0E0,0E0,0E0,0E0,0E0,0E0,0E0,0E0,0E0,0E0,0E0,0E0,0E0,0E0,0E0,0E0,0E0,0E0,0E0,0E0,0E0,0E0,0E0,0E0,0E0,0E0,0E0],"parents":[2147483647,0,0,1,1,2,2,3,3,4,4,5,5,6,6,7,7,8,8,9,9,10,10,11,11,12,12,13,13,14,14,15,15,16,16,17,17,18,18,19,19,20,20,21,21,22,22,23,23,24,24,25,25,26,26,27,27,28,28,29,29,30,30],"right_children":[2,4,6,8,10,12,14,16,18,20,22,24,26,28,30,32,34,36,38,40,42,44,46,48,50,52,54,56,58,60,62,-1,-1,-1,-1,-1,-1,-1,-1,-1,-1,-1,-1,-1,-1,-1,-1,-1,-1,-1,-1,-1,-1,-1,-1,-1,-1,-1,-1,-1,-1,-1,-1],"split_conditions":[-1.0055537E1,2.4966099E1,6.0462246E0,6.4443774E0,4.99713E1,1.4929788E1,1.4976281E1,4.549929E0,3.95E0,-1.7007116E1,-7.1E0,-3.0122519E0,4.0036793E1,6.4443774E0,9.068479E0,-3.5E1,3.95E0,2.04E0,7.26E0,-2.4934635E1,3.4E0,-6.9963356E1,-4.9958805E1,1.86E0,5.79E0,7.26E0,-7.1E0,7.4446006E0,4.95E0,3.995974E1,2.4966099E1,-3.4318055E-4,-1.7104518E-5,-1.750736E-3,-6.115282E-4,-6.824372E-3,-3.4233357E-3,-1.7292043E-3,-5.1298644E-4,-7.4910757E-4,1.7551643E-5,4.239234E-3,1.0204735E-3,-3.6936646E-5,5.5272238E-5,1.8940607E-4,4.5832814E-4,1.004918E-2,4.1877135E-4,1.1565404E-2,3.1373564E-3,1.4271813E-3,-9.4554666E-4,-1.2628515E-3,-3.5806543E-3,-1.3867201E-3,-3.101249E-4,-2.4214815E-3,-9.2595903E-4,2.34857E-3,-2.6012247E-4,-8.0186373E-4,1.3590133E-5],"split_indices":[1,0,1,0,0,0,0,0,6,1,4,1,0,0,1,1,6,6,6,1,6,1,1,6,6,6,4,1,6,0,0,0,0,0,0,0,0,0,0,0,0,0,0,0,0,0,0,0,0,0,0,0,0,0,0,0,0,0,0,0,0,0,0],"split_type":[0,0,0,0,0,0,0,0,0,0,0,0,0,0,0,0,0,0,0,0,0,0,0,0,0,0,0,0,0,0,0,0,0,0,0,0,0,0,0,0,0,0,0,0,0,0,0,0,0,0,0,0,0,0,0,0,0,0,0,0,0,0,0],"sum_hessian":[3.7964688E8,1.2612335E8,2.5352352E8,7.454897E7,5.1574384E7,9.624278E7,1.5728075E8,3.550889E7,3.904008E7,8.1082E6,4.3466184E7,5.841104E7,3.783174E7,8.945654E7,6.782421E7,2.6944806E7,8.564083E6,5.625289E6,3.3414792E7,6.998194E6,1.110006E6,3.493237E7,8.53382E6,3.2669144E7,2.5741896E7,1.376832E7,2.406342E7,4.740104E7,4.2055504E7,3.744958E6,6.407925E7,1.0838717E7,1.6106089E7,1.233708E6,7.330375E6,7.70987E5,4.854302E6,1.919823E7,1.4216561E7,5.888421E6,1.109773E6,1.04445E5,1.005561E6,1.1295203E7,2.3637164E7,4.216599E6,4.317221E6,5.14555E5,3.215459E7,9.556102E6,1.6185794E7,8.755638E6,5.012682E6,1.9341828E7,4.721591E6,2.471881E6,4.4929156E7,1.08235E7,3.1232002E7,2.034574E6,1.710384E6,8.383214E6,5.5696036E7],"tree_param":{"num_deleted":"0","num_feature":"7","num_nodes":"63","size_leaf_vector":"1"}},{"base_weights":[-8.1172647E-7,1.7569549E-3,-3.0275069E-3,-2.8152312E-3,9.546452E-3,-1.177077E-2,-2.6419887E-3,-3.610506E-3,-1.0759246E-3,5.5086657E-2,7.5383387E-3,4.4099684E-3,-1.48419095E-2,-3.8037554E-3,-1.1292448E-3,-1.086574E-2,-2.8931461E-3,2.4101466E-2,-1.1826074E-3,9.949479E-2,4.434799E-2,1.3365169E-2,-4.0141065E-3,1.6604755E-2,2.5304395E-3,-2.1816581E-2,-1.2041322E-2,-1.639014E-3,-4.546068E-3,-1.6664022E-3,-4.270295E-4,-3.1340083E-3,-1.3960381E-3,-6.579277E-4,-2.0614284E-4,2.286564E-3,6.5385876E-3,-2.5929205E-5,-4.7853417E-4,1.732336E-2,8.334501E-3,8.431965E-3,1.7630422E-3,2.8095874E-3,7.144367E-4,-3.81509E-5,-1.7349081E-3,6.204284E-3,1.5983775E-3,8.1762075E-5,2.0160633E-3,-2.3806137E-3,-3.9106635E-3,-1.4467768E-3,-2.0638905E-3,-6.450728E-5,-3.2111505E-4,-8.89294E-4,-5.4538046E-4,-1.5399946E-4,-2.828642E-4,-7.1675977E-4,-4.986443E-5],"categories":[],"categories_nodes":[],"categories_segments":[],"categories_sizes":[],"default_left":[0,0,0,0,0,0,0,0,0,0,0,0,0,0,0,0,0,0,0,0,0,0,0,0,0,0,0,0,0,0,0,0,0,0,0,0,0,0,0,0,0,0,0,0,0,0,0,0,0,0,0,0,0,0,0,0,0,0,0,0,0,0,0],"id":21,"left_children":[1,3,5,7,9,11,13,15,17,19,21,23,25,27,29,31,33,35,37,39,41,43,45,47,49,51,53,55,57,59,61,-1,-1,-1,-1,-1,-1,-1,-1,-1,-1,-1,-1,-1,-1,-1,-1,-1,-1,-1,-1,-1,-1,-1,-1,-1,-1,-1,-1,-1,-1,-1,-1],"loss_changes":[2.01976E3,8.5534E3,4.7012817E2,2.0932947E2,8.123347E3,2.927036E2,2.3477026E2,5.405E2,1.2754212E2,1.7890254E3,5.726877E3,2.1536705E1,9.670007E1,1.2141504E2,2.1887955E1,1.4606238E2,2.1431268E2,3.4586052E1,9.585301E1,5.1329736E2,1.1683188E3,2.6101748E3,8.099015E2,1.848013E1,1.763467E1,3.5878296E1,1.4540161E1,1.1703552E1,7.080298E1,4.6138153E0,1.0352612E1,0E0,0E0,0E0,0E0,0E0,0E0,0E0,0E0,0E0,0E0,0E0,0E0,0E0,0E0,0E0,0E0,0E0,0E0,0E0,0E0,0E0,0E0,0E0,0E0,0E0,0E0,0E0,0E0,0E0,0E0,0E0,0E0],"parents":[2147483647,0,0,1,1,2,2,3,3,4,4,5,5,6,6,7,7,8,8,9,9,10,10,11,11,12,12,13,13,14,14,15,15,16,16,17,17,18,18,19,19,20,20,21,21,22,22,23,23,24,24,25,25,26,26,27,27,28,28,29,29,30,30],"right_children":[2,4,6,8,10,12,14,16,18,20,22,24,26,28,30,32,34,36,38,40,42,44,46,48,50,52,54,56,58,60,62,-1,-1,-1,-1,-1,-1,-1,-1,-1,-1,-1,-1,-1,-1,-1,-1,-1,-1,-1,-1,-1,-1,-1,-1,-1,-1,-1,-1,-1,-1,-1,-1],"split_conditions":[8.976885E0,-7.46783E0,2.57E0,-1.5061038E1,2.57E0,1.2553925E1,6.96E0,3.36E0,1.3E0,1.48E0,7.54E0,9.068479E0,1.69E0,1.5050434E1,8.76E0,1.69E0,6.74E0,-9.461852E0,8.9879405E-1,5.9667625E0,5.9667625E0,3.9632168E0,9.73E0,1.48E0,1.2444074E1,3.004341E1,3.004341E1,4.6947157E-1,4.95E0,1.5050434E1,9.068479E0,-3.1340083E-3,-1.3960381E-3,-6.579277E-4,-2.0614284E-4,2.286564E-3,6.5385876E-3,-2.5929205E-5,-4.7853417E-4,1.732336E-2,8.334501E-3,8.431965E-3,1.7630422E-3,2.8095874E-3,7.144367E-4,-3.81509E-5,-1.7349081E-3,6.204284E-3,1.5983775E-3,8.1762075E-5,2.0160633E-3,-2.3806137E-3,-3.9106635E-3,-1.4467768E-3,-2.0638905E-3,-6.450728E-5,-3.2111505E-4,-8.89294E-4,-5.4538046E-4,-1.5399946E-4,-2.828642E-4,-7.1675977E-4,-4.986443E-5],"split_indices":[1,1,6,1,6,1,6,6,6,6,6,1,6,1,6,6,6,1,2,1,1,1,6,6,1,1,1,2,6,1,1,0,0,0,0,0,0,0,0,0,0,0,0,0,0,0,0,0,0,0,0,0,0,0,0,0,0,0,0,0,0,0,0],"split_type":[0,0,0,0,0,0,0,0,0,0,0,0,0,0,0,0,0,0,0,0,0,0,0,0,0,0,0,0,0,0,0,0,0,0,0,0,0,0,0,0,0,0,0,0,0,0,0,0,0,0,0,0,0,0,0,0,0,0,0,0,0,0,0],"sum_hessian":[3.7963814E8,2.4016262E8,1.3947552E8,1.5133426E8,8.8828376E7,5.890198E6,1.3358532E8,1.0385015E8,4.7484108E7,3.751498E6,8.507688E7,9.39629E5,4.950569E6,7.5557896E7,5.8027424E7,9.344252E6,9.4505896E7,2.00352E5,4.7283756E7,7.30523E5,3.020975E6,5.6552756E7,2.852412E7,1.2548E5,8.14149E5,1.418324E6,3.532245E6,1.929362E7,5.6264276E7,3.2877716E7,2.5149712E7,1.257154E6,8.087098E6,4.7658068E7,4.6847828E7,1.37748E5,6.2604E4,3.1460492E7,1.5823264E7,5.35544E5,1.94979E5,2.214753E6,8.06222E5,3.4829096E7,2.1723658E7,1.9043326E7,9.480795E6,2.4309E4,1.01171E5,6.88804E5,1.25345E5,5.91578E5,8.26746E5,1.474985E6,2.05726E6,5.658812E6,1.3634809E7,2.2336278E7,3.3927996E7,8.39488E6,2.4482836E7,5.35127E5,2.4614584E7],"tree_param":{"num_deleted":"0","num_feature":"7","num_nodes":"63","size_leaf_vector":"1"}},{"base_weights":[7.814146E-7,1.191952E-3,-1.2860416E-3,1.8821906E-2,9.0975873E-4,-8.0273877E-4,-2.0160277E-3,5.7577225E-3,2.7762372E-2,1.9576224E-3,-2.358612E-3,-4.2379592E-4,-2.5903797E-3,-7.347327E-3,-1.7808718E-3,1.8917662E-3,9.925389E-3,4.595135E-2,2.110687E-2,-4.3462426E-4,3.98759E-3,-2.0904448E-3,-1.1141628E-2,1.10208E-3,-7.4220577E-4,-4.4933916E-3,-1.2929682E-3,-1.195865E-2,-6.233666E-3,-2.5167717E-3,-1.0497074E-3,1.7865139E-4,1.6275963E-3,2.0054383E-3,1.975506E-4,5.9929863E-3,1.0757311E-2,2.8057413E-3,4.6244618E-3,6.131921E-5,-3.166825E-4,6.728108E-4,-5.6123646E-4,-2.0815952E-4,-7.060395E-4,-7.2566315E-4,-2.3185555E-3,4.7272653E-4,-8.205116E-5,-2.249335E-4,-4.5620294E-5,2.515744E-3,-7.14157E-4,-1.0097909E-4,-2.756714E-4,-2.0679818E-3,-1.5035057E-3,-1.1053117E-3,-8.4789976E-4,-4.4423735E-4,-3.243667E-4,-1.9495397E-4,-2.6158536E-5],"categories":[],"categories_nodes":[],"categories_segments":[],"categories_sizes":[],"default_left":[0,0,0,0,0,0,0,0,0,0,0,0,0,0,0,0,0,0,0,0,0,0,0,0,0,0,0,0,0,0,0,0,0,0,0,0,0,0,0,0,0,0,0,0,0,0,0,0,0,0,0,0,0,0,0,0,0,0,0,0,0,0,0],"id":22,"left_children":[1,3,5,7,9,11,13,15,17,19,21,23,25,27,29,31,33,35,37,39,41,43,45,47,49,51,53,55,57,59,61,-1,-1,-1,-1,-1,-1,-1,-1,-1,-1,-1,-1,-1,-1,-1,-1,-1,-1,-1,-1,-1,-1,-1,-1,-1,-1,-1,-1,-1,-1,-1,-1],"loss_changes":[5.8194214E2,9.808521E2,6.4386444E1,3.6278296E2,6.645769E2,7.438157E1,9.113916E1,2.033294E1,2.2323364E2,7.135601E2,1.10957886E2,4.4017136E1,4.7416412E1,1.5771362E1,3.7463135E1,4.1101027E0,1.8005527E1,7.6337036E1,3.1528137E1,9.537963E1,3.0584583E2,8.405133E1,3.7969757E1,5.286293E1,2.4868416E1,4.4312088E1,3.8560867E0,2.1131897E0,1.6313171E0,5.4690857E0,7.6422386E0,0E0,0E0,0E0,0E0,0E0,0E0,0E0,0E0,0E0,0E0,0E0,0E0,0E0,0E0,0E0,0E0,0E0,0E0,0E0,0E0,0E0,0E0,0E0,0E0,0E0,0E0,0E0,0E0,0E0,0E0,0E0,0E0],"parents":[2147483647,0,0,1,1,2,2,3,3,4,4,5,5,6,6,7,7,8,8,9,9,10,10,11,11,12,12,13,13,14,14,15,15,16,16,17,17,18,18,19,19,20,20,21,21,22,22,23,23,24,24,25,25,26,26,27,27,28,28,29,29,30,30],"right_children":[2,4,6,8,10,12,14,16,18,20,22,24,26,28,30,32,34,36,38,40,42,44,46,48,50,52,54,56,58,60,62,-1,-1,-1,-1,-1,-1,-1,-1,-1,-1,-1,-1,-1,-1,-1,-1,-1,-1,-1,-1,-1,-1,-1,-1,-1,-1,-1,-1,-1,-1,-1,-1],"split_conditions":[1.2007602E1,1.86E0,1.4004924E2,5.0299797E0,8.22E0,6.7737E3,2.57E0,2.9543471E0,1.3E0,5.952884E0,-4.6E0,1.393E3,2.4966099E1,1.48E0,6.58E0,-0E0,9.2718387E-1,-0E0,-2E-1,8.9879405E-1,8.7195E3,1.085E1,5.0299797E0,2.5044727E1,-4.86E1,2.04E0,-1.11E1,1.3E0,2.04E0,4.92E0,9.73E0,1.7865139E-4,1.6275963E-3,2.0054383E-3,1.975506E-4,5.9929863E-3,1.0757311E-2,2.8057413E-3,4.6244618E-3,6.131921E-5,-3.166825E-4,6.728108E-4,-5.6123646E-4,-2.0815952E-4,-7.060395E-4,-7.2566315E-4,-2.3185555E-3,4.7272653E-4,-8.205116E-5,-2.249335E-4,-4.5620294E-5,2.515744E-3,-7.14157E-4,-1.0097909E-4,-2.756714E-4,-2.0679818E-3,-1.5035057E-3,-1.1053117E-3,-8.4789976E-4,-4.4423735E-4,-3.243667E-4,-1.9495397E-4,-2.6158536E-5],"split_indices":[0,6,0,0,6,5,6,0,6,0,4,5,0,6,6,4,2,4,4,2,5,6,0,0,4,6,4,6,6,6,6,0,0,0,0,0,0,0,0,0,0,0,0,0,0,0,0,0,0,0,0,0,0,0,0,0,0,0,0,0,0,0,0],"split_type":[0,0,0,0,0,0,0,0,0,0,0,0,0,0,0,0,0,0,0,0,0,0,0,0,0,0,0,0,0,0,0,0,0,0,0,0,0,0,0,0,0,0,0,0,0,0,0,0,0,0,0,0,0,0,0,0,0,0,0,0,0,0,0],"sum_hessian":[3.7965315E8,1.9715402E8,1.8249914E8,3.106022E6,1.94048E8,1.0980225E8,7.269689E7,1.261974E6,1.844048E6,1.4693846E8,4.7109544E7,9.0597464E7,1.9204784E7,3.071093E6,6.96258E7,6.54685E5,6.07289E5,4.93994E5,1.350054E6,6.745045E7,7.948802E7,4.571379E7,1.395754E6,1.5641353E7,7.495611E7,7.785379E6,1.1419406E7,5.97407E5,2.473686E6,3.4700524E7,3.4925276E7,6.07192E5,4.7493E4,4.33747E5,1.73542E5,4.00708E5,9.3286E4,1.08261E6,2.67444E5,4.487555E7,2.2574892E7,7.4678184E7,4.809826E6,3.603563E7,9.67816E6,5.672E5,8.28554E5,6.974135E6,8.667218E6,2.746819E7,4.7487924E7,9.6773E4,7.688606E6,5.342333E6,6.077073E6,3.07224E5,2.90183E5,8.37495E5,1.636191E6,1.5385749E7,1.9314774E7,2.7166636E7,7.75864E6],"tree_param":{"num_deleted":"0","num_feature":"7","num_nodes":"63","size_leaf_vector":"1"}},{"base_weights":[9.258213E-8,1.0324555E-3,-8.946151E-4,7.879645E-3,8.4919436E-4,-7.399593E-4,-5.962077E-3,6.782879E-3,1.8406434E-2,1.5550372E-3,-7.612046E-4,-3.264148E-4,-1.9914487E-3,-4.6226922E-3,-1.1514138E-2,1.0153555E-2,5.250781E-3,2.1507692E-2,1.1172225E-2,3.8120796E-3,1.2964667E-3,-3.4763856E-4,-2.47145E-3,-1.6185534E-4,-7.0498517E-4,-1.5993462E-3,-3.224235E-3,-4.057503E-3,-7.388508E-3,-1.1143341E-2,-1.4486404E-2,2.298449E-3,1.0740077E-3,9.821871E-4,5.9296115E-4,3.948552E-3,2.9371174E-3,1.890113E-3,1.2480265E-3,9.5481E-4,3.4253875E-4,2.808758E-4,1.2352872E-4,-5.9513724E-5,5.9205847E-4,8.04776E-4,-4.229661E-4,2.3887762E-5,-5.3173477E-5,-9.748072E-5,-3.6520627E-4,-2.2850094E-4,-6.050214E-4,-4.395117E-4,-7.9392537E-4,-5.850442E-4,-7.536925E-4,-9.976231E-4,-1.4176221E-3,-1.4547195E-3,-1.7436472E-3,-2.0338602E-3,-2.451691E-3],"categories":[],"categories_nodes":[],"categories_segments":[],"categories_sizes":[],"default_left":[0,0,0,0,0,0,0,0,0,0,0,0,0,0,0,0,0,0,0,0,0,0,0,0,0,0,0,0,0,0,0,0,0,0,0,0,0,0,0,0,0,0,0,0,0,0,0,0,0,0,0,0,0,0,0,0,0,0,0,0,0,0,0],"id":23,"left_children":[1,3,5,7,9,11,13,15,17,19,21,23,25,27,29,31,33,35,37,39,41,43,45,47,49,51,53,55,57,59,61,-1,-1,-1,-1,-1,-1,-1,-1,-1,-1,-1,-1,-1,-1,-1,-1,-1,-1,-1,-1,-1,-1,-1,-1,-1,-1,-1,-1,