{"learner":{"attributes":{"best_iteration":"999","best_score":"0.00755064837616668","scikit_learn":"{\"_estimator_type\": \"regressor\"}"},"feature_names":[],"feature_types":[],"gradient_booster":{"model":{"gbtree_model_param":{"num_parallel_tree":"1","num_trees":"1000"},"iteration_indptr":[0,1,2,3,4,5,6,7,8,9,10,11,12,13,14,15,16,17,18,19,20,21,22,23,24,25,26,27,28,29,30,31,32,33,34,35,36,37,38,39,40,41,42,43,44,45,46,47,48,49,50,51,52,53,54,55,56,57,58,59,60,61,62,63,64,65,66,67,68,69,70,71,72,73,74,75,76,77,78,79,80,81,82,83,84,85,86,87,88,89,90,91,92,93,94,95,96,97,98,99,100,101,102,103,104,105,106,107,108,109,110,111,112,113,114,115,116,117,118,119,120,121,122,123,124,125,126,127,128,129,130,131,132,133,134,135,136,137,138,139,140,141,142,143,144,145,146,147,148,149,150,151,152,153,154,155,156,157,158,159,160,161,162,163,164,165,166,167,168,169,170,171,172,173,174,175,176,177,178,179,180,181,182,183,184,185,186,187,188,189,190,191,192,193,194,195,196,197,198,199,200,201,202,203,204,205,206,207,208,209,210,211,212,213,214,215,216,217,218,219,220,221,222,223,224,225,226,227,228,229,230,231,232,233,234,235,236,237,238,239,240,241,242,243,244,245,246,247,248,249,250,251,252,253,254,255,256,257,258,259,260,261,262,263,264,265,266,267,268,269,270,271,272,273,274,275,276,277,278,279,280,281,282,283,284,285,286,287,288,289,290,291,292,293,294,295,296,297,298,299,300,301,302,303,304,305,306,307,308,309,310,311,312,313,314,315,316,317,318,319,320,321,322,323,324,325,326,327,328,329,330,331,332,333,334,335,336,337,338,339,340,341,342,343,344,345,346,347,348,349,350,351,352,353,354,355,356,357,358,359,360,361,362,363,364,365,366,367,368,369,370,371,372,373,374,375,376,377,378,379,380,381,382,383,384,385,386,387,388,389,390,391,392,393,394,395,396,397,398,399,400,401,402,403,404,405,406,407,408,409,410,411,412,413,414,415,416,417,418,419,420,421,422,423,424,425,426,427,428,429,430,431,432,433,434,435,436,437,438,439,440,441,442,443,444,445,446,447,448,449,450,451,452,453,454,455,456,457,458,459,460,461,462,463,464,465,466,467,468,469,470,471,472,473,474,475,476,477,478,479,480,481,482,483,484,485,486,487,488,489,490,491,492,493,494,495,496,497,498,499,500,501,502,503,504,505,506,507,508,509,510,511,512,513,514,515,516,517,518,519,520,521,522,523,524,525,526,527,528,529,530,531,532,533,534,535,536,537,538,539,540,541,542,543,544,545,546,547,548,549,550,551,552,553,554,555,556,557,558,559,560,561,562,563,564,565,566,567,568,569,570,571,572,573,574,575,576,577,578,579,580,581,582,583,584,585,586,587,588,589,590,591,592,593,594,595,596,597,598,599,600,601,602,603,604,605,606,607,608,609,610,611,612,613,614,615,616,617,618,619,620,621,622,623,624,625,626,627,628,629,630,631,632,633,634,635,636,637,638,639,640,641,642,643,644,645,646,647,648,649,650,651,652,653,654,655,656,657,658,659,660,661,662,663,664,665,666,667,668,669,670,671,672,673,674,675,676,677,678,679,680,681,682,683,684,685,686,687,688,689,690,691,692,693,694,695,696,697,698,699,700,701,702,703,704,705,706,707,708,709,710,711,712,713,714,715,716,717,718,719,720,721,722,723,724,725,726,727,728,729,730,731,732,733,734,735,736,737,738,739,740,741,742,743,744,745,746,747,748,749,750,751,752,753,754,755,756,757,758,759,760,761,762,763,764,765,766,767,768,769,770,771,772,773,774,775,776,777,778,779,780,781,782,783,784,785,786,787,788,789,790,791,792,793,794,795,796,797,798,799,800,801,802,803,804,805,806,807,808,809,810,811,812,813,814,815,816,817,818,819,820,821,822,823,824,825,826,827,828,829,830,831,832,833,834,835,836,837,838,839,840,841,842,843,844,845,846,847,848,849,850,851,852,853,854,855,856,857,858,859,860,861,862,863,864,865,866,867,868,869,870,871,872,873,874,875,876,877,878,879,880,881,882,883,884,885,886,887,888,889,890,891,892,893,894,895,896,897,898,899,900,901,902,903,904,905,906,907,908,909,910,911,912,913,914,915,916,917,918,919,920,921,922,923,924,925,926,927,928,929,930,931,932,933,934,935,936,937,938,939,940,941,942,943,944,945,946,947,948,949,950,951,952,953,954,955,956,957,958,959,960,961,962,963,964,965,966,967,968,969,970,971,972,973,974,975,976,977,978,979,980,981,982,983,984,985,986,987,988,989,990,991,992,993,994,995,996,997,998,999,1000],"tree_info":[0,0,0,0,0,0,0,0,0,0,0,0,0,0,0,0,0,0,0,0,0,0,0,0,0,0,0,0,0,0,0,0,0,0,0,0,0,0,0,0,0,0,0,0,0,0,0,0,0,0,0,0,0,0,0,0,0,0,0,0,0,0,0,0,0,0,0,0,0,0,0,0,0,0,0,0,0,0,0,0,0,0,0,0,0,0,0,0,0,0,0,0,0,0,0,0,0,0,0,0,0,0,0,0,0,0,0,0,0,0,0,0,0,0,0,0,0,0,0,0,0,0,0,0,0,0,0,0,0,0,0,0,0,0,0,0,0,0,0,0,0,0,0,0,0,0,0,0,0,0,0,0,0,0,0,0,0,0,0,0,0,0,0,0,0,0,0,0,0,0,0,0,0,0,0,0,0,0,0,0,0,0,0,0,0,0,0,0,0,0,0,0,0,0,0,0,0,0,0,0,0,0,0,0,0,0,0,0,0,0,0,0,0,0,0,0,0,0,0,0,0,0,0,0,0,0,0,0,0,0,0,0,0,0,0,0,0,0,0,0,0,0,0,0,0,0,0,0,0,0,0,0,0,0,0,0,0,0,0,0,0,0,0,0,0,0,0,0,0,0,0,0,0,0,0,0,0,0,0,0,0,0,0,0,0,0,0,0,0,0,0,0,0,0,0,0,0,0,0,0,0,0,0,0,0,0,0,0,0,0,0,0,0,0,0,0,0,0,0,0,0,0,0,0,0,0,0,0,0,0,0,0,0,0,0,0,0,0,0,0,0,0,0,0,0,0,0,0,0,0,0,0,0,0,0,0,0,0,0,0,0,0,0,0,0,0,0,0,0,0,0,0,0,0,0,0,0,0,0,0,0,0,0,0,0,0,0,0,0,0,0,0,0,0,0,0,0,0,0,0,0,0,0,0,0,0,0,0,0,0,0,0,0,0,0,0,0,0,0,0,0,0,0,0,0,0,0,0,0,0,0,0,0,0,0,0,0,0,0,0,0,0,0,0,0,0,0,0,0,0,0,0,0,0,0,0,0,0,0,0,0,0,0,0,0,0,0,0,0,0,0,0,0,0,0,0,0,0,0,0,0,0,0,0,0,0,0,0,0,0,0,0,0,0,0,0,0,0,0,0,0,0,0,0,0,0,0,0,0,0,0,0,0,0,0,0,0,0,0,0,0,0,0,0,0,0,0,0,0,0,0,0,0,0,0,0,0,0,0,0,0,0,0,0,0,0,0,0,0,0,0,0,0,0,0,0,0,0,0,0,0,0,0,0,0,0,0,0,0,0,0,0,0,0,0,0,0,0,0,0,0,0,0,0,0,0,0,0,0,0,0,0,0,0,0,0,0,0,0,0,0,0,0,0,0,0,0,0,0,0,0,0,0,0,0,0,0,0,0,0,0,0,0,0,0,0,0,0,0,0,0,0,0,0,0,0,0,0,0,0,0,0,0,0,0,0,0,0,0,0,0,0,0,0,0,0,0,0,0,0,0,0,0,0,0,0,0,0,0,0,0,0,0,0,0,0,0,0,0,0,0,0,0,0,0,0,0,0,0,0,0,0,0,0,0,0,0,0,0,0,0,0,0,0,0,0,0,0,0,0,0,0,0,0,0,0,0,0,0,0,0,0,0,0,0,0,0,0,0,0,0,0,0,0,0,0,0,0,0,0,0,0,0,0,0,0,0,0,0,0,0,0,0,0,0,0,0,0,0,0,0,0,0,0,0,0,0,0,0,0,0,0,0,0,0,0,0,0,0,0,0,0,0,0,0,0,0,0,0,0,0,0,0,0,0,0,0,0,0,0,0,0,0,0,0,0,0,0,0,0,0,0,0,0,0,0,0,0,0,0,0,0,0,0,0,0,0,0,0,0,0,0,0,0,0,0,0,0,0,0,0,0,0,0,0,0,0,0,0,0,0,0,0,0,0,0,0,0,0,0,0,0,0,0,0,0,0,0,0,0,0,0,0,0,0,0,0,0,0,0,0,0,0,0,0,0,0,0,0,0,0,0,0,0,0,0,0,0,0,0,0,0,0,0,0,0,0,0,0,0,0,0,0,0,0,0,0,0,0,0,0,0,0,0,0,0,0,0,0,0,0,0,0,0,0,0,0,0,0,0,0,0,0,0,0,0,0,0,0,0,0,0,0,0,0,0,0,0,0,0,0,0,0,0,0,0,0,0,0,0,0,0,0,0,0,0,0,0,0,0,0,0,0,0,0,0,0,0,0,0,0,0,0,0,0,0,0,0,0,0],"trees":[{"base_weights":[1.0656008E-6,3.96614E-2,-7.308929E-2,-6.1174113E-2,1.9270165E-1,-4.5288384E-2,-8.629547E-2,-7.9320885E-2,7.094904E-3,2.4808852E-1,7.435773E-2,-7.810595E-3,-5.6246717E-2,-7.663379E-2,-9.067066E-2,-8.9141674E-2,-6.1430253E-2,6.190584E-2,-1.4753763E-2,1.0188344E-1,2.9559368E-1,1.5526336E-1,4.2104308E-2,1.5616483E-2,-2.9720895E-2,-4.0698398E-2,-6.575767E-2,-6.232252E-2,-8.081899E-2,-8.7417044E-2,-9.247766E-2,-1.3798089E-2,-1.2652448E-2,-5.1312824E-3,-1.0408345E-2,2.390284E-3,1.68738E-2,-5.429413E-3,3.0153946E-3,2.6629439E-2,1.0321272E-2,3.510695E-2,5.5194356E-2,2.9817075E-2,1.6107878E-2,1.1219456E-2,9.1954373E-4,-1.364398E-3,3.4151317E-3,-7.1837865E-3,-3.8855912E-3,-7.3338854E-3,-1.6950913E-3,-1.0654505E-2,-7.024769E-3,-8.110924E-3,-1.0724957E-2,-1.2459152E-2,-1.09160375E-2,-1.2120023E-2,-1.3402686E-2,-1.3430459E-2,-1.3994992E-2],"categories":[],"categories_nodes":[],"categories_segments":[],"categories_sizes":[],"default_left":[0,0,0,0,0,0,0,0,0,0,0,0,0,0,0,0,0,0,0,0,0,0,0,0,0,0,0,0,0,0,0,0,0,0,0,0,0,0,0,0,0,0,0,0,0,0,0,0,0,0,0,0,0,0,0,0,0,0,0,0,0,0,0],"id":0,"left_children":[1,3,5,7,9,11,13,15,17,19,21,23,25,27,29,31,33,35,37,39,41,43,45,47,49,51,53,55,57,59,61,-1,-1,-1,-1,-1,-1,-1,-1,-1,-1,-1,-1,-1,-1,-1,-1,-1,-1,-1,-1,-1,-1,-1,-1,-1,-1,-1,-1,-1,-1,-1,-1],"loss_changes":[1.1004695E6,3.7977085E6,4.9026938E4,1.8378494E5,6.40689E5,1.766182E4,3.8269375E3,2.05915E4,3.730657E4,4.624525E5,8.1316625E4,4.9941187E3,4.9207266E3,1.6900938E3,3.663125E2,1.03175E3,8.998359E3,2.0647309E4,1.6647467E4,4.0854344E4,2.23838E5,1.8505578E4,2.6202672E4,8.309424E2,3.4869678E2,3.0422676E3,2.0601406E3,4.8338672E2,3.9382812E2,2.8476562E2,9.690625E1,0E0,0E0,0E0,0E0,0E0,0E0,0E0,0E0,0E0,0E0,0E0,0E0,0E0,0E0,0E0,0E0,0E0,0E0,0E0,0E0,0E0,0E0,0E0,0E0,0E0,0E0,0E0,0E0,0E0,0E0,0E0,0E0],"parents":[2147483647,0,0,1,1,2,2,3,3,4,4,5,5,6,6,7,7,8,8,9,9,10,10,11,11,12,12,13,13,14,14,15,15,16,16,17,17,18,18,19,19,20,20,21,21,22,22,23,23,24,24,25,25,26,26,27,27,28,28,29,29,30,30],"right_children":[2,4,6,8,10,12,14,16,18,20,22,24,26,28,30,32,34,36,38,40,42,44,46,48,50,52,54,56,58,60,62,-1,-1,-1,-1,-1,-1,-1,-1,-1,-1,-1,-1,-1,-1,-1,-1,-1,-1,-1,-1,-1,-1,-1,-1,-1,-1,-1,-1,-1,-1,-1,-1],"split_conditions":[9.951943E0,-7.9660354E0,1.9011662E1,-1.2959122E1,5.5171623E0,5.65E1,3.504273E1,-2.9947401E1,6.8E1,-5.507569E0,6.8E1,1.4004741E1,1.2553925E1,5.65E1,5.0058765E1,-4.9958805E1,5.65E1,-9.957797E0,-9.461852E0,7.18E1,-1.33E1,7.958588E0,7.958588E0,-1.31E1,-1.42E1,-8.6E0,-8.6E0,2.9941477E1,-8.6E0,5.65E1,5.49E1,-1.3798089E-2,-1.2652448E-2,-5.1312824E-3,-1.0408345E-2,2.390284E-3,1.68738E-2,-5.429413E-3,3.0153946E-3,2.6629439E-2,1.0321272E-2,3.510695E-2,5.5194356E-2,2.9817075E-2,1.6107878E-2,1.1219456E-2,9.1954373E-4,-1.364398E-3,3.4151317E-3,-7.1837865E-3,-3.8855912E-3,-7.3338854E-3,-1.6950913E-3,-1.0654505E-2,-7.024769E-3,-8.110924E-3,-1.0724957E-2,-1.2459152E-2,-1.09160375E-2,-1.2120023E-2,-1.3402686E-2,-1.3430459E-2,-1.3994992E-2],"split_indices":[1,1,1,1,1,5,1,1,5,1,5,1,1,5,1,1,5,1,1,5,4,1,1,4,4,4,4,1,4,5,5,0,0,0,0,0,0,0,0,0,0,0,0,0,0,0,0,0,0,0,0,0,0,0,0,0,0,0,0,0,0,0,0],"split_type":[0,0,0,0,0,0,0,0,0,0,0,0,0,0,0,0,0,0,0,0,0,0,0,0,0,0,0,0,0,0,0,0,0,0,0,0,0,0,0,0,0,0,0,0,0,0,0,0,0,0,0,0,0,0,0,0,0,0,0,0,0,0,0],"sum_hessian":[3.796309E8,2.460948E8,1.3353611E8,1.4834976E8,9.774503E7,4.3004824E7,9.053129E7,1.1719725E8,3.1152516E7,6.658307E7,3.116196E7,9.729539E6,3.3275286E7,2.8217916E7,6.2313372E7,7.566313E7,4.153412E7,8.878743E6,2.2273774E7,1.6328713E7,5.025436E7,8.882009E6,2.2279952E7,4.702017E6,5.027522E6,1.2629251E7,2.0646036E7,6.384878E6,2.1833038E7,2.2250334E7,4.006304E7,4.747291E7,2.819022E7,9.396081E6,3.2138036E7,4.65158E6,4.227163E6,1.3790428E7,8.483346E6,4.967494E6,1.1361219E7,2.7157628E7,2.3096732E7,4.652881E6,4.229128E6,1.1672419E7,1.0607532E7,1.055263E6,3.646754E6,8.7274E5,4.154782E6,9.876368E6,2.752883E6,1.6147633E7,4.498402E6,3.362351E6,3.022527E6,1.7074776E7,4.758262E6,5.032871E6,1.7217464E7,8.753204E6,3.1309834E7],"tree_param":{"num_deleted":"0","num_feature":"7","num_nodes":"63","size_leaf_vector":"1"}},{"base_weights":[1.7543779E-6,4.01045E-2,-7.3911004E-2,8.755047E-2,-5.3865306E-2,-4.0920135E-2,-8.273793E-2,-3.700497E-2,2.6235658E-1,-1.7032579E-2,-6.7895524E-2,-3.029988E-2,-7.400106E-2,-6.978644E-2,-8.620631E-2,-5.8822073E-2,4.905082E-2,3.3183134E-1,8.872268E-2,2.6687816E-2,-3.615535E-2,-5.3832673E-2,-7.507383E-2,-7.165154E-2,-7.638393E-3,-6.5676294E-2,-7.7719174E-2,-7.324342E-2,-6.4883254E-2,-9.079567E-2,-7.867637E-2,-1.06059965E-2,-4.7773086E-3,1.9786185E-2,3.7234724E-3,2.6930962E-2,5.7505228E-2,5.638541E-3,2.2223577E-2,9.738242E-3,9.991395E-4,-6.5462883E-3,7.3083903E-4,-4.718798E-3,-9.413114E-3,-1.0358971E-2,-1.1554863E-2,-1.1514515E-2,-8.651612E-3,1.9053626E-3,-5.3283996E-3,-8.371016E-3,-1.0497846E-2,-1.1180518E-2,-1.1848354E-2,-9.851188E-3,-1.4399222E-2,-8.609399E-3,-1.1323193E-2,-1.1955381E-2,-1.709259E-2,-1.1137559E-2,-1.2182709E-2],"categories":[],"categories_nodes":[],"categories_segments":[],"categories_sizes":[],"default_left":[0,0,0,0,0,0,0,0,0,0,0,0,0,0,0,0,0,0,0,0,0,0,0,0,0,0,0,0,0,0,0,0,0,0,0,0,0,0,0,0,0,0,0,0,0,0,0,0,0,0,0,0,0,0,0,0,0,0,0,0,0,0,0],"id":1,"left_children":[1,3,5,7,9,11,13,15,17,19,21,23,25,27,29,31,33,35,37,39,41,43,45,47,49,51,53,55,57,59,61,-1,-1,-1,-1,-1,-1,-1,-1,-1,-1,-1,-1,-1,-1,-1,-1,-1,-1,-1,-1,-1,-1,-1,-1,-1,-1,-1,-1,-1,-1,-1,-1],"loss_changes":[1.1252782E6,1.0972598E6,3.8884688E4,3.5606692E6,4.266989E4,9.90232E3,4.7320625E3,1.7928755E5,8.20806E5,1.9042377E4,6.0360312E3,1.9993574E4,2.120039E2,3.771797E2,2.8715E3,2.442075E4,3.8770285E4,3.814225E5,5.909361E4,5.306887E3,4.8671133E3,4.033461E3,4.6628125E2,5.395508E2,7.8173667E3,8.993945E1,1.9128906E1,2.2473203E3,7.305781E2,1.32608125E4,3.5395312E2,0E0,0E0,0E0,0E0,0E0,0E0,0E0,0E0,0E0,0E0,0E0,0E0,0E0,0E0,0E0,0E0,0E0,0E0,0E0,0E0,0E0,0E0,0E0,0E0,0E0,0E0,0E0,0E0,0E0,0E0,0E0,0E0],"parents":[2147483647,0,0,1,1,2,2,3,3,4,4,5,5,6,6,7,7,8,8,9,9,10,10,11,11,12,12,13,13,14,14,15,15,16,16,17,17,18,18,19,19,20,20,21,21,22,22,23,23,24,24,25,25,26,26,27,27,28,28,29,29,30,30],"right_children":[2,4,6,8,10,12,14,16,18,20,22,24,26,28,30,32,34,36,38,40,42,44,46,48,50,52,54,56,58,60,62,-1,-1,-1,-1,-1,-1,-1,-1,-1,-1,-1,-1,-1,-1,-1,-1,-1,-1,-1,-1,-1,-1,-1,-1,-1,-1,-1,-1,-1,-1,-1,-1],"split_conditions":[2.5044727E1,9.068479E0,6.995548E1,-7.46783E0,1.5050434E1,2.9941477E1,1.199618E2,-1.0055537E1,6.018574E0,7.18E1,2.9941477E1,-2.4934635E1,4.4959213E1,7.958588E0,1.0993162E1,-1.7959108E1,5.65E1,-4.9627934E0,-1.34E1,1.0993162E1,-7E0,6.8E1,6.09E1,-3.504181E1,4.0036793E1,7.18E1,6.8E1,-5.507569E0,4.4959213E1,-7.515904E0,2.9997003E2,-1.06059965E-2,-4.7773086E-3,1.9786185E-2,3.7234724E-3,2.6930962E-2,5.7505228E-2,5.638541E-3,2.2223577E-2,9.738242E-3,9.991395E-4,-6.5462883E-3,7.3083903E-4,-4.718798E-3,-9.413114E-3,-1.0358971E-2,-1.1554863E-2,-1.1514515E-2,-8.651612E-3,1.9053626E-3,-5.3283996E-3,-8.371016E-3,-1.0497846E-2,-1.1180518E-2,-1.1848354E-2,-9.851188E-3,-1.4399222E-2,-8.609399E-3,-1.1323193E-2,-1.1955381E-2,-1.709259E-2,-1.1137559E-2,-1.2182709E-2],"split_indices":[0,1,0,1,1,1,0,1,1,5,1,1,1,1,1,1,5,1,4,1,4,5,5,1,0,5,5,1,1,1,0,0,0,0,0,0,0,0,0,0,0,0,0,0,0,0,0,0,0,0,0,0,0,0,0,0,0,0,0,0,0,0,0],"split_type":[0,0,0,0,0,0,0,0,0,0,0,0,0,0,0,0,0,0,0,0,0,0,0,0,0,0,0,0,0,0,0,0,0,0,0,0,0,0,0,0,0,0,0,0,0,0,0,0,0,0,0,0,0,0,0,0,0,0,0,0,0,0,0],"sum_hessian":[3.796351E8,2.4610581E8,1.3352929E8,1.6353562E8,8.257019E7,2.8185428E7,1.05343864E8,9.5493304E7,6.80423E7,2.277646E7,5.9793732E7,2.133581E7,6.849617E6,2.225189E7,8.3091976E7,7.617995E7,1.9313356E7,4.8597404E7,1.9444902E7,6.93073E6,1.584573E7,2.0206894E7,3.958684E7,7.553154E6,1.3782656E7,2.114755E6,4.734862E6,1.3050583E7,9.201307E6,5.162654E7,3.1465432E7,5.2880556E7,2.3299394E7,4.3696E6,1.4943755E7,1.228757E7,3.630983E7,1.0452476E7,8.992426E6,2.382411E6,4.548319E6,1.3400462E7,2.445268E6,5.760399E6,1.4446495E7,9.725068E6,2.9861772E7,5.530157E6,2.022997E6,7.969283E6,5.813373E6,6.42735E5,1.47202E6,1.350475E6,3.384387E6,9.792772E6,3.257811E6,5.3934E6,3.807907E6,3.4904424E7,1.6722114E7,1.1478059E7,1.9987374E7],"tree_param":{"num_deleted":"0","num_feature":"7","num_nodes":"63","size_leaf_vector":"1"}},{"base_weights":[7.174492E-6,3.505366E-2,-6.1367135E-2,7.573357E-2,-4.590512E-2,-2.9601214E-2,-6.9520384E-2,-2.949402E-2,2.280272E-1,-1.6845604E-3,-5.4546993E-2,-1.7518433E-2,-6.213468E-2,-5.8970604E-2,-7.3701546E-2,-5.0089706E-2,4.515306E-2,2.9652336E-1,8.322606E-2,5.4976497E-2,-1.752256E-2,-4.0372856E-2,-6.299441E-2,-5.8921073E-2,9.74569E-3,-4.9427494E-2,-6.489858E-2,-5.3497486E-2,-6.306517E-2,-7.816122E-2,-6.7544036E-2,-9.520361E-3,-4.8635933E-3,7.839404E-4,1.3818287E-2,2.7418593E-2,5.2784547E-2,2.4077691E-2,6.8276753E-3,5.7312464E-3,1.3145262E-2,-4.4089174E-3,2.3644026E-3,-1.438479E-3,-7.202616E-3,-8.705925E-3,-9.887138E-3,-9.545764E-3,-5.3634387E-3,4.197962E-3,-2.3297626E-3,-5.6275735E-3,-8.399502E-3,-9.197613E-3,-1.0015495E-2,-9.887273E-3,-7.6287007E-3,-1.0000876E-2,-8.674361E-3,-1.022494E-2,-1.5694194E-2,-9.624237E-3,-1.0432915E-2],"categories":[],"categories_nodes":[],"categories_segments":[],"categories_sizes":[],"default_left":[0,0,0,0,0,0,0,0,0,0,0,0,0,0,0,0,0,0,0,0,0,0,0,0,0,0,0,0,0,0,0,0,0,0,0,0,0,0,0,0,0,0,0,0,0,0,0,0,0,0,0,0,0,0,0,0,0,0,0,0,0,0,0],"id":2,"left_children":[1,3,5,7,9,11,13,15,17,19,21,23,25,27,29,31,33,35,37,39,41,43,45,47,49,51,53,55,57,59,61,-1,-1,-1,-1,-1,-1,-1,-1,-1,-1,-1,-1,-1,-1,-1,-1,-1,-1,-1,-1,-1,-1,-1,-1,-1,-1,-1,-1,-1,-1,-1,-1],"loss_changes":[8.16602E5,7.958646E5,3.5739188E4,2.577501E6,3.0884156E4,1.1078971E4,4.843625E3,1.4623295E5,6.51842E5,1.1856305E4,8.094703E3,2.3198457E4,2.680664E2,6.9846094E2,2.1595312E3,1.7619938E4,3.8572227E4,2.8098225E5,6.1511312E4,1.5805742E3,4.07969E3,5.940832E3,6.1284375E2,8.916836E2,5.7134204E3,1.066853E2,4.2009766E1,4.3717578E2,3.3675E2,1.2064875E4,2.244375E2,0E0,0E0,0E0,0E0,0E0,0E0,0E0,0E0,0E0,0E0,0E0,0E0,0E0,0E0,0E0,0E0,0E0,0E0,0E0,0E0,0E0,0E0,0E0,0E0,0E0,0E0,0E0,0E0,0E0,0E0,0E0,0E0],"parents":[2147483647,0,0,1,1,2,2,3,3,4,4,5,5,6,6,7,7,8,8,9,9,10,10,11,11,12,12,13,13,14,14,15,15,16,16,17,17,18,18,19,19,20,20,21,21,22,22,23,23,24,24,25,25,26,26,27,27,28,28,29,29,30,30],"right_children":[2,4,6,8,10,12,14,16,18,20,22,24,26,28,30,32,34,36,38,40,42,44,46,48,50,52,54,56,58,60,62,-1,-1,-1,-1,-1,-1,-1,-1,-1,-1,-1,-1,-1,-1,-1,-1,-1,-1,-1,-1,-1,-1,-1,-1,-1,-1,-1,-1,-1,-1,-1,-1],"split_conditions":[2.4966099E1,9.068479E0,5.9979202E1,-7.0131702E0,1.2553925E1,2.006498E1,1.20036545E2,-1.0055537E1,5.9667625E0,5.49E1,2.006498E1,-1.9016684E1,3.004341E1,8.001333E1,7.958588E0,-2.4934635E1,-1.33E1,-3.5206988E0,7.66E1,8.0135145E0,-1.01E1,5.05E1,4.4959213E1,-2.9947401E1,3.995974E1,8.23E1,4.9958324E1,-4.496076E1,7.9870996E0,-7.515904E0,3.4994046E2,-9.520361E-3,-4.8635933E-3,7.839404E-4,1.3818287E-2,2.7418593E-2,5.2784547E-2,2.4077691E-2,6.8276753E-3,5.7312464E-3,1.3145262E-2,-4.4089174E-3,2.3644026E-3,-1.438479E-3,-7.202616E-3,-8.705925E-3,-9.887138E-3,-9.545764E-3,-5.3634387E-3,4.197962E-3,-2.3297626E-3,-5.6275735E-3,-8.399502E-3,-9.197613E-3,-1.0015495E-2,-9.887273E-3,-7.6287007E-3,-1.0000876E-2,-8.674361E-3,-1.022494E-2,-1.5694194E-2,-9.624237E-3,-1.0432915E-2],"split_indices":[0,1,0,1,1,1,0,1,1,5,1,1,1,0,1,1,4,1,5,0,4,5,1,1,0,5,1,1,1,1,0,0,0,0,0,0,0,0,0,0,0,0,0,0,0,0,0,0,0,0,0,0,0,0,0,0,0,0,0,0,0,0,0],"split_type":[0,0,0,0,0,0,0,0,0,0,0,0,0,0,0,0,0,0,0,0,0,0,0,0,0,0,0,0,0,0,0,0,0,0,0,0,0,0,0,0,0,0,0,0,0,0,0,0,0,0,0,0,0,0,0,0,0,0,0,0,0,0,0],"sum_hessian":[3.7964646E8,2.4165472E8,1.3799174E8,1.6083755E8,8.081716E7,2.8183974E7,1.0980777E8,9.511657E7,6.572099E7,1.3211869E7,6.760529E7,2.0551312E7,7.632663E6,3.116734E7,7.864043E7,7.454818E7,2.0568396E7,4.461601E7,2.1104984E7,2.886238E6,1.0325631E7,2.5245404E7,4.2359884E7,8.159893E6,1.2391418E7,1.363574E6,6.269089E6,1.3338321E7,1.782902E7,4.5608076E7,3.3032352E7,4.2420492E7,3.212768E7,1.1117634E7,9.450761E6,1.4609446E7,3.0006562E7,6.920267E6,1.4184716E7,1.907074E6,9.79164E5,7.611286E6,2.714345E6,5.022191E6,2.0223214E7,1.5706424E7,2.665346E7,6.779328E6,1.380565E6,7.197531E6,5.193887E6,4.84732E5,8.78842E5,2.151646E6,4.117443E6,2.338171E6,1.100015E7,1.0556368E7,7.272652E6,3.3105898E7,1.2502179E7,1.2307687E7,2.0724664E7],"tree_param":{"num_deleted":"0","num_feature":"7","num_nodes":"63","size_leaf_vector":"1"}},{"base_weights":[3.929649E-6,2.4179498E-2,-4.5323655E-2,-3.772691E-2,1.1673512E-1,-2.7613707E-2,-5.303297E-2,-4.9697988E-2,2.3559425E-3,1.5348452E-1,4.1778285E-2,-9.215266E-3,-3.7923526E-2,-4.7013823E-2,-5.590061E-2,-5.5014845E-2,-3.9267212E-2,3.627521E-2,-1.728679E-2,2.2708297E-1,1.1224419E-1,1.2946639E-2,8.8882945E-2,5.4649836E-3,-2.0967165E-2,-4.0594768E-2,-1.3658136E-2,-3.9211772E-2,-5.1309932E-2,-5.348238E-2,-5.7244085E-2,-8.59176E-3,-7.680399E-3,-3.2121865E-3,-7.0608663E-3,2.2865057E-3,1.1363128E-2,-3.7332142E-3,4.056156E-3,2.4877017E-2,4.460549E-2,1.0219444E-2,2.4432717E-2,7.109221E-3,-6.650979E-4,1.918434E-2,7.479114E-3,-2.2855776E-3,2.187418E-3,-5.0680977E-3,-2.177323E-3,-4.711349E-3,-6.899699E-3,-5.5132332E-5,-3.646219E-3,-6.906077E-3,-5.3729913E-3,-7.9169385E-3,-6.433571E-3,-7.422378E-3,-8.31502E-3,-8.229023E-3,-8.662769E-3],"categories":[],"categories_nodes":[],"categories_segments":[],"categories_sizes":[],"default_left":[0,0,0,0,0,0,0,0,0,0,0,0,0,0,0,0,0,0,0,0,0,0,0,0,0,0,0,0,0,0,0,0,0,0,0,0,0,0,0,0,0,0,0,0,0,0,0,0,0,0,0,0,0,0,0,0,0,0,0,0,0,0,0],"id":3,"left_children":[1,3,5,7,9,11,13,15,17,19,21,23,25,27,29,31,33,35,37,39,41,43,45,47,49,51,53,55,57,59,61,-1,-1,-1,-1,-1,-1,-1,-1,-1,-1,-1,-1,-1,-1,-1,-1,-1,-1,-1,-1,-1,-1,-1,-1,-1,-1,-1,-1,-1,-1,-1,-1],"loss_changes":[4.1599538E5,1.4185535E6,1.8028281E4,7.118366E4,2.73327E5,7.596373E3,1.5879375E3,6.3352812E3,2.2730895E4,2.020905E5,4.4333027E4,2.4811887E3,1.6635938E3,9.9503125E2,2.0242188E2,6.529219E2,5.374289E3,1.0388586E4,7.279849E3,1.0291325E5,9.532694E4,1.2123834E4,1.8868219E4,1.2069796E3,6.6067065E2,1.1475234E3,3.6025626E2,2.4416602E2,2.3688672E2,1.7367188E2,4.85E1,0E0,0E0,0E0,0E0,0E0,0E0,0E0,0E0,0E0,0E0,0E0,0E0,0E0,0E0,0E0,0E0,0E0,0E0,0E0,0E0,0E0,0E0,0E0,0E0,0E0,0E0,0E0,0E0,0E0,0E0,0E0,0E0],"parents":[2147483647,0,0,1,1,2,2,3,3,4,4,5,5,6,6,7,7,8,8,9,9,10,10,11,11,12,12,13,13,14,14,15,15,16,16,17,17,18,18,19,19,20,20,21,21,22,22,23,23,24,24,25,25,26,26,27,27,28,28,29,29,30,30],"right_children":[2,4,6,8,10,12,14,16,18,20,22,24,26,28,30,32,34,36,38,40,42,44,46,48,50,52,54,56,58,60,62,-1,-1,-1,-1,-1,-1,-1,-1,-1,-1,-1,-1,-1,-1,-1,-1,-1,-1,-1,-1,-1,-1,-1,-1,-1,-1,-1,-1,-1,-1,-1,-1],"split_conditions":[9.977508E0,-7.9660354E0,1.8963312E1,-1.3965949E1,5.5171623E0,8.31E1,3.504273E1,-2.9947401E1,8.46E1,8.31E1,-1.13E1,1.3955266E1,-5.2E0,8.23E1,5.0058765E1,-4.9958805E1,7.18E1,-9.461852E0,-7E0,-1.5E0,-1.5E0,9.86E1,7.958588E0,-1.38E1,-1.31E1,1.2553925E1,1.3955266E1,-1.31E1,-7E0,7.66E1,4.47E1,-8.59176E-3,-7.680399E-3,-3.2121865E-3,-7.0608663E-3,2.2865057E-3,1.1363128E-2,-3.7332142E-3,4.056156E-3,2.4877017E-2,4.460549E-2,1.0219444E-2,2.4432717E-2,7.109221E-3,-6.650979E-4,1.918434E-2,7.479114E-3,-2.2855776E-3,2.187418E-3,-5.0680977E-3,-2.177323E-3,-4.711349E-3,-6.899699E-3,-5.5132332E-5,-3.646219E-3,-6.906077E-3,-5.3729913E-3,-7.9169385E-3,-6.433571E-3,-7.422378E-3,-8.31502E-3,-8.229023E-3,-8.662769E-3],"split_indices":[1,1,1,1,1,5,1,1,5,5,4,1,4,5,1,1,5,1,4,1,1,5,1,4,4,1,1,4,4,5,5,0,0,0,0,0,0,0,0,0,0,0,0,0,0,0,0,0,0,0,0,0,0,0,0,0,0,0,0,0,0,0,0],"split_type":[0,0,0,0,0,0,0,0,0,0,0,0,0,0,0,0,0,0,0,0,0,0,0,0,0,0,0,0,0,0,0,0,0,0,0,0,0,0,0,0,0,0,0,0,0,0,0,0,0,0,0,0,0,0,0,0,0,0,0,0,0,0,0],"sum_hessian":[3.7962013E8,2.475753E8,1.32044824E8,1.4835029E8,9.922501E7,4.0047372E7,9.199745E7,1.142335E8,3.4116784E7,6.658171E7,3.2643298E7,1.4381965E7,2.5665408E7,2.9686324E7,6.231113E7,7.566494E7,3.856856E7,1.2511609E7,2.1605172E7,2.3910494E7,4.267122E7,2.0249228E7,1.2394071E7,6.394312E6,7.987653E6,2.3120232E7,2.545177E6,1.0541743E7,1.914458E7,2.2254112E7,4.0057016E7,4.7475532E7,2.8189408E7,1.1732714E7,2.6835846E7,8.16293E6,4.348679E6,1.8442644E7,3.16253E6,1.2777949E7,1.1132545E7,2.2805048E7,1.9866172E7,6.790515E6,1.3458712E7,6.197792E6,6.196279E6,1.955135E6,4.439177E6,2.674045E6,5.313608E6,8.562879E6,1.4557352E7,1.132225E6,1.412952E6,3.498415E6,7.043328E6,1.6299428E7,2.845153E6,7.296256E6,1.4957856E7,7.033022E6,3.3023992E7],"tree_param":{"num_deleted":"0","num_feature":"7","num_nodes":"63","size_leaf_vector":"1"}},{"base_weights":[1.5431592E-6,2.8766274E-2,-4.9525782E-2,-1.7927554E-2,5.7001885E-2,-2.2174334E-2,-5.6457736E-2,2.0712344E-2,-2.8001713E-2,3.2087922E-2,9.771204E-2,-1.3563939E-2,-2.8440412E-2,-4.5717247E-2,-5.914136E-2,7.7848085E-3,5.159815E-2,-3.420831E-2,3.0644243E-3,6.1308682E-2,1.5591363E-2,1.22702315E-1,5.243282E-2,-2.321162E-2,-4.971957E-3,-3.4297943E-2,-2.4309326E-2,-4.2161956E-2,-4.8831493E-2,-5.6791615E-2,-6.1338883E-2,-2.3910063E-3,1.7853108E-3,9.09035E-3,3.306199E-3,-6.0588527E-3,-2.9152744E-3,-1.2626636E-3,4.5762034E-3,1.18662445E-2,4.3597E-3,3.731459E-3,-1.8467133E-4,2.413818E-2,1.4856257E-2,1.0165891E-2,3.8176996E-3,-2.2601578E-3,-4.227586E-3,1.9712292E-3,-1.1871279E-3,-4.4489866E-3,-5.633826E-3,-1.3483395E-3,-3.8811222E-3,-4.439044E-3,-6.4088013E-3,-5.714121E-3,-7.36936E-3,-8.173352E-3,-8.730161E-3,-9.759847E-3,-8.9564035E-3],"categories":[],"categories_nodes":[],"categories_segments":[],"categories_sizes":[],"default_left":[0,0,0,0,0,0,0,0,0,0,0,0,0,0,0,0,0,0,0,0,0,0,0,0,0,0,0,0,0,0,0,0,0,0,0,0,0,0,0,0,0,0,0,0,0,0,0,0,0,0,0,0,0,0,0,0,0,0,0,0,0,0,0],"id":4,"left_children":[1,3,5,7,9,11,13,15,17,19,21,23,25,27,29,31,33,35,37,39,41,43,45,47,49,51,53,55,57,59,61,-1,-1,-1,-1,-1,-1,-1,-1,-1,-1,-1,-1,-1,-1,-1,-1,-1,-1,-1,-1,-1,-1,-1,-1,-1,-1,-1,-1,-1,-1,-1,-1],"loss_changes":[5.408301E5,3.1662088E5,2.6444406E4,3.5226734E4,1.5178725E5,1.5215576E3,3.2073125E3,7.472343E3,1.3840434E4,4.475217E4,6.4289375E4,9.846509E2,3.9497656E2,2.4629297E2,4.5971875E2,1.2886855E3,1.4695791E3,5.465758E3,3.7664905E3,1.9226531E4,9.268591E3,3.3105938E4,8.362934E3,2.2658423E2,3.3485016E2,1.02098145E2,2.2947607E2,7.354492E1,3.788672E1,1.39625E2,2.7935938E2,0E0,0E0,0E0,0E0,0E0,0E0,0E0,0E0,0E0,0E0,0E0,0E0,0E0,0E0,0E0,0E0,0E0,0E0,0E0,0E0,0E0,0E0,0E0,0E0,0E0,0E0,0E0,0E0,0E0,0E0,0E0,0E0],"parents":[2147483647,0,0,1,1,2,2,3,3,4,4,5,5,6,6,7,7,8,8,9,9,10,10,11,11,12,12,13,13,14,14,15,15,16,16,17,17,18,18,19,19,20,20,21,21,22,22,23,23,24,24,25,25,26,26,27,27,28,28,29,29,30,30],"right_children":[2,4,6,8,10,12,14,16,18,20,22,24,26,28,30,32,34,36,38,40,42,44,46,48,50,52,54,56,58,60,62,-1,-1,-1,-1,-1,-1,-1,-1,-1,-1,-1,-1,-1,-1,-1,-1,-1,-1,-1,-1,-1,-1,-1,-1,-1,-1,-1,-1,-1,-1,-1,-1],"split_conditions":[2.253701E1,5.952884E0,5.0050648E1,5.24E1,-1.13E1,3.494678E1,9.994115E1,4.0366936E0,-7.1E0,1.034E2,1.09661045E1,-1.54E1,-1.73E1,7.003272E1,3.5002988E2,-1.42E1,9.5105654E-1,4.0366936E0,4.0366936E0,1.09661045E1,1.09661045E1,5.49E1,1.745937E1,1.186E2,2.79E1,1.268E2,2.55E1,2.41E1,2.19E1,1.4004924E2,7.18E1,-2.3910063E-3,1.7853108E-3,9.09035E-3,3.306199E-3,-6.0588527E-3,-2.9152744E-3,-1.2626636E-3,4.5762034E-3,1.18662445E-2,4.3597E-3,3.731459E-3,-1.8467133E-4,2.413818E-2,1.4856257E-2,1.0165891E-2,3.8176996E-3,-2.2601578E-3,-4.227586E-3,1.9712292E-3,-1.1871279E-3,-4.4489866E-3,-5.633826E-3,-1.3483395E-3,-3.8811222E-3,-4.439044E-3,-6.4088013E-3,-5.714121E-3,-7.36936E-3,-8.173352E-3,-8.730161E-3,-9.759847E-3,-8.9564035E-3],"split_indices":[0,0,0,5,4,0,0,0,4,5,0,4,4,0,0,4,2,0,0,0,0,5,0,5,5,5,5,5,5,0,5,0,0,0,0,0,0,0,0,0,0,0,0,0,0,0,0,0,0,0,0,0,0,0,0,0,0,0,0,0,0,0,0],"split_type":[0,0,0,0,0,0,0,0,0,0,0,0,0,0,0,0,0,0,0,0,0,0,0,0,0,0,0,0,0,0,0,0,0,0,0,0,0,0,0,0,0,0,0,0,0,0,0,0,0,0,0,0,0,0,0,0,0,0,0,0,0,0,0],"sum_hessian":[3.796258E8,2.4015016E8,1.3947562E8,9.0495624E7,1.4965453E8,2.8201352E7,1.11274264E8,1.8714668E7,7.178096E7,9.283872E7,5.6815816E7,1.1878615E7,1.6322738E7,2.2244926E7,8.902934E7,1.3192731E7,5.521936E6,5.982811E7,1.1952847E7,3.349976E7,5.933896E7,3.661013E7,2.0205684E7,5.595544E6,6.283071E6,6.750748E6,9.57199E6,1.0386966E7,1.185796E7,4.3024496E7,4.6004844E7,1.950927E6,1.1241804E7,4.232536E6,1.2894E6,4.217405E7,1.7654066E7,8.427041E6,3.525806E6,2.1584502E7,1.1915257E7,3.823532E7,2.1103636E7,1.3998467E7,2.2611664E7,1.2881925E7,7.32376E6,2.121246E6,3.474298E6,8.77967E5,5.405104E6,2.7869E6,3.963848E6,8.87076E5,8.684914E6,4.45628E5,9.941338E6,3.19769E5,1.1538191E7,1.6336305E7,2.6688192E7,1.3995926E7,3.2008918E7],"tree_param":{"num_deleted":"0","num_feature":"7","num_nodes":"63","size_leaf_vector":"1"}},{"base_weights":[4.654663E-7,2.4246706E-2,-4.2456675E-2,-1.3288023E-2,4.9175963E-2,-1.9401968E-2,-4.7989577E-2,2.1023227E-2,-2.7126344E-2,9.549224E-2,2.5210645E-2,-1.3956236E-2,-2.6216542E-2,-3.8859352E-2,-5.0271124E-2,9.438425E-3,5.6491498E-2,-3.27925E-2,-9.774653E-3,1.2306906E-1,4.987745E-2,4.0853083E-2,9.301631E-3,-4.3817773E-3,-2.0049842E-2,-2.1824785E-2,-2.973324E-2,-3.615991E-2,-4.1946914E-2,-4.868025E-2,-5.265662E-2,2.9917923E-4,3.5175283E-3,9.89732E-3,2.4433783E-3,-3.8181304E-3,-6.0437196E-3,7.7684707E-4,-3.2796378E-3,2.3578646E-2,1.5686084E-2,9.928905E-3,3.4865697E-3,8.115159E-3,2.3739866E-3,2.516178E-3,-1.1416983E-3,1.6928368E-3,-1.1547395E-3,-2.5442862E-3,-4.2403108E-3,-2.754455E-3,-3.9779404E-3,-4.1055633E-3,-4.940129E-3,-4.10384E-3,-5.521807E-3,-4.9828216E-3,-6.334068E-3,-6.948227E-3,-7.4579366E-3,-8.289915E-3,-7.614137E-3],"categories":[],"categories_nodes":[],"categories_segments":[],"categories_sizes":[],"default_left":[0,0,0,0,0,0,0,0,0,0,0,0,0,0,0,0,0,0,0,0,0,0,0,0,0,0,0,0,0,0,0,0,0,0,0,0,0,0,0,0,0,0,0,0,0,0,0,0,0,0,0,0,0,0,0,0,0,0,0,0,0,0,0],"id":5,"left_children":[1,3,5,7,9,11,13,15,17,19,21,23,25,27,29,31,33,35,37,39,41,43,45,47,49,51,53,55,57,59,61,-1,-1,-1,-1,-1,-1,-1,-1,-1,-1,-1,-1,-1,-1,-1,-1,-1,-1,-1,-1,-1,-1,-1,-1,-1,-1,-1,-1,-1,-1,-1,-1],"loss_changes":[3.908133E5,2.2610997E5,1.7602875E4,4.579064E4,1.611749E5,9.911533E2,2.31825E3,1.1388757E4,6.7566445E3,6.2283438E4,2.3813348E4,8.661084E2,1.832207E2,1.8544531E2,3.3792188E2,2.179179E3,2.6037188E3,2.8508477E3,3.0583228E3,1.9474125E4,8.1064375E3,1.5997289E4,5.996056E3,2.999969E2,2.3023071E2,8.573486E1,4.9824707E1,6.813281E1,2.538086E1,1.3095312E2,1.7621094E2,0E0,0E0,0E0,0E0,0E0,0E0,0E0,0E0,0E0,0E0,0E0,0E0,0E0,0E0,0E0,0E0,0E0,0E0,0E0,0E0,0E0,0E0,0E0,0E0,0E0,0E0,0E0,0E0,0E0,0E0,0E0,0E0],"parents":[2147483647,0,0,1,1,2,2,3,3,4,4,5,5,6,6,7,7,8,8,9,9,10,10,11,11,12,12,13,13,14,14,15,15,16,16,17,17,18,18,19,19,20,20,21,21,22,22,23,23,24,24,25,25,26,26,27,27,28,28,29,29,30,30],"right_children":[2,4,6,8,10,12,14,16,18,20,22,24,26,28,30,32,34,36,38,40,42,44,46,48,50,52,54,56,58,60,62,-1,-1,-1,-1,-1,-1,-1,-1,-1,-1,-1,-1,-1,-1,-1,-1,-1,-1,-1,-1,-1,-1,-1,-1,-1,-1,-1,-1,-1,-1,-1,-1],"split_conditions":[2.4966099E1,6.012092E0,5.0050648E1,1.35E0,1.47E0,1.86E0,9.994115E1,4.549929E0,4.549929E0,1.09661045E1,2.09E0,3.494678E1,3.4982098E1,7.996611E1,5.0002737E2,3.027936E0,9.702957E-1,2.04E0,1.96E0,1.02E0,1.745937E1,1.1022766E1,1.2007602E1,9.7E-1,4.99713E1,2.37E0,2.37E0,9.1E-1,7.9E-1,1.4004924E2,1.62E0,2.9917923E-4,3.5175283E-3,9.89732E-3,2.4433783E-3,-3.8181304E-3,-6.0437196E-3,7.7684707E-4,-3.2796378E-3,2.3578646E-2,1.5686084E-2,9.928905E-3,3.4865697E-3,8.115159E-3,2.3739866E-3,2.516178E-3,-1.1416983E-3,1.6928368E-3,-1.1547395E-3,-2.5442862E-3,-4.2403108E-3,-2.754455E-3,-3.9779404E-3,-4.1055633E-3,-4.940129E-3,-4.10384E-3,-5.521807E-3,-4.9828216E-3,-6.334068E-3,-6.948227E-3,-7.4579366E-3,-8.289915E-3,-7.614137E-3],"split_indices":[0,0,0,6,6,6,0,0,0,0,6,0,0,0,0,0,2,6,6,6,0,0,0,6,0,6,6,6,6,0,6,0,0,0,0,0,0,0,0,0,0,0,0,0,0,0,0,0,0,0,0,0,0,0,0,0,0,0,0,0,0,0,0],"split_type":[0,0,0,0,0,0,0,0,0,0,0,0,0,0,0,0,0,0,0,0,0,0,0,0,0,0,0,0,0,0,0,0,0,0,0,0,0,0,0,0,0,0,0,0,0,0,0,0,0,0,0,0,0,0,0,0,0,0,0,0,0,0,0],"sum_hessian":[3.7964195E8,2.416446E8,1.3799736E8,9.6439896E7,1.452047E8,2.670829E7,1.1128907E8,2.7717096E7,6.87228E7,4.9513348E7,9.569136E7,1.4845115E7,1.1863175E7,2.224993E7,8.9039144E7,2.0892952E7,6.824145E6,5.180575E7,1.691705E7,3.0857916E7,1.8655432E7,4.824992E7,4.7441436E7,5.773547E6,9.071568E6,5.27527E6,6.587905E6,1.1871095E7,1.0378835E7,5.3416184E7,3.5622956E7,1.3644283E7,7.248668E6,5.520832E6,1.303313E6,2.6183362E7,2.5622388E7,7.562718E6,9.354332E6,1.0846715E7,2.00112E7,1.1568682E7,7.086749E6,3.1549136E7,1.6700785E7,3.2903308E7,1.4538128E7,1.008641E6,4.764906E6,6.594093E6,2.477475E6,3.036381E6,2.238889E6,3.790161E6,2.797744E6,8.18945E5,1.105215E7,3.22838E5,1.0055997E7,1.6337802E7,3.7078384E7,1.4989552E7,2.0633404E7],"tree_param":{"num_deleted":"0","num_feature":"7","num_nodes":"63","size_leaf_vector":"1"}},{"base_weights":[-1.6522454E-6,2.1524435E-2,-3.467795E-2,-1.0621093E-2,4.522323E-2,-1.47419E-2,-4.079126E-2,1.9676048E-2,-2.2327315E-2,8.829854E-2,2.5061943E-2,3.7434106E-4,-1.7534442E-2,-3.4090914E-2,-4.306425E-2,7.7808066E-3,4.763944E-2,-2.8107751E-2,-8.743365E-3,1.0912331E-1,4.9754966E-2,3.644078E-2,6.438458E-3,1.0280365E-2,-1.0438504E-2,-1.3032332E-2,-2.2446325E-2,-3.0731445E-2,-3.6533896E-2,-4.543226E-2,-4.1737083E-2,2.3408895E-3,-1.585057E-4,8.497307E-3,2.6484507E-3,-3.026543E-3,-5.001643E-3,8.241839E-4,-2.722229E-3,2.1429844E-2,1.4362736E-2,1.1438524E-2,5.876156E-3,7.0152413E-3,2.5989453E-3,1.8698395E-3,-7.0729625E-4,4.438324E-3,8.2164456E-4,3.1304872E-4,-2.0332562E-3,-1.1255655E-3,-2.9366063E-3,-3.0718816E-3,-4.1522635E-3,-2.8294176E-3,-4.666721E-3,-4.5116055E-3,-5.523473E-3,-6.585277E-3,-7.120766E-3,-6.0917675E-3,-6.4854687E-3],"categories":[],"categories_nodes":[],"categories_segments":[],"categories_sizes":[],"default_left":[0,0,0,0,0,0,0,0,0,0,0,0,0,0,0,0,0,0,0,0,0,0,0,0,0,0,0,0,0,0,0,0,0,0,0,0,0,0,0,0,0,0,0,0,0,0,0,0,0,0,0,0,0,0,0,0,0,0,0,0,0,0,0],"id":6,"left_children":[1,3,5,7,9,11,13,15,17,19,21,23,25,27,29,31,33,35,37,39,41,43,45,47,49,51,53,55,57,59,61,-1,-1,-1,-1,-1,-1,-1,-1,-1,-1,-1,-1,-1,-1,-1,-1,-1,-1,-1,-1,-1,-1,-1,-1,-1,-1,-1,-1,-1,-1,-1,-1],"loss_changes":[2.833742E5,1.7843797E5,1.7721016E4,3.525382E4,1.1709241E5,1.4404424E3,1.69475E3,9.21475E3,5.629785E3,3.4503562E4,1.9462594E4,5.6993506E2,6.369336E2,2.3133789E2,2.6115625E2,1.3440305E3,2.23325E3,2.0887617E3,2.865892E3,1.2591906E4,4.228082E3,1.1253961E4,2.341627E3,2.5751108E2,9.930856E1,5.437871E2,1.4185693E2,5.3529297E1,3.0478516E1,9.315234E1,8.983594E1,0E0,0E0,0E0,0E0,0E0,0E0,0E0,0E0,0E0,0E0,0E0,0E0,0E0,0E0,0E0,0E0,0E0,0E0,0E0,0E0,0E0,0E0,0E0,0E0,0E0,0E0,0E0,0E0,0E0,0E0,0E0,0E0],"parents":[2147483647,0,0,1,1,2,2,3,3,4,4,5,5,6,6,7,7,8,8,9,9,10,10,11,11,12,12,13,13,14,14,15,15,16,16,17,17,18,18,19,19,20,20,21,21,22,22,23,23,24,24,25,25,26,26,27,27,28,28,29,29,30,30],"right_children":[2,4,6,8,10,12,14,16,18,20,22,24,26,28,30,32,34,36,38,40,42,44,46,48,50,52,54,56,58,60,62,-1,-1,-1,-1,-1,-1,-1,-1,-1,-1,-1,-1,-1,-1,-1,-1,-1,-1,-1,-1,-1,-1,-1,-1,-1,-1,-1,-1,-1,-1,-1,-1],"split_conditions":[2.2450943E1,6.4443774E0,5.0050648E1,1.33E0,1.41E0,1.11E0,1.199618E2,4.506927E0,4.506927E0,1.09661045E1,2.23E0,3.494678E1,3.494678E1,7.996611E1,8.31E1,1.09E0,9.5105654E-1,1.87E0,1.87E0,9.5E-1,9.6E-1,1.09661045E1,1.09661045E1,7.9E-1,7.9E-1,1.97E0,4.99713E1,7.9E-1,2.41E1,5.0002737E2,5.0002737E2,2.3408895E-3,-1.585057E-4,8.497307E-3,2.6484507E-3,-3.026543E-3,-5.001643E-3,8.241839E-4,-2.722229E-3,2.1429844E-2,1.4362736E-2,1.1438524E-2,5.876156E-3,7.0152413E-3,2.5989453E-3,1.8698395E-3,-7.0729625E-4,4.438324E-3,8.2164456E-4,3.1304872E-4,-2.0332562E-3,-1.1255655E-3,-2.9366063E-3,-3.0718816E-3,-4.1522635E-3,-2.8294176E-3,-4.666721E-3,-4.5116055E-3,-5.523473E-3,-6.585277E-3,-7.120766E-3,-6.0917675E-3,-6.4854687E-3],"split_indices":[0,0,0,6,6,6,0,0,0,0,6,0,0,0,5,6,2,6,6,6,6,0,0,6,6,6,0,6,5,0,0,0,0,0,0,0,0,0,0,0,0,0,0,0,0,0,0,0,0,0,0,0,0,0,0,0,0,0,0,0,0,0,0],"split_type":[0,0,0,0,0,0,0,0,0,0,0,0,0,0,0,0,0,0,0,0,0,0,0,0,0,0,0,0,0,0,0,0,0,0,0,0,0,0,0,0,0,0,0,0,0,0,0,0,0,0,0,0,0,0,0,0,0,0,0,0,0,0,0],"sum_hessian":[3.7963174E8,2.3422891E8,1.4540285E8,9.94003E7,1.348286E8,3.41234E7,1.1127944E8,2.7702592E7,7.169771E7,4.298647E7,9.1842136E7,5.320909E6,2.8802492E7,2.8187712E7,8.3091736E7,1.9435148E7,8.267443E6,5.029533E7,2.1402388E7,2.7908004E7,1.5078469E7,5.700961E7,3.483253E7,2.776897E6,2.544012E6,1.5028108E7,1.3774383E7,1.1867757E7,1.6319954E7,2.9843466E7,5.3248268E7,1.0307994E7,9.127155E6,6.357232E6,1.910211E6,2.000202E7,3.0293308E7,8.513636E6,1.2888753E7,7.920747E6,1.9987256E7,4.302279E6,1.077619E7,3.7012084E7,1.999752E7,2.2613122E7,1.2219408E7,5.53132E5,2.223765E6,5.06872E5,2.03714E6,8.146665E6,6.881443E6,1.0012411E7,3.761972E6,3.68211E5,1.1499546E7,6.99797E5,1.5620157E7,1.70497E7,1.2793765E7,3.0418668E7,2.28296E7],"tree_param":{"num_deleted":"0","num_feature":"7","num_nodes":"63","size_leaf_vector":"1"}},{"base_weights":[-2.865959E-7,1.8149061E-2,-2.9724168E-2,-9.024098E-3,3.7965894E-2,-1.2855369E-2,-3.4673568E-2,1.403576E-2,-2.0258246E-2,6.861405E-2,1.7264497E-2,1.7274262E-3,-1.4851779E-2,-2.8014932E-2,-3.6336843E-2,4.8190667E-3,3.913364E-2,-2.669498E-2,-1.1820062E-2,8.477144E-2,3.5087444E-2,2.5222465E-2,2.2105018E-3,7.869625E-3,-1.1423413E-2,-1.1985472E-2,-2.105486E-2,-2.4586583E-2,-2.9262532E-2,-3.3754572E-2,-3.719724E-2,1.9730402E-3,-5.736163E-4,1.1988076E-3,6.965185E-3,-3.4580154E-3,-4.8451503E-3,-4.270761E-3,-1.0023707E-3,1.6345588E-2,1.01769045E-2,9.836554E-3,4.317547E-3,4.993017E-3,1.6135152E-3,8.292263E-4,-1.7109548E-3,3.4375843E-3,6.198409E-4,-2.0991267E-4,-2.0870722E-3,-1.2848226E-3,-2.8955953E-3,-2.8386232E-3,-3.6051024E-3,-3.4973419E-3,-4.285304E-3,-4.199349E-3,-4.616315E-3,-5.2730786E-3,-4.945615E-3,-5.9018396E-3,-5.4022176E-3],"categories":[],"categories_nodes":[],"categories_segments":[],"categories_sizes":[],"default_left":[0,0,0,0,0,0,0,0,0,0,0,0,0,0,0,0,0,0,0,0,0,0,0,0,0,0,0,0,0,0,0,0,0,0,0,0,0,0,0,0,0,0,0,0,0,0,0,0,0,0,0,0,0,0,0,0,0,0,0,0,0,0,0],"id":7,"left_children":[1,3,5,7,9,11,13,15,17,19,21,23,25,27,29,31,33,35,37,39,41,43,45,47,49,51,53,55,57,59,61,-1,-1,-1,-1,-1,-1,-1,-1,-1,-1,-1,-1,-1,-1,-1,-1,-1,-1,-1,-1,-1,-1,-1,-1,-1,-1,-1,-1,-1,-1,-1,-1],"loss_changes":[2.0480275E5,1.26927695E5,1.2016391E4,2.5751809E4,8.6481E4,9.505215E2,1.2323906E3,7.5326016E3,3.6304746E3,2.9767406E4,9.746273E3,3.1756665E2,5.1059717E2,9.512695E1,1.9782031E2,1.7157181E3,1.9886035E3,7.740781E2,2.4744446E3,1.51876875E4,3.4346953E3,6.2085273E3,1.2709951E3,1.5070975E2,3.1245743E1,4.9161377E2,5.7611084E1,3.0032959E1,3.1253906E1,2.4404297E1,1.6964844E2,0E0,0E0,0E0,0E0,0E0,0E0,0E0,0E0,0E0,0E0,0E0,0E0,0E0,0E0,0E0,0E0,0E0,0E0,0E0,0E0,0E0,0E0,0E0,0E0,0E0,0E0,0E0,0E0,0E0,0E0,0E0,0E0],"parents":[2147483647,0,0,1,1,2,2,3,3,4,4,5,5,6,6,7,7,8,8,9,9,10,10,11,11,12,12,13,13,14,14,15,15,16,16,17,17,18,18,19,19,20,20,21,21,22,22,23,23,24,24,25,25,26,26,27,27,28,28,29,29,30,30],"right_children":[2,4,6,8,10,12,14,16,18,20,22,24,26,28,30,32,34,36,38,40,42,44,46,48,50,52,54,56,58,60,62,-1,-1,-1,-1,-1,-1,-1,-1,-1,-1,-1,-1,-1,-1,-1,-1,-1,-1,-1,-1,-1,-1,-1,-1,-1,-1,-1,-1,-1,-1,-1,-1],"split_conditions":[2.2479414E1,6.4443774E0,5.0050648E1,1.43E0,1.59E0,1.03E0,9.994115E1,4.549929E0,3.5472162E0,1.1022766E1,2.34E0,3.995974E1,2.2E0,6.995548E1,1.7995366E2,1.13E0,3.09017E-1,2.22E0,3.7460658E-1,1.12E0,9.1E-1,1.09661045E1,1.3987511E1,7.5E-1,7.5E-1,3.995974E1,2.54E0,2.26E0,8.001333E1,8.31E1,8.23E1,1.9730402E-3,-5.736163E-4,1.1988076E-3,6.965185E-3,-3.4580154E-3,-4.8451503E-3,-4.270761E-3,-1.0023707E-3,1.6345588E-2,1.01769045E-2,9.836554E-3,4.317547E-3,4.993017E-3,1.6135152E-3,8.292263E-4,-1.7109548E-3,3.4375843E-3,6.198409E-4,-2.0991267E-4,-2.0870722E-3,-1.2848226E-3,-2.8955953E-3,-2.8386232E-3,-3.6051024E-3,-3.4973419E-3,-4.285304E-3,-4.199349E-3,-4.616315E-3,-5.2730786E-3,-4.945615E-3,-5.9018396E-3,-5.4022176E-3],"split_indices":[0,0,0,6,6,6,0,0,0,0,6,0,6,0,0,6,3,6,3,6,6,0,0,6,6,0,6,6,0,5,5,0,0,0,0,0,0,0,0,0,0,0,0,0,0,0,0,0,0,0,0,0,0,0,0,0,0,0,0,0,0,0,0],"split_type":[0,0,0,0,0,0,0,0,0,0,0,0,0,0,0,0,0,0,0,0,0,0,0,0,0,0,0,0,0,0,0,0,0,0,0,0,0,0,0,0,0,0,0,0,0,0,0,0,0,0,0,0,0,0,0,0,0,0,0,0,0,0,0],"sum_hessian":[3.7963763E8,2.357122E8,1.4392544E8,9.940562E7,1.3630658E8,3.2649098E7,1.11276344E8,3.2563632E7,6.6841984E7,5.4951532E7,8.135504E7,3.931491E6,2.8717608E7,2.224048E7,8.903586E7,2.3817232E7,8.746401E6,3.7917852E7,2.8924132E7,3.7081124E7,1.787041E7,5.322094E7,2.8134104E7,2.679848E6,1.251643E6,1.9641644E7,9.075964E6,5.934037E6,1.6306444E7,2.225202E7,6.678384E7,1.2125105E7,1.1692127E7,1.6611E6,7.085301E6,2.298641E7,1.4931443E7,6.819888E6,2.2104244E7,1.5261271E7,2.1819852E7,3.061729E6,1.4808681E7,3.4171228E7,1.9049712E7,2.2622308E7,5.511797E6,5.33167E5,2.146681E6,2.49081E5,1.002562E6,1.338618E7,6.255463E6,5.29148E6,3.784484E6,4.498315E6,1.435722E6,8.874853E6,7.431591E6,7.989256E6,1.4262763E7,2.3708624E7,4.3075216E7],"tree_param":{"num_deleted":"0","num_feature":"7","num_nodes":"63","size_leaf_vector":"1"}},{"base_weights":[1.8252847E-6,1.5855635E-2,-2.470608E-2,-6.5029846E-3,3.455785E-2,-9.126029E-3,-2.9099679E-2,1.9198624E-2,-1.2117216E-2,1.5343624E-2,5.2319024E-2,-1.2651636E-2,-6.5880234E-4,-2.3148552E-2,-3.088458E-2,1.0364254E-2,4.726737E-2,-1.6734859E-2,2.551361E-3,2.8778644E-2,6.999501E-3,6.5541655E-2,3.0336194E-2,-9.392435E-3,-1.6993428E-2,8.816995E-3,-4.2239004E-3,-2.0436548E-2,-2.487686E-2,-2.9534891E-2,-3.2146785E-2,3.5891682E-4,3.2934647E-3,8.174368E-3,1.1096626E-3,-2.8683327E-3,4.157615E-4,-4.198674E-4,4.8284642E-3,5.476467E-3,2.1824276E-3,1.795184E-3,-3.218568E-4,1.3868389E-2,8.081019E-3,8.622911E-3,3.8755424E-3,-1.0778988E-3,-1.9883262E-3,-3.0608058E-3,-2.122957E-3,2.522556E-3,1.2274258E-4,-4.1435196E-5,-1.4894559E-3,-1.8684384E-3,-3.1453012E-3,-2.882157E-3,-3.7802937E-3,-4.667813E-3,-4.3263608E-3,-5.1701516E-3,-4.683227E-3],"categories":[],"categories_nodes":[],"categories_segments":[],"categories_sizes":[],"default_left":[0,0,0,0,0,0,0,0,0,0,0,0,0,0,0,0,0,0,0,0,0,0,0,0,0,0,0,0,0,0,0,0,0,0,0,0,0,0,0,0,0,0,0,0,0,0,0,0,0,0,0,0,0,0,0,0,0,0,0,0,0,0,0],"id":8,"left_children":[1,3,5,7,9,11,13,15,17,19,21,23,25,27,29,31,33,35,37,39,41,43,45,47,49,51,53,55,57,59,61,-1,-1,-1,-1,-1,-1,-1,-1,-1,-1,-1,-1,-1,-1,-1,-1,-1,-1,-1,-1,-1,-1,-1,-1,-1,-1,-1,-1,-1,-1,-1,-1],"loss_changes":[1.4870686E5,9.669836E4,1.01570625E4,1.5198369E4,4.297272E4,9.74354E2,1.2294297E3,4.6824287E3,5.855324E3,6.7807236E3,1.9019953E4,3.2609277E2,3.2414633E2,1.2516797E2,1.5167969E2,1.3271997E3,1.3027773E3,3.0618398E3,3.2821853E3,2.5492852E3,1.695369E3,1.283125E4,3.0020898E3,1.12197876E2,9.575903E1,1.6785352E2,1.5704333E2,4.413965E1,3.0024414E1,4.7195312E1,9.880078E1,0E0,0E0,0E0,0E0,0E0,0E0,0E0,0E0,0E0,0E0,0E0,0E0,0E0,0E0,0E0,0E0,0E0,0E0,0E0,0E0,0E0,0E0,0E0,0E0,0E0,0E0,0E0,0E0,0E0,0E0,0E0,0E0],"parents":[2147483647,0,0,1,1,2,2,3,3,4,4,5,5,6,6,7,7,8,8,9,9,10,10,11,11,12,12,13,13,14,14,15,15,16,16,17,17,18,18,19,19,20,20,21,21,22,22,23,23,24,24,25,25,26,26,27,27,28,28,29,29,30,30],"right_children":[2,4,6,8,10,12,14,16,18,20,22,24,26,28,30,32,34,36,38,40,42,44,46,48,50,52,54,56,58,60,62,-1,-1,-1,-1,-1,-1,-1,-1,-1,-1,-1,-1,-1,-1,-1,-1,-1,-1,-1,-1,-1,-1,-1,-1,-1,-1,-1,-1,-1,-1,-1,-1],"split_conditions":[2.0005419E1,6.5069404E0,4.99713E1,4.57E1,-1.51E1,-9.2E0,9.994115E1,5.0299797E0,5.0299797E0,1.186E2,1.0028649E1,1.349E2,3.68E1,6.995548E1,3.5002988E2,3.027936E0,9.848077E-1,-5.2E0,-6.6E0,1.09661045E1,1.09661045E1,4.29E1,2.79E1,3.494678E1,-2.49E1,2.9973207E1,3.0020872E1,2.65E1,2.55E1,7.18E1,6.8E1,3.5891682E-4,3.2934647E-3,8.174368E-3,1.1096626E-3,-2.8683327E-3,4.157615E-4,-4.198674E-4,4.8284642E-3,5.476467E-3,2.1824276E-3,1.795184E-3,-3.218568E-4,1.3868389E-2,8.081019E-3,8.622911E-3,3.8755424E-3,-1.0778988E-3,-1.9883262E-3,-3.0608058E-3,-2.122957E-3,2.522556E-3,1.2274258E-4,-4.1435196E-5,-1.4894559E-3,-1.8684384E-3,-3.1453012E-3,-2.882157E-3,-3.7802937E-3,-4.667813E-3,-4.3263608E-3,-5.1701516E-3,-4.683227E-3],"split_indices":[0,0,0,5,4,4,0,0,0,5,0,5,5,0,0,0,2,4,4,0,0,5,5,0,4,0,0,5,5,5,5,0,0,0,0,0,0,0,0,0,0,0,0,0,0,0,0,0,0,0,0,0,0,0,0,0,0,0,0,0,0,0,0],"split_type":[0,0,0,0,0,0,0,0,0,0,0,0,0,0,0,0,0,0,0,0,0,0,0,0,0,0,0,0,0,0,0,0,0,0,0,0,0,0,0,0,0,0,0,0,0,0,0,0,0,0,0,0,0,0,0,0,0,0,0,0,0,0,0],"sum_hessian":[3.796308E8,2.3124963E8,1.4838115E8,1.05328616E8,1.2592102E8,3.2639362E7,1.1574179E8,1.8883072E7,8.6445544E7,6.0486304E7,6.543472E7,2.3044168E7,9.595195E6,2.6704648E7,8.9037144E7,1.4362586E7,4.520485E6,6.574814E7,2.0697402E7,2.3173782E7,3.731252E7,4.085845E7,2.4576276E7,1.3163145E7,9.881022E6,2.623118E6,6.972077E6,1.0394282E7,1.6310365E7,4.3027404E7,4.600974E7,8.510356E6,5.85223E6,3.826699E6,6.93786E5,5.857884E7,7.169299E6,1.7532368E7,3.165033E6,1.5015425E7,8.158357E6,2.4177448E7,1.3135073E7,1.2356503E7,2.8501944E7,3.493767E6,2.1082508E7,8.377966E6,4.785179E6,4.488867E6,5.392155E6,1.311449E6,1.311669E6,4.120934E6,2.851143E6,6.49766E5,9.744516E6,8.85582E5,1.5424783E7,1.3089362E7,2.9938044E7,1.3114416E7,3.2895324E7],"tree_param":{"num_deleted":"0","num_feature":"7","num_nodes":"63","size_leaf_vector":"1"}},{"base_weights":[1.8435384E-6,1.7145548E-2,-6.1271694E-3,3.1734753E-2,1.338341E-2,5.6233467E-4,-1.078285E-2,4.3820594E-2,2.8029835E-2,1.7244497E-2,9.751484E-3,2.5970358E-3,-2.6949279E-3,-8.133234E-3,-1.6520971E-2,4.772897E-2,3.9694265E-2,3.1656727E-2,2.5124053E-2,1.334056E-2,1.9450963E-2,1.1607748E-2,7.3187104E-3,4.5427666E-3,6.508187E-4,-1.1173304E-3,-6.507613E-3,-6.6275704E-3,-9.639459E-3,-1.4446749E-2,-1.9674025E-2,7.582069E-3,6.6597313E-3,6.370946E-3,5.5369874E-3,4.09966E-3,5.02402E-3,2.966915E-3,3.986691E-3,2.1080468E-3,5.472996E-4,3.2247372E-3,2.4597188E-3,2.0133764E-3,1.4691236E-3,1.747808E-3,8.116898E-4,8.343607E-4,2.5183032E-4,9.655994E-4,1.0289424E-5,1.02169404E-4,-4.3728767E-4,-7.04049E-4,-1.2483262E-3,-8.1502297E-4,-1.2922498E-3,-1.2756768E-3,-1.729287E-3,-1.9764577E-3,-2.3575812E-3,-2.7855118E-3,-3.1784044E-3],"categories":[],"categories_nodes":[],"categories_segments":[],"categories_sizes":[],"default_left":[0,0,0,0,0,0,0,0,0,0,0,0,0,0,0,0,0,0,0,0,0,0,0,0,0,0,0,0,0,0,0,0,0,0,0,0,0,0,0,0,0,0,0,0,0,0,0,0,0,0,0,0,0,0,0,0,0,0,0,0,0,0,0],"id":9,"left_children":[1,3,5,7,9,11,13,15,17,19,21,23,25,27,29,31,33,35,37,39,41,43,45,47,49,51,53,55,57,59,61,-1,-1,-1,-1,-1,-1,-1,-1,-1,-1,-1,-1,-1,-1,-1,-1,-1,-1,-1,-1,-1,-1,-1,-1,-1,-1,-1,-1,-1,-1,-1,-1],"loss_changes":[3.9891145E4,5.487707E3,8.709954E3,9.177988E2,1.1146416E3,7.6061316E2,2.5071133E3,7.7555664E1,1.6533203E2,3.318711E2,1.849624E2,2.67498E2,2.6541254E2,2.5583691E2,3.406797E2,2.3180664E1,1.8075684E1,5.5441406E1,6.76792E1,9.614917E1,1.5384473E2,7.646118E1,1.4651984E2,1.0315112E2,1.1897833E2,1.00921776E2,4.2508484E1,1.3388257E2,1.209126E2,5.0710938E1,3.457666E1,0E0,0E0,0E0,0E0,0E0,0E0,0E0,0E0,0E0,0E0,0E0,0E0,0E0,0E0,0E0,0E0,0E0,0E0,0E0,0E0,0E0,0E0,0E0,0E0,0E0,0E0,0E0,0E0,0E0,0E0,0E0,0E0],"parents":[2147483647,0,0,1,1,2,2,3,3,4,4,5,5,6,6,7,7,8,8,9,9,10,10,11,11,12,12,13,13,14,14,15,15,16,16,17,17,18,18,19,19,20,20,21,21,22,22,23,23,24,24,25,25,26,26,27,27,28,28,29,29,30,30],"right_children":[2,4,6,8,10,12,14,16,18,20,22,24,26,28,30,32,34,36,38,40,42,44,46,48,50,52,54,56,58,60,62,-1,-1,-1,-1,-1,-1,-1,-1,-1,-1,-1,-1,-1,-1,-1,-1,-1,-1,-1,-1,-1,-1,-1,-1,-1,-1,-1,-1,-1,-1,-1,-1],"split_conditions":[1.3E0,8.6E-1,1.87E0,6.9E-1,1.1E0,1.66E0,2.49E0,6.1E-1,7.9E-1,-7.7E0,1.21E0,7.431448E-1,1.328E2,7.431448E-1,2.73E0,7.880108E-1,7.431448E-1,-5.2E0,-6E0,3.42E1,9.9E-1,7.431448E-1,3.62E1,1.148E2,4.47E1,7.431448E-1,7.431448E-1,1.49E2,1.49E2,7.431448E-1,2.87E0,7.582069E-3,6.6597313E-3,6.370946E-3,5.5369874E-3,4.09966E-3,5.02402E-3,2.966915E-3,3.986691E-3,2.1080468E-3,5.472996E-4,3.2247372E-3,2.4597188E-3,2.0133764E-3,1.4691236E-3,1.747808E-3,8.116898E-4,8.343607E-4,2.5183032E-4,9.655994E-4,1.0289424E-5,1.02169404E-4,-4.3728767E-4,-7.04049E-4,-1.2483262E-3,-8.1502297E-4,-1.2922498E-3,-1.2756768E-3,-1.729287E-3,-1.9764577E-3,-2.3575812E-3,-2.7855118E-3,-3.1784044E-3],"split_indices":[6,6,6,6,6,6,6,6,6,4,6,2,5,2,6,2,2,4,4,5,6,2,5,5,5,2,2,5,5,2,6,0,0,0,0,0,0,0,0,0,0,0,0,0,0,0,0,0,0,0,0,0,0,0,0,0,0,0,0,0,0,0,0],"split_type":[0,0,0,0,0,0,0,0,0,0,0,0,0,0,0,0,0,0,0,0,0,0,0,0,0,0,0,0,0,0,0,0,0,0,0,0,0,0,0,0,0,0,0,0,0,0,0,0,0,0,0,0,0,0,0,0,0,0,0,0,0,0,0],"sum_hessian":[3.7964813E8,9.9982664E7,2.7966547E8,2.0497064E7,7.94856E7,1.1476526E8,1.6490021E8,4.809135E6,1.5687928E7,3.852733E7,4.095827E7,7.06393E7,4.4125964E7,1.1280963E8,5.2090584E7,2.469788E6,2.339347E6,6.978104E6,8.709824E6,1.3912219E7,2.4615112E7,2.3231828E7,1.7726448E7,3.532406E7,3.5315236E7,3.1211428E7,1.2914537E7,5.6415316E7,5.639432E7,3.142065E7,2.0669932E7,1.337835E6,1.131953E6,1.170153E6,1.169194E6,2.079868E6,4.898236E6,1.862634E6,6.84719E6,1.2958773E7,9.53446E5,1.4734143E7,9.880968E6,1.1612169E7,1.1619658E7,5.417941E6,1.2308506E7,2.6049584E7,9.274476E6,3.228479E6,3.2086756E7,1.5603375E7,1.5608053E7,6.458351E6,6.456186E6,3.5241536E7,2.117378E7,3.5229264E7,2.1165052E7,1.57109E7,1.570975E7,1.1958208E7,8.711724E6],"tree_param":{"num_deleted":"0","num_feature":"7","num_nodes":"63","size_leaf_vector":"1"}},{"base_weights":[2.9370827E-7,1.4575682E-2,-5.210163E-3,2.69743E-2,1.1378439E-2,-1.0197234E-4,-9.6425265E-3,3.550264E-2,2.3053106E-2,1.3840631E-2,7.248739E-3,1.948763E-3,-3.320141E-3,-7.453365E-3,-1.4457584E-2,4.0494982E-2,3.2408826E-2,2.5145262E-2,2.0578597E-2,1.0446167E-2,1.5667437E-2,1.045882E-2,5.962591E-3,3.480625E-3,1.3816457E-4,-1.8915544E-3,-7.304082E-3,-6.445597E-3,-9.058629E-3,-1.2804116E-2,-1.6986918E-2,6.4587686E-3,5.6897528E-3,5.200238E-3,4.461085E-3,2.9806595E-3,3.92306E-3,2.3314105E-3,3.2311878E-3,1.6962874E-3,2.1139471E-4,2.7130442E-3,2.0267249E-3,1.7675908E-3,1.370065E-3,4.8546554E-4,1.1454904E-3,1.3210849E-3,4.5137835E-4,1.6794045E-4,-4.3242614E-4,-8.241724E-5,-5.2175723E-4,-8.5828704E-4,-1.3488939E-3,-8.8189676E-4,-1.5377987E-3,-1.1543075E-3,-1.5048565E-3,-1.7276913E-3,-2.0584275E-3,-2.3742535E-3,-2.7218373E-3],"categories":[],"categories_nodes":[],"categories_segments":[],"categories_sizes":[],"default_left":[0,0,0,0,0,0,0,0,0,0,0,0,0,0,0,0,0,0,0,0,0,0,0,0,0,0,0,0,0,0,0,0,0,0,0,0,0,0,0,0,0,0,0,0,0,0,0,0,0,0,0,0,0,0,0,0,0,0,0,0,0,0,0],"id":10,"left_children":[1,3,5,7,9,11,13,15,17,19,21,23,25,27,29,31,33,35,37,39,41,43,45,47,49,51,53,55,57,59,61,-1,-1,-1,-1,-1,-1,-1,-1,-1,-1,-1,-1,-1,-1,-1,-1,-1,-1,-1,-1,-1,-1,-1,-1,-1,-1,-1,-1,-1,-1,-1,-1],"loss_changes":[2.8831201E4,3.9631152E3,6.3319097E3,6.853877E2,8.081504E2,8.574573E2,1.5783574E3,9.97041E1,7.268555E1,3.087627E2,1.2256641E2,2.2010223E2,2.8780798E2,1.6652295E2,1.9572461E2,1.622754E1,2.4026367E1,4.046338E1,3.118164E1,1.3577234E2,1.6885742E2,1.49104E1,9.672534E1,1.0794733E2,1.0783271E2,7.927069E1,3.5657776E1,1.3630713E2,5.2698975E1,3.344043E1,2.4833984E1,0E0,0E0,0E0,0E0,0E0,0E0,0E0,0E0,0E0,0E0,0E0,0E0,0E0,0E0,0E0,0E0,0E0,0E0,0E0,0E0,0E0,0E0,0E0,0E0,0E0,0E0,0E0,0E0,0E0,0E0,0E0,0E0],"parents":[2147483647,0,0,1,1,2,2,3,3,4,4,5,5,6,6,7,7,8,8,9,9,10,10,11,11,12,12,13,13,14,14,15,15,16,16,17,17,18,18,19,19,20,20,21,21,22,22,23,23,24,24,25,25,26,26,27,27,28,28,29,29,30,30],"right_children":[2,4,6,8,10,12,14,16,18,20,22,24,26,28,30,32,34,36,38,40,42,44,46,48,50,52,54,56,58,60,62,-1,-1,-1,-1,-1,-1,-1,-1,-1,-1,-1,-1,-1,-1,-1,-1,-1,-1,-1,-1,-1,-1,-1,-1,-1,-1,-1,-1,-1,-1,-1,-1],"split_conditions":[1.3E0,8.6E-1,1.95E0,7.2E-1,1.16E0,1.71E0,2.52E0,6.1E-1,7.880108E-1,-8.2E0,3.48E1,7.880108E-1,-1.13E1,2.3E0,2.76E0,7.431448E-1,7.880108E-1,-6.6E0,-6.6E0,3.94E1,9.9E-1,7.431448E-1,-8E0,4.47E1,1.193E2,7.880108E-1,1.81E0,-1.33E1,6.4278764E-1,6.4278764E-1,7.431448E-1,6.4587686E-3,5.6897528E-3,5.200238E-3,4.461085E-3,2.9806595E-3,3.92306E-3,2.3314105E-3,3.2311878E-3,1.6962874E-3,2.1139471E-4,2.7130442E-3,2.0267249E-3,1.7675908E-3,1.370065E-3,4.8546554E-4,1.1454904E-3,1.3210849E-3,4.5137835E-4,1.6794045E-4,-4.3242614E-4,-8.241724E-5,-5.2175723E-4,-8.5828704E-4,-1.3488939E-3,-8.8189676E-4,-1.5377987E-3,-1.1543075E-3,-1.5048565E-3,-1.7276913E-3,-2.0584275E-3,-2.3742535E-3,-2.7218373E-3],"split_indices":[6,6,6,6,6,6,6,6,2,4,5,2,4,6,6,2,2,4,4,5,6,2,4,5,5,2,6,4,2,2,2,0,0,0,0,0,0,0,0,0,0,0,0,0,0,0,0,0,0,0,0,0,0,0,0,0,0,0,0,0,0,0,0],"split_type":[0,0,0,0,0,0,0,0,0,0,0,0,0,0,0,0,0,0,0,0,0,0,0,0,0,0,0,0,0,0,0,0,0,0,0,0,0,0,0,0,0,0,0,0,0,0,0,0,0,0,0,0,0,0,0,0,0,0,0,0,0,0,0],"sum_hessian":[3.796355E8,9.997421E7,2.7966128E8,2.0495298E7,7.947891E7,1.2992541E8,1.4973586E8,6.455344E6,1.4039954E7,4.9792084E7,2.9686826E7,7.935652E7,5.056889E7,1.0293608E8,4.679978E7,2.469848E6,3.985496E6,7.607735E6,6.432219E6,1.7421144E7,3.237094E7,8.491926E6,2.11949E7,4.298713E7,3.6369388E7,3.7221696E7,1.3347189E7,6.323673E7,3.969935E7,2.8299756E7,1.8500024E7,1.234874E6,1.234974E6,2.158074E6,1.827422E6,1.221168E6,6.386567E6,1.032259E6,5.39996E6,1.5903432E7,1.517713E6,1.5253049E7,1.7117892E7,4.245854E6,4.246072E6,8.06345E6,1.313145E7,3.495261E6,3.9491868E7,2.7451258E7,8.918129E6,2.016584E7,1.705586E7,6.890645E6,6.456544E6,5.5047228E7,8.189501E6,1.6541413E7,2.315794E7,1.1791847E7,1.6507908E7,9.250429E6,9.249596E6],"tree_param":{"num_deleted":"0","num_feature":"7","num_nodes":"63","size_leaf_vector":"1"}},{"base_weights":[-9.780973E-7,1.7826973E-2,-3.583879E-2,-3.088488E-2,8.177744E-2,-4.987355E-2,-1.6836882E-2,-3.703443E-2,-3.8910876E-3,1.3537972E-1,-3.1794444E-2,-2.6605153E-2,-6.872322E-2,-9.220286E-3,-1.9858532E-2,-5.1901486E-2,-1.6725304E-2,1.8480727E-2,-1.2154678E-2,1.8357374E-1,1.5399474E-2,3.2404326E-2,-5.8053453E-2,-1.7526818E-2,-3.5282645E-2,-8.68683E-2,-5.9335046E-2,7.4437715E-4,-1.82641E-2,-3.6439463E-2,-1.6169745E-2,-4.299859E-3,-1.0487161E-2,-4.063744E-3,-2.2898966E-3,4.427721E-3,-4.9486523E-3,-2.8898201E-3,9.332107E-5,1.1777083E-2,3.484496E-2,8.851832E-3,-2.1854676E-4,6.393012E-3,1.0006041E-3,-1.08152805E-2,-4.631483E-3,-2.1103108E-3,-4.6284474E-3,-8.051651E-3,-4.1795573E-3,-8.943471E-3,-1.4679958E-2,-9.834987E-3,-7.243606E-3,1.8778717E-3,-1.0912358E-3,-3.6411837E-3,-2.3176936E-3,-6.193979E-3,-4.637173E-3,-3.2490774E-3,-2.3089838E-3],"categories":[],"categories_nodes":[],"categories_segments":[],"categories_sizes":[],"default_left":[0,0,0,0,0,0,0,0,0,0,0,0,0,0,0,0,0,0,0,0,0,0,0,0,0,0,0,0,0,0,0,0,0,0,0,0,0,0,0,0,0,0,0,0,0,0,0,0,0,0,0,0,0,0,0,0,0,0,0,0,0,0,0],"id":11,"left_children":[1,3,5,7,9,11,13,15,17,19,21,23,25,27,29,31,33,35,37,39,41,43,45,47,49,51,53,55,57,59,61,-1,-1,-1,-1,-1,-1,-1,-1,-1,-1,-1,-1,-1,-1,-1,-1,-1,-1,-1,-1,-1,-1,-1,-1,-1,-1,-1,-1,-1,-1,-1,-1],"loss_changes":[2.425637E5,7.8977875E5,3.363483E4,2.3889094E4,6.6732456E5,3.1816922E4,1.2331084E3,3.5389625E4,4.9363867E3,4.306135E5,5.9251906E4,2.5575469E3,6.8269375E3,1.3714636E3,2.3462734E3,2.832325E4,7.494004E2,4.0918586E3,1.7715659E3,2.7197712E5,1.5689094E4,2.6822627E3,9.52368E3,7.313506E2,2.2653223E3,4.0946328E3,1.8176875E3,6.8369476E2,1.34875E2,1.8720801E2,1.3379297E2,0E0,0E0,0E0,0E0,0E0,0E0,0E0,0E0,0E0,0E0,0E0,0E0,0E0,0E0,0E0,0E0,0E0,0E0,0E0,0E0,0E0,0E0,0E0,0E0,0E0,0E0,0E0,0E0,0E0,0E0,0E0,0E0],"parents":[2147483647,0,0,1,1,2,2,3,3,4,4,5,5,6,6,7,7,8,8,9,9,10,10,11,11,12,12,13,13,14,14,15,15,16,16,17,17,18,18,19,19,20,20,21,21,22,22,23,23,24,24,25,25,26,26,27,27,28,28,29,29,30,30],"right_children":[2,4,6,8,10,12,14,16,18,20,22,24,26,28,30,32,34,36,38,40,42,44,46,48,50,52,54,56,58,60,62,-1,-1,-1,-1,-1,-1,-1,-1,-1,-1,-1,-1,-1,-1,-1,-1,-1,-1,-1,-1,-1,-1,-1,-1,-1,-1,-1,-1,-1,-1,-1,-1],"split_conditions":[1.0046666E1,-8.037731E0,2.2479414E1,-1.2959122E1,1.9968355E1,5.952884E0,2.9941477E1,2.4966099E1,1.31E0,6.9695125E0,4.99713E1,2.4980059E1,1.47E0,1.0002778E2,5E1,5.952884E0,3.998777E1,6.995548E1,1.1E1,-4.9627934E0,1.33E0,3.494678E1,4.5E0,4.506927E0,1.35E0,1.79502E1,1.09661045E1,1.6E1,1.41E0,3.494678E1,7.999656E1,-4.299859E-3,-1.0487161E-2,-4.063744E-3,-2.2898966E-3,4.427721E-3,-4.9486523E-3,-2.8898201E-3,9.332107E-5,1.1777083E-2,3.484496E-2,8.851832E-3,-2.1854676E-4,6.393012E-3,1.0006041E-3,-1.08152805E-2,-4.631483E-3,-2.1103108E-3,-4.6284474E-3,-8.051651E-3,-4.1795573E-3,-8.943471E-3,-1.4679958E-2,-9.834987E-3,-7.243606E-3,1.8778717E-3,-1.0912358E-3,-3.6411837E-3,-2.3176936E-3,-6.193979E-3,-4.637173E-3,-3.2490774E-3,-2.3089838E-3],"split_indices":[1,1,0,1,0,0,1,0,6,1,0,1,6,0,0,0,0,0,0,1,6,0,1,0,6,1,0,1,6,0,0,0,0,0,0,0,0,0,0,0,0,0,0,0,0,0,0,0,0,0,0,0,0,0,0,0,0,0,0,0,0,0,0],"split_type":[0,0,0,0,0,0,0,0,0,0,0,0,0,0,0,0,0,0,0,0,0,0,0,0,0,0,0,0,0,0,0,0,0,0,0,0,0,0,0,0,0,0,0,0,0,0,0,0,0,0,0,0,0,0,0,0,0,0,0,0,0,0,0],"sum_hessian":[3.7964957E8,2.5352867E8,1.2612089E8,1.4391038E8,1.09618296E8,7.254174E7,5.3579144E7,1.17208664E8,2.670172E7,7.447058E7,3.514772E7,3.2465592E7,4.0076156E7,1.5218435E7,3.8360708E7,6.767095E7,4.953771E7,7.202518E6,1.94992E7,5.31294E7,2.1341176E7,1.0203041E7,2.494468E7,1.586634E7,1.6599252E7,1.3664987E7,2.6411168E7,7.240596E6,7.977839E6,6.981075E6,3.1379632E7,2.9551284E7,3.8119668E7,6.113125E6,4.3424584E7,5.93075E6,1.271768E6,1.2527286E7,6.971915E6,1.6833684E7,3.6295716E7,5.949087E6,1.5392088E7,7.303638E6,2.899403E6,1.6444243E7,8.500438E6,1.2598026E7,3.268314E6,4.770625E6,1.1828627E7,3.929811E6,9.735176E6,1.6884472E7,9.526697E6,2.933426E6,4.30717E6,2.54329E6,5.434549E6,3.716287E6,3.264788E6,3.887952E6,2.749168E7],"tree_param":{"num_deleted":"0","num_feature":"7","num_nodes":"63","size_leaf_vector":"1"}},{"base_weights":[1.1643353E-6,1.5155105E-2,-3.0462481E-2,-2.6764348E-2,6.8905465E-2,-3.8071E-2,-2.6901934E-2,-3.147904E-2,-4.865055E-3,9.5444664E-2,1.9040141E-2,-1.9266685E-2,-4.2097744E-2,-2.0725721E-2,-2.8225387E-2,-3.877819E-2,-2.7923476E-2,1.2677766E-2,-1.1938776E-2,3.2470535E-2,1.2332822E-1,4.1460034E-2,-3.377734E-3,-8.678154E-3,-2.6318507E-2,-3.61446E-2,-4.5202754E-2,-1.7128497E-2,-2.3119787E-2,-3.155931E-2,-2.46074E-2,-6.493107E-3,-2.9289816E-3,-4.593286E-3,-3.7594151E-3,4.9316057E-4,6.476179E-3,-2.3961342E-3,1.7245245E-4,1.0525625E-2,1.6972533E-3,2.6779158E-2,1.2494111E-2,1.2961616E-2,3.397796E-3,2.764366E-3,-1.5225484E-3,-2.4516487E-3,1.0025242E-3,-4.8250942E-3,-3.2481689E-3,-6.024276E-3,-5.1580877E-3,-7.689442E-3,-6.2328517E-3,-3.8006085E-3,-1.03414335E-4,-4.2263707E-3,-2.8635468E-3,-4.362287E-3,-4.927747E-3,-3.9630337E-3,-3.5325666E-3],"categories":[],"categories_nodes":[],"categories_segments":[],"categories_sizes":[],"default_left":[0,0,0,0,0,0,0,0,0,0,0,0,0,0,0,0,0,0,0,0,0,0,0,0,0,0,0,0,0,0,0,0,0,0,0,0,0,0,0,0,0,0,0,0,0,0,0,0,0,0,0,0,0,0,0,0,0,0,0,0,0,0,0],"id":12,"left_children":[1,3,5,7,9,11,13,15,17,19,21,23,25,27,29,31,33,35,37,39,41,43,45,47,49,51,53,55,57,59,61,-1,-1,-1,-1,-1,-1,-1,-1,-1,-1,-1,-1,-1,-1,-1,-1,-1,-1,-1,-1,-1,-1,-1,-1,-1,-1,-1,-1,-1,-1,-1,-1],"loss_changes":[1.7526092E5,5.712474E5,3.4165547E3,1.4706758E4,1.470125E5,3.0442617E3,7.0223047E2,3.0418281E3,3.1312966E3,1.2730856E5,1.9393883E4,5.2946313E2,6.1208594E2,1.3056348E2,8.5341016E2,3.3327969E3,6.0840234E2,2.076435E3,9.497947E2,1.774607E4,1.1104869E5,1.6310523E4,2.849533E3,3.3381787E2,1.1610596E2,8.013086E1,4.814297E2,8.175193E2,1.8544824E2,1.1788672E2,6.501172E1,0E0,0E0,0E0,0E0,0E0,0E0,0E0,0E0,0E0,0E0,0E0,0E0,0E0,0E0,0E0,0E0,0E0,0E0,0E0,0E0,0E0,0E0,0E0,0E0,0E0,0E0,0E0,0E0,0E0,0E0,0E0,0E0],"parents":[2147483647,0,0,1,1,2,2,3,3,4,4,5,5,6,6,7,7,8,8,9,9,10,10,11,11,12,12,13,13,14,14,15,15,16,16,17,17,18,18,19,19,20,20,21,21,22,22,23,23,24,24,25,25,26,26,27,27,28,28,29,29,30,30],"right_children":[2,4,6,8,10,12,14,16,18,20,22,24,26,28,30,32,34,36,38,40,42,44,46,48,50,52,54,56,58,60,62,-1,-1,-1,-1,-1,-1,-1,-1,-1,-1,-1,-1,-1,-1,-1,-1,-1,-1,-1,-1,-1,-1,-1,-1,-1,-1,-1,-1,-1,-1,-1,-1],"split_conditions":[1.0046666E1,-8.487558E0,1.41E0,-1.2959122E1,5.5171623E0,1.5050434E1,1.5050434E1,1.43E0,1.35E0,-5.507569E0,8.004204E0,1.2553925E1,3.004341E1,1.2553925E1,2.09E0,-1.7959108E1,2.1E0,-9.461852E0,-9.461852E0,1.5E0,1.61E0,1.36E0,1.25E0,1.2444074E1,1.4952526E1,9.7E-1,1.02E0,1.2444074E1,1.4952526E1,3.004341E1,2.34E0,-6.493107E-3,-2.9289816E-3,-4.593286E-3,-3.7594151E-3,4.9316057E-4,6.476179E-3,-2.3961342E-3,1.7245245E-4,1.0525625E-2,1.6972533E-3,2.6779158E-2,1.2494111E-2,1.2961616E-2,3.397796E-3,2.764366E-3,-1.5225484E-3,-2.4516487E-3,1.0025242E-3,-4.8250942E-3,-3.2481689E-3,-6.024276E-3,-5.1580877E-3,-7.689442E-3,-6.2328517E-3,-3.8006085E-3,-1.03414335E-4,-4.2263707E-3,-2.8635468E-3,-4.362287E-3,-4.927747E-3,-3.9630337E-3,-3.5325666E-3],"split_indices":[1,1,6,1,1,1,1,6,6,1,1,1,1,1,6,1,6,1,1,6,6,6,6,1,1,6,6,1,1,1,6,0,0,0,0,0,0,0,0,0,0,0,0,0,0,0,0,0,0,0,0,0,0,0,0,0,0,0,0,0,0,0,0],"split_type":[0,0,0,0,0,0,0,0,0,0,0,0,0,0,0,0,0,0,0,0,0,0,0,0,0,0,0,0,0,0,0,0,0,0,0,0,0,0,0,0,0,0,0,0,0,0,0,0,0,0,0,0,0,0,0,0,0,0,0,0,0,0,0],"sum_hessian":[3.7964496E8,2.5352875E8,1.2611621E8,1.4244056E8,1.1108819E8,4.0204144E7,8.591206E7,1.17207096E8,2.523346E7,7.2501576E7,3.8586616E7,7.090861E6,3.3113282E7,1.5160731E7,7.0751336E7,3.8392264E7,7.881483E7,7.250996E6,1.7982464E7,2.2250196E7,5.025138E7,1.929244E7,1.9294176E7,2.834609E6,4.256252E6,1.1350781E7,2.17625E7,6.058096E6,9.102635E6,3.6821132E7,3.3930204E7,3.110641E7,7.285854E6,4.0557764E7,3.8257064E7,5.543989E6,1.707007E6,1.3744684E7,4.23778E6,7.997753E6,1.4252443E7,2.1124578E7,2.91268E7,5.691032E6,1.3601408E7,4.572222E6,1.4721955E7,1.890942E6,9.43667E5,1.888295E6,2.367957E6,3.454317E6,7.896464E6,8.180957E6,1.3581544E7,4.040474E6,2.017622E6,4.037076E6,5.065559E6,1.2622944E7,2.4198188E7,1.2496686E7,2.1433518E7],"tree_param":{"num_deleted":"0","num_feature":"7","num_nodes":"63","size_leaf_vector":"1"}},{"base_weights":[-3.1929724E-6,1.4162073E-2,-2.3590801E-2,-1.6651906E-2,8.212559E-2,-3.404643E-2,-9.880024E-3,-2.4229953E-2,2.2088978E-2,1.5307154E-1,-4.3502532E-2,-1.7084718E-2,-4.9325462E-2,2.0205161E-5,-1.2812659E-2,-3.5143264E-2,-9.7193215E-3,3.411748E-2,-3.933442E-2,2.14302E-1,6.132907E-2,1.3572157E-2,-7.396277E-2,-1.0878379E-2,-2.4827138E-2,-1.5935335E-2,-5.839976E-2,2.4947647E-2,-1.3595717E-2,-3.0697282E-2,-8.686977E-3,-2.5151891E-3,-7.6047317E-3,-1.8837347E-3,-7.9403754E-4,1.20113995E-2,2.337806E-3,-8.601889E-3,-4.382849E-3,4.34965E-2,2.2564154E-2,1.9238781E-2,4.150866E-3,1.2914011E-4,8.515715E-3,-1.3325244E-2,-5.7696993E-3,-1.047556E-4,-2.0777816E-3,-5.804681E-3,-2.8847377E-3,-4.3491274E-3,4.391308E-3,-1.1104409E-2,-7.1761254E-3,7.407852E-3,2.1289245E-3,-8.424154E-4,-2.7213763E-3,-5.804575E-3,-3.712796E-3,-2.3678218E-3,-1.2110934E-3],"categories":[],"categories_nodes":[],"categories_segments":[],"categories_sizes":[],"default_left":[0,0,0,0,0,0,0,0,0,0,0,0,0,0,0,0,0,0,0,0,0,0,0,0,0,0,0,0,0,0,0,0,0,0,0,0,0,0,0,0,0,0,0,0,0,0,0,0,0,0,0,0,0,0,0,0,0,0,0,0,0,0,0],"id":13,"left_children":[1,3,5,7,9,11,13,15,17,19,21,23,25,27,29,31,33,35,37,39,41,43,45,47,49,51,53,55,57,59,61,-1,-1,-1,-1,-1,-1,-1,-1,-1,-1,-1,-1,-1,-1,-1,-1,-1,-1,-1,-1,-1,-1,-1,-1,-1,-1,-1,-1,-1,-1,-1,-1],"loss_changes":[1.2683923E5,4.9670938E5,2.0418883E4,4.790971E4,6.594519E5,2.0942812E4,1.789209E3,2.1614766E4,1.972608E4,2.6562388E5,4.642447E4,1.8402334E3,1.2881469E4,4.77988E3,3.5079614E3,2.226664E4,7.361367E2,1.9015906E4,7.9659424E2,1.3707612E5,4.2635375E4,5.1025327E3,9.192039E3,6.434541E2,1.3225205E3,5.363749E3,5.5169062E3,1.3075513E3,3.3045117E2,4.2384375E2,1.6810303E2,0E0,0E0,0E0,0E0,0E0,0E0,0E0,0E0,0E0,0E0,0E0,0E0,0E0,0E0,0E0,0E0,0E0,0E0,0E0,0E0,0E0,0E0,0E0,0E0,0E0,0E0,0E0,0E0,0E0,0E0,0E0,0E0],"parents":[2147483647,0,0,1,1,2,2,3,3,4,4,5,5,6,6,7,7,8,8,9,9,10,10,11,11,12,12,13,13,14,14,15,15,16,16,17,17,18,18,19,19,20,20,21,21,22,22,23,23,24,24,25,25,26,26,27,27,28,28,29,29,30,30],"right_children":[2,4,6,8,10,12,14,16,18,20,22,24,26,28,30,32,34,36,38,40,42,44,46,48,50,52,54,56,58,60,62,-1,-1,-1,-1,-1,-1,-1,-1,-1,-1,-1,-1,-1,-1,-1,-1,-1,-1,-1,-1,-1,-1,-1,-1,-1,-1,-1,-1,-1,-1,-1,-1],"split_conditions":[8.478323E0,-5.965254E0,1.7500591E1,-9.461852E0,1.745937E1,5.952884E0,1.79502E1,2.002676E1,5.0050648E1,4.5E0,4.0036793E1,2.006498E1,1.2553925E1,6.995548E1,3.995974E1,5.952884E0,-3.002046E1,1.35E0,1.5E0,1.68E0,1.44E0,5.9667625E0,4.5E0,1.23E0,1.35E0,1.0988131E1,1.59E0,1.2444074E1,1.5998076E2,2.253701E1,5.0050648E1,-2.5151891E-3,-7.6047317E-3,-1.8837347E-3,-7.9403754E-4,1.20113995E-2,2.337806E-3,-8.601889E-3,-4.382849E-3,4.34965E-2,2.2564154E-2,1.9238781E-2,4.150866E-3,1.2914011E-4,8.515715E-3,-1.3325244E-2,-5.7696993E-3,-1.047556E-4,-2.0777816E-3,-5.804681E-3,-2.8847377E-3,-4.3491274E-3,4.391308E-3,-1.1104409E-2,-7.1761254E-3,7.407852E-3,2.1289245E-3,-8.424154E-4,-2.7213763E-3,-5.804575E-3,-3.712796E-3,-2.3678218E-3,-1.2110934E-3],"split_indices":[1,1,0,1,0,0,1,0,0,1,0,1,1,0,0,0,1,6,6,6,6,1,1,6,6,0,6,1,0,0,0,0,0,0,0,0,0,0,0,0,0,0,0,0,0,0,0,0,0,0,0,0,0,0,0,0,0,0,0,0,0,0,0],"split_type":[0,0,0,0,0,0,0,0,0,0,0,0,0,0,0,0,0,0,0,0,0,0,0,0,0,0,0,0,0,0,0,0,0,0,0,0,0,0,0,0,0,0,0,0,0,0,0,0,0,0,0,0,0,0,0,0,0,0,0,0,0,0,0],"sum_hessian":[3.7961635E8,2.371804E8,1.4243597E8,1.6319115E8,7.398925E7,8.081084E7,6.162512E7,1.3649213E8,2.6699024E7,4.728563E7,2.6703612E7,3.8296616E7,4.2514224E7,1.4082902E7,4.7542216E7,7.790243E7,5.85897E7,2.2326786E7,4.372239E6,2.8358616E7,1.8927016E7,9.292273E6,1.741134E7,2.1256984E7,1.7039636E7,9.084939E6,3.3429284E7,4.97496E6,9.107942E6,8.911463E6,3.8630756E7,3.5713468E7,4.218897E7,3.5693772E7,2.2895928E7,6.415853E6,1.5910933E7,1.572408E6,2.799831E6,1.2980298E7,1.5378318E7,6.333077E6,1.2593939E7,7.17968E6,2.112593E6,1.2270518E7,5.140821E6,4.80538E6,1.6451603E7,4.898015E6,1.214162E7,7.048905E6,2.036034E6,1.3478305E7,1.995098E7,1.52033E6,3.45463E6,3.30597E6,5.801972E6,3.799257E6,5.112206E6,3.070921E6,3.555983E7],"tree_param":{"num_deleted":"0","num_feature":"7","num_nodes":"63","size_leaf_vector":"1"}},{"base_weights":[-1.6776221E-6,1.0968762E-2,-2.2056857E-2,-1.9130599E-2,5.0483E-2,-3.2354057E-2,-8.3017E-3,-2.7395524E-2,-8.623508E-3,8.792726E-2,-3.6499932E-2,-1.6052356E-2,-4.7125056E-2,-3.2160056E-3,-1.0318121E-2,-1.3283814E-2,-4.2227887E-2,-1.1362093E-2,4.2526232E-4,1.2905402E-1,2.6277013E-2,5.679166E-3,-5.2484293E-2,-1.21077085E-2,-2.7794464E-2,-5.531976E-2,-3.323902E-2,5.8536385E-3,-9.182769E-3,-2.2285108E-2,-7.3734014E-3,-3.6782364E-3,-6.775855E-4,-7.881642E-3,-1.0739886E-3,-4.326764E-3,-1.1020761E-3,3.6283867E-3,-2.322835E-3,8.412077E-3,2.8613137E-2,9.947801E-3,1.8086642E-4,-9.300346E-4,5.240036E-3,-9.897596E-3,-3.9744624E-3,-8.822942E-4,-2.6620692E-3,-5.968666E-3,-3.2931354E-3,-1.0997592E-2,-6.903657E-3,-8.389247E-4,-5.645608E-3,2.3493213E-3,-1.21884324E-4,-1.9514578E-3,-8.960958E-4,-3.928904E-3,-2.6917425E-3,-1.7443234E-3,-1.0239546E-3],"categories":[],"categories_nodes":[],"categories_segments":[],"categories_sizes":[],"default_left":[0,0,0,0,0,0,0,0,0,0,0,0,0,0,0,0,0,0,0,0,0,0,0,0,0,0,0,0,0,0,0,0,0,0,0,0,0,0,0,0,0,0,0,0,0,0,0,0,0,0,0,0,0,0,0,0,0,0,0,0,0,0,0],"id":14,"left_children":[1,3,5,7,9,11,13,15,17,19,21,23,25,27,29,31,33,35,37,39,41,43,45,47,49,51,53,55,57,59,61,-1,-1,-1,-1,-1,-1,-1,-1,-1,-1,-1,-1,-1,-1,-1,-1,-1,-1,-1,-1,-1,-1,-1,-1,-1,-1,-1,-1,-1,-1,-1,-1],"loss_changes":[9.185919E4,3.0154938E5,1.7862645E4,1.2497648E4,3.5705088E5,1.7366469E4,5.536738E2,1.6860434E4,1.570185E3,1.9430725E5,2.2241973E4,1.5880137E3,4.3056016E3,8.295546E2,1.3624287E3,4.0666724E3,1.4208133E4,3.414295E3,5.566177E3,2.0697606E5,3.0785477E4,3.1507324E3,8.393094E3,9.010281E2,6.040371E2,3.9807656E3,1.7075332E3,3.977332E2,1.1354205E2,1.2948291E2,7.222754E1,0E0,0E0,0E0,0E0,0E0,0E0,0E0,0E0,0E0,0E0,0E0,0E0,0E0,0E0,0E0,0E0,0E0,0E0,0E0,0E0,0E0,0E0,0E0,0E0,0E0,0E0,0E0,0E0,0E0,0E0,0E0,0E0],"parents":[2147483647,0,0,1,1,2,2,3,3,4,4,5,5,6,6,7,7,8,8,9,9,10,10,11,11,12,12,13,13,14,14,15,15,16,16,17,17,18,18,19,19,20,20,21,21,22,22,23,23,24,24,25,25,26,26,27,27,28,28,29,29,30,30],"right_children":[2,4,6,8,10,12,14,16,18,20,22,24,26,28,30,32,34,36,38,40,42,44,46,48,50,52,54,56,58,60,62,-1,-1,-1,-1,-1,-1,-1,-1,-1,-1,-1,-1,-1,-1,-1,-1,-1,-1,-1,-1,-1,-1,-1,-1,-1,-1,-1,-1,-1,-1,-1,-1],"split_conditions":[1.0046666E1,-8.037731E0,2.2450943E1,1.5032451E1,2.2450943E1,6.012092E0,2.9941477E1,6.012092E0,-1.9016684E1,4.982528E0,5.0050648E1,4.506927E0,1.09661045E1,8.004203E1,5.0015266E1,-2.4934635E1,-1.2959122E1,3.5E1,7.003272E1,-3.5206988E0,7.4446006E0,5.5171623E0,4.5E0,2.006498E1,1.43E0,1.46E0,1.6E1,1.6E1,1.6E1,3.494678E1,7.999656E1,-3.6782364E-3,-6.775855E-4,-7.881642E-3,-1.0739886E-3,-4.326764E-3,-1.1020761E-3,3.6283867E-3,-2.322835E-3,8.412077E-3,2.8613137E-2,9.947801E-3,1.8086642E-4,-9.300346E-4,5.240036E-3,-9.897596E-3,-3.9744624E-3,-8.822942E-4,-2.6620692E-3,-5.968666E-3,-3.2931354E-3,-1.0997592E-2,-6.903657E-3,-8.389247E-4,-5.645608E-3,2.3493213E-3,-1.21884324E-4,-1.9514578E-3,-8.960958E-4,-3.928904E-3,-2.6917425E-3,-1.7443234E-3,-1.0239546E-3],"split_indices":[1,1,0,0,0,0,1,0,1,1,0,0,0,0,0,1,1,0,0,1,1,1,1,1,6,6,1,1,1,0,0,0,0,0,0,0,0,0,0,0,0,0,0,0,0,0,0,0,0,0,0,0,0,0,0,0,0,0,0,0,0,0,0],"split_type":[0,0,0,0,0,0,0,0,0,0,0,0,0,0,0,0,0,0,0,0,0,0,0,0,0,0,0,0,0,0,0,0,0,0,0,0,0,0,0,0,0,0,0,0,0,0,0,0,0,0,0,0,0,0,0,0,0,0,0,0,0,0,0],"sum_hessian":[3.7965395E8,2.5354062E8,1.26113336E8,1.4391533E8,1.0962529E8,7.212219E7,5.3991144E7,8.055243E7,6.3362904E7,7.663541E7,3.2989876E7,3.428466E7,3.783753E7,1.5329073E7,3.866207E7,4.1279016E7,3.9273416E7,4.864165E7,1.4721259E7,4.5969344E7,3.0666068E7,9.066208E6,2.3923668E7,2.566332E7,8.621341E6,2.37951E7,1.4042431E7,6.082899E6,9.246174E6,7.63487E6,3.1027202E7,1.808986E7,2.3189154E7,3.034611E7,8.927305E6,9.08424E6,3.955741E7,5.903681E6,8.817578E6,2.1060662E7,2.490868E7,1.1807741E7,1.8858326E7,6.447898E6,2.61831E6,1.5744839E7,8.17883E6,1.219757E7,1.346575E7,2.822836E6,5.798505E6,8.104101E6,1.5690998E7,1.927434E6,1.2114997E7,2.461338E6,3.621561E6,4.216906E6,5.029268E6,4.017648E6,3.617222E6,3.534241E6,2.749296E7],"tree_param":{"num_deleted":"0","num_feature":"7","num_nodes":"63","size_leaf_vector":"1"}},{"base_weights":[2.0174102E-7,-1.9009616E-2,9.284405E-3,-2.1007357E-2,-8.996101E-3,4.542668E-2,-1.5492563E-2,-1.711981E-2,-2.735843E-2,-2.3401086E-3,-1.2242708E-2,1.0369122E-2,6.622612E-2,-1.5408797E-3,-1.9552981E-2,-2.1013765E-2,-1.492138E-2,-3.0682819E-2,-2.0982191E-2,-9.215644E-3,-1.17628995E-4,-1.0327048E-2,-1.9380784E-2,2.769446E-4,2.9717522E-2,4.900342E-2,1.1828087E-1,5.9730196E-3,-9.404026E-3,-1.6434692E-2,-2.4648627E-2,-3.4902617E-3,-2.7939267E-3,-2.1717753E-3,-3.334664E-3,-5.418106E-3,-4.097367E-3,-3.015881E-3,-4.0694554E-3,-1.2094446E-3,-2.026383E-3,-6.4166676E-4,8.1997615E-4,-1.8298464E-3,-2.9209707E-4,-3.006721E-3,7.712328E-4,1.6504194E-3,-1.2084858E-3,1.2773816E-3,6.800714E-3,1.0967342E-2,4.128751E-3,2.508002E-2,1.4453864E-2,3.2298411E-3,7.343982E-5,-1.548211E-3,3.5811802E-3,-2.9633539E-3,-2.1839552E-3,-2.9883925E-3,-4.2057256E-3],"categories":[],"categories_nodes":[],"categories_segments":[],"categories_sizes":[],"default_left":[0,0,0,0,0,0,0,0,0,0,0,0,0,0,0,0,0,0,0,0,0,0,0,0,0,0,0,0,0,0,0,0,0,0,0,0,0,0,0,0,0,0,0,0,0,0,0,0,0,0,0,0,0,0,0,0,0,0,0,0,0,0,0],"id":15,"left_children":[1,3,5,7,9,11,13,15,17,19,21,23,25,27,29,31,33,35,37,39,41,43,45,47,49,51,53,55,57,59,61,-1,-1,-1,-1,-1,-1,-1,-1,-1,-1,-1,-1,-1,-1,-1,-1,-1,-1,-1,-1,-1,-1,-1,-1,-1,-1,-1,-1,-1,-1,-1,-1],"loss_changes":[6.699942E4,2.4918633E3,2.2839966E5,2.5640078E3,4.4770483E2,7.5641266E4,8.57216E3,5.514492E2,8.358086E2,1.0379444E2,1.9041968E2,7.542744E3,5.8370188E4,2.0153987E3,1.8623867E3,1.2513086E2,1.3328711E2,4.7453906E2,7.279492E1,8.211884E0,1.1924901E2,1.7222083E2,4.797888E1,2.2691243E3,4.3853516E3,2.533593E4,1.7357781E4,1.4882058E3,5.0886877E2,4.5276172E2,7.127793E2,0E0,0E0,0E0,0E0,0E0,0E0,0E0,0E0,0E0,0E0,0E0,0E0,0E0,0E0,0E0,0E0,0E0,0E0,0E0,0E0,0E0,0E0,0E0,0E0,0E0,0E0,0E0,0E0,0E0,0E0,0E0,0E0],"parents":[2147483647,0,0,1,1,2,2,3,3,4,4,5,5,6,6,7,7,8,8,9,9,10,10,11,11,12,12,13,13,14,14,15,15,16,16,17,17,18,18,19,19,20,20,21,21,22,22,23,23,24,24,25,25,26,26,27,27,28,28,29,29,30,30],"right_children":[2,4,6,8,10,12,14,16,18,20,22,24,26,28,30,32,34,36,38,40,42,44,46,48,50,52,54,56,58,60,62,-1,-1,-1,-1,-1,-1,-1,-1,-1,-1,-1,-1,-1,-1,-1,-1,-1,-1,-1,-1,-1,-1,-1,-1,-1,-1,-1,-1,-1,-1,-1,-1],"split_conditions":[-1.1E1,-1.5061038E1,7.4446006E0,-1.13E1,7.66E1,-5.965254E0,1.2553925E1,1.034E2,-3.0042578E1,-1.47E1,-1.2461856E1,-1.04E1,-8.2E0,1.126E2,-1.13E1,-4.496076E1,-1.7462336E1,5.49E1,-1.7007116E1,-1.2461856E1,-1.3007258E1,-1.2959122E1,-2.2E0,1.148E2,-8.532857E0,1.148E2,4.38E1,8.478323E0,-2.2E0,1.034E2,3.004341E1,-3.4902617E-3,-2.7939267E-3,-2.1717753E-3,-3.334664E-3,-5.418106E-3,-4.097367E-3,-3.015881E-3,-4.0694554E-3,-1.2094446E-3,-2.026383E-3,-6.4166676E-4,8.1997615E-4,-1.8298464E-3,-2.9209707E-4,-3.006721E-3,7.712328E-4,1.6504194E-3,-1.2084858E-3,1.2773816E-3,6.800714E-3,1.0967342E-2,4.128751E-3,2.508002E-2,1.4453864E-2,3.2298411E-3,7.343982E-5,-1.548211E-3,3.5811802E-3,-2.9633539E-3,-2.1839552E-3,-2.9883925E-3,-4.2057256E-3],"split_indices":[1,1,1,4,5,1,1,5,1,4,1,4,4,5,4,1,1,5,1,1,1,1,4,5,1,5,5,1,4,5,1,0,0,0,0,0,0,0,0,0,0,0,0,0,0,0,0,0,0,0,0,0,0,0,0,0,0,0,0,0,0,0,0],"split_type":[0,0,0,0,0,0,0,0,0,0,0,0,0,0,0,0,0,0,0,0,0,0,0,0,0,0,0,0,0,0,0,0,0,0,0,0,0,0,0,0,0,0,0,0,0,0,0,0,0,0,0,0,0,0,0,0,0,0,0,0,0,0,0],"sum_hessian":[3.796195E8,1.245657E8,2.550538E8,1.0384763E8,2.0718068E7,1.0373503E8,1.5131877E8,6.4417264E7,3.9430364E7,6.792502E6,1.3925566E7,3.862775E7,6.510728E7,3.4111376E7,1.1720739E8,2.3244894E7,4.1172372E7,2.591764E7,1.3512722E7,1.659284E6,5.133218E6,1.0979087E7,2.946479E6,2.5386228E7,1.3241524E7,4.8921304E7,1.6185974E7,1.744306E7,1.6668315E7,7.2711464E7,4.449593E7,1.1955279E7,1.1289615E7,3.8820344E7,2.352028E6,9.911007E6,1.6006634E7,1.182683E7,1.685892E6,1.308105E6,3.51179E5,2.941682E6,2.191536E6,8.974333E6,2.004754E6,2.868797E6,7.7682E4,1.1099872E7,1.4286356E7,5.617266E6,7.624258E6,2.3047552E7,2.5873752E7,5.008753E6,1.1177221E7,4.545412E6,1.2897647E7,1.6221152E7,4.47163E5,2.6238174E7,4.6473292E7,1.8584174E7,2.5911756E7],"tree_param":{"num_deleted":"0","num_feature":"7","num_nodes":"63","size_leaf_vector":"1"}},{"base_weights":[-7.433779E-7,8.329875E-3,-1.087484E-2,2.7755596E-2,2.296967E-3,-5.6650285E-3,-1.4558897E-2,8.598295E-3,4.091555E-2,-6.891854E-3,8.978682E-3,-3.7250018E-3,-8.974725E-3,-1.9720593E-2,-1.0814092E-2,1.6132647E-3,1.4908378E-2,7.178518E-2,3.626177E-2,-3.3270363E-3,-1.2307651E-2,1.7029015E-2,1.4555783E-3,1.5185567E-2,-4.3315203E-3,-1.2282265E-2,-6.9115157E-3,-2.1912497E-2,-1.7390711E-2,-1.2974339E-2,-1.0092091E-2,5.8479066E-4,-6.812195E-5,2.8853968E-3,9.013471E-4,1.2699603E-2,9.455561E-3,6.1982176E-3,3.4691438E-3,-4.869394E-5,-1.394127E-3,-1.4914792E-3,-2.5514276E-3,2.7901065E-3,1.1421851E-3,7.792448E-4,-1.2585723E-3,3.5370497E-3,4.954739E-4,-5.0885417E-4,-1.3435208E-3,-1.9755363E-3,-1.5520195E-3,-9.417581E-4,-1.1521486E-3,-2.812027E-3,-3.405641E-3,-2.728169E-3,-2.427638E-3,-1.489356E-3,-2.0604494E-3,-1.2913693E-3,-1.6126696E-3],"categories":[],"categories_nodes":[],"categories_segments":[],"categories_sizes":[],"default_left":[0,0,0,0,0,0,0,0,0,0,0,0,0,0,0,0,0,0,0,0,0,0,0,0,0,0,0,0,0,0,0,0,0,0,0,0,0,0,0,0,0,0,0,0,0,0,0,0,0,0,0,0,0,0,0,0,0,0,0,0,0,0,0],"id":16,"left_children":[1,3,5,7,9,11,13,15,17,19,21,23,25,27,29,31,33,35,37,39,41,43,45,47,49,51,53,55,57,59,61,-1,-1,-1,-1,-1,-1,-1,-1,-1,-1,-1,-1,-1,-1,-1,-1,-1,-1,-1,-1,-1,-1,-1,-1,-1,-1,-1,-1,-1,-1,-1,-1],"loss_changes":[3.4390242E4,2.5191498E4,3.1606953E3,1.2841934E4,1.0070244E4,4.379917E2,1.8646074E3,9.1424976E2,4.3378945E3,1.3331785E3,5.7513716E3,4.9325366E2,1.7202405E2,2.0712988E2,8.7194824E1,4.6513863E1,4.1970654E2,4.4567578E2,1.7437461E3,7.4607336E2,3.0473438E2,6.78792E2,1.8073938E3,1.3331021E2,1.810044E2,1.6643066E1,7.5629883E0,5.2379883E1,1.890625E1,3.2496338E1,4.095117E1,0E0,0E0,0E0,0E0,0E0,0E0,0E0,0E0,0E0,0E0,0E0,0E0,0E0,0E0,0E0,0E0,0E0,0E0,0E0,0E0,0E0,0E0,0E0,0E0,0E0,0E0,0E0,0E0,0E0,0E0,0E0,0E0],"parents":[2147483647,0,0,1,1,2,2,3,3,4,4,5,5,6,6,7,7,8,8,9,9,10,10,11,11,12,12,13,13,14,14,15,15,16,16,17,17,18,18,19,19,20,20,21,21,22,22,23,23,24,24,25,25,26,26,27,27,28,28,29,29,30,30],"right_children":[2,4,6,8,10,12,14,16,18,20,22,24,26,28,30,32,34,36,38,40,42,44,46,48,50,52,54,56,58,60,62,-1,-1,-1,-1,-1,-1,-1,-1,-1,-1,-1,-1,-1,-1,-1,-1,-1,-1,-1,-1,-1,-1,-1,-1,-1,-1,-1,-1,-1,-1,-1,-1],"split_conditions":[1.4976281E1,1.25E0,8.001333E1,5.518138E0,5.952884E0,3.995974E1,1.61E0,2.9543471E0,7.9E-1,2.14E0,1.95E0,7.9E-1,1.55E0,1.21E0,1.87E0,1.01E0,8.9879405E-1,6.8E-1,9.997784E0,8.9879405E-1,8.9879405E-1,1.2007602E1,2.55E0,2.253701E1,2.42E0,1.3E0,2.2E0,1.3997034E2,8.31E1,1.3997034E2,1.7995366E2,5.8479066E-4,-6.812195E-5,2.8853968E-3,9.013471E-4,1.2699603E-2,9.455561E-3,6.1982176E-3,3.4691438E-3,-4.869394E-5,-1.394127E-3,-1.4914792E-3,-2.5514276E-3,2.7901065E-3,1.1421851E-3,7.792448E-4,-1.2585723E-3,3.5370497E-3,4.954739E-4,-5.0885417E-4,-1.3435208E-3,-1.9755363E-3,-1.5520195E-3,-9.417581E-4,-1.1521486E-3,-2.812027E-3,-3.405641E-3,-2.728169E-3,-2.427638E-3,-1.489356E-3,-2.0604494E-3,-1.2913693E-3,-1.6126696E-3],"split_indices":[0,6,0,0,0,0,6,0,6,6,6,6,6,6,6,6,2,6,0,2,2,0,6,0,6,6,6,0,5,0,0,0,0,0,0,0,0,0,0,0,0,0,0,0,0,0,0,0,0,0,0,0,0,0,0,0,0,0,0,0,0,0,0],"split_type":[0,0,0,0,0,0,0,0,0,0,0,0,0,0,0,0,0,0,0,0,0,0,0,0,0,0,0,0,0,0,0,0,0,0,0,0,0,0,0,0,0,0,0,0,0,0,0,0,0,0,0,0,0,0,0,0,0,0,0,0,0,0,0],"sum_hessian":[3.7963376E8,2.1495629E8,1.6467747E8,5.0937988E7,1.6401829E8,6.821342E7,9.646405E7,2.0742528E7,3.019546E7,6.905397E7,9.496433E7,4.3005264E7,2.5208156E7,4.0559024E7,5.590502E7,9.844751E6,1.0897777E7,3.955784E6,2.6239676E7,4.1643284E7,2.7410682E7,4.587468E7,4.908965E7,1.336443E6,4.1668824E7,9.683883E6,1.5524273E7,2.0898328E7,1.9660698E7,1.4004167E7,4.1900852E7,4.675927E6,5.168824E6,7.332249E6,3.565528E6,1.600114E6,2.35567E6,1.8942456E7,7.297221E6,2.7703884E7,1.3939401E7,1.8238816E7,9.171865E6,3.9311776E7,6.562903E6,3.5577748E7,1.3511899E7,7.83154E5,5.53289E5,3.4636016E7,7.032806E6,6.638288E6,3.045595E6,8.516694E6,7.007579E6,4.18121E6,1.6717117E7,1.1838946E7,7.821752E6,2.802794E6,1.1201373E7,1.289183E7,2.9009024E7],"tree_param":{"num_deleted":"0","num_feature":"7","num_nodes":"63","size_leaf_vector":"1"}},{"base_weights":[6.985435E-7,6.813081E-3,-9.632623E-3,2.4038274E-2,2.049149E-3,-5.2802158E-3,-1.2375954E-2,6.704891E-3,3.380151E-2,-4.6387846E-3,8.400596E-3,-3.617211E-3,-7.628613E-3,-1.6761804E-2,-9.189619E-3,1.6820232E-3,1.2111878E-2,5.4531276E-2,2.8849937E-2,-1.2109197E-3,-9.843485E-3,1.5834574E-2,2.4280713E-3,7.451976E-3,-4.181902E-3,-1.0266117E-2,-5.713246E-3,-1.91747E-2,-1.5189961E-2,-1.1025582E-2,-8.57735E-3,-1.3754694E-3,3.22961E-4,2.3131745E-3,5.751473E-4,8.964118E-3,4.541597E-3,4.8895655E-3,1.5214401E-3,3.0253682E-4,-1.1565684E-3,-1.0084088E-3,-2.0293642E-3,3.0704967E-3,1.0816964E-3,8.5063645E-4,-8.6328597E-4,1.9078198E-3,1.8488755E-4,-1.1361656E-3,-4.545131E-4,-1.6762803E-3,-1.295978E-3,-1.0428778E-3,-7.2446954E-4,-2.45466E-3,-3.0140057E-3,-2.499511E-3,-2.1417935E-3,-1.3501461E-3,-1.7887934E-3,-1.1831499E-3,-1.4633724E-3],"categories":[],"categories_nodes":[],"categories_segments":[],"categories_sizes":[],"default_left":[0,0,0,0,0,0,0,0,0,0,0,0,0,0,0,0,0,0,0,0,0,0,0,0,0,0,0,0,0,0,0,0,0,0,0,0,0,0,0,0,0,0,0,0,0,0,0,0,0,0,0,0,0,0,0,0,0,0,0,0,0,0,0],"id":17,"left_children":[1,3,5,7,9,11,13,15,17,19,21,23,25,27,29,31,33,35,37,39,41,43,45,47,49,51,53,55,57,59,61,-1,-1,-1,-1,-1,-1,-1,-1,-1,-1,-1,-1,-1,-1,-1,-1,-1,-1,-1,-1,-1,-1,-1,-1,-1,-1,-1,-1,-1,-1,-1,-1],"loss_changes":[2.4913598E4,1.8247973E4,1.8776533E3,8.153043E3,7.3995566E3,2.3743982E2,1.3479854E3,4.7144208E2,3.1633594E3,1.5138274E3,3.9669375E3,2.224798E2,1.273302E2,1.539414E2,6.2802734E1,4.6001095E1,2.289978E2,7.53666E2,1.743791E3,1.0732626E3,3.8753418E2,1.5910283E3,1.314729E3,5.6590935E1,1.3233124E2,1.567627E1,1.5985992E1,4.1335938E1,3.3003418E1,2.5450806E1,3.405249E1,0E0,0E0,0E0,0E0,0E0,0E0,0E0,0E0,0E0,0E0,0E0,0E0,0E0,0E0,0E0,0E0,0E0,0E0,0E0,0E0,0E0,0E0,0E0,0E0,0E0,0E0,0E0,0E0,0E0,0E0,0E0,0E0],"parents":[2147483647,0,0,1,1,2,2,3,3,4,4,5,5,6,6,7,7,8,8,9,9,10,10,11,11,12,12,13,13,14,14,15,15,16,16,17,17,18,18,19,19,20,20,21,21,22,22,23,23,24,24,25,25,26,26,27,27,28,28,29,29,30,30],"right_children":[2,4,6,8,10,12,14,16,18,20,22,24,26,28,30,32,34,36,38,40,42,44,46,48,50,52,54,56,58,60,62,-1,-1,-1,-1,-1,-1,-1,-1,-1,-1,-1,-1,-1,-1,-1,-1,-1,-1,-1,-1,-1,-1,-1,-1,-1,-1,-1,-1,-1,-1,-1,-1],"split_conditions":[1.7486683E1,1.21E0,8.001333E1,5.0299797E0,6.5397177E0,3.995974E1,1.62E0,2.9543471E0,8.2E-1,2.13E0,1.87E0,8.4E-1,1.62E0,1.12E0,1.87E0,-1.22E1,9.2718387E-1,1.2007602E1,1.2030957E1,8.9879405E-1,7.880108E-1,1.0015786E1,2.52E0,2.4966099E1,-2.38E1,1.31E0,-2.37E1,1.4004924E2,1.3E0,1.7995366E2,5.0002737E2,-1.3754694E-3,3.22961E-4,2.3131745E-3,5.751473E-4,8.964118E-3,4.541597E-3,4.8895655E-3,1.5214401E-3,3.0253682E-4,-1.1565684E-3,-1.0084088E-3,-2.0293642E-3,3.0704967E-3,1.0816964E-3,8.5063645E-4,-8.6328597E-4,1.9078198E-3,1.8488755E-4,-1.1361656E-3,-4.545131E-4,-1.6762803E-3,-1.295978E-3,-1.0428778E-3,-7.2446954E-4,-2.45466E-3,-3.0140057E-3,-2.499511E-3,-2.1417935E-3,-1.3501461E-3,-1.7887934E-3,-1.1831499E-3,-1.4633724E-3],"split_indices":[0,6,0,0,0,0,6,0,6,6,6,6,6,6,6,4,2,0,0,2,2,0,6,0,4,6,4,0,6,0,0,0,0,0,0,0,0,0,0,0,0,0,0,0,0,0,0,0,0,0,0,0,0,0,0,0,0,0,0,0,0,0,0],"split_type":[0,0,0,0,0,0,0,0,0,0,0,0,0,0,0,0,0,0,0,0,0,0,0,0,0,0,0,0,0,0,0,0,0,0,0,0,0,0,0,0,0,0,0,0,0,0,0,0,0,0,0,0,0,0,0,0,0,0,0,0,0,0,0],"sum_hessian":[3.7963075E8,2.223745E8,1.5725626E8,4.817731E7,1.7419718E8,6.07979E7,9.645836E7,1.7358864E7,3.0818444E7,8.485097E7,8.934621E7,3.5592948E7,2.5204952E7,4.0589148E7,5.586921E7,8.999086E6,8.359779E6,5.94205E6,2.4876396E7,5.1157896E7,3.369307E7,3.980325E7,4.954296E7,1.727628E6,3.386532E7,1.060358E7,1.4601373E7,1.6011028E7,2.457812E7,1.397211E7,4.18971E7,3.74376E5,8.62471E6,5.972167E6,2.387612E6,4.888103E6,1.053947E6,2.0725006E7,4.151389E6,3.4182176E7,1.697572E7,1.8244606E7,1.5448467E7,2.5887514E7,1.3915736E7,3.548225E7,1.4060712E7,9.35451E5,7.92177E5,8.583532E6,2.5281788E7,6.801516E6,3.802064E6,6.076898E6,8.524475E6,3.94448E6,1.2066548E7,9.39245E6,1.518567E7,4.298718E6,9.673392E6,2.6429514E7,1.5467585E7],"tree_param":{"num_deleted":"0","num_feature":"7","num_nodes":"63","size_leaf_vector":"1"}},{"base_weights":[6.4695763E-7,8.5205315E-3,-1.4187231E-2,-1.1763278E-2,4.628029E-2,-2.4406958E-2,-1.1630749E-3,-2.0175135E-2,-1.2774313E-3,9.891091E-2,-3.3464286E-2,-9.548867E-3,-3.8113456E-2,4.916734E-3,-3.7914142E-3,-6.438818E-3,-3.4242716E-2,-2.5548735E-3,2.1740016E-2,1.3633974E-1,3.4484398E-2,5.6774123E-3,-5.4563433E-2,-7.1687796E-3,-2.0498587E-2,-1.17661655E-2,-4.3423377E-2,1.8417181E-2,-3.0135883E-3,-1.8700551E-2,6.7435944E-4,-2.0658814E-3,4.6100531E-4,-6.755183E-3,2.3287897E-4,-2.3356585E-3,-1.1382803E-4,6.7815334E-3,-8.7622786E-4,1.0227759E-2,2.8362816E-2,1.1957037E-2,9.392796E-4,-4.905616E-4,8.173021E-3,-1.148659E-2,-5.789665E-3,-6.062283E-4,-1.8843603E-3,-4.8974897E-3,-2.3393633E-3,-3.4796658E-3,5.6155613E-3,-8.070701E-3,-4.1911113E-3,6.0905977E-3,1.6675651E-3,2.2247645E-4,-8.888084E-4,-3.7688164E-3,-2.0345524E-3,-5.563905E-4,2.1886193E-4],"categories":[],"categories_nodes":[],"categories_segments":[],"categories_sizes":[],"default_left":[0,0,0,0,0,0,0,0,0,0,0,0,0,0,0,0,0,0,0,0,0,0,0,0,0,0,0,0,0,0,0,0,0,0,0,0,0,0,0,0,0,0,0,0,0,0,0,0,0,0,0,0,0,0,0,0,0,0,0,0,0,0,0],"id":18,"left_children":[1,3,5,7,9,11,13,15,17,19,21,23,25,27,29,31,33,35,37,39,41,43,45,47,49,51,53,55,57,59,61,-1,-1,-1,-1,-1,-1,-1,-1,-1,-1,-1,-1,-1,-1,-1,-1,-1,-1,-1,-1,-1,-1,-1,-1,-1,-1,-1,-1,-1,-1,-1,-1],"loss_changes":[4.5886668E4,1.8165912E5,1.8957611E4,1.3609707E4,3.478673E5,1.62526875E4,1.00068335E3,1.6543898E4,2.0194578E3,1.204035E5,2.7215129E4,9.9799927E2,5.807574E3,2.0235784E3,2.9109766E3,3.021808E3,1.6339293E4,1.5211545E3,2.33775E3,1.1353556E5,2.3421006E4,5.04081E3,7.5255195E3,5.305884E2,4.073557E2,3.9164004E3,5.5530234E3,1.1328081E3,1.5590256E2,3.3259082E2,1.157313E2,0E0,0E0,0E0,0E0,0E0,0E0,0E0,0E0,0E0,0E0,0E0,0E0,0E0,0E0,0E0,0E0,0E0,0E0,0E0,0E0,0E0,0E0,0E0,0E0,0E0,0E0,0E0,0E0,0E0,0E0,0E0,0E0],"parents":[2147483647,0,0,1,1,2,2,3,3,4,4,5,5,6,6,7,7,8,8,9,9,10,10,11,11,12,12,13,13,14,14,15,15,16,16,17,17,18,18,19,19,20,20,21,21,22,22,23,23,24,24,25,25,26,26,27,27,28,28,29,29,30,30],"right_children":[2,4,6,8,10,12,14,16,18,20,22,24,26,28,30,32,34,36,38,40,42,44,46,48,50,52,54,56,58,60,62,-1,-1,-1,-1,-1,-1,-1,-1,-1,-1,-1,-1,-1,-1,-1,-1,-1,-1,-1,-1,-1,-1,-1,-1,-1,-1,-1,-1,-1,-1,-1,-1],"split_conditions":[8.478323E0,-6.980238E0,1.745937E1,1.4022545E1,1.4929788E1,5.952884E0,2.006498E1,5.974045E0,-9.508507E0,4.5E0,3.995974E1,4.549929E0,1.1044419E1,7.003272E1,4.0036793E1,-1.6E1,-1.0055537E1,2.25E1,3.5026127E1,-2.5453885E0,1.55E0,6.018574E0,1.61E0,3.004341E1,1.35E0,1.09661045E1,1.94E0,1.0993162E1,1.8003003E2,2.4966099E1,7.999656E1,-2.0658814E-3,4.6100531E-4,-6.755183E-3,2.3287897E-4,-2.3356585E-3,-1.1382803E-4,6.7815334E-3,-8.7622786E-4,1.0227759E-2,2.8362816E-2,1.1957037E-2,9.392796E-4,-4.905616E-4,8.173021E-3,-1.148659E-2,-5.789665E-3,-6.062283E-4,-1.8843603E-3,-4.8974897E-3,-2.3393633E-3,-3.4796658E-3,5.6155613E-3,-8.070701E-3,-4.1911113E-3,6.0905977E-3,1.6675651E-3,2.2247645E-4,-8.888084E-4,-3.7688164E-3,-2.0345524E-3,-5.563905E-4,2.1886193E-4],"split_indices":[1,1,0,0,0,0,1,0,1,1,0,0,1,0,0,1,1,0,0,1,6,1,6,1,6,0,6,1,0,0,0,0,0,0,0,0,0,0,0,0,0,0,0,0,0,0,0,0,0,0,0,0,0,0,0,0,0,0,0,0,0,0,0],"split_type":[0,0,0,0,0,0,0,0,0,0,0,0,0,0,0,0,0,0,0,0,0,0,0,0,0,0,0,0,0,0,0,0,0,0,0,0,0,0,0,0,0,0,0,0,0,0,0,0,0,0,0,0,0,0,0,0,0,0,0,0,0,0,0],"sum_hessian":[3.79608E8,2.3718022E8,1.4242779E8,1.5429562E8,8.288461E7,7.980602E7,6.2621772E7,8.561466E7,6.868096E7,4.9930788E7,3.295382E7,3.8294304E7,4.151171E7,1.8900834E7,4.3720936E7,4.3317348E7,4.2297304E7,6.506967E7,3.611292E6,3.1582698E7,1.834809E7,1.1541961E7,2.141186E7,3.1456716E7,6.837591E6,6.962832E6,3.454888E7,6.994135E6,1.1906699E7,1.0077352E7,3.3643584E7,2.4459508E7,1.885784E7,3.2499188E7,9.798116E6,7.889874E6,5.7179796E7,1.951059E6,1.660233E6,1.3778711E7,1.7803988E7,7.049932E6,1.1298158E7,9.753866E6,1.788095E6,9.001028E6,1.2410832E7,1.9911752E7,1.1544964E7,1.965708E6,4.871883E6,5.650116E6,1.312716E6,2.068161E7,1.3867271E7,1.73154E6,5.262595E6,4.67971E6,7.226989E6,4.477348E6,5.600004E6,5.108167E6,2.853542E7],"tree_param":{"num_deleted":"0","num_feature":"7","num_nodes":"63","size_leaf_vector":"1"}},{"base_weights":[1.2411382E-6,7.3185028E-3,-1.19839655E-2,-9.779297E-3,4.0641192E-2,-2.0603739E-2,-8.917557E-4,-1.7333329E-2,-1.4938448E-3,9.076671E-2,-2.642998E-2,-8.824509E-3,-3.2700095E-2,4.413461E-3,-3.2223628E-3,-5.573433E-3,-3.2385882E-2,-3.118996E-3,2.3079878E-2,1.2911862E-1,3.6297046E-2,7.5946217E-3,-4.6529736E-2,-5.7004243E-3,-1.6156107E-2,-9.238832E-3,-3.781829E-2,1.641401E-2,-2.4645498E-3,-1.7034013E-2,2.8000973E-4,-2.1461889E-3,1.4966508E-4,-6.473089E-3,-7.619557E-4,-2.251991E-3,-1.1083918E-4,5.760331E-3,-9.1501273E-4,9.644048E-3,2.7192296E-2,1.4119678E-2,2.9078592E-3,-1.555242E-4,6.6355634E-3,-9.918472E-3,-5.332615E-3,-2.6260768E-3,-6.914363E-4,-1.6449428E-3,-3.4270643E-3,-2.9931224E-3,4.7410377E-3,-4.342222E-3,-7.846716E-3,4.4289334E-3,8.716421E-4,-1.0485431E-3,2.8301558E-5,-3.2637282E-3,-1.9229114E-3,-6.3706614E-4,1.8257566E-4],"categories":[],"categories_nodes":[],"categories_segments":[],"categories_sizes":[],"default_left":[0,0,0,0,0,0,0,0,0,0,0,0,0,0,0,0,0,0,0,0,0,0,0,0,0,0,0,0,0,0,0,0,0,0,0,0,0,0,0,0,0,0,0,0,0,0,0,0,0,0,0,0,0,0,0,0,0,0,0,0,0,0,0],"id":19,"left_children":[1,3,5,7,9,11,13,15,17,19,21,23,25,27,29,31,33,35,37,39,41,43,45,47,49,51,53,55,57,59,61,-1,-1,-1,-1,-1,-1,-1,-1,-1,-1,-1,-1,-1,-1,-1,-1,-1,-1,-1,-1,-1,-1,-1,-1,-1,-1,-1,-1,-1,-1,-1,-1],"loss_changes":[3.3293844E4,1.3430208E5,1.3760031E4,9.750582E3,2.6873888E5,1.1538914E4,7.781141E2,1.4425281E4,2.9671401E3,9.556478E4,2.3380998E4,9.3975586E2,4.7976016E3,1.5854343E3,2.1150767E3,2.6258306E3,1.0509344E4,1.9728275E3,2.0606018E3,9.077575E4,1.8486555E4,4.0155562E3,4.623285E3,3.7054028E2,4.2570288E2,3.1316333E3,4.216453E3,9.7293835E2,1.4661565E2,1.761023E2,1.4797966E2,0E0,0E0,0E0,0E0,0E0,0E0,0E0,0E0,0E0,0E0,0E0,0E0,0E0,0E0,0E0,0E0,0E0,0E0,0E0,0E0,0E0,0E0,0E0,0E0,0E0,0E0,0E0,0E0,0E0,0E0,0E0,0E0],"parents":[2147483647,0,0,1,1,2,2,3,3,4,4,5,5,6,6,7,7,8,8,9,9,10,10,11,11,12,12,13,13,14,14,15,15,16,16,17,17,18,18,19,19,20,20,21,21,22,22,23,23,24,24,25,25,26,26,27,27,28,28,29,29,30,30],"right_children":[2,4,6,8,10,12,14,16,18,20,22,24,26,28,30,32,34,36,38,40,42,44,46,48,50,52,54,56,58,60,62,-1,-1,-1,-1,-1,-1,-1,-1,-1,-1,-1,-1,-1,-1,-1,-1,-1,-1,-1,-1,-1,-1,-1,-1,-1,-1,-1,-1,-1,-1,-1,-1],"split_conditions":[8.032123E0,-6.518638E0,1.745937E1,1.2007602E1,1.3968528E1,6.012092E0,2.006498E1,6.012092E0,-9.508507E0,3.9632168E0,3.5026127E1,4.459075E0,1.1044419E1,7.000584E1,3.995974E1,-1.9958872E1,-1.1950484E1,2.2450943E1,3.995974E1,-2.5453885E0,5.65E1,5.9667625E0,8.31E1,9.068479E0,2.006498E1,1.0044604E1,-1.13E1,1.3E1,1.2553925E1,2.253701E1,7.996611E1,-2.1461889E-3,1.4966508E-4,-6.473089E-3,-7.619557E-4,-2.251991E-3,-1.1083918E-4,5.760331E-3,-9.1501273E-4,9.644048E-3,2.7192296E-2,1.4119678E-2,2.9078592E-3,-1.555242E-4,6.6355634E-3,-9.918472E-3,-5.332615E-3,-2.6260768E-3,-6.914363E-4,-1.6449428E-3,-3.4270643E-3,-2.9931224E-3,4.7410377E-3,-4.342222E-3,-7.846716E-3,4.4289334E-3,8.716421E-4,-1.0485431E-3,2.8301558E-5,-3.2637282E-3,-1.9229114E-3,-6.3706614E-4,1.8257566E-4],"split_indices":[1,1,0,0,0,0,1,0,1,1,0,0,1,0,0,1,1,0,0,1,5,1,5,1,1,0,4,1,1,0,0,0,0,0,0,0,0,0,0,0,0,0,0,0,0,0,0,0,0,0,0,0,0,0,0,0,0,0,0,0,0,0,0],"split_type":[0,0,0,0,0,0,0,0,0,0,0,0,0,0,0,0,0,0,0,0,0,0,0,0,0,0,0,0,0,0,0,0,0,0,0,0,0,0,0,0,0,0,0,0,0,0,0,0,0,0,0,0,0,0,0,0,0,0,0,0,0,0,0],"sum_hessian":[3.796381E8,2.3572328E8,1.4391483E8,1.5578853E8,7.993475E7,8.09829E7,6.293193E7,8.149118E7,7.429734E7,4.574632E7,3.418843E7,4.102928E7,3.995362E7,1.9208092E7,4.3723836E7,4.574929E7,3.5741896E7,6.968858E7,4.608763E6,2.684491E7,1.8901412E7,1.2696302E7,2.1492132E7,2.8770022E7,1.2259259E7,7.155152E6,3.2798468E7,6.998068E6,1.2210024E7,8.84469E6,3.4879148E7,1.9641564E7,2.6107724E7,2.5633476E7,1.0108423E7,1.1619696E7,5.806888E7,3.021946E6,1.586817E6,1.1969745E7,1.4875165E7,4.276484E6,1.4624928E7,1.0275759E7,2.420543E6,7.718125E6,1.3774007E7,2.4333E6,2.6336722E7,6.904123E6,5.355136E6,5.668183E6,1.486969E6,2.0346152E7,1.2452316E7,3.128825E6,3.869243E6,4.512623E6,7.697401E6,4.170239E6,4.674451E6,5.982013E6,2.8897134E7],"tree_param":{"num_deleted":"0","num_feature":"7","num_nodes":"63","size_leaf_vector":"1"}},{"base_weights":[-5.2951634E-7,-1.0630402E-2,6.0691647E-3,-1.8234776E-2,-8.8451774E-4,3.2145124E-2,-9.492839E-3,-3.7628259E-3,-2.7306711E-2,-3.0889052E-3,1.5877341E-3,6.410293E-2,-2.6556658E-2,-1.7326346E-2,-7.361002E-4,-1.0581394E-2,1.2128701E-4,-4.211724E-2,-1.9657496E-2,-1.9002615E-2,1.6104953E-3,8.468725E-3,-6.2500513E-3,1.3383548E-1,3.9175466E-2,-3.2058246E-3,-4.3977823E-2,-8.239952E-3,-2.9006556E-2,2.4028383E-2,-2.0265917E-3,-4.1169003E-3,-6.0990185E-4,1.0235783E-3,-6.090861E-4,-8.366271E-3,-1.1396783E-3,-3.910983E-3,-1.96885E-3,-3.2060086E-3,-1.9270448E-3,-7.0961396E-4,4.2203584E-4,-1.4139814E-4,2.200304E-3,-2.684109E-4,-3.1191977E-3,1.0244957E-2,2.6442902E-2,5.26782E-4,9.339965E-3,3.951799E-3,-2.0588012E-3,-1.991306E-3,-8.13435E-3,-9.27646E-4,-2.186439E-3,-1.0880049E-3,-5.3808643E-3,6.658077E-3,9.2187844E-4,-1.7077447E-3,-6.5961714E-5],"categories":[],"categories_nodes":[],"categories_segments":[],"categories_sizes":[],"default_left":[0,0,0,0,0,0,0,0,0,0,0,0,0,0,0,0,0,0,0,0,0,0,0,0,0,0,0,0,0,0,0,0,0,0,0,0,0,0,0,0,0,0,0,0,0,0,0,0,0,0,0,0,0,0,0,0,0,0,0,0,0,0,0],"id":20,"left_children":[1,3,5,7,9,11,13,15,17,19,21,23,25,27,29,31,33,35,37,39,41,43,45,47,49,51,53,55,57,59,61,-1,-1,-1,-1,-1,-1,-1,-1,-1,-1,-1,-1,-1,-1,-1,-1,-1,-1,-1,-1,-1,-1,-1,-1,-1,-1,-1,-1,-1,-1,-1,-1],"loss_changes":[2.4494846E4,1.02264795E4,9.806374E4,1.0176156E4,3.2959433E2,1.6943653E5,1.0381308E4,7.9097656E2,5.397508E3,2.3909568E3,1.5374375E3,1.0165528E5,1.2951543E4,8.477842E3,2.2837124E3,1.1909512E3,5.3332263E2,7.6500547E3,1.3165938E3,1.0637036E2,1.8830176E2,8.8576306E2,8.6463306E2,4.2843938E4,3.5477438E4,4.2289004E3,5.7389023E3,5.852114E2,5.220205E3,1.288553E3,1.00862775E3,0E0,0E0,0E0,0E0,0E0,0E0,0E0,0E0,0E0,0E0,0E0,0E0,0E0,0E0,0E0,0E0,0E0,0E0,0E0,0E0,0E0,0E0,0E0,0E0,0E0,0E0,0E0,0E0,0E0,0E0,0E0,0E0],"parents":[2147483647,0,0,1,1,2,2,3,3,4,4,5,5,6,6,7,7,8,8,9,9,10,10,11,11,12,12,13,13,14,14,15,15,16,16,17,17,18,18,19,19,20,20,21,21,22,22,23,23,24,24,25,25,26,26,27,27,28,28,29,29,30,30],"right_children":[2,4,6,8,10,12,14,16,18,20,22,24,26,28,30,32,34,36,38,40,42,44,46,48,50,52,54,56,58,60,62,-1,-1,-1,-1,-1,-1,-1,-1,-1,-1,-1,-1,-1,-1,-1,-1,-1,-1,-1,-1,-1,-1,-1,-1,-1,-1,-1,-1,-1,-1,-1,-1],"split_conditions":[-9.017144E0,1.754812E1,7.4446006E0,4.549929E0,-3.9984177E1,1.5032451E1,1.3E1,-3.5E1,1.46E0,5.0050648E1,1.3999608E2,1.3E0,6.995548E1,6.4443774E0,9.068479E0,1.33E0,1.55E0,-1.5061038E1,2.09E0,2.2E0,9.002071E1,-2.4934635E1,-1.4011433E1,-4.439705E0,-4.439705E0,-4.9627934E0,-5.507569E0,4.549929E0,1.1044419E1,2.5044727E1,2.2450943E1,-4.1169003E-3,-6.0990185E-4,1.0235783E-3,-6.090861E-4,-8.366271E-3,-1.1396783E-3,-3.910983E-3,-1.96885E-3,-3.2060086E-3,-1.9270448E-3,-7.0961396E-4,4.2203584E-4,-1.4139814E-4,2.200304E-3,-2.684109E-4,-3.1191977E-3,1.0244957E-2,2.6442902E-2,5.26782E-4,9.339965E-3,3.951799E-3,-2.0588012E-3,-1.991306E-3,-8.13435E-3,-9.27646E-4,-2.186439E-3,-1.0880049E-3,-5.3808643E-3,6.658077E-3,9.2187844E-4,-1.7077447E-3,-6.5961714E-5],"split_indices":[1,0,1,0,1,0,0,1,6,0,0,6,0,0,1,6,6,1,6,6,0,1,1,1,1,1,1,0,1,0,0,0,0,0,0,0,0,0,0,0,0,0,0,0,0,0,0,0,0,0,0,0,0,0,0,0,0,0,0,0,0,0,0],"split_type":[0,0,0,0,0,0,0,0,0,0,0,0,0,0,0,0,0,0,0,0,0,0,0,0,0,0,0,0,0,0,0,0,0,0,0,0,0,0,0,0,0,0,0,0,0,0,0,0,0,0,0,0,0,0,0,0,0,0,0,0,0,0,0],"sum_hessian":[3.7964688E8,1.3798805E8,2.4165883E8,7.750982E7,6.0478224E7,9.031892E7,1.5133992E8,2.9866106E7,4.764372E7,3.197112E7,2.8507104E7,5.8481196E7,3.183772E7,7.988092E7,7.145899E7,1.0838717E7,1.9027388E7,1.6226231E7,3.1417488E7,7.288812E6,2.4682308E7,1.5180104E7,1.3326999E7,1.5400251E7,4.3080944E7,1.3603704E7,1.8234016E7,4.4929156E7,3.495177E7,3.539332E6,6.791966E7,3.020461E6,7.818256E6,7.310433E6,1.1716956E7,1.1626216E7,4.600015E6,1.5849615E7,1.5567873E7,5.262154E6,2.026658E6,3.936029E6,2.0746278E7,6.028703E6,9.151401E6,1.0199073E7,3.127926E6,6.053999E6,9.346252E6,1.6931124E7,2.614982E7,3.5713E6,1.0032404E7,4.56419E6,1.3669827E7,3.392357E7,1.1005591E7,8.38512E6,2.6566646E7,1.655073E6,1.884259E6,9.847049E6,5.8072616E7],"tree_param":{"num_deleted":"0","num_feature":"7","num_nodes":"63","size_leaf_vector":"1"}},{"base_weights":[-7.427365E-7,-1.031587E-2,4.6061017E-3,-1.8201405E-2,-8.134925E-3,2.1871077E-2,-8.06884E-3,-2.3619168E-2,-1.0646678E-2,-9.987994E-3,-4.3686116E-3,6.1092284E-2,1.3467597E-2,-2.1759411E-3,-1.0762354E-2,-2.852278E-2,-2.0100754E-2,-1.3954129E-2,-1.8278932E-3,-1.1777804E-2,-7.492007E-3,-5.4208743E-3,-3.2156885E-3,1.3315826E-2,8.097152E-2,2.3350881E-2,-5.07561E-3,5.768979E-3,-4.225016E-3,-1.9403609E-2,-8.372373E-3,-4.953028E-3,-3.9263223E-3,-3.3640524E-3,-2.7222475E-3,-3.039203E-3,-1.8199775E-3,-1.1027139E-3,-1.3552974E-4,-1.9745585E-3,-1.3546626E-3,-1.2935475E-3,-6.7143474E-4,-9.220433E-4,-7.4502925E-4,-3.5332862E-4,-8.8980113E-4,1.4053794E-3,3.5776861E-3,2.0493682E-2,1.0364534E-2,6.187324E-4,5.3257854E-3,2.6864687E-4,-2.2764641E-3,3.0208668E-3,-1.135693E-4,9.923947E-6,-1.0903385E-3,-3.8906806E-3,-2.5851822E-3,-1.5445321E-3,-6.692596E-4],"categories":[],"categories_nodes":[],"categories_segments":[],"categories_sizes":[],"default_left":[0,0,0,0,0,0,0,0,0,0,0,0,0,0,0,0,0,0,0,0,0,0,0,0,0,0,0,0,0,0,0,0,0,0,0,0,0,0,0,0,0,0,0,0,0,0,0,0,0,0,0,0,0,0,0,0,0,0,0,0,0,0,0],"id":21,"left_children":[1,3,5,7,9,11,13,15,17,19,21,23,25,27,29,31,33,35,37,39,41,43,45,47,49,51,53,55,57,59,61,-1,-1,-1,-1,-1,-1,-1,-1,-1,-1,-1,-1,-1,-1,-1,-1,-1,-1,-1,-1,-1,-1,-1,-1,-1,-1,-1,-1,-1,-1,-1,-1],"loss_changes":[1.8040477E4,2.0156865E3,5.742885E4,1.0393291E3,6.407793E2,3.661792E4,2.4020488E3,2.5513672E2,3.0932373E2,2.7490186E2,3.673059E1,1.8618906E4,1.6768287E4,7.728382E2,2.1449746E3,6.521777E1,3.9105713E1,8.857849E1,1.4768533E1,1.3642383E2,8.7702515E1,5.218048E0,3.375551E1,2.3950446E2,9.14868E3,1.3947125E4,2.2063687E3,9.127987E2,4.9294592E2,3.189248E2,6.123096E2,0E0,0E0,0E0,0E0,0E0,0E0,0E0,0E0,0E0,0E0,0E0,0E0,0E0,0E0,0E0,0E0,0E0,0E0,0E0,0E0,0E0,0E0,0E0,0E0,0E0,0E0,0E0,0E0,0E0,0E0,0E0,0E0],"parents":[2147483647,0,0,1,1,2,2,3,3,4,4,5,5,6,6,7,7,8,8,9,9,10,10,11,11,12,12,13,13,14,14,15,15,16,16,17,17,18,18,19,19,20,20,21,21,22,22,23,23,24,24,25,25,26,26,27,27,28,28,29,29,30,30],"right_children":[2,4,6,8,10,12,14,16,18,20,22,24,26,28,30,32,34,36,38,40,42,44,46,48,50,52,54,56,58,60,62,-1,-1,-1,-1,-1,-1,-1,-1,-1,-1,-1,-1,-1,-1,-1,-1,-1,-1,-1,-1,-1,-1,-1,-1,-1,-1,-1,-1,-1,-1,-1,-1],"split_conditions":[-1.2959122E1,1.21E0,7.4446006E0,-3.0042578E1,2.23E0,1.14E0,1.5050434E1,9.5E-1,-1.5061038E1,-3.0042578E1,2.52E0,-7.515904E0,2.18E0,1.19E0,1.21E0,7.9E-1,-6.9963356E1,8.4E-1,7.9E-1,1.87E0,-1.5061038E1,2.34E0,-1.9958872E1,-8.532857E0,7.9E-1,-6.001464E0,2.54E0,9.068479E0,6.4278764E-1,8.6E-1,2.23E0,-4.953028E-3,-3.9263223E-3,-3.3640524E-3,-2.7222475E-3,-3.039203E-3,-1.8199775E-3,-1.1027139E-3,-1.3552974E-4,-1.9745585E-3,-1.3546626E-3,-1.2935475E-3,-6.7143474E-4,-9.220433E-4,-7.4502925E-4,-3.5332862E-4,-8.8980113E-4,1.4053794E-3,3.5776861E-3,2.0493682E-2,1.0364534E-2,6.187324E-4,5.3257854E-3,2.6864687E-4,-2.2764641E-3,3.0208668E-3,-1.135693E-4,9.923947E-6,-1.0903385E-3,-3.8906806E-3,-2.5851822E-3,-1.5445321E-3,-6.692596E-4],"split_indices":[1,6,1,1,6,6,1,6,1,1,6,1,6,6,6,6,1,6,6,6,1,6,1,1,6,1,6,1,2,6,6,0,0,0,0,0,0,0,0,0,0,0,0,0,0,0,0,0,0,0,0,0,0,0,0,0,0,0,0,0,0,0,0],"split_type":[0,0,0,0,0,0,0,0,0,0,0,0,0,0,0,0,0,0,0,0,0,0,0,0,0,0,0,0,0,0,0,0,0,0,0,0,0,0,0,0,0,0,0,0,0,0,0,0,0,0,0,0,0,0,0,0,0,0,0,0,0,0,0],"sum_hessian":[3.7963814E8,1.1720528E8,2.6243286E8,2.539302E7,9.1812264E7,1.1109989E8,1.51333E8,1.478801E7,1.060501E7,6.1535892E7,3.0276368E7,1.9603816E7,9.149607E7,4.7472396E7,1.0386059E8,6.177887E6,8.610123E6,7.712475E6,2.892535E6,3.5837616E7,2.5698276E7,1.5829196E7,1.4447172E7,5.760179E6,1.3843637E7,5.9684836E7,3.1811234E7,9.733295E6,3.7739104E7,2.2502E7,8.135859E7,2.118617E6,4.05927E6,3.928929E6,4.681194E6,1.727817E6,5.984658E6,4.14669E5,2.477866E6,2.3819138E7,1.201848E7,1.868638E7,7.011894E6,6.089902E6,9.739294E6,1.0972547E7,3.474625E6,4.190423E6,1.569756E6,2.434379E6,1.1409258E7,2.3117348E7,3.656749E7,1.8937454E7,1.287378E7,3.039806E6,6.693489E6,1.5660943E7,2.207816E7,5.607994E6,1.6894006E7,5.4525484E7,2.6833104E7],"tree_param":{"num_deleted":"0","num_feature":"7","num_nodes":"63","size_leaf_vector":"1"}},{"base_weights":[1.4871632E-6,3.3512244E-3,-4.970205E-3,9.286133E-3,-3.0360539E-3,-3.0437033E-3,-6.718188E-3,1.5044996E-3,1.318144E-2,-6.532576E-4,-7.997857E-3,-4.5827734E-3,-2.3708574E-3,-9.66038E-3,-4.3163192E-3,-1.9178699E-3,4.314581E-3,3.0777011E-2,1.0672552E-2,-4.2857165E-3,1.1652713E-3,-5.8376496E-3,-1.1581488E-2,4.5338643E-4,-5.151E-3,-4.4383705E-3,-1.8410912E-3,-1.2933639E-2,-8.574064E-3,-4.9539884E-3,-2.3946036E-3,3.8093122E-4,-5.656533E-4,9.86669E-4,-1.9839639E-4,7.080189E-3,4.016172E-3,2.153208E-3,8.092051E-4,-3.9773577E-4,-1.2276003E-3,3.6020423E-4,-2.0923722E-4,-1.1760229E-3,-6.707393E-4,-1.482548E-3,-1.9990143E-3,7.8548567E-4,-6.211407E-4,-6.8163476E-4,-1.126631E-3,-1.2312463E-3,-4.0180777E-4,6.661028E-5,-3.511619E-4,-2.3757182E-3,-1.7728861E-3,-1.4445086E-3,-1.1573044E-3,-6.2117435E-4,-8.9542835E-4,-4.3859065E-4,-2.3856126E-4],"categories":[],"categories_nodes":[],"categories_segments":[],"categories_sizes":[],"default_left":[0,0,0,0,0,0,0,0,0,0,0,0,0,0,0,0,0,0,0,0,0,0,0,0,0,0,0,0,0,0,0,0,0,0,0,0,0,0,0,0,0,0,0,0,0,0,0,0,0,0,0,0,0,0,0,0,0,0,0,0,0,0,0],"id":22,"left_children":[1,3,5,7,9,11,13,15,17,19,21,23,25,27,29,31,33,35,37,39,41,43,45,47,49,51,53,55,57,59,61,-1,-1,-1,-1,-1,-1,-1,-1,-1,-1,-1,-1,-1,-1,-1,-1,-1,-1,-1,-1,-1,-1,-1,-1,-1,-1,-1,-1,-1,-1,-1,-1],"loss_changes":[6.3226914E3,8.598509E3,5.146438E2,3.5639678E3,1.2916537E3,7.528601E1,5.6623E2,3.772071E2,3.4589756E3,4.8754187E2,2.7438257E2,6.3286224E1,5.540677E1,1.2805176E2,5.4057556E1,1.4607901E2,2.7478467E2,6.4279297E2,1.332707E3,1.5685559E2,1.5564606E2,6.049237E1,3.9499268E1,4.9274258E1,2.845575E1,6.844737E1,4.6008286E1,2.9044922E1,2.4518188E1,2.7341248E1,4.678684E0,0E0,0E0,0E0,0E0,0E0,0E0,0E0,0E0,0E0,0E0,0E0,0E0,0E0,0E0,0E0,0E0,0E0,0E0,0E0,0E0,0E0,0E0,0E0,0E0,0E0,0E0,0E0,0E0,0E0,0E0,0E0,0E0],"parents":[2147483647,0,0,1,1,2,2,3,3,4,4,5,5,6,6,7,7,8,8,9,9,10,10,11,11,12,12,13,13,14,14,15,15,16,16,17,17,18,18,19,19,20,20,21,21,22,22,23,23,24,24,25,25,26,26,27,27,28,28,29,29,30,30],"right_children":[2,4,6,8,10,12,14,16,18,20,22,24,26,28,30,32,34,36,38,40,42,44,46,48,50,52,54,56,58,60,62,-1,-1,-1,-1,-1,-1,-1,-1,-1,-1,-1,-1,-1,-1,-1,-1,-1,-1,-1,-1,-1,-1,-1,-1,-1,-1,-1,-1,-1,-1,-1,-1],"split_conditions":[1.754812E1,1.79E0,1.200076E2,4.9846325E0,2.44E0,7.18E1,1.66E0,2.4591696E0,8.9E-1,4.9846325E0,2.71E0,2.25E1,2.4966099E1,1E0,2.49E0,3.94E1,9.2718387E-1,6.9E-1,9.460774E0,9.2718387E-1,1.515E2,5.974045E0,2.85E0,4.0036793E1,8.004203E1,-2.46E1,3.494678E1,7.9E-1,1.3E0,5.0002737E2,2.73E0,3.8093122E-4,-5.656533E-4,9.86669E-4,-1.9839639E-4,7.080189E-3,4.016172E-3,2.153208E-3,8.092051E-4,-3.9773577E-4,-1.2276003E-3,3.6020423E-4,-2.0923722E-4,-1.1760229E-3,-6.707393E-4,-1.482548E-3,-1.9990143E-3,7.8548567E-4,-6.211407E-4,-6.8163476E-4,-1.126631E-3,-1.2312463E-3,-4.0180777E-4,6.661028E-5,-3.511619E-4,-2.3757182E-3,-1.7728861E-3,-1.4445086E-3,-1.1573044E-3,-6.2117435E-4,-8.9542835E-4,-4.3859065E-4,-2.3856126E-4],"split_indices":[0,6,0,0,6,5,6,0,6,0,6,5,0,6,6,5,2,6,0,2,5,0,6,0,0,4,0,6,6,0,6,0,0,0,0,0,0,0,0,0,0,0,0,0,0,0,0,0,0,0,0,0,0,0,0,0,0,0,0,0,0,0,0],"split_type":[0,0,0,0,0,0,0,0,0,0,0,0,0,0,0,0,0,0,0,0,0,0,0,0,0,0,0,0,0,0,0,0,0,0,0,0,0,0,0,0,0,0,0,0,0,0,0,0,0,0,0,0,0,0,0,0,0,0,0,0,0,0,0],"sum_hessian":[3.7965315E8,2.2682626E8,1.5282691E8,1.1757674E8,1.0924953E8,7.270102E7,8.012588E7,3.9222388E7,7.8354344E7,7.380589E7,3.544364E7,2.211503E7,5.0585996E7,3.601228E7,4.41136E7,1.7684552E7,2.1537836E7,9.778041E6,6.85763E7,2.4622716E7,4.918317E7,2.2113598E7,1.3330043E7,2.242234E6,1.9872796E7,1.0318006E7,4.026799E7,8.973514E6,2.7038766E7,3.3122726E7,1.0990875E7,5.193223E6,1.2491329E7,1.5367963E7,6.169874E6,1.915959E6,7.862082E6,4.0394508E7,2.8181796E7,1.7349768E7,7.272948E6,3.3168836E7,1.6014332E7,8.967746E6,1.3145852E7,6.756853E6,6.57319E6,1.098538E6,1.143696E6,1.5808207E7,4.064589E6,3.283443E6,7.034563E6,7.228885E6,3.3039104E7,2.48827E6,6.485244E6,1.212633E7,1.4912436E7,1.8397496E7,1.4725231E7,6.628132E6,4.362743E6],"tree_param":{"num_deleted":"0","num_feature":"7","num_nodes":"63","size_leaf_vector":"1"}},{"base_weights":[-7.806147E-7,2.3022946E-3,-2.8787514E-3,7.794199E-3,1.139921E-3,-1.6546517E-3,-4.9813506E-3,4.3317974E-3,1.0900829E-2,1.5612926E-3,-1.316258E-3,-1.3510631E-3,-3.5678085E-3,-4.210699E-3,-7.4114506E-3,5.929918E-3,2.733347E-3,1.5626166E-2,9.628931E-3,2.600197E-3,6.8211E-4,3.6437577E-3,-1.8380022E-3,-2.4709702E-3,-2.724003E-4,-1.9087231E-3,-4.4736187E-3,-5.625222E-3,-3.8356446E-3,-6.818914E-3,-8.466931E-3,5.5214326E-4,1.0562565E-3,6.5130915E-4,2.0828786E-4,1.7979299E-3,2.6213326E-3,1.2046782E-3,1.9036353E-3,3.5174878E-4,9.2719257E-4,7.929371E-5,5.984719E-4,1.1669002E-3,4.4317232E-4,-1.1185203E-4,-3.9273148E-4,-3.278975E-4,-5.6116615E-4,1.6495149E-4,-1.13377704E-4,