{"learner":{"attributes":{"best_iteration":"999","best_score":"0.00125680981544777","scikit_learn":"{\"_estimator_type\": \"regressor\"}"},"feature_names":[],"feature_types":[],"gradient_booster":{"model":{"gbtree_model_param":{"num_parallel_tree":"1","num_trees":"1000"},"iteration_indptr":[0,1,2,3,4,5,6,7,8,9,10,11,12,13,14,15,16,17,18,19,20,21,22,23,24,25,26,27,28,29,30,31,32,33,34,35,36,37,38,39,40,41,42,43,44,45,46,47,48,49,50,51,52,53,54,55,56,57,58,59,60,61,62,63,64,65,66,67,68,69,70,71,72,73,74,75,76,77,78,79,80,81,82,83,84,85,86,87,88,89,90,91,92,93,94,95,96,97,98,99,100,101,102,103,104,105,106,107,108,109,110,111,112,113,114,115,116,117,118,119,120,121,122,123,124,125,126,127,128,129,130,131,132,133,134,135,136,137,138,139,140,141,142,143,144,145,146,147,148,149,150,151,152,153,154,155,156,157,158,159,160,161,162,163,164,165,166,167,168,169,170,171,172,173,174,175,176,177,178,179,180,181,182,183,184,185,186,187,188,189,190,191,192,193,194,195,196,197,198,199,200,201,202,203,204,205,206,207,208,209,210,211,212,213,214,215,216,217,218,219,220,221,222,223,224,225,226,227,228,229,230,231,232,233,234,235,236,237,238,239,240,241,242,243,244,245,246,247,248,249,250,251,252,253,254,255,256,257,258,259,260,261,262,263,264,265,266,267,268,269,270,271,272,273,274,275,276,277,278,279,280,281,282,283,284,285,286,287,288,289,290,291,292,293,294,295,296,297,298,299,300,301,302,303,304,305,306,307,308,309,310,311,312,313,314,315,316,317,318,319,320,321,322,323,324,325,326,327,328,329,330,331,332,333,334,335,336,337,338,339,340,341,342,343,344,345,346,347,348,349,350,351,352,353,354,355,356,357,358,359,360,361,362,363,364,365,366,367,368,369,370,371,372,373,374,375,376,377,378,379,380,381,382,383,384,385,386,387,388,389,390,391,392,393,394,395,396,397,398,399,400,401,402,403,404,405,406,407,408,409,410,411,412,413,414,415,416,417,418,419,420,421,422,423,424,425,426,427,428,429,430,431,432,433,434,435,436,437,438,439,440,441,442,443,444,445,446,447,448,449,450,451,452,453,454,455,456,457,458,459,460,461,462,463,464,465,466,467,468,469,470,471,472,473,474,475,476,477,478,479,480,481,482,483,484,485,486,487,488,489,490,491,492,493,494,495,496,497,498,499,500,501,502,503,504,505,506,507,508,509,510,511,512,513,514,515,516,517,518,519,520,521,522,523,524,525,526,527,528,529,530,531,532,533,534,535,536,537,538,539,540,541,542,543,544,545,546,547,548,549,550,551,552,553,554,555,556,557,558,559,560,561,562,563,564,565,566,567,568,569,570,571,572,573,574,575,576,577,578,579,580,581,582,583,584,585,586,587,588,589,590,591,592,593,594,595,596,597,598,599,600,601,602,603,604,605,606,607,608,609,610,611,612,613,614,615,616,617,618,619,620,621,622,623,624,625,626,627,628,629,630,631,632,633,634,635,636,637,638,639,640,641,642,643,644,645,646,647,648,649,650,651,652,653,654,655,656,657,658,659,660,661,662,663,664,665,666,667,668,669,670,671,672,673,674,675,676,677,678,679,680,681,682,683,684,685,686,687,688,689,690,691,692,693,694,695,696,697,698,699,700,701,702,703,704,705,706,707,708,709,710,711,712,713,714,715,716,717,718,719,720,721,722,723,724,725,726,727,728,729,730,731,732,733,734,735,736,737,738,739,740,741,742,743,744,745,746,747,748,749,750,751,752,753,754,755,756,757,758,759,760,761,762,763,764,765,766,767,768,769,770,771,772,773,774,775,776,777,778,779,780,781,782,783,784,785,786,787,788,789,790,791,792,793,794,795,796,797,798,799,800,801,802,803,804,805,806,807,808,809,810,811,812,813,814,815,816,817,818,819,820,821,822,823,824,825,826,827,828,829,830,831,832,833,834,835,836,837,838,839,840,841,842,843,844,845,846,847,848,849,850,851,852,853,854,855,856,857,858,859,860,861,862,863,864,865,866,867,868,869,870,871,872,873,874,875,876,877,878,879,880,881,882,883,884,885,886,887,888,889,890,891,892,893,894,895,896,897,898,899,900,901,902,903,904,905,906,907,908,909,910,911,912,913,914,915,916,917,918,919,920,921,922,923,924,925,926,927,928,929,930,931,932,933,934,935,936,937,938,939,940,941,942,943,944,945,946,947,948,949,950,951,952,953,954,955,956,957,958,959,960,961,962,963,964,965,966,967,968,969,970,971,972,973,974,975,976,977,978,979,980,981,982,983,984,985,986,987,988,989,990,991,992,993,994,995,996,997,998,999,1000],"tree_info":[0,0,0,0,0,0,0,0,0,0,0,0,0,0,0,0,0,0,0,0,0,0,0,0,0,0,0,0,0,0,0,0,0,0,0,0,0,0,0,0,0,0,0,0,0,0,0,0,0,0,0,0,0,0,0,0,0,0,0,0,0,0,0,0,0,0,0,0,0,0,0,0,0,0,0,0,0,0,0,0,0,0,0,0,0,0,0,0,0,0,0,0,0,0,0,0,0,0,0,0,0,0,0,0,0,0,0,0,0,0,0,0,0,0,0,0,0,0,0,0,0,0,0,0,0,0,0,0,0,0,0,0,0,0,0,0,0,0,0,0,0,0,0,0,0,0,0,0,0,0,0,0,0,0,0,0,0,0,0,0,0,0,0,0,0,0,0,0,0,0,0,0,0,0,0,0,0,0,0,0,0,0,0,0,0,0,0,0,0,0,0,0,0,0,0,0,0,0,0,0,0,0,0,0,0,0,0,0,0,0,0,0,0,0,0,0,0,0,0,0,0,0,0,0,0,0,0,0,0,0,0,0,0,0,0,0,0,0,0,0,0,0,0,0,0,0,0,0,0,0,0,0,0,0,0,0,0,0,0,0,0,0,0,0,0,0,0,0,0,0,0,0,0,0,0,0,0,0,0,0,0,0,0,0,0,0,0,0,0,0,0,0,0,0,0,0,0,0,0,0,0,0,0,0,0,0,0,0,0,0,0,0,0,0,0,0,0,0,0,0,0,0,0,0,0,0,0,0,0,0,0,0,0,0,0,0,0,0,0,0,0,0,0,0,0,0,0,0,0,0,0,0,0,0,0,0,0,0,0,0,0,0,0,0,0,0,0,0,0,0,0,0,0,0,0,0,0,0,0,0,0,0,0,0,0,0,0,0,0,0,0,0,0,0,0,0,0,0,0,0,0,0,0,0,0,0,0,0,0,0,0,0,0,0,0,0,0,0,0,0,0,0,0,0,0,0,0,0,0,0,0,0,0,0,0,0,0,0,0,0,0,0,0,0,0,0,0,0,0,0,0,0,0,0,0,0,0,0,0,0,0,0,0,0,0,0,0,0,0,0,0,0,0,0,0,0,0,0,0,0,0,0,0,0,0,0,0,0,0,0,0,0,0,0,0,0,0,0,0,0,0,0,0,0,0,0,0,0,0,0,0,0,0,0,0,0,0,0,0,0,0,0,0,0,0,0,0,0,0,0,0,0,0,0,0,0,0,0,0,0,0,0,0,0,0,0,0,0,0,0,0,0,0,0,0,0,0,0,0,0,0,0,0,0,0,0,0,0,0,0,0,0,0,0,0,0,0,0,0,0,0,0,0,0,0,0,0,0,0,0,0,0,0,0,0,0,0,0,0,0,0,0,0,0,0,0,0,0,0,0,0,0,0,0,0,0,0,0,0,0,0,0,0,0,0,0,0,0,0,0,0,0,0,0,0,0,0,0,0,0,0,0,0,0,0,0,0,0,0,0,0,0,0,0,0,0,0,0,0,0,0,0,0,0,0,0,0,0,0,0,0,0,0,0,0,0,0,0,0,0,0,0,0,0,0,0,0,0,0,0,0,0,0,0,0,0,0,0,0,0,0,0,0,0,0,0,0,0,0,0,0,0,0,0,0,0,0,0,0,0,0,0,0,0,0,0,0,0,0,0,0,0,0,0,0,0,0,0,0,0,0,0,0,0,0,0,0,0,0,0,0,0,0,0,0,0,0,0,0,0,0,0,0,0,0,0,0,0,0,0,0,0,0,0,0,0,0,0,0,0,0,0,0,0,0,0,0,0,0,0,0,0,0,0,0,0,0,0,0,0,0,0,0,0,0,0,0,0,0,0,0,0,0,0,0,0,0,0,0,0,0,0,0,0,0,0,0,0,0,0,0,0,0,0,0,0,0,0,0,0,0,0,0,0,0,0,0,0,0,0,0,0,0,0,0,0,0,0,0,0,0,0,0,0,0,0,0,0,0,0,0,0,0,0,0,0,0,0,0,0,0,0,0,0,0,0,0,0,0,0,0,0,0,0,0,0,0,0,0,0,0,0,0,0,0,0,0,0,0,0,0,0,0,0,0,0,0,0,0,0,0,0,0,0,0,0,0,0,0,0,0,0,0,0,0,0,0,0,0,0,0,0,0,0,0,0,0,0,0,0,0,0,0,0,0,0,0,0,0,0,0,0,0,0,0,0,0,0,0,0,0,0,0,0,0,0,0,0,0,0,0,0,0,0,0,0,0,0,0,0,0,0,0,0,0,0,0,0,0,0],"trees":[{"base_weights":[-2.520383E-7,-7.1364096E-3,3.3655372E-3,-8.77185E-3,-3.9834017E-3,6.712602E-3,-7.4461065E-3,-9.470265E-3,-7.3747844E-3,-2.8436747E-3,-8.407439E-3,-5.395177E-3,1.4529004E-2,-4.77865E-3,-8.911625E-3,-9.714468E-3,-8.982047E-3,-6.920327E-3,-9.238502E-3,-8.05893E-3,-7.561109E-4,-6.982573E-3,-9.319531E-3,-7.953325E-3,9.6592744E-4,3.0116571E-2,1.1728193E-2,-1.3424276E-3,-5.3961207E-3,-7.654407E-3,-9.451412E-3,-1.4093489E-3,-1.4657639E-3,-1.228122E-3,-1.3687215E-3,-1.3607056E-3,-9.1705786E-4,-1.2905194E-3,-1.4431699E-3,-1.3722044E-3,-9.3246845E-4,7.865004E-4,-2.7506828E-4,-7.421153E-4,-1.1022767E-3,-1.3099657E-3,-1.4470523E-3,-1.3792446E-3,-9.0509595E-4,1.2075223E-3,-4.5915254E-5,8.94679E-3,4.014563E-3,2.1480352E-3,3.5588676E-4,3.3677038E-4,-4.012853E-4,-5.1900337E-4,-9.1765646E-4,-9.057399E-4,-1.1917362E-3,-1.3621073E-3,-1.4540434E-3],"categories":[],"categories_nodes":[],"categories_segments":[],"categories_sizes":[],"default_left":[0,0,0,0,0,0,0,0,0,0,0,0,0,0,0,0,0,0,0,0,0,0,0,0,0,0,0,0,0,0,0,0,0,0,0,0,0,0,0,0,0,0,0,0,0,0,0,0,0,0,0,0,0,0,0,0,0,0,0,0,0,0,0],"id":0,"left_children":[1,3,5,7,9,11,13,15,17,19,21,23,25,27,29,31,33,35,37,39,41,43,45,47,49,51,53,55,57,59,61,-1,-1,-1,-1,-1,-1,-1,-1,-1,-1,-1,-1,-1,-1,-1,-1,-1,-1,-1,-1,-1,-1,-1,-1,-1,-1,-1,-1,-1,-1,-1,-1],"loss_changes":[5.6653584E3,3.898098E2,5.79998E3,4.856836E1,1.3018253E2,1.158271E4,1.4811523E2,3.956543E0,1.4051575E1,2.2351073E2,6.8734436E0,7.8130994E2,3.2470195E3,2.8506073E1,1.659497E1,4.038086E-1,1.2550049E0,2.3141968E1,7.9022217E-1,1.1776001E1,9.479124E1,1.5372543E0,6.1920166E-1,8.160547E1,1.2409423E2,1.1215449E3,1.528875E3,9.785267E0,1.5910614E1,3.448578E0,1.5360107E0,0E0,0E0,0E0,0E0,0E0,0E0,0E0,0E0,0E0,0E0,0E0,0E0,0E0,0E0,0E0,0E0,0E0,0E0,0E0,0E0,0E0,0E0,0E0,0E0,0E0,0E0,0E0,0E0,0E0,0E0,0E0,0E0],"parents":[2147483647,0,0,1,1,2,2,3,3,4,4,5,5,6,6,7,7,8,8,9,9,10,10,11,11,12,12,13,13,14,14,15,15,16,16,17,17,18,18,19,19,20,20,21,21,22,22,23,23,24,24,25,25,26,26,27,27,28,28,29,29,30,30],"right_children":[2,4,6,8,10,12,14,16,18,20,22,24,26,28,30,32,34,36,38,40,42,44,46,48,50,52,54,56,58,60,62,-1,-1,-1,-1,-1,-1,-1,-1,-1,-1,-1,-1,-1,-1,-1,-1,-1,-1,-1,-1,-1,-1,-1,-1,-1,-1,-1,-1,-1,-1,-1,-1],"split_conditions":[-1.7449549E1,-2.505364E1,2.004871E1,-4.005113E1,2.9950619E1,-1.4985306E1,4.003401E1,-6.005703E1,3.506124E1,-2.0049334E1,4.504392E1,-2.9949564E1,3.9E0,3.9E0,5.9945225E1,3.9E0,3.9E0,-3.0039852E1,5.9945225E1,-4.49559E1,3.9E0,3.9E0,6.996195E1,-4.504409E1,3.9E0,2.05E0,1.1978066E1,2.9950619E1,2.9950619E1,3.9E0,7.005262E1,-1.4093489E-3,-1.4657639E-3,-1.228122E-3,-1.3687215E-3,-1.3607056E-3,-9.1705786E-4,-1.2905194E-3,-1.4431699E-3,-1.3722044E-3,-9.3246845E-4,7.865004E-4,-2.7506828E-4,-7.421153E-4,-1.1022767E-3,-1.3099657E-3,-1.4470523E-3,-1.3792446E-3,-9.0509595E-4,1.2075223E-3,-4.5915254E-5,8.94679E-3,4.014563E-3,2.1480352E-3,3.5588676E-4,3.3677038E-4,-4.012853E-4,-5.1900337E-4,-9.1765646E-4,-9.057399E-4,-1.1917362E-3,-1.3621073E-3,-1.4540434E-3],"split_indices":[0,0,1,0,1,1,1,0,1,1,1,1,7,7,1,7,7,1,1,1,7,7,1,1,7,7,1,1,1,7,1,0,0,0,0,0,0,0,0,0,0,0,0,0,0,0,0,0,0,0,0,0,0,0,0,0,0,0,0,0,0,0,0],"split_type":[0,0,0,0,0,0,0,0,0,0,0,0,0,0,0,0,0,0,0,0,0,0,0,0,0,0,0,0,0,0,0,0,0,0,0,0,0,0,0,0,0,0,0,0,0,0,0,0,0,0,0,0,0,0,0,0,0,0,0,0,0,0,0],"sum_hessian":[2.358718E8,7.559501E7,1.602768E8,4.977639E7,2.5818618E7,1.2238797E8,3.7888824E7,3.3186098E7,1.6590293E7,2.052972E7,5.288897E6,4.8013696E7,7.437427E7,1.3435062E7,2.4453764E7,2.2121224E7,1.1064873E7,1.3337918E7,3.252375E6,5.868569E6,1.4661152E7,2.064208E6,3.224689E6,3.4242796E7,1.3770902E7,1.1328258E7,6.3046016E7,2.046469E6,1.1388593E7,7.345467E6,1.7108296E7,3.369679E6,1.8751546E7,1.685273E6,9.3796E6,3.637502E6,9.700416E6,1.222859E6,2.029516E6,3.688353E6,2.180216E6,2.232544E6,1.2428608E7,3.146E5,1.749608E6,1.155524E6,2.069165E6,2.0792208E7,1.3450588E7,2.096273E6,1.1674629E7,1.155103E6,1.0173155E7,4.936819E7,1.3677823E7,5.54338E5,1.492131E6,3.092119E6,8.296474E6,1.119178E6,6.226289E6,6.760921E6,1.0347376E7],"tree_param":{"num_deleted":"0","num_feature":"8","num_nodes":"63","size_leaf_vector":"1"}},{"base_weights":[5.1998267E-8,2.2931595E-3,-6.4626806E-3,-5.0459187E-3,8.172143E-3,-4.157617E-3,-7.589651E-3,-6.8482324E-3,-2.6389735E-4,2.606171E-2,6.97829E-3,4.746879E-4,-4.466766E-3,-6.7215604E-3,-8.116871E-3,-7.7692084E-3,-5.0936965E-3,9.033229E-3,-8.8405504E-4,1.30695235E-2,3.301417E-2,1.0886744E-2,4.109421E-3,-2.9729416E-3,2.3209015E-3,-3.5181409E-3,-5.415526E-3,-4.574875E-3,-6.8649915E-3,-7.84686E-3,-8.291243E-3,-1.2228148E-3,-1.0314266E-3,-2.8992112E-4,-8.1928435E-4,3.910033E-4,1.8796596E-3,1.663248E-4,-3.520075E-4,5.0165015E-3,1.2979903E-3,5.6003965E-3,1.8200382E-3,-2.4523257E-4,1.8841509E-3,7.977042E-4,-2.5875823E-4,2.7898492E-4,-6.0316344E-4,1.001236E-3,1.5613949E-4,-3.7221596E-4,-6.974752E-4,-6.9066975E-4,-9.0163795E-4,-8.93244E-4,-5.737065E-4,-9.609606E-4,-1.0802491E-3,-1.0639831E-3,-1.1914205E-3,-1.1913963E-3,-1.2503486E-3],"categories":[],"categories_nodes":[],"categories_segments":[],"categories_sizes":[],"default_left":[0,0,0,0,0,0,0,0,0,0,0,0,0,0,0,0,0,0,0,0,0,0,0,0,0,0,0,0,0,0,0,0,0,0,0,0,0,0,0,0,0,0,0,0,0,0,0,0,0,0,0,0,0,0,0,0,0,0,0,0,0,0,0],"id":1,"left_children":[1,3,5,7,9,11,13,15,17,19,21,23,25,27,29,31,33,35,37,39,41,43,45,47,49,51,53,55,57,59,61,-1,-1,-1,-1,-1,-1,-1,-1,-1,-1,-1,-1,-1,-1,-1,-1,-1,-1,-1,-1,-1,-1,-1,-1,-1,-1,-1,-1,-1,-1,-1,-1],"loss_changes":[3.4957202E3,7.512046E3,1.6047876E2,6.67407E2,2.0646147E3,2.905008E1,1.8989502E1,9.0878174E1,1.22213264E2,5.4626514E2,1.016126E3,8.077911E0,1.711499E1,4.8270874E0,1.215332E0,1.261084E1,2.2531006E1,2.9795639E1,5.792285E1,1.8967984E2,3.5550537E2,8.04208E2,3.6852386E2,2.2419922E0,4.6061134E0,1.1156021E1,4.5911255E0,1.0165157E0,2.2688599E0,7.324219E-1,2.4267578E-1,0E0,0E0,0E0,0E0,0E0,0E0,0E0,0E0,0E0,0E0,0E0,0E0,0E0,0E0,0E0,0E0,0E0,0E0,0E0,0E0,0E0,0E0,0E0,0E0,0E0,0E0,0E0,0E0,0E0,0E0,0E0,0E0],"parents":[2147483647,0,0,1,1,2,2,3,3,4,4,5,5,6,6,7,7,8,8,9,9,10,10,11,11,12,12,13,13,14,14,15,15,16,16,17,17,18,18,19,19,20,20,21,21,22,22,23,23,24,24,25,25,26,26,27,27,28,28,29,29,30,30],"right_children":[2,4,6,8,10,12,14,16,18,20,22,24,26,28,30,32,34,36,38,40,42,44,46,48,50,52,54,56,58,60,62,-1,-1,-1,-1,-1,-1,-1,-1,-1,-1,-1,-1,-1,-1,-1,-1,-1,-1,-1,-1,-1,-1,-1,-1,-1,-1,-1,-1,-1,-1,-1,-1],"split_conditions":[1.9959385E1,-1.2469678E1,3.506124E1,-2.496814E1,3.01E0,3.01E0,5.9945225E1,-4.0034054E1,3.01E0,2.64E2,5.62E0,2.64E2,2.9950619E1,3.01E0,7.005262E1,-5.994909E1,3.51E0,2.74E2,5.62E0,1.74E0,1.2037499E1,2.23E2,1.2037499E1,1.74E0,2.05E0,6.06E0,5.62E0,2.74E2,5.62E0,3.58E0,3.58E0,-1.2228148E-3,-1.0314266E-3,-2.8992112E-4,-8.1928435E-4,3.910033E-4,1.8796596E-3,1.663248E-4,-3.520075E-4,5.0165015E-3,1.2979903E-3,5.6003965E-3,1.8200382E-3,-2.4523257E-4,1.8841509E-3,7.977042E-4,-2.5875823E-4,2.7898492E-4,-6.0316344E-4,1.001236E-3,1.5613949E-4,-3.7221596E-4,-6.974752E-4,-6.9066975E-4,-9.0163795E-4,-8.93244E-4,-5.737065E-4,-9.609606E-4,-1.0802491E-3,-1.0639831E-3,-1.1914205E-3,-1.1913963E-3,-1.2503486E-3],"split_indices":[1,1,1,1,7,7,1,1,7,5,7,5,1,7,1,1,7,5,7,7,1,5,1,7,7,7,7,5,7,7,7,0,0,0,0,0,0,0,0,0,0,0,0,0,0,0,0,0,0,0,0,0,0,0,0,0,0,0,0,0,0,0,0],"split_type":[0,0,0,0,0,0,0,0,0,0,0,0,0,0,0,0,0,0,0,0,0,0,0,0,0,0,0,0,0,0,0,0,0,0,0,0,0,0,0,0,0,0,0,0,0,0,0,0,0,0,0,0,0,0,0,0,0,0,0,0,0,0,0],"sum_hessian":[2.358827E8,1.7410629E8,6.177641E7,7.743707E7,9.666922E7,2.0285396E7,4.1491012E7,5.624042E7,2.1196656E7,6.047596E6,9.062162E7,1.2691E6,1.9016296E7,1.5677456E7,2.5813556E7,3.6881104E7,1.9359316E7,1.32549E6,1.9871168E7,2.108119E6,3.939477E6,3.836051E7,5.2261104E7,4.42595E5,8.26505E5,9.508829E6,9.507468E6,9.81887E5,1.4695569E7,1.0129019E7,1.5684536E7,2.5813488E7,1.1067614E7,2.01981E6,1.7339506E7,4.67168E5,8.58322E5,8.41105E6,1.1460117E7,3.75552E5,1.732567E6,3.263919E6,6.75558E5,4.524235E6,3.3836276E7,4.3292996E7,8.96811E6,7.8882E4,3.63713E5,1.87771E5,6.38734E5,4.962697E6,4.546132E6,4.024792E6,5.482676E6,3.45768E5,6.36119E5,6.22132E6,8.474249E6,1.14388E6,8.985139E6,1.77253E6,1.3912006E7],"tree_param":{"num_deleted":"0","num_feature":"8","num_nodes":"63","size_leaf_vector":"1"}},{"base_weights":[2.597828E-7,-5.321455E-3,3.2498564E-3,-7.0851673E-3,-2.4622497E-3,6.269646E-3,-4.4599245E-3,-7.9075545E-3,-5.851166E-3,-6.200088E-3,-1.653394E-3,-3.1540818E-3,1.4017731E-2,-9.871463E-4,-5.9739477E-3,-8.171933E-3,-7.261483E-3,-6.4395666E-3,-5.2626017E-3,-6.8970663E-3,-5.347306E-3,-5.5929268E-6,-5.3165383E-3,-5.330162E-3,2.8655059E-3,2.3900552E-2,1.0316618E-2,5.181119E-3,-1.3985919E-3,-4.690641E-3,-6.670916E-3,-1.1078748E-3,-1.3479684E-3,-1.1128199E-3,-1.0656699E-3,-8.2296174E-4,-9.962056E-4,-5.7632755E-4,-8.4471476E-4,-1.0670952E-3,-9.845386E-4,-5.9376896E-4,-8.56191E-4,5.55614E-4,-2.0918433E-4,-5.405351E-4,-9.591004E-4,-9.3973835E-4,-4.2749947E-4,1.1465077E-3,1.6161203E-4,7.712962E-3,3.2645562E-3,8.9184404E-4,1.9580387E-3,1.6444259E-3,5.840531E-4,-7.574706E-5,-4.3588228E-4,-5.2034605E-4,-7.7220186E-4,-9.1447047E-4,-1.0383965E-3],"categories":[],"categories_nodes":[],"categories_segments":[],"categories_sizes":[],"default_left":[0,0,0,0,0,0,0,0,0,0,0,0,0,0,0,0,0,0,0,0,0,0,0,0,0,0,0,0,0,0,0,0,0,0,0,0,0,0,0,0,0,0,0,0,0,0,0,0,0,0,0,0,0,0,0,0,0,0,0,0,0,0,0],"id":2,"left_children":[1,3,5,7,9,11,13,15,17,19,21,23,25,27,29,31,33,35,37,39,41,43,45,47,49,51,53,55,57,59,61,-1,-1,-1,-1,-1,-1,-1,-1,-1,-1,-1,-1,-1,-1,-1,-1,-1,-1,-1,-1,-1,-1,-1,-1,-1,-1,-1,-1,-1,-1,-1,-1],"loss_changes":[4.079282E3,4.509807E2,3.409775E3,5.6131348E1,1.0315442E2,7.6839365E3,2.1672589E2,5.6691895E0,7.6603394E0,3.607666E0,1.6930899E2,6.2199475E2,2.1124521E3,3.176051E1,2.5674316E1,1.5081055E1,2.3803711E-1,2.1276855E0,5.7934265E0,2.4154663E-1,1.3672256E0,9.968578E1,1.6062225E1,8.08551E1,1.0771114E2,9.253125E2,5.0266553E2,5.824997E0,1.5802053E1,5.6450195E0,2.6898804E0,0E0,0E0,0E0,0E0,0E0,0E0,0E0,0E0,0E0,0E0,0E0,0E0,0E0,0E0,0E0,0E0,0E0,0E0,0E0,0E0,0E0,0E0,0E0,0E0,0E0,0E0,0E0,0E0,0E0,0E0,0E0,0E0],"parents":[2147483647,0,0,1,1,2,2,3,3,4,4,5,5,6,6,7,7,8,8,9,9,10,10,11,11,12,12,13,13,14,14,15,15,16,16,17,17,18,18,19,19,20,20,21,21,22,22,23,23,24,24,25,25,26,26,27,27,28,28,29,29,30,30],"right_children":[2,4,6,8,10,12,14,16,18,20,22,24,26,28,30,32,34,36,38,40,42,44,46,48,50,52,54,56,58,60,62,-1,-1,-1,-1,-1,-1,-1,-1,-1,-1,-1,-1,-1,-1,-1,-1,-1,-1,-1,-1,-1,-1,-1,-1,-1,-1,-1,-1,-1,-1,-1,-1],"split_conditions":[-1.3944756E1,-2.2551098E1,1.745635E1,-4.005113E1,-3.0039852E1,-1.2469678E1,3.0041723E1,1.9959385E1,-3.0051842E1,-5.994909E1,1.5963363E1,-2.0049334E1,4.7E0,3.01E0,4.9965153E1,-1.2469678E1,-7.0059906E1,4.07E0,4.32E0,-7.005129E1,4.32E0,4.7E0,3.506124E1,-3.5054955E1,4.7E0,2.18E0,-8.473329E0,1.86E0,6.52E0,4.7E0,6.003921E1,-1.1078748E-3,-1.3479684E-3,-1.1128199E-3,-1.0656699E-3,-8.2296174E-4,-9.962056E-4,-5.7632755E-4,-8.4471476E-4,-1.0670952E-3,-9.845386E-4,-5.9376896E-4,-8.56191E-4,5.55614E-4,-2.0918433E-4,-5.405351E-4,-9.591004E-4,-9.3973835E-4,-4.2749947E-4,1.1465077E-3,1.6161203E-4,7.712962E-3,3.2645562E-3,8.9184404E-4,1.9580387E-3,1.6444259E-3,5.840531E-4,-7.574706E-5,-4.3588228E-4,-5.2034605E-4,-7.7220186E-4,-9.1447047E-4,-1.0383965E-3],"split_indices":[0,0,1,0,1,1,1,1,0,1,1,1,7,7,1,1,0,7,7,1,7,7,1,1,7,7,0,7,7,7,1,0,0,0,0,0,0,0,0,0,0,0,0,0,0,0,0,0,0,0,0,0,0,0,0,0,0,0,0,0,0,0,0],"split_type":[0,0,0,0,0,0,0,0,0,0,0,0,0,0,0,0,0,0,0,0,0,0,0,0,0,0,0,0,0,0,0,0,0,0,0,0,0,0,0,0,0,0,0,0,0,0,0,0,0,0,0,0,0,0,0,0,0,0,0,0,0,0,0],"sum_hessian":[2.3588627E8,8.943033E7,1.4645594E8,5.531132E7,3.4119004E7,1.0523658E8,4.121937E7,3.3191322E7,2.212E7,6.069762E6,2.8049242E7,4.7483744E7,5.7752828E7,1.2514451E7,2.8704916E7,2.3553138E7,9.638184E6,1.1061524E7,1.1058475E7,3.339986E6,2.729776E6,1.9346542E7,8.7027E6,3.4876052E7,1.2607691E7,1.5735484E7,4.2017344E7,7.82559E5,1.1731892E7,1.0102846E7,1.8602072E7,1.1985675E7,1.1567463E7,4.814475E6,4.823709E6,1.932765E6,9.128759E6,2.279561E6,8.778914E6,2.023699E6,1.316287E6,5.62712E5,2.167064E6,5.27036E6,1.4076182E7,3.360353E6,5.342347E6,2.532951E7,9.546542E6,3.433416E6,9.174275E6,1.133808E6,1.4601676E7,1.6179085E7,2.583826E7,1.42518E5,6.40041E5,7.365302E6,4.36659E6,2.752024E6,7.350822E6,5.667878E6,1.2934193E7],"tree_param":{"num_deleted":"0","num_feature":"8","num_nodes":"63","size_leaf_vector":"1"}},{"base_weights":[-3.9615392E-7,-4.251974E-3,2.9585406E-3,-6.0224896E-3,-1.8915465E-3,5.787935E-3,-3.4515793E-3,-6.7214062E-3,-4.9737347E-3,-5.0824094E-3,-1.0945428E-3,-2.2663008E-3,1.3668915E-2,-5.2585214E-4,-5.0711525E-3,-6.121129E-3,-6.9391425E-3,-2.1704237E-3,-5.0643752E-3,-5.745872E-3,-4.1683004E-3,5.074526E-4,-4.44094E-3,-4.5202174E-3,2.8930746E-3,2.9886551E-2,1.1602154E-2,5.1171375E-3,-9.022334E-4,-3.9150817E-3,-5.6467764E-3,-9.394993E-4,-8.969448E-4,-1.1162274E-3,-9.2584983E-4,-5.2123435E-4,-1.2983537E-4,-8.3077885E-4,-6.884929E-4,-9.001345E-4,-7.8672275E-4,-1.669159E-4,-6.558042E-4,1.0238211E-3,-3.103791E-5,-4.683136E-4,-8.375347E-4,-8.2903187E-4,-4.2113356E-4,2.0968174E-3,3.2301355E-4,1.767849E-3,5.6191985E-3,2.228987E-3,9.865888E-4,-2.0888758E-4,1.2899709E-3,-8.767554E-4,-8.675944E-5,-1.8149824E-4,-6.143809E-4,-7.7767257E-4,-8.851892E-4],"categories":[],"categories_nodes":[],"categories_segments":[],"categories_sizes":[],"default_left":[0,0,0,0,0,0,0,0,0,0,0,0,0,0,0,0,0,0,0,0,0,0,0,0,0,0,0,0,0,0,0,0,0,0,0,0,0,0,0,0,0,0,0,0,0,0,0,0,0,0,0,0,0,0,0,0,0,0,0,0,0,0,0],"id":3,"left_children":[1,3,5,7,9,11,13,15,17,19,21,23,25,27,29,31,33,35,37,39,41,43,45,47,49,51,53,55,57,59,61,-1,-1,-1,-1,-1,-1,-1,-1,-1,-1,-1,-1,-1,-1,-1,-1,-1,-1,-1,-1,-1,-1,-1,-1,-1,-1,-1,-1,-1,-1,-1,-1],"loss_changes":[2.9672583E3,4.0451013E2,2.5223945E3,4.053955E1,1.0550133E2,6.1245605E3,2.0180508E2,4.3376465E0,5.620056E0,5.028305E0,1.7794905E2,5.549165E2,1.6346113E3,3.2230946E1,1.8242798E1,1.7770386E-1,9.382202E0,1.1791632E0,4.819519E0,6.138458E-1,2.170559E0,1.01315475E2,1.6193954E1,5.725763E1,1.1896234E2,7.5581494E2,7.080908E2,2.1512325E1,2.2771614E1,4.456497E0,2.1530762E0,0E0,0E0,0E0,0E0,0E0,0E0,0E0,0E0,0E0,0E0,0E0,0E0,0E0,0E0,0E0,0E0,0E0,0E0,0E0,0E0,0E0,0E0,0E0,0E0,0E0,0E0,0E0,0E0,0E0,0E0,0E0,0E0],"parents":[2147483647,0,0,1,1,2,2,3,3,4,4,5,5,6,6,7,7,8,8,9,9,10,10,11,11,12,12,13,13,14,14,15,15,16,16,17,17,18,18,19,19,20,20,21,21,22,22,23,23,24,24,25,25,26,26,27,27,28,28,29,29,30,30],"right_children":[2,4,6,8,10,12,14,16,18,20,22,24,26,28,30,32,34,36,38,40,42,44,46,48,50,52,54,56,58,60,62,-1,-1,-1,-1,-1,-1,-1,-1,-1,-1,-1,-1,-1,-1,-1,-1,-1,-1,-1,-1,-1,-1,-1,-1,-1,-1,-1,-1,-1,-1,-1,-1],"split_conditions":[-1.2042757E1,-2.2551098E1,1.4942289E1,-4.005113E1,-2.5031105E1,-1.196699E1,3.0041723E1,-2.496814E1,2.45E0,-4.99664E1,1.5017314E1,-2.0049334E1,3.58E0,3.01E0,4.504392E1,-7.0059906E1,1.9959385E1,-3.0051842E1,-3.0051842E1,-6.996063E1,3.01E0,3.47E0,4.003401E1,-4.49559E1,3.01E0,2.31E2,6.52E0,2.64E2,2.23E2,3.01E0,6.996195E1,-9.394993E-4,-8.969448E-4,-1.1162274E-3,-9.2584983E-4,-5.2123435E-4,-1.2983537E-4,-8.3077885E-4,-6.884929E-4,-9.001345E-4,-7.8672275E-4,-1.669159E-4,-6.558042E-4,1.0238211E-3,-3.103791E-5,-4.683136E-4,-8.375347E-4,-8.2903187E-4,-4.2113356E-4,2.0968174E-3,3.2301355E-4,1.767849E-3,5.6191985E-3,2.228987E-3,9.865888E-4,-2.0888758E-4,1.2899709E-3,-8.767554E-4,-8.675944E-5,-1.8149824E-4,-6.143809E-4,-7.7767257E-4,-8.851892E-4],"split_indices":[0,0,1,0,1,1,1,1,7,1,1,1,7,7,1,0,1,0,0,1,7,7,1,1,7,5,7,5,5,7,1,0,0,0,0,0,0,0,0,0,0,0,0,0,0,0,0,0,0,0,0,0,0,0,0,0,0,0,0,0,0,0,0],"split_type":[0,0,0,0,0,0,0,0,0,0,0,0,0,0,0,0,0,0,0,0,0,0,0,0,0,0,0,0,0,0,0,0,0,0,0,0,0,0,0,0,0,0,0,0,0,0,0,0,0,0,0,0,0,0,0,0,0,0,0,0,0,0,0],"sum_hessian":[2.3586826E8,9.679187E7,1.3907638E8,5.5307036E7,4.148484E7,9.648735E7,4.2589024E7,3.3189024E7,2.2118012E7,8.291041E6,3.31938E7,4.7719148E7,4.8768204E7,1.5175244E7,2.7413782E7,8.834146E6,2.4354878E7,6.92752E5,2.142526E7,4.804164E6,3.486877E6,2.244762E7,1.0746179E7,3.3210752E7,1.4508395E7,5.51247E6,4.3255736E7,9.48882E5,1.4226362E7,9.11248E6,1.8301302E7,4.406112E6,4.428034E6,1.4714636E7,9.640242E6,3.46426E5,3.46326E5,1.0715706E7,1.0709553E7,3.183716E6,1.620448E6,2.17956E5,3.268921E6,2.280297E6,2.0167324E7,4.988416E6,5.757763E6,2.0916512E7,1.229424E7,9.07468E5,1.3600927E7,1.626276E6,3.886194E6,2.6242262E7,1.7013472E7,3.30716E5,6.18166E5,8.74755E5,1.3351607E7,5.70866E5,8.541614E6,6.49771E6,1.1803592E7],"tree_param":{"num_deleted":"0","num_feature":"8","num_nodes":"63","size_leaf_vector":"1"}},{"base_weights":[5.090652E-8,-4.113687E-3,2.231912E-3,-5.2917264E-3,-2.3468526E-3,4.496805E-3,-2.9764073E-3,-5.8423034E-3,-4.6033836E-3,-1.8310102E-3,-4.6176803E-3,-2.255931E-3,1.0464662E-2,-1.10213594E-4,-4.1625453E-3,-5.2621393E-3,-6.0520954E-3,-4.9907314E-3,-4.216107E-3,-4.2371657E-3,-7.970909E-4,-3.970164E-3,-5.1435116E-3,-4.1507203E-3,1.3537075E-3,3.133931E-2,9.621746E-3,-1.2054208E-3,1.743074E-3,-3.1675696E-3,-4.80599E-3,-8.03844E-4,-7.796063E-4,-9.803075E-4,-7.967681E-4,-7.6983985E-4,-7.1265805E-4,-7.92748E-4,-6.052425E-4,-7.13901E-4,-4.759165E-4,1.3870292E-3,-1.4975903E-4,-2.5619633E-4,-6.091846E-4,-7.366954E-4,-7.9426344E-4,-7.6065375E-4,-4.8478076E-4,1.7049412E-3,1.4246762E-4,2.9776471E-3,5.9616556E-3,1.0270962E-3,2.293548E-3,5.8239093E-4,-2.164528E-4,1.5545116E-3,2.2091305E-4,-2.566568E-5,-4.933112E-4,-6.570458E-4,-7.515761E-4],"categories":[],"categories_nodes":[],"categories_segments":[],"categories_sizes":[],"default_left":[0,0,0,0,0,0,0,0,0,0,0,0,0,0,0,0,0,0,0,0,0,0,0,0,0,0,0,0,0,0,0,0,0,0,0,0,0,0,0,0,0,0,0,0,0,0,0,0,0,0,0,0,0,0,0,0,0,0,0,0,0,0,0],"id":4,"left_children":[1,3,5,7,9,11,13,15,17,19,21,23,25,27,29,31,33,35,37,39,41,43,45,47,49,51,53,55,57,59,61,-1,-1,-1,-1,-1,-1,-1,-1,-1,-1,-1,-1,-1,-1,-1,-1,-1,-1,-1,-1,-1,-1,-1,-1,-1,-1,-1,-1,-1,-1,-1,-1],"loss_changes":[2.1657297E3,1.7268323E2,1.8038889E3,1.8864624E1,3.8876663E1,4.2948984E3,1.5755988E2,3.3660889E0,3.3182983E0,6.728171E1,2.091751E0,3.4197186E2,9.954751E2,2.7534317E1,2.0985962E1,4.6035767E-2,7.2669067E0,3.7512207E-1,2.141861E0,4.5177155E0,3.824693E1,5.6718063E-1,1.1930847E-1,2.772638E1,6.9607956E1,2.1202954E2,8.552324E2,1.0307884E1,1.1741772E1,4.6741333E0,1.7330017E0,0E0,0E0,0E0,0E0,0E0,0E0,0E0,0E0,0E0,0E0,0E0,0E0,0E0,0E0,0E0,0E0,0E0,0E0,0E0,0E0,0E0,0E0,0E0,0E0,0E0,0E0,0E0,0E0,0E0,0E0,0E0,0E0],"parents":[2147483647,0,0,1,1,2,2,3,3,4,4,5,5,6,6,7,7,8,8,9,9,10,10,11,11,12,12,13,13,14,14,15,15,16,16,17,17,18,18,19,19,20,20,21,21,22,22,23,23,24,24,25,25,26,26,27,27,28,28,29,29,30,30],"right_children":[2,4,6,8,10,12,14,16,18,20,22,24,26,28,30,32,34,36,38,40,42,44,46,48,50,52,54,56,58,60,62,-1,-1,-1,-1,-1,-1,-1,-1,-1,-1,-1,-1,-1,-1,-1,-1,-1,-1,-1,-1,-1,-1,-1,-1,-1,-1,-1,-1,-1,-1,-1,-1],"split_conditions":[-1.4047009E1,-2.505364E1,1.4942289E1,-5.005485E1,3.0041723E1,-1.2026178E1,2.9950619E1,-2.496814E1,-3.505285E1,-1.8025904E1,5.9945225E1,-2.9949564E1,8.9E0,-3.977E2,4.504392E1,-8.006058E1,1.9959385E1,-3.977E2,-4.504409E1,-3.5054955E1,5E0,8.9E0,7.005262E1,-5.994909E1,8.9E0,-8.473329E0,-3.673E2,8.9E0,9.7E0,8.9E0,6.003921E1,-8.03844E-4,-7.796063E-4,-9.803075E-4,-7.967681E-4,-7.6983985E-4,-7.1265805E-4,-7.92748E-4,-6.052425E-4,-7.13901E-4,-4.759165E-4,1.3870292E-3,-1.4975903E-4,-2.5619633E-4,-6.091846E-4,-7.366954E-4,-7.9426344E-4,-7.6065375E-4,-4.8478076E-4,1.7049412E-3,1.4246762E-4,2.9776471E-3,5.9616556E-3,1.0270962E-3,2.293548E-3,5.8239093E-4,-2.164528E-4,1.5545116E-3,2.2091305E-4,-2.566568E-5,-4.933112E-4,-6.570458E-4,-7.515761E-4],"split_indices":[0,0,1,0,1,1,1,1,0,1,1,1,4,6,1,0,1,6,1,1,4,4,1,1,4,0,6,4,4,4,1,0,0,0,0,0,0,0,0,0,0,0,0,0,0,0,0,0,0,0,0,0,0,0,0,0,0,0,0,0,0,0,0],"split_type":[0,0,0,0,0,0,0,0,0,0,0,0,0,0,0,0,0,0,0,0,0,0,0,0,0,0,0,0,0,0,0,0,0,0,0,0,0,0,0,0,0,0,0,0,0,0,0,0,0,0,0,0,0,0,0,0,0,0,0,0,0,0,0],"sum_hessian":[2.3588506E8,8.296501E7,1.5292005E8,4.977648E7,3.3188524E7,1.0657485E8,4.634521E7,2.7655758E7,2.2120724E7,2.7044976E7,6.143548E6,4.999951E7,5.6575336E7,1.3565478E7,3.277973E7,7.344666E6,2.0311092E7,1.1059343E7,1.1061381E7,8.128405E6,1.8916572E7,2.75321E6,3.390338E6,3.2788178E7,1.7211332E7,2.195837E6,5.4379496E7,8.526633E6,5.038845E6,1.2873342E7,1.9906388E7,2.943762E6,4.400904E6,1.2288755E7,8.022337E6,6.953283E6,4.10606E6,1.603027E6,9.458354E6,5.453157E6,2.675248E6,3.71679E5,1.8544892E7,1.06545E5,2.646665E6,1.33904E6,2.051298E6,1.6381106E7,1.6407072E7,6.67408E5,1.6543925E7,9.27754E5,1.268083E6,3.6509984E7,1.7869516E7,3.80407E5,8.146226E6,1.53205E5,4.88564E6,5.00341E5,1.2373001E7,6.460161E6,1.3446227E7],"tree_param":{"num_deleted":"0","num_feature":"8","num_nodes":"63","size_leaf_vector":"1"}},{"base_weights":[1.895203E-7,-2.931395E-3,2.4311997E-3,-4.2241244E-3,-1.1637569E-3,5.6943553E-3,7.513243E-4,-4.759213E-3,-3.3251604E-3,6.872412E-4,-2.1169654E-3,-1.5940762E-3,7.226139E-3,-4.0931246E-4,2.6318757E-3,-4.978279E-3,-4.270387E-3,-2.3678252E-3,-3.6836255E-3,-3.93376E-3,1.6583755E-3,-2.892415E-3,-8.605975E-4,1.5172842E-2,-2.7738549E-3,1.8801976E-2,6.24595E-3,-6.119005E-3,-1.8185121E-4,1.6139654E-3,4.4259923E-3,-7.7435205E-4,-7.232857E-4,-5.8920134E-4,-6.55578E-4,-5.052808E-4,-2.3676036E-4,-5.990174E-4,-4.5154404E-4,8.401918E-4,-6.905401E-4,1.3821186E-3,1.6410621E-4,-9.649636E-4,-4.1267677E-4,-2.3153046E-4,5.12711E-5,2.792347E-3,1.197163E-3,9.101055E-5,-5.8013835E-4,3.6624752E-3,2.2053553E-3,7.212634E-4,1.3539314E-3,-9.881712E-4,-7.990403E-4,1.3643254E-4,-2.174699E-4,-8.3155656E-4,2.6310174E-4,8.353699E-4,4.1893194E-4],"categories":[],"categories_nodes":[],"categories_segments":[],"categories_sizes":[],"default_left":[0,0,0,0,0,0,0,0,0,0,0,0,0,0,0,0,0,0,0,0,0,0,0,0,0,0,0,0,0,0,0,0,0,0,0,0,0,0,0,0,0,0,0,0,0,0,0,0,0,0,0,0,0,0,0,0,0,0,0,0,0,0,0],"id":5,"left_children":[1,3,5,7,9,11,13,15,17,19,21,23,25,27,29,31,33,35,37,39,41,43,45,47,49,51,53,55,57,59,61,-1,-1,-1,-1,-1,-1,-1,-1,-1,-1,-1,-1,-1,-1,-1,-1,-1,-1,-1,-1,-1,-1,-1,-1,-1,-1,-1,-1,-1,-1,-1,-1],"loss_changes":[1.6811017E3,2.443529E2,7.068822E2,2.9710205E1,7.9697464E1,4.8926892E2,1.8580536E2,4.146179E0,7.908737E0,6.8903915E1,2.9048065E1,1.5055258E2,4.1089722E2,6.836578E1,5.9332123E1,7.694702E-1,4.107666E-1,4.9599037E0,3.4979553E0,1.7030403E1,5.4100414E1,9.219589E0,9.344329E0,1.2387756E1,2.6291016E1,6.507007E1,1.3343579E2,7.4881744E-1,7.005499E1,2.077803E1,2.1955109E1,0E0,0E0,0E0,0E0,0E0,0E0,0E0,0E0,0E0,0E0,0E0,0E0,0E0,0E0,0E0,0E0,0E0,0E0,0E0,0E0,0E0,0E0,0E0,0E0,0E0,0E0,0E0,0E0,0E0,0E0,0E0,0E0],"parents":[2147483647,0,0,1,1,2,2,3,3,4,4,5,5,6,6,7,7,8,8,9,9,10,10,11,11,12,12,13,13,14,14,15,15,16,16,17,17,18,18,19,19,20,20,21,21,22,22,23,23,24,24,25,25,26,26,27,27,28,28,29,29,30,30],"right_children":[2,4,6,8,10,12,14,16,18,20,22,24,26,28,30,32,34,36,38,40,42,44,46,48,50,52,54,56,58,60,62,-1,-1,-1,-1,-1,-1,-1,-1,-1,-1,-1,-1,-1,-1,-1,-1,-1,-1,-1,-1,-1,-1,-1,-1,-1,-1,-1,-1,-1,-1,-1,-1],"split_conditions":[-1.0998265E1,-2.2453846E1,5.02E0,-3.505285E1,5.02E0,2.23E2,-4.475E2,-5.9968674E1,4.7E0,2.23E2,-4.475E2,1.74E0,2.57E0,2.23E2,1.477E3,5.62E0,4.41E0,5.89E2,-3.928E2,1.74E0,2.45E0,2.23E2,1.477E3,1.48E0,2.84E0,2.05E0,1.287E3,-4.479769E0,7.35E0,2.23E2,6.48E0,-7.7435205E-4,-7.232857E-4,-5.8920134E-4,-6.55578E-4,-5.052808E-4,-2.3676036E-4,-5.990174E-4,-4.5154404E-4,8.401918E-4,-6.905401E-4,1.3821186E-3,1.6410621E-4,-9.649636E-4,-4.1267677E-4,-2.3153046E-4,5.12711E-5,2.792347E-3,1.197163E-3,9.101055E-5,-5.8013835E-4,3.6624752E-3,2.2053553E-3,7.212634E-4,1.3539314E-3,-9.881712E-4,-7.990403E-4,1.3643254E-4,-2.174699E-4,-8.3155656E-4,2.6310174E-4,8.353699E-4,4.1893194E-4],"split_indices":[0,0,7,0,7,5,6,0,7,5,6,7,7,5,5,7,7,5,6,7,7,5,5,7,7,7,5,0,7,5,7,0,0,0,0,0,0,0,0,0,0,0,0,0,0,0,0,0,0,0,0,0,0,0,0,0,0,0,0,0,0,0,0],"split_type":[0,0,0,0,0,0,0,0,0,0,0,0,0,0,0,0,0,0,0,0,0,0,0,0,0,0,0,0,0,0,0,0,0,0,0,0,0,0,0,0,0,0,0,0,0,0,0,0,0,0,0,0,0,0,0,0,0,0,0,0,0,0,0],"sum_hessian":[2.3588742E8,1.0693419E8,1.2895324E8,6.1764136E7,4.5170052E7,4.3824396E7,8.512884E7,3.871805E7,2.3046092E7,1.5354246E7,2.9815808E7,7.610868E6,3.621353E7,5.2640336E7,3.2488508E7,2.6736264E7,1.1981782E7,6.278477E6,1.6767615E7,2.666429E6,1.2687817E7,1.8436508E7,1.1379299E7,5.00322E5,7.110546E6,2.827017E6,3.3386512E7,2.016729E6,5.062361E7,2.072817E7,1.1760337E7,1.2280695E7,1.4455569E7,2.711282E6,9.2705E6,2.768712E6,3.509765E6,1.1483599E7,5.284016E6,1.75022E5,2.491407E6,8.81784E5,1.1806033E7,7.07216E5,1.7729292E7,7.25731E6,4.121989E6,3.38348E5,1.61974E5,1.738149E6,5.372397E6,1.19307E6,1.633947E6,2.2007556E7,1.1378956E7,1.266888E6,7.49841E5,2.7205848E7,2.341776E7,3.97781E5,2.0330388E7,6.91794E6,4.842397E6],"tree_param":{"num_deleted":"0","num_feature":"8","num_nodes":"63","size_leaf_vector":"1"}},{"base_weights":[9.720089E-8,-2.42165E-3,2.138869E-3,-3.5711182E-3,-9.1866124E-4,4.5270463E-3,-2.6826193E-3,-4.0451894E-3,-2.8050905E-3,-3.2866583E-3,-1.8845375E-4,-1.8691926E-3,1.1728752E-2,-3.4779272E-4,-3.8802945E-3,-4.290282E-3,-3.7185075E-3,1.6385108E-3,-2.8751346E-3,-3.833322E-3,-2.2664363E-3,1.7007444E-3,-2.621738E-3,-3.4266524E-3,2.530226E-3,2.166383E-2,9.1488E-3,-4.4410923E-3,1.6334952E-5,-2.7899803E-3,-4.3558897E-3,-5.628659E-4,-6.727959E-4,-5.212879E-4,-5.7836634E-4,4.068992E-4,-3.7120283E-4,-4.0052194E-4,-5.9343275E-4,-6.377307E-4,-5.056212E-4,6.8226137E-4,-3.561201E-4,5.341626E-4,-1.1251742E-4,-2.196299E-4,-5.5268995E-4,-6.188417E-4,-2.0767094E-4,7.0352096E-4,-1.9502424E-5,8.493716E-4,3.948134E-3,1.6496143E-3,4.6220273E-4,6.9496554E-4,-7.113593E-4,8.639312E-4,-5.2446154E-5,-2.7788608E-4,-4.5501746E-4,-5.7473197E-4,-6.845423E-4],"categories":[],"categories_nodes":[],"categories_segments":[],"categories_sizes":[],"default_left":[0,0,0,0,0,0,0,0,0,0,0,0,0,0,0,0,0,0,0,0,0,0,0,0,0,0,0,0,0,0,0,0,0,0,0,0,0,0,0,0,0,0,0,0,0,0,0,0,0,0,0,0,0,0,0,0,0,0,0,0,0,0,0],"id":6,"left_children":[1,3,5,7,9,11,13,15,17,19,21,23,25,27,29,31,33,35,37,39,41,43,45,47,49,51,53,55,57,59,61,-1,-1,-1,-1,-1,-1,-1,-1,-1,-1,-1,-1,-1,-1,-1,-1,-1,-1,-1,-1,-1,-1,-1,-1,-1,-1,-1,-1,-1,-1,-1,-1],"loss_changes":[1.2217361E3,1.9111163E2,1.4422695E3,2.276294E1,8.289157E1,3.8585557E3,1.1602295E2,3.1001587E0,7.4582214E0,6.301346E0,1.684319E2,3.0397577E2,1.00994775E3,2.0966896E1,1.4220398E1,2.3204346E0,5.541992E-1,1.642933E0,5.2278595E0,1.4229813E0,2.8931122E0,9.404256E1,1.9701996E1,4.6768005E1,6.66473E1,6.05291E2,3.5084155E2,3.1418877E0,2.7152088E1,1.9009247E0,2.0797424E0,0E0,0E0,0E0,0E0,0E0,0E0,0E0,0E0,0E0,0E0,0E0,0E0,0E0,0E0,0E0,0E0,0E0,0E0,0E0,0E0,0E0,0E0,0E0,0E0,0E0,0E0,0E0,0E0,0E0,0E0,0E0,0E0],"parents":[2147483647,0,0,1,1,2,2,3,3,4,4,5,5,6,6,7,7,8,8,9,9,10,10,11,11,12,12,13,13,14,14,15,15,16,16,17,17,18,18,19,19,20,20,21,21,22,22,23,23,24,24,25,25,26,26,27,27,28,28,29,29,30,30],"right_children":[2,4,6,8,10,12,14,16,18,20,22,24,26,28,30,32,34,36,38,40,42,44,46,48,50,52,54,56,58,60,62,-1,-1,-1,-1,-1,-1,-1,-1,-1,-1,-1,-1,-1,-1,-1,-1,-1,-1,-1,-1,-1,-1,-1,-1,-1,-1,-1,-1,-1,-1,-1,-1],"split_conditions":[-1.0042502E1,-2.0038923E1,1.3942124E1,-3.505285E1,-1.8025904E1,-1.00386E1,2.9950619E1,-6.005703E1,2.05E0,-3.99683E1,8.044785E0,-1.995894E1,4.32E0,2.31E2,4.4957676E1,-2.496814E1,-1.2469678E1,3.0041723E1,4.4957676E1,-6.0039845E1,2.05E0,6.14E0,3.496388E1,-3.496166E1,6.06E0,2.23E2,8.021265E0,1.48E0,3.27E0,4.32E0,5.9945225E1,-5.628659E-4,-6.727959E-4,-5.212879E-4,-5.7836634E-4,4.068992E-4,-3.7120283E-4,-4.0052194E-4,-5.9343275E-4,-6.377307E-4,-5.056212E-4,6.8226137E-4,-3.561201E-4,5.341626E-4,-1.1251742E-4,-2.196299E-4,-5.5268995E-4,-6.188417E-4,-2.0767094E-4,7.0352096E-4,-1.9502424E-5,8.493716E-4,3.948134E-3,1.6496143E-3,4.6220273E-4,6.9496554E-4,-7.113593E-4,8.639312E-4,-5.2446154E-5,-2.7788608E-4,-4.5501746E-4,-5.7473197E-4,-6.845423E-4],"split_indices":[0,0,1,0,1,1,1,0,7,1,1,1,7,5,1,1,1,1,1,1,7,7,1,1,7,5,1,7,7,7,1,0,0,0,0,0,0,0,0,0,0,0,0,0,0,0,0,0,0,0,0,0,0,0,0,0,0,0,0,0,0,0,0],"split_type":[0,0,0,0,0,0,0,0,0,0,0,0,0,0,0,0,0,0,0,0,0,0,0,0,0,0,0,0,0,0,0,0,0,0,0,0,0,0,0,0,0,0,0,0,0,0,0,0,0,0,0,0,0,0,0,0,0,0,0,0,0,0,0],"sum_hessian":[2.3587622E8,1.1062017E8,1.25256056E8,6.268184E7,4.793833E7,8.376541E7,4.1490644E7,3.871952E7,2.3962318E7,1.1298454E7,3.663987E7,4.4363604E7,3.9401804E7,1.4067175E7,2.742347E7,2.212229E7,1.6597232E7,3.71854E5,2.3590464E7,7.356586E6,3.941868E6,2.0625932E7,1.6013941E7,3.2764488E7,1.1599117E7,8.122616E6,3.1279188E7,1.149148E6,1.2918027E7,8.329007E6,1.9094464E7,5.886995E6,1.6235295E7,5.987209E6,1.0610023E7,2.94854E5,7.7E4,1.9830356E7,3.760107E6,3.863297E6,3.493289E6,6.1325E4,3.880543E6,1.172557E7,8.900362E6,7.665557E6,8.348384E6,2.440992E7,8.354569E6,6.401548E6,5.197569E6,1.831096E6,6.29152E6,2.3974606E7,7.304581E6,3.693E4,1.112218E6,7.73865E5,1.2144162E7,1.717251E6,6.611756E6,5.418083E6,1.367638E7],"tree_param":{"num_deleted":"0","num_feature":"8","num_nodes":"63","size_leaf_vector":"1"}},{"base_weights":[-2.0107822E-7,-1.961171E-3,1.932157E-3,-3.0532284E-3,-7.4182026E-4,4.1621714E-3,-2.0606094E-3,-3.5170608E-3,-2.5144343E-3,-1.393679E-4,-2.9799317E-3,-1.2525938E-3,1.1873935E-2,-3.6938112E-5,-3.2675029E-3,-3.6918009E-3,-3.0899975E-3,-1.6446719E-3,-2.7401908E-3,-2.6993798E-3,1.0729434E-3,-2.324411E-3,-3.496287E-3,-2.9048815E-3,2.597154E-3,3.156169E-2,1.0560153E-2,-1.1854052E-3,1.5709813E-3,-2.3308427E-3,-3.7014987E-3,-4.7831982E-4,-6.319504E-4,-4.8027383E-4,-4.5511793E-4,-3.4150603E-4,-9.9725934E-5,-4.5861801E-4,-3.5039996E-4,-4.935137E-4,-2.6173127E-4,1.5449993E-3,1.0508993E-4,-1.8408839E-4,-3.9133945E-4,-4.7252918E-4,-5.530771E-4,-5.4428796E-4,-2.1400864E-4,1.0945057E-3,2.0666361E-4,2.4734484E-3,5.965927E-3,2.1180287E-3,9.5747E-4,-6.5799674E-4,-1.03981896E-4,5.3976825E-4,-5.4888078E-5,-2.907667E-4,-4.2718794E-4,-4.8806626E-4,-5.817776E-4],"categories":[],"categories_nodes":[],"categories_segments":[],"categories_sizes":[],"default_left":[0,0,0,0,0,0,0,0,0,0,0,0,0,0,0,0,0,0,0,0,0,0,0,0,0,0,0,0,0,0,0,0,0,0,0,0,0,0,0,0,0,0,0,0,0,0,0,0,0,0,0,0,0,0,0,0,0,0,0,0,0,0,0],"id":7,"left_children":[1,3,5,7,9,11,13,15,17,19,21,23,25,27,29,31,33,35,37,39,41,43,45,47,49,51,53,55,57,59,61,-1,-1,-1,-1,-1,-1,-1,-1,-1,-1,-1,-1,-1,-1,-1,-1,-1,-1,-1,-1,-1,-1,-1,-1,-1,-1,-1,-1,-1,-1,-1,-1],"loss_changes":[8.938222E2,1.5589542E2,1.0578503E3,1.543457E1,7.458175E1,3.18321E3,1.0398595E2,2.476715E0,5.610138E0,1.3525752E2,3.9708252E0,2.848746E2,8.1335693E2,2.937238E1,1.0841614E1,6.174591E0,6.021118E-2,3.646247E0,2.9088287E0,7.8970337E0,1.0161212E2,1.6135845E0,4.335327E-1,3.352176E1,7.707249E1,2.4344958E2,4.3835693E2,1.4619538E1,2.602541E1,1.7134247E0,1.444458E0,0E0,0E0,0E0,0E0,0E0,0E0,0E0,0E0,0E0,0E0,0E0,0E0,0E0,0E0,0E0,0E0,0E0,0E0,0E0,0E0,0E0,0E0,0E0,0E0,0E0,0E0,0E0,0E0,0E0,0E0,0E0,0E0],"parents":[2147483647,0,0,1,1,2,2,3,3,4,4,5,5,6,6,7,7,8,8,9,9,10,10,11,11,12,12,13,13,14,14,15,15,16,16,17,17,18,18,19,19,20,20,21,21,22,22,23,23,24,24,25,25,26,26,27,27,28,28,29,29,30,30],"right_children":[2,4,6,8,10,12,14,16,18,20,22,24,26,28,30,32,34,36,38,40,42,44,46,48,50,52,54,56,58,60,62,-1,-1,-1,-1,-1,-1,-1,-1,-1,-1,-1,-1,-1,-1,-1,-1,-1,-1,-1,-1,-1,-1,-1,-1,-1,-1,-1,-1,-1,-1,-1,-1],"split_conditions":[-9.945893E0,-2.2453846E1,1.0050658E1,-4.005113E1,2.4967848E1,-9.950295E0,2.5035034E1,1.9959385E1,4.32E0,-1.7445581E1,4.504392E1,-1.995894E1,3.01E0,1.16E3,4.4957676E1,-1.2469678E1,-8.006058E1,9.24E2,-4.634E2,-3.5054955E1,2.64E0,4.32E0,6.996195E1,-3.5054955E1,4.32E0,2.74E2,6.14E0,2.23E2,6.14E0,6.14E0,5.9945225E1,-4.7831982E-4,-6.319504E-4,-4.8027383E-4,-4.5511793E-4,-3.4150603E-4,-9.9725934E-5,-4.5861801E-4,-3.5039996E-4,-4.935137E-4,-2.6173127E-4,1.5449993E-3,1.0508993E-4,-1.8408839E-4,-3.9133945E-4,-4.7252918E-4,-5.530771E-4,-5.4428796E-4,-2.1400864E-4,1.0945057E-3,2.0666361E-4,2.4734484E-3,5.965927E-3,2.1180287E-3,9.5747E-4,-6.5799674E-4,-1.03981896E-4,5.3976825E-4,-5.4888078E-5,-2.907667E-4,-4.2718794E-4,-4.8806626E-4,-5.817776E-4],"split_indices":[0,0,1,0,1,1,1,1,7,1,1,1,7,5,1,1,0,5,6,1,7,7,1,1,7,5,7,5,7,7,1,0,0,0,0,0,0,0,0,0,0,0,0,0,0,0,0,0,0,0,0,0,0,0,0,0,0,0,0,0,0,0,0],"split_type":[0,0,0,0,0,0,0,0,0,0,0,0,0,0,0,0,0,0,0,0,0,0,0,0,0,0,0,0,0,0,0,0,0,0,0,0,0,0,0,0,0,0,0,0,0,0,0,0,0,0,0,0,0,0,0,0,0,0,0,0,0,0,0],"sum_hessian":[2.3588083E8,1.1707368E8,1.1880715E8,6.176056E7,5.531312E7,7.623106E7,4.257609E7,3.3189048E7,2.8571508E7,4.3581816E7,1.1731304E7,4.478533E7,3.1445728E7,1.5905826E7,2.6670264E7,2.3552244E7,9.636804E6,5.887807E6,2.2683702E7,1.4005885E7,2.9575928E7,5.169082E6,6.562222E6,3.133608E7,1.344925E7,1.967133E6,2.9478596E7,9.278556E6,6.62727E6,8.444705E6,1.8225558E7,1.1985379E7,1.1566866E7,3.210875E6,6.425929E6,3.579118E6,2.308689E6,1.2708436E7,9.975266E6,8.651658E6,5.354227E6,1.147198E6,2.8428732E7,1.064435E6,4.104647E6,2.332814E6,4.229408E6,2.1036582E7,1.0299498E7,2.770757E6,1.0678493E7,6.93739E5,1.273394E6,1.5914664E7,1.3563932E7,1.236474E6,8.042082E6,3.23793E6,3.38934E6,4.801193E6,3.643512E6,5.164158E6,1.30614E7],"tree_param":{"num_deleted":"0","num_feature":"8","num_nodes":"63","size_leaf_vector":"1"}},{"base_weights":[3.5427616E-9,-1.5841192E-3,1.7659348E-3,-2.510148E-3,-4.5827392E-4,3.7424443E-3,-1.7141375E-3,-2.8848296E-3,-1.8578316E-3,3.4407826E-4,-2.1474406E-3,-1.0060866E-3,1.0768796E-2,2.5859012E-4,-2.6911017E-3,-3.0683316E-3,-2.5611385E-3,-1.4857143E-3,-2.6959537E-3,-1.7795919E-3,2.68944E-3,-1.5037736E-3,-2.8413539E-3,-2.4076467E-3,2.500836E-3,1.7242953E-2,7.4353362E-3,-5.2243925E-4,2.4608287E-3,-1.6338298E-3,-3.0663908E-3,-4.857576E-4,-3.9782075E-4,-1.7109199E-4,-3.8844242E-4,-4.3400284E-4,-1.7883492E-4,-3.7010535E-4,-4.7219108E-4,-4.1468834E-4,-1.2495842E-4,8.3921663E-4,1.3556631E-4,-3.0214997E-4,-9.565847E-6,-3.6052172E-4,-4.6608626E-4,-4.453014E-4,-1.1514173E-4,2.2500562E-3,3.1458953E-4,7.0147864E-3,2.3743915E-3,7.377128E-4,1.7270223E-3,-7.0502206E-6,-3.4256556E-4,1.3064834E-3,3.2058853E-4,-6.1892184E-5,-2.98698E-4,-4.0354553E-4,-4.9439986E-4],"categories":[],"categories_nodes":[],"categories_segments":[],"categories_sizes":[],"default_left":[0,0,0,0,0,0,0,0,0,0,0,0,0,0,0,0,0,0,0,0,0,0,0,0,0,0,0,0,0,0,0,0,0,0,0,0,0,0,0,0,0,0,0,0,0,0,0,0,0,0,0,0,0,0,0,0,0,0,0,0,0,0,0],"id":8,"left_children":[1,3,5,7,9,11,13,15,17,19,21,23,25,27,29,31,33,35,37,39,41,43,45,47,49,51,53,55,57,59,61,-1,-1,-1,-1,-1,-1,-1,-1,-1,-1,-1,-1,-1,-1,-1,-1,-1,-1,-1,-1,-1,-1,-1,-1,-1,-1,-1,-1,-1,-1,-1,-1],"loss_changes":[6.598578E2,1.2963223E2,7.672059E2,1.6674713E1,7.6053825E1,2.3734583E3,7.786617E1,2.5739136E0,7.762787E0,1.8949107E2,8.071434E0,2.086429E2,6.191177E2,2.3016373E1,1.0721268E1,1.9573364E0,6.3422394E-1,7.1209564E0,7.906914E-1,1.8614868E1,9.379118E1,6.89254E0,1.0124435E0,2.7905075E1,6.1142838E1,4.0693652E2,1.9440344E2,8.272027E0,7.0837765E0,3.0903149E0,1.7220306E0,0E0,0E0,0E0,0E0,0E0,0E0,0E0,0E0,0E0,0E0,0E0,0E0,0E0,0E0,0E0,0E0,0E0,0E0,0E0,0E0,0E0,0E0,0E0,0E0,0E0,0E0,0E0,0E0,0E0,0E0,0E0,0E0],"parents":[2147483647,0,0,1,1,2,2,3,3,4,4,5,5,6,6,7,7,8,8,9,9,10,10,11,11,12,12,13,13,14,14,15,15,16,16,17,17,18,18,19,19,20,20,21,21,22,22,23,23,24,24,25,25,26,26,27,27,28,28,29,29,30,30],"right_children":[2,4,6,8,10,12,14,16,18,20,22,24,26,28,30,32,34,36,38,40,42,44,46,48,50,52,54,56,58,60,62,-1,-1,-1,-1,-1,-1,-1,-1,-1,-1,-1,-1,-1,-1,-1,-1,-1,-1,-1,-1,-1,-1,-1,-1,-1,-1,-1,-1,-1,-1,-1,-1],"split_conditions":[-9.063805E0,-1.9962595E1,1.0050658E1,-3.4967197E1,9.0104E0,-9.950295E0,2.4967848E1,-5.005485E1,6.75E0,-7.052315E0,3.506124E1,-1.8025904E1,5.02E0,-3.3E2,3.506124E1,1.9959385E1,2.18E0,-3.5054955E1,8.25E0,-3.496166E1,5.24E0,-3.3E2,5.9945225E1,-3.0039852E1,2.45E0,2.05E0,-4.475E2,7.72E0,1.6E1,4.41E0,5.9945225E1,-4.857576E-4,-3.9782075E-4,-1.7109199E-4,-3.8844242E-4,-4.3400284E-4,-1.7883492E-4,-3.7010535E-4,-4.7219108E-4,-4.1468834E-4,-1.2495842E-4,8.3921663E-4,1.3556631E-4,-3.0214997E-4,-9.565847E-6,-3.6052172E-4,-4.6608626E-4,-4.453014E-4,-1.1514173E-4,2.2500562E-3,3.1458953E-4,7.0147864E-3,2.3743915E-3,7.377128E-4,1.7270223E-3,-7.0502206E-6,-3.4256556E-4,1.3064834E-3,3.2058853E-4,-6.1892184E-5,-2.98698E-4,-4.0354553E-4,-4.9439986E-4],"split_indices":[0,0,1,0,1,1,1,0,7,1,1,1,7,6,1,1,7,1,7,1,7,6,1,1,7,7,6,7,4,7,1,0,0,0,0,0,0,0,0,0,0,0,0,0,0,0,0,0,0,0,0,0,0,0,0,0,0,0,0,0,0,0,0],"split_type":[0,0,0,0,0,0,0,0,0,0,0,0,0,0,0,0,0,0,0,0,0,0,0,0,0,0,0,0,0,0,0,0,0,0,0,0,0,0,0,0,0,0,0,0,0,0,0,0,0,0,0,0,0,0,0,0,0,0,0,0,0,0,0],"sum_hessian":[2.3587816E8,1.2433968E8,1.1153849E8,6.822408E7,5.611559E7,7.113648E7,4.0402016E7,4.333376E7,2.4890324E7,3.80445E7,1.8071092E7,4.2448824E7,2.8687652E7,1.3381507E7,2.7020508E7,2.7655652E7,1.5678106E7,1.7237196E7,7.653129E6,1.9965872E7,1.8078628E7,9.374972E6,8.696121E6,3.0328056E7,1.2120768E7,9.750497E6,1.8937156E7,9.878185E6,3.503322E6,7.078581E6,1.9941926E7,1.9633568E7,8.022085E6,3.08124E5,1.5369982E7,2.973805E6,1.426339E7,5.082662E6,2.570467E6,9.784152E6,1.0181719E7,6.881763E6,1.1196866E7,6.921072E6,2.4539E6,3.285469E6,5.410652E6,2.2597738E7,7.730319E6,3.79102E5,1.1741666E7,4.45566E5,9.304931E6,1.1709452E7,7.227703E6,7.778522E6,2.099663E6,1.72468E5,3.330854E6,1.602911E6,5.47567E6,7.559634E6,1.2382292E7],"tree_param":{"num_deleted":"0","num_feature":"8","num_nodes":"63","size_leaf_vector":"1"}},{"base_weights":[-1.3553678E-7,9.851415E-4,-1.725499E-3,-1.4109245E-3,4.1745584E-3,-9.172912E-4,-2.4204024E-3,-2.1906148E-3,3.101908E-4,2.395475E-3,7.1868715E-3,-1.6841525E-3,1.5659248E-4,-2.099734E-3,-2.6724725E-3,-2.8245193E-3,-1.6976326E-3,-8.214075E-4,2.2259045E-3,-4.2456063E-3,3.0024538E-3,2.4665143E-2,6.637424E-3,-3.8274156E-3,-1.3544702E-3,-6.8492163E-4,1.4358292E-3,-2.2142052E-3,-1.7768809E-3,-2.1631836E-3,-2.7154016E-3,-4.5202897E-4,-3.7982187E-4,-4.935577E-5,-2.807673E-4,-7.5365935E-4,-6.559018E-5,1.0866082E-4,6.0242997E-4,2.9768306E-3,-7.7502336E-4,1.080464E-3,2.0091906E-4,1.9305876E-3,4.8517245E-3,6.5967866E-4,1.5046926E-3,-9.077107E-4,-4.1295183E-4,-5.6108795E-5,-2.617697E-4,8.2325896E-5,-1.9959129E-4,1.0713674E-3,1.4575114E-4,-1.5492848E-4,-3.3531262E-4,-2.244374E-4,-3.086389E-4,-4.6946065E-4,-3.1963486E-4,-3.9071275E-4,-4.3293313E-4],"categories":[],"categories_nodes":[],"categories_segments":[],"categories_sizes":[],"default_left":[0,0,0,0,0,0,0,0,0,0,0,0,0,0,0,0,0,0,0,0,0,0,0,0,0,0,0,0,0,0,0,0,0,0,0,0,0,0,0,0,0,0,0,0,0,0,0,0,0,0,0,0,0,0,0,0,0,0,0,0,0,0,0],"id":9,"left_children":[1,3,5,7,9,11,13,15,17,19,21,23,25,27,29,31,33,35,37,39,41,43,45,47,49,51,53,55,57,59,61,-1,-1,-1,-1,-1,-1,-1,-1,-1,-1,-1,-1,-1,-1,-1,-1,-1,-1,-1,-1,-1,-1,-1,-1,-1,-1,-1,-1,-1,-1,-1,-1],"loss_changes":[4.0101514E2,1.1474679E3,4.8156555E1,1.1505701E2,3.451953E2,3.2644928E1,3.726654E0,1.8440247E1,5.794902E1,1.632371E2,2.2968188E2,1.6340897E1,1.7777761E1,7.4990845E-1,5.643463E-1,1.4264984E0,7.911354E0,2.7132145E1,2.668383E1,7.526237E1,2.5919666E2,6.602521E1,1.7624554E2,7.366909E0,7.6767044E0,7.9355865E0,1.7357147E1,3.7538147E-1,4.183998E-1,6.261158E-2,4.499817E-1,0E0,0E0,0E0,0E0,0E0,0E0,0E0,0E0,0E0,0E0,0E0,0E0,0E0,0E0,0E0,0E0,0E0,0E0,0E0,0E0,0E0,0E0,0E0,0E0,0E0,0E0,0E0,0E0,0E0,0E0,0E0,0E0],"parents":[2147483647,0,0,1,1,2,2,3,3,4,4,5,5,6,6,7,7,8,8,9,9,10,10,11,11,12,12,13,13,14,14,15,15,16,16,17,17,18,18,19,19,20,20,21,21,22,22,23,23,24,24,25,25,26,26,27,27,28,28,29,29,30,30],"right_children":[2,4,6,8,10,12,14,16,18,20,22,24,26,28,30,32,34,36,38,40,42,44,46,48,50,52,54,56,58,60,62,-1,-1,-1,-1,-1,-1,-1,-1,-1,-1,-1,-1,-1,-1,-1,-1,-1,-1,-1,-1,-1,-1,-1,-1,-1,-1,-1,-1,-1,-1,-1,-1],"split_conditions":[9.9588785E0,-9.950295E0,3.496388E1,-2.0006878E1,-3.977E2,1.16E3,5.9945225E1,-5.994909E1,-3.977E2,2.23E2,9.7E0,2.23E2,-3.951E2,-3.3E2,2.23E2,-7.005129E1,2.31E1,2.23E2,1.141E3,1.6E0,5.56E1,3.77E2,1.276E3,1.4942289E1,5.93E1,7.63E1,2.84E1,4.1E0,4.4957676E1,1.6E0,8.995138E1,-4.5202897E-4,-3.7982187E-4,-4.935577E-5,-2.807673E-4,-7.5365935E-4,-6.559018E-5,1.0866082E-4,6.0242997E-4,2.9768306E-3,-7.7502336E-4,1.080464E-3,2.0091906E-4,1.9305876E-3,4.8517245E-3,6.5967866E-4,1.5046926E-3,-9.077107E-4,-4.1295183E-4,-5.6108795E-5,-2.617697E-4,8.2325896E-5,-1.9959129E-4,1.0713674E-3,1.4575114E-4,-1.5492848E-4,-3.3531262E-4,-2.244374E-4,-3.086389E-4,-4.6946065E-4,-3.1963486E-4,-3.9071275E-4,-4.3293313E-4],"split_indices":[1,1,1,1,6,5,1,1,6,5,4,5,6,6,5,1,4,5,5,4,4,5,5,1,4,4,4,4,1,4,1,0,0,0,0,0,0,0,0,0,0,0,0,0,0,0,0,0,0,0,0,0,0,0,0,0,0,0,0,0,0,0,0],"split_type":[0,0,0,0,0,0,0,0,0,0,0,0,0,0,0,0,0,0,0,0,0,0,0,0,0,0,0,0,0,0,0,0,0,0,0,0,0,0,0,0,0,0,0,0,0,0,0,0,0,0,0,0,0,0,0,0,0,0,0,0,0,0,0],"sum_hessian":[2.3589666E8,1.5015178E8,8.574488E7,8.573951E7,6.4412256E7,3.9640716E7,4.610416E7,5.9008024E7,2.6731492E7,4.049548E7,2.3916776E7,2.3126244E7,1.6514473E7,2.0291082E7,2.581308E7,2.5814396E7,3.3193628E7,1.6804936E7,9.926554E6,3.391237E6,3.710424E7,7.28932E5,2.3187844E7,3.083089E6,2.0043156E7,9.961529E6,6.552944E6,1.4979822E7,5.31126E6,2.006697E6,2.3806384E7,1.5678749E7,1.0135647E7,3.746992E6,2.9446636E7,1.407294E6,1.5397643E7,5.398716E6,4.527838E6,1.249E5,3.266337E6,1.0523187E7,2.6581054E7,2.87456E5,4.41476E5,1.3969525E7,9.21832E6,1.00427E6,2.078819E6,5.710916E6,1.4332239E7,3.422297E6,6.539232E6,4.929E5,6.060044E6,2.64236E5,1.4715586E7,2.656012E6,2.655248E6,6.4858E4,1.941839E6,1.4447726E7,9.358657E6],"tree_param":{"num_deleted":"0","num_feature":"8","num_nodes":"63","size_leaf_vector":"1"}},{"base_weights":[-1.07401064E-7,-1.2939501E-3,1.6619405E-3,-2.1005853E-3,-4.1598157E-4,6.206069E-3,1.1479945E-3,-2.3942224E-3,-1.5781835E-3,-1.3593772E-3,7.118611E-4,2.205836E-3,9.779886E-3,-4.027873E-3,1.4596183E-3,-2.607741E-3,-2.1808075E-3,2.3152498E-3,-1.6396306E-3,-3.843528E-3,-9.455755E-4,4.5010583E-3,-7.7773184E-5,1.1489583E-2,1.2547859E-3,1.7067838E-2,8.439129E-3,-4.890106E-3,-3.1015556E-3,2.4977515E-3,-3.6092423E-4,-5.250443E-4,-3.8222602E-4,-3.5431603E-4,-3.1805155E-4,-9.520759E-6,5.8873155E-4,-2.8612313E-4,-1.5770397E-4,1.1541708E-3,-6.370711E-4,3.3020324E-4,-1.9289837E-4,1.9240404E-3,5.79298E-4,1.3018615E-4,-2.3717605E-4,2.1267605E-3,1.078606E-3,-1.5433531E-4,7.041525E-4,4.2514005E-3,2.3522866E-3,1.0847212E-3,1.6648984E-3,-7.632175E-4,-3.0499088E-4,-4.9022504E-4,-1.0449872E-4,2.7687417E-4,7.3198683E-4,3.4252163E-5,-2.2930557E-4],"categories":[],"categories_nodes":[],"categories_segments":[],"categories_sizes":[],"default_left":[0,0,0,0,0,0,0,0,0,0,0,0,0,0,0,0,0,0,0,0,0,0,0,0,0,0,0,0,0,0,0,0,0,0,0,0,0,0,0,0,0,0,0,0,0,0,0,0,0,0,0,0,0,0,0,0,0,0,0,0,0,0,0],"id":10,"left_children":[1,3,5,7,9,11,13,15,17,19,21,23,25,27,29,31,33,35,37,39,41,43,45,47,49,51,53,55,57,59,61,-1,-1,-1,-1,-1,-1,-1,-1,-1,-1,-1,-1,-1,-1,-1,-1,-1,-1,-1,-1,-1,-1,-1,-1,-1,-1,-1,-1,-1,-1,-1,-1],"loss_changes":[5.0724408E2,9.392976E1,2.4113107E2,1.0603363E1,6.7572334E1,1.4998053E2,1.4961127E2,2.0164185E0,5.9506416E0,3.5547997E1,8.6549286E1,4.370671E1,5.4141357E1,4.2071686E0,1.6535362E2,1.1760712E0,2.4259186E-1,1.4796765E0,3.858406E0,2.2995438E1,3.1755997E1,2.6542427E1,3.403315E1,5.316841E0,3.5270042E1,1.3452866E1,1.5034454E1,1.543251E0,1.0174923E0,8.652933E1,2.1863749E1,0E0,0E0,0E0,0E0,0E0,0E0,0E0,0E0,0E0,0E0,0E0,0E0,0E0,0E0,0E0,0E0,0E0,0E0,0E0,0E0,0E0,0E0,0E0,0E0,0E0,0E0,0E0,0E0,0E0,0E0,0E0,0E0],"parents":[2147483647,0,0,1,1,2,2,3,3,4,4,5,5,6,6,7,7,8,8,9,9,10,10,11,11,12,12,13,13,14,14,15,15,16,16,17,17,18,18,19,19,20,20,21,21,22,22,23,23,24,24,25,25,26,26,27,27,28,28,29,29,30,30],"right_children":[2,4,6,8,10,12,14,16,18,20,22,24,26,28,30,32,34,36,38,40,42,44,46,48,50,52,54,56,58,60,62,-1,-1,-1,-1,-1,-1,-1,-1,-1,-1,-1,-1,-1,-1,-1,-1,-1,-1,-1,-1,-1,-1,-1,-1,-1,-1,-1,-1,-1,-1,-1,-1],"split_conditions":[-8.531764E0,-1.7551176E1,3.47E0,-3.0051842E1,1.076E3,5.48E2,2.31E2,-6.005703E1,2.05E0,2.23E2,4.41E0,1.74E0,2.05E0,-4.5027323E0,6.74E0,3.01E0,-5.005485E1,2.15E2,1.409E3,1.48E0,3.66E0,2.05E0,6.98E0,1.48E0,2.23E2,1.48E0,1.622E3,2.23E2,2.23E2,1.671E3,8.25E0,-5.250443E-4,-3.8222602E-4,-3.5431603E-4,-3.1805155E-4,-9.520759E-6,5.8873155E-4,-2.8612313E-4,-1.5770397E-4,1.1541708E-3,-6.370711E-4,3.3020324E-4,-1.9289837E-4,1.9240404E-3,5.79298E-4,1.3018615E-4,-2.3717605E-4,2.1267605E-3,1.078606E-3,-1.5433531E-4,7.041525E-4,4.2514005E-3,2.3522866E-3,1.0847212E-3,1.6648984E-3,-7.632175E-4,-3.0499088E-4,-4.9022504E-4,-1.0449872E-4,2.7687417E-4,7.3198683E-4,3.4252163E-5,-2.2930557E-4],"split_indices":[0,0,7,0,5,5,5,0,7,5,7,7,7,0,7,7,0,5,5,7,7,7,7,7,5,7,5,5,5,5,7,0,0,0,0,0,0,0,0,0,0,0,0,0,0,0,0,0,0,0,0,0,0,0,0,0,0,0,0,0,0,0,0],"split_type":[0,0,0,0,0,0,0,0,0,0,0,0,0,0,0,0,0,0,0,0,0,0,0,0,0,0,0,0,0,0,0,0,0,0,0,0,0,0,0,0,0,0,0,0,0,0,0,0,0,0,0,0,0,0,0,0,0,0,0,0,0,0,0],"sum_hessian":[2.3588046E8,1.3263164E8,1.03248824E8,6.912392E7,6.3507716E7,1.049101E7,9.275781E7,4.425089E7,2.4873032E7,3.458159E7,2.8926124E7,4.950186E6,5.540824E6,5.267533E6,8.749028E7,2.2120076E7,2.2130812E7,3.86453E5,2.448658E7,4.93794E6,2.9643652E7,4.988403E6,2.3937722E7,4.59986E5,4.4902E6,8.6095E5,4.679874E6,2.728132E6,2.539401E6,5.571803E7,3.1772248E7,1.383897E6,2.073618E7,5.534823E6,1.659599E7,1.55966E5,2.30487E5,1.682546E7,7.661121E6,1.66896E5,4.771044E6,2.893635E6,2.6750016E7,3.556E5,4.632803E6,1.4694483E7,9.243239E6,2.82985E5,1.77001E5,2.698524E6,1.791676E6,9.4243E4,7.66707E5,3.218684E6,1.46119E6,2.551298E6,1.76834E5,2.37487E6,1.64531E5,4.3746084E7,1.1971947E7,2.1116616E7,1.0655632E7],"tree_param":{"num_deleted":"0","num_feature":"8","num_nodes":"63","size_leaf_vector":"1"}},{"base_weights":[-2.1430109E-9,-1.068529E-3,1.4628171E-3,-1.7856201E-3,-3.308277E-4,3.87295E-3,6.8064244E-4,-2.0350283E-3,-1.3419113E-3,4.030237E-3,-5.242555E-4,1.2620039E-2,3.445405E-3,1.605804E-4,2.5057192E-3,-2.276949E-3,-1.8898881E-3,-1.5022674E-4,-1.5054139E-3,7.996762E-3,2.5724256E-3,-1.0324508E-3,9.385846E-4,1.0749762E-2,1.5307336E-2,2.326223E-3,4.8650885E-3,5.6773063E-4,-9.574836E-4,1.8485796E-3,3.2062845E-3,-3.7889543E-4,-3.0980818E-4,-3.0321404E-4,-2.7033172E-4,3.5228673E-4,-6.1676634E-5,-2.566641E-4,-1.322556E-4,9.7590004E-4,1.5216614E-3,2.0128003E-4,5.8745185E-4,-1.0378675E-4,-3.3527002E-4,3.4381193E-4,9.941763E-5,1.8668585E-3,1.3313519E-3,3.5600273E-3,1.8877124E-3,6.8280776E-4,3.0277143E-4,1.2822815E-3,6.5929804E-4,7.666769E-6,1.4629446E-4,-2.1604463E-4,-2.8262313E-5,4.5430943E-4,2.3570849E-4,4.65814E-4,8.7373005E-4],"categories":[],"categories_nodes":[],"categories_segments":[],"categories_sizes":[],"default_left":[0,0,0,0,0,0,0,0,0,0,0,0,0,0,0,0,0,0,0,0,0,0,0,0,0,0,0,0,0,0,0,0,0,0,0,0,0,0,0,0,0,0,0,0,0,0,0,0,0,0,0,0,0,0,0,0,0,0,0,0,0,0,0],"id":11,"left_children":[1,3,5,7,9,11,13,15,17,19,21,23,25,27,29,31,33,35,37,39,41,43,45,47,49,51,53,55,57,59,61,-1,-1,-1,-1,-1,-1,-1,-1,-1,-1,-1,-1,-1,-1,-1,-1,-1,-1,-1,-1,-1,-1,-1,-1,-1,-1,-1,-1,-1,-1,-1,-1],"loss_changes":[3.6871466E2,7.211212E1,1.8771239E2,7.649658E0,5.66811E1,9.1241516E1,7.13544E1,1.5537567E0,4.846443E0,1.6501244E1,4.783072E1,5.7141113E0,3.6958466E1,2.66329E1,7.67498E0,8.7418365E-1,3.1896973E-1,1.9568346E0,2.8059082E0,2.4553833E0,3.4509983E0,1.9556896E1,6.1925144E0,2.1306152E0,1.0703125E1,8.909615E0,1.7742767E1,9.030271E0,5.7991657E0,2.8140278E0,2.1310654E0,0E0,0E0,0E0,0E0,0E0,0E0,0E0,0E0,0E0,0E0,0E0,0E0,0E0,0E0,0E0,0E0,0E0,0E0,0E0,0E0,0E0,0E0,0E0,0E0,0E0,0E0,0E0,0E0,0E0,0E0,0E0,0E0],"parents":[2147483647,0,0,1,1,2,2,3,3,4,4,5,5,6,6,7,7,8,8,9,9,10,10,11,11,12,12,13,13,14,14,15,15,16,16,17,17,18,18,19,19,20,20,21,21,22,22,23,23,24,24,25,25,26,26,27,27,28,28,29,29,30,30],"right_children":[2,4,6,8,10,12,14,16,18,20,22,24,26,28,30,32,34,36,38,40,42,44,46,48,50,52,54,56,58,60,62,-1,-1,-1,-1,-1,-1,-1,-1,-1,-1,-1,-1,-1,-1,-1,-1,-1,-1,-1,-1,-1,-1,-1,-1,-1,-1,-1,-1,-1,-1,-1,-1],"split_conditions":[-8.488147E0,-1.7551176E1,4.53E0,-3.0051842E1,2.71E0,1.86E0,-3.28E2,-7.0059906E1,3.66E0,1.86E0,-3.3E2,-3.484E2,-3.673E2,7.72E0,-2.588E2,5.62E0,-5.005485E1,1.86E0,-3.3E2,-3.484E2,-4.02E2,7.72E0,5.93E1,1.6E0,2.5E0,2.64E0,1.6E1,-5.949E2,-6.513E2,1.076E2,-4.3764552E-1,-3.7889543E-4,-3.0980818E-4,-3.0321404E-4,-2.7033172E-4,3.5228673E-4,-6.1676634E-5,-2.566641E-4,-1.322556E-4,9.7590004E-4,1.5216614E-3,2.0128003E-4,5.8745185E-4,-1.0378675E-4,-3.3527002E-4,3.4381193E-4,9.941763E-5,1.8668585E-3,1.3313519E-3,3.5600273E-3,1.8877124E-3,6.8280776E-4,3.0277143E-4,1.2822815E-3,6.5929804E-4,7.666769E-6,1.4629446E-4,-2.1604463E-4,-2.8262313E-5,4.5430943E-4,2.3570849E-4,4.65814E-4,8.7373005E-4],"split_indices":[0,0,7,0,7,7,6,0,7,7,6,6,6,7,6,7,0,7,6,6,6,7,4,4,4,7,4,6,6,4,0,0,0,0,0,0,0,0,0,0,0,0,0,0,0,0,0,0,0,0,0,0,0,0,0,0,0,0,0,0,0,0,0],"split_type":[0,0,0,0,0,0,0,0,0,0,0,0,0,0,0,0,0,0,0,0,0,0,0,0,0,0,0,0,0,0,0,0,0,0,0,0,0,0,0,0,0,0,0,0,0,0,0,0,0,0,0,0,0,0,0,0,0,0,0,0,0,0,0],"sum_hessian":[2.3589259E8,1.3631808E8,9.957451E7,6.912465E7,6.719343E7,2.4397604E7,7.517691E7,4.425113E7,2.4873516E7,2.853682E6,6.4339748E7,1.136946E6,2.3260656E7,5.850555E7,1.6671361E7,1.659331E7,2.765782E7,3.000978E6,2.1872538E7,7.66937E5,2.086745E6,4.775093E7,1.6588822E7,6.70384E5,4.66562E5,1.3006902E7,1.0253755E7,4.288771E7,1.5617838E7,8.602296E6,8.069065E6,7.621878E6,8.971432E6,1.1061932E7,1.6595888E7,2.83759E5,2.717219E6,1.6448378E7,5.42416E6,4.52703E5,3.14234E5,1.089316E6,9.97429E5,3.721384E7,1.0537084E7,2.808087E6,1.3780735E7,3.51913E5,3.18471E5,1.13935E5,3.52627E5,1.579914E6,1.1426988E7,1.159794E6,9.093961E6,1.8913496E7,2.3974216E7,9.5945E6,6.023338E6,1.636177E6,6.966119E6,7.769803E6,2.99262E5],"tree_param":{"num_deleted":"0","num_feature":"8","num_nodes":"63","size_leaf_vector":"1"}},{"base_weights":[2.7973687E-7,8.449008E-4,-1.4787136E-3,-1.2088738E-3,3.5786894E-3,-5.731058E-4,-1.9314685E-3,-1.7295557E-3,6.916798E-4,8.176012E-3,2.6049959E-3,-1.5319152E-3,3.0582672E-4,-1.5190607E-3,-2.1747397E-3,-2.2980731E-3,-1.2339605E-3,2.4696935E-3,-4.0130533E-4,2.915911E-3,1.2868621E-2,-5.7246475E-3,2.9997102E-3,-3.5585617E-3,-1.1383579E-3,1.9778246E-3,-2.2718859E-4,-1.5964886E-3,-1.0740925E-3,-4.214617E-3,-2.1425176E-3,-3.750229E-4,-2.8919312E-4,-1.0349121E-4,-2.4917407E-4,-5.312328E-4,5.4715504E-4,-1.9137759E-4,1.2441128E-4,3.2745812E-3,3.3575896E-4,3.8638578E-3,1.7469969E-3,-9.0494467E-4,-2.7606214E-4,6.358941E-4,7.231976E-5,-7.4386306E-4,-3.6061302E-4,5.439623E-4,-1.8024781E-4,8.9008705E-4,2.3374059E-4,4.3963624E-5,-1.8335837E-4,-2.1092354E-4,-2.6395055E-4,-2.3950173E-5,-1.8851286E-4,-4.709363E-4,-7.4387767E-4,-3.3767143E-4,-2.6063048E-4],"categories":[],"categories_nodes":[],"categories_segments":[],"categories_sizes":[],"default_left":[0,0,0,0,0,0,0,0,0,0,0,0,0,0,0,0,0,0,0,0,0,0,0,0,0,0,0,0,0,0,0,0,0,0,0,0,0,0,0,0,0,0,0,0,0,0,0,0,0,0,0,0,0,0,0,0,0,0,0,0,0,0,0],"id":12,"left_children":[1,3,5,7,9,11,13,15,17,19,21,23,25,27,29,31,33,35,37,39,41,43,45,47,49,51,53,55,57,59,61,-1,-1,-1,-1,-1,-1,-1,-1,-1,-1,-1,-1,-1,-1,-1,-1,-1,-1,-1,-1,-1,-1,-1,-1,-1,-1,-1,-1,-1,-1,-1,-1],"loss_changes":[2.946649E2,8.429856E2,3.515616E1,8.4840904E1,2.883155E2,2.4084263E1,5.735077E0,1.8961227E1,3.5829247E1,2.77867E2,1.7475137E2,1.0901905E1,1.328828E1,7.307129E-1,2.363266E0,2.3442383E0,8.355984E0,4.970291E1,1.2289376E1,6.8017395E1,9.371515E1,2.8797913E0,1.5836636E2,3.5937424E0,3.4518232E0,5.982395E0,5.854168E0,5.6108475E-1,5.250621E-1,4.4752216E-1,1.5571136E0,0E0,0E0,0E0,0E0,0E0,0E0,0E0,0E0,0E0,0E0,0E0,0E0,0E0,0E0,0E0,0E0,0E0,0E0,0E0,0E0,0E0,0E0,0E0,0E0,0E0,0E0,0E0,0E0,0E0,0E0,0E0,0E0],"parents":[2147483647,0,0,1,1,2,2,3,3,4,4,5,5,6,6,7,7,8,8,9,9,10,10,11,11,12,12,13,13,14,14,15,15,16,16,17,17,18,18,19,19,20,20,21,21,22,22,23,23,24,24,25,25,26,26,27,27,28,28,29,29,30,30],"right_children":[2,4,6,8,10,12,14,16,18,20,22,24,26,28,30,32,34,36,38,40,42,44,46,48,50,52,54,56,58,60,62,-1,-1,-1,-1,-1,-1,-1,-1,-1,-1,-1,-1,-1,-1,-1,-1,-1,-1,-1,-1,-1,-1,-1,-1,-1,-1,-1,-1,-1,-1,-1,-1],"split_conditions":[9.9588785E0,-9.950295E0,2.004871E1,-1.7445581E1,4.07E0,9.4E2,4.4957676E1,-4.504409E1,5.24E0,5.89E2,2.31E2,2.23E2,4.87E0,1.942E3,2.05E0,-6.996063E1,5.51E0,2.23E2,-4.818E2,1.48E0,2.05E0,2.23E2,6.98E0,1.4942289E1,2.28E0,2.45E0,7.33E0,5.51E0,4.6E0,6.003921E1,7.35E0,-3.750229E-4,-2.8919312E-4,-1.0349121E-4,-2.4917407E-4,-5.312328E-4,5.4715504E-4,-1.9137759E-4,1.2441128E-4,3.2745812E-3,3.3575896E-4,3.8638578E-3,1.7469969E-3,-9.0494467E-4,-2.7606214E-4,6.358941E-4,7.231976E-5,-7.4386306E-4,-3.6061302E-4,5.439623E-4,-1.8024781E-4,8.9008705E-4,2.3374059E-4,4.3963624E-5,-1.8335837E-4,-2.1092354E-4,-2.6395055E-4,-2.3950173E-5,-1.8851286E-4,-4.709363E-4,-7.4387767E-4,-3.3767143E-4,-2.6063048E-4],"split_indices":[1,1,1,1,7,5,1,1,7,5,5,5,7,5,7,1,7,5,6,7,7,5,7,1,7,7,7,7,7,1,7,0,0,0,0,0,0,0,0,0,0,0,0,0,0,0,0,0,0,0,0,0,0,0,0,0,0,0,0,0,0,0,0],"split_type":[0,0,0,0,0,0,0,0,0,0,0,0,0,0,0,0,0,0,0,0,0,0,0,0,0,0,0,0,0,0,0,0,0,0,0,0,0,0,0,0,0,0,0,0,0,0,0,0,0,0,0,0,0,0,0,0,0,0,0,0,0,0,0],"sum_hessian":[2.3588498E8,1.5014208E8,8.574289E7,8.573395E7,6.440813E7,2.8578906E7,5.7163984E7,6.729704E7,1.8436916E7,1.1257151E7,5.315098E7,1.3668367E7,1.4910539E7,2.120908E7,3.5954904E7,3.134263E7,3.595441E7,7.018906E6,1.1418009E7,5.307642E6,5.949509E6,2.404698E6,5.074628E7,2.222656E6,1.1445711E7,3.604307E6,1.1306232E7,1.8065532E7,3.143546E6,5.59113E5,3.539579E7,2.0273556E7,1.1069073E7,1.5814891E7,2.0139516E7,1.150094E6,5.868812E6,6.674856E6,4.743153E6,1.83543E5,5.124099E6,5.15159E5,5.43435E6,2.227858E6,1.7684E5,3.4003788E7,1.6742493E7,1.004304E6,1.218352E6,1.50048E5,1.1295663E7,3.45594E5,3.258713E6,7.42469E6,3.881542E6,8.339046E6,9.726487E6,5.23387E5,2.620159E6,2.28786E5,3.30327E5,2.7909744E7,7.486048E6],"tree_param":{"num_deleted":"0","num_feature":"8","num_nodes":"63","size_leaf_vector":"1"}},{"base_weights":[3.605536E-8,7.2443986E-4,-1.2472697E-3,-1.0275801E-3,3.0903204E-3,-4.8293453E-4,-1.6417854E-3,-1.4700509E-3,5.877587E-4,1.5412397E-3,5.260246E-3,-1.0732433E-3,7.5255265E-4,-1.3473061E-3,-1.9005669E-3,-1.7881003E-3,-7.7873626E-4,-4.4779104E-4,2.038321E-3,-2.6248537E-3,2.1819018E-3,9.316067E-3,3.6715362E-3,-3.0667253E-3,-7.9999043E-4,-3.3767114E-4,1.6172805E-3,-1.2120948E-3,-1.538849E-3,-2.9926735E-3,-1.8565124E-3,-3.170027E-4,-2.266627E-4,-1.751352E-4,4.6518744E-6,-5.2580534E-4,3.338601E-6,7.632099E-4,1.4280026E-4,2.5206713E-3,-4.908678E-4,7.14912E-4,1.5970597E-4,1.02891E-3,2.27341E-3,3.5812106E-4,1.0353677E-3,-6.383949E-4,-3.026087E-4,-2.175267E-4,-5.4293032E-5,1.2110083E-3,-6.0832826E-5,9.163791E-4,1.9706298E-4,-1.9419749E-4,-1.1879982E-4,-2.4812415E-4,-2.2001454E-4,-3.074476E-4,-5.249669E-4,-2.4933903E-4,-3.1395673E-4],"categories":[],"categories_nodes":[],"categories_segments":[],"categories_sizes":[],"default_left":[0,0,0,0,0,0,0,0,0,0,0,0,0,0,0,0,0,0,0,0,0,0,0,0,0,0,0,0,0,0,0,0,0,0,0,0,0,0,0,0,0,0,0,0,0,0,0,0,0,0,0,0,0,0,0,0,0,0,0,0,0,0,0],"id":13,"left_children":[1,3,5,7,9,11,13,15,17,19,21,23,25,27,29,31,33,35,37,39,41,43,45,47,49,51,53,55,57,59,61,-1,-1,-1,-1,-1,-1,-1,-1,-1,-1,-1,-1,-1,-1,-1,-1,-1,-1,-1,-1,-1,-1,-1,-1,-1,-1,-1,-1,-1,-1,-1,-1],"loss_changes":[2.1311902E2,6.184867E2,2.613089E1,6.1272247E1,2.1339319E2,2.1515953E1,4.3556213E0,1.4796005E1,2.7688688E1,9.886391E1,1.703852E2,1.087442E1,8.992186E0,6.923828E-1,1.4636612E0,4.1526337E0,6.6762495E0,1.5457198E1,2.5437012E1,6.2118473E1,9.268471E1,1.06778625E2,7.8826385E1,3.0031357E0,5.000231E0,2.4088702E0,7.252343E0,5.435047E-1,9.195137E-2,5.640955E-1,1.3435974E0,0E0,0E0,0E0,0E0,0E0,0E0,0E0,0E0,0E0,0E0,0E0,0E0,0E0,0E0,0E0,0E0,0E0,0E0,0E0,0E0,0E0,0E0,0E0,0E0,0E0,0E0,0E0,0E0,0E0,0E0,0E0,0E0],"parents":[2147483647,0,0,1,1,2,2,3,3,4,4,5,5,6,6,7,7,8,8,9,9,10,10,11,11,12,12,13,13,14,14,15,15,16,16,17,17,18,18,19,19,20,20,21,21,22,22,23,23,24,24,25,25,26,26,27,27,28,28,29,29,30,30],"right_children":[2,4,6,8,10,12,14,16,18,20,22,24,26,28,30,32,34,36,38,40,42,44,46,48,50,52,54,56,58,60,62,-1,-1,-1,-1,-1,-1,-1,-1,-1,-1,-1,-1,-1,-1,-1,-1,-1,-1,-1,-1,-1,-1,-1,-1,-1,-1,-1,-1,-1,-1,-1,-1],"split_conditions":[9.035362E0,-9.950295E0,2.004871E1,-1.7445581E1,1.16E3,1.375E3,4.9965153E1,-3.496166E1,1.16E3,2.23E2,7.2E1,2.31E2,-5.099E2,3.506124E1,8.9E0,-6.0039845E1,-3.673E2,2.23E2,6.78E1,1.6E0,6.27E1,-3.928E2,-3.124E2,1.4942289E1,-5.708E2,2.5E0,2.31E1,-2.753E2,7.7E2,2.15E2,-4.475E2,-3.170027E-4,-2.266627E-4,-1.751352E-4,4.6518744E-6,-5.2580534E-4,3.338601E-6,7.632099E-4,1.4280026E-4,2.5206713E-3,-4.908678E-4,7.14912E-4,1.5970597E-4,1.02891E-3,2.27341E-3,3.5812106E-4,1.0353677E-3,-6.383949E-4,-3.026087E-4,-2.175267E-4,-5.4293032E-5,1.2110083E-3,-6.0832826E-5,9.163791E-4,1.9706298E-4,-1.9419749E-4,-1.1879982E-4,-2.4812415E-4,-2.2001454E-4,-3.074476E-4,-5.249669E-4,-2.4933903E-4,-3.1395673E-4],"split_indices":[1,1,1,1,5,5,1,1,5,5,4,5,6,1,4,1,6,5,4,4,4,6,6,1,6,4,4,6,5,5,6,0,0,0,0,0,0,0,0,0,0,0,0,0,0,0,0,0,0,0,0,0,0,0,0,0,0,0,0,0,0,0,0],"split_type":[0,0,0,0,0,0,0,0,0,0,0,0,0,0,0,0,0,0,0,0,0,0,0,0,0,0,0,0,0,0,0,0,0,0,0,0,0,0,0,0,0,0,0,0,0,0,0,0,0,0,0,0,0,0,0,0,0,0,0,0,0,0,0],"sum_hessian":[2.3586773E8,1.4921019E8,8.665753E7,8.572658E7,6.348362E7,2.9501428E7,5.71561E7,6.7293624E7,1.8432954E7,3.7040736E7,2.6442888E7,1.9963148E7,9.53828E6,2.6734118E7,3.0421984E7,4.608948E7,2.120414E7,1.0755006E7,7.677948E6,4.936926E6,3.2103808E7,7.442613E6,1.9000274E7,2.406539E6,1.755661E7,4.219039E6,5.319241E6,1.567151E7,1.1062608E7,1.179605E6,2.9242378E7,2.1199092E7,2.4890388E7,1.4325302E7,6.878838E6,1.43308E6,9.321926E6,2.016579E6,5.661369E6,1.59244E5,4.777682E6,9.689976E6,2.2413832E7,5.238836E6,2.203777E6,1.3596584E7,5.40369E6,1.128066E6,1.278473E6,7.066963E6,1.0489647E7,3.3776E4,4.185263E6,3.3668E5,4.982561E6,1.3097628E7,2.573882E6,4.255399E6,6.807209E6,4.12506E5,7.67099E5,1.6056222E7,1.3186156E7],"tree_param":{"num_deleted":"0","num_feature":"8","num_nodes":"63","size_leaf_vector":"1"}},{"base_weights":[-2.2334629E-7,-9.055956E-4,1.4110369E-3,-1.4808436E-3,-3.7231468E-4,2.8723127E-3,-1.3183621E-3,-8.894322E-4,-1.7957268E-3,-9.3752856E-4,8.1109547E-4,-9.0607756E-4,7.896542E-3,1.5837356E-4,-1.8680495E-3,-8.012276E-4,-1.1852529E-3,-2.9059353E-3,-9.6265826E-4,-2.829249E-3,-6.779876E-4,1.7785698E-3,-8.05628E-4,-1.8637956E-3,1.1459198E-3,1.0708323E-2,2.2823233E-3,-2.0892375E-4,1.8380523E-3,-1.2104791E-3,-2.1176257E-3,-1.0523214E-4,-1.4124905E-4,-2.5254212E-4,-1.0888252E-4,-5.714471E-4,-2.5440264E-4,-1.9843009E-4,-1.262438E-4,6.494402E-4,-4.5999285E-4,4.036072E-6,-2.1521146E-4,-6.121013E-5,7.647615E-4,-3.7149413E-5,-2.3932538E-4,-3.6846998E-4,-2.0605927E-4,1.8874522E-3,1.4491357E-4,3.7924817E-3,1.4146813E-3,-1.2797871E-4,7.554025E-4,-3.3931196E-4,9.186889E-7,7.282095E-4,1.7888514E-4,-2.2142514E-4,-1.5222884E-4,-3.9634103E-4,-2.7713188E-4],"categories":[],"categories_nodes":[],"categories_segments":[],"categories_sizes":[],"default_left":[0,0,0,0,0,0,0,0,0,0,0,0,0,0,0,0,0,0,0,0,0,0,0,0,0,0,0,0,0,0,0,0,0,0,0,0,0,0,0,0,0,0,0,0,0,0,0,0,0,0,0,0,0,0,0,0,0,0,0,0,0,0,0],"id":14,"left_children":[1,3,5,7,9,11,13,15,17,19,21,23,25,27,29,31,33,35,37,39,41,43,45,47,49,51,53,55,57,59,61,-1,-1,-1,-1,-1,-1,-1,-1,-1,-1,-1,-1,-1,-1,-1,-1,-1,-1,-1,-1,-1,-1,-1,-1,-1,-1,-1,-1,-1,-1,-1,-1],"loss_changes":[3.0140332E2,4.4083374E1,3.6769092E2,1.2873962E1,4.9879253E1,1.1398378E3,2.6094604E1,6.267185E-1,4.1723236E1,2.4778416E1,3.7701916E1,6.735019E1,4.068484E2,5.3797455E0,3.8445663E0,2.5899887E-1,1.2629614E0,2.1145844E1,1.1236248E0,1.0346485E1,2.367305E1,1.0946925E2,3.9771056E0,6.786484E0,2.2429146E1,3.196422E2,7.425853E1,3.159289E0,3.04675E0,3.3497715E-1,2.406189E0,0E0,0E0,0E0,0E0,0E0,0E0,0E0,0E0,0E0,0E0,0E0,0E0,0E0,0E0,0E0,0E0,0E0,0E0,0E0,0E0,0E0,0E0,0E0,0E0,0E0,0E0,0E0,0E0,0E0,0E0,0E0,0E0],"parents":[2147483647,0,0,1,1,2,2,3,3,4,4,5,5,6,6,7,7,8,8,9,9,10,10,11,11,12,12,13,13,14,14,15,15,16,16,17,17,18,18,19,19,20,20,21,21,22,22,23,23,24,24,25,25,26,26,27,27,28,28,29,29,30,30],"right_children":[2,4,6,8,10,12,14,16,18,20,22,24,26,28,30,32,34,36,38,40,42,44,46,48,50,52,54,56,58,60,62,-1,-1,-1,-1,-1,-1,-1,-1,-1,-1,-1,-1,-1,-1,-1,-1,-1,-1,-1,-1,-1,-1,-1,-1,-1,-1,-1,-1,-1,-1,-1,-1],"split_conditions":[-7.979423E0,-1.7551176E1,1.3942124E1,-1.2469678E1,1.375E3,-1.00386E1,2.004871E1,-2.0006878E1,9.9588785E0,2.31E2,6.945779E0,-2.0049334E1,7.954432E0,1.811E3,3.506124E1,-3.505285E1,-4.9968666E1,-3.0051842E1,1.9959385E1,1.48E0,5.92E0,-6.044609E0,3.506124E1,-5.994909E1,2.05E0,3.27E0,-4.02334E0,2.23E2,4.6E0,8.37E2,5.02E0,-1.0523214E-4,-1.4124905E-4,-2.5254212E-4,-1.0888252E-4,-5.714471E-4,-2.5440264E-4,-1.9843009E-4,-1.262438E-4,6.494402E-4,-4.5999285E-4,4.036072E-6,-2.1521146E-4,-6.121013E-5,7.647615E-4,-3.7149413E-5,-2.3932538E-4,-3.6846998E-4,-2.0605927E-4,1.8874522E-3,1.4491357E-4,3.7924817E-3,1.4146813E-3,-1.2797871E-4,7.554025E-4,-3.3931196E-4,9.186889E-7,7.282095E-4,1.7888514E-4,-2.2142514E-4,-1.5222884E-4,-3.9634103E-4,-2.7713188E-4],"split_indices":[0,0,1,1,5,1,1,1,1,5,1,1,1,5,1,0,0,0,1,7,7,1,1,1,7,7,0,5,7,5,7,0,0,0,0,0,0,0,0,0,0,0,0,0,0,0,0,0,0,0,0,0,0,0,0,0,0,0,0,0,0,0,0],"split_type":[0,0,0,0,0,0,0,0,0,0,0,0,0,0,0,0,0,0,0,0,0,0,0,0,0,0,0,0,0,0,0,0,0,0,0,0,0,0,0,0,0,0,0,0,0,0,0,0,0,0,0,0,0,0,0,0,0,0,0,0,0,0,0],"sum_hessian":[2.3589227E8,1.4370229E8,9.218998E7,6.913098E7,7.457132E7,6.0043616E7,3.2146372E7,2.4018876E7,4.5112096E7,5.0467372E7,2.4103948E7,3.427081E7,2.5772806E7,8.720024E6,2.3426348E7,1.850212E7,5.516758E6,1.9339222E7,2.5772874E7,6.088682E6,4.437869E7,1.507989E7,9.024058E6,2.3365536E7,1.0905274E7,1.7172344E7,8.600463E6,7.155355E6,1.564669E6,6.44511E6,1.6981238E7,1.0821181E7,7.680938E6,2.646077E6,2.870681E6,1.1070467E7,8.268755E6,6.481909E6,1.9290964E7,1.95406E5,5.893276E6,2.2976644E7,2.1402046E7,9.091625E6,5.988265E6,5.288369E6,3.735689E6,1.057567E7,1.2789865E7,1.68812E5,1.0736462E7,1.383486E6,1.5788857E7,4.02143E6,4.579033E6,6.78398E5,6.476957E6,2.75784E5,1.288885E6,2.733077E6,3.712033E6,5.770893E6,1.1210345E7],"tree_param":{"num_deleted":"0","num_feature":"8","num_nodes":"63","size_leaf_vector":"1"}},{"base_weights":[-1.3385512E-7,-7.273719E-4,1.2951654E-3,-1.258535E-3,-2.79297E-4,2.6915085E-3,-9.4313564E-4,-7.5607677E-4,-1.5261192E-3,3.960757E-4,-1.3210424E-3,-3.4476406E-4,9.28928E-3,3.57563E-4,-1.5827394E-3,-6.810366E-4,-1.0077362E-3,-2.469502E-3,-8.181728E-4,-1.0311526E-3,3.0349598E-3,-2.0463623E-3,-1.0628579E-3,-1.3654323E-3,2.2713265E-3,1.4821742E-2,4.8706797E-3,-1.5591515E-5,2.2556765E-3,-1.0115023E-3,-1.7984275E-3,-9.025404E-5,-1.2379153E-4,-2.2493172E-4,-9.976843E-5,-5.0426536E-4,-2.3575233E-4,-1.686689E-4,-1.0729387E-4,-1.8754868E-4,1.2636646E-5,8.336162E-5,7.338734E-4,-5.1228533E-4,-1.8783663E-4,-1.1560427E-4,-2.10179E-4,-2.677806E-4,-6.042425E-5,7.0137065E-4,8.246718E-5,3.6493724E-3,1.7606203E-3,4.2320308E-4,1.3667038E-3,-1.3269199E-4,6.38618E-5,9.6742547E-4,3.070793E-4,-1.14272574E-4,-1.7854894E-4,-5.5260136E-4,-2.5948958E-4],"categories":[],"categories_nodes":[],"categories_segments":[],"categories_sizes":[],"default_left":[0,0,0,0,0,0,0,0,0,0,0,0,0,0,0,0,0,0,0,0,0,0,0,0,0,0,0,0,0,0,0,0,0,0,0,0,0,0,0,0,0,0,0,0,0,0,0,0,0,0,0,0,0,0,0,0,0,0,0,0,0,0,0],"id":15,"left_children":[1,3,5,7,9,11,13,15,17,19,21,23,25,27,29,31,33,35,37,39,41,43,45,47,49,51,53,55,57,59,61,-1,-1,-1,-1,-1,-1,-1,-1,-1,-1,-1,-1,-1,-1,-1,-1,-1,-1,-1,-1,-1,-1,-1,-1,-1,-1,-1,-1,-1,-1,-1,-1],"loss_changes":[2.2218735E2,3.5952133E1,2.6507162E2,9.293282E0,5.7648884E1,1.0462783E3,2.710632E1,4.5358562E-1,3.0121864E1,1.8722379E2,6.03516E0,9.5507E1,4.0238757E2,7.6073847E0,2.6911163E0,2.1174526E-1,9.296074E-1,1.5489754E1,8.119087E-1,7.8868256E0,8.0354675E1,9.196686E0,2.3493862E0,1.0396736E1,4.155346E1,2.143241E2,7.953107E1,3.4425416E0,1.5428343E0,2.6730108E-1,2.0478058E0,0E0,0E0,0E0,0E0,0E0,0E0,0E0,0E0,0E0,0E0,0E0,0E0,0E0,0E0,0E0,0E0,0E0,0E0,0E0,0E0,0E0,0E0,0E0,0E0,0E0,0E0,0E0,0E0,0E0,0E0,0E0,0E0],"parents":[2147483647,0,0,1,1,2,2,3,3,4,4,5,5,6,6,7,7,8,8,9,9,10,10,11,11,12,12,13,13,14,14,15,15,16,16,17,17,18,18,19,19,20,20,21,21,22,22,23,23,24,24,25,25,26,26,27,27,28,28,29,29,30,30],"right_children":[2,4,6,8,10,12,14,16,18,20,22,24,26,28,30,32,34,36,38,40,42,44,46,48,50,52,54,56,58,60,62,-1,-1,-1,-1,-1,-1,-1,-1,-1,-1,-1,-1,-1,-1,-1,-1,-1,-1,-1,-1,-1,-1,-1,-1,-1,-1,-1,-1,-1,-1,-1,-1],"split_conditions":[-7.4769917E0,-1.7551176E1,1.0027696E1,-1.2469678E1,5.9626637E0,-8.95934E0,2.004871E1,-2.0006878E1,9.9588785E0,-5.9623137E0,1.2037499E1,-1.752617E1,2.9562817E0,-2.753E2,3.506124E1,6.48E0,-5.005485E1,-3.505285E1,1.9959385E1,-2.753E2,-1.105813E1,-5.949E2,4.4957676E1,-3.0039852E1,5.38E0,4.53E0,-3.0006838E0,-4.9541063E0,1.6E1,5.38E0,2.57E0,-9.025404E-5,-1.2379153E-4,-2.2493172E-4,-9.976843E-5,-5.0426536E-4,-2.3575233E-4,-1.686689E-4,-1.0729387E-4,-1.8754868E-4,1.2636646E-5,8.336162E-5,7.338734E-4,-5.1228533E-4,-1.8783663E-4,-1.1560427E-4,-2.10179E-4,-2.677806E-4,-6.042425E-5,7.0137065E-4,8.246718E-5,3.6493724E-3,1.7606203E-3,4.2320308E-4,1.3667038E-3,-1.3269199E-4,6.38618E-5,9.6742547E-4,3.070793E-4,-1.14272574E-4,-1.7854894E-4,-5.5260136E-4,-2.5948958E-4],"split_indices":[0,0,1,1,1,1,1,1,1,1,1,1,1,6,1,7,0,0,1,6,0,6,1,1,7,7,0,0,4,7,7,0,0,0,0,0,0,0,0,0,0,0,0,0,0,0,0,0,0,0,0,0,0,0,0,0,0,0,0,0,0,0,0],"split_type":[0,0,0,0,0,0,0,0,0,0,0,0,0,0,0,0,0,0,0,0,0,0,0,0,0,0,0,0,0,0,0,0,0,0,0,0,0,0,0,0,0,0,0,0,0,0,0,0,0,0,0,0,0,0,0,0,0,0,0,0,0,0,0],"sum_hessian":[2.3586994E8,1.5105885E8,8.481109E7,6.912077E7,8.193808E7,5.2228704E7,3.2582384E7,2.4018972E7,4.5101796E7,4.9710396E7,3.2227684E7,3.5768264E7,1.6460438E7,1.0740499E7,2.1841884E7,1.8502018E7,5.516955E6,1.9335728E7,2.5766068E7,3.2261768E7,1.7448628E7,8.460246E6,2.3767436E7,2.5729786E7,1.003848E7,7.308976E6,9.151462E6,8.975906E6,1.764593E6,5.986638E6,1.5855247E7,1.1936207E7,6.565811E6,2.265258E6,3.251697E6,9.697851E6,9.637876E6,6.478587E6,1.9287482E7,2.6963524E7,5.298244E6,7.473656E6,9.974972E6,3.106084E6,5.354162E6,1.2753989E7,1.1013448E7,1.7916688E7,7.813097E6,4.188463E6,5.850017E6,1.790298E6,5.518678E6,6.169855E6,2.981607E6,3.02314E6,5.952766E6,8.3565E4,1.681028E6,2.498326E6,3.488312E6,5.55778E5,1.5299469E7],"tree_param":{"num_deleted":"0","num_feature":"8","num_nodes":"63","size_leaf_vector":"1"}},{"base_weights":[-1.0672088E-7,-6.184998E-4,1.1013614E-3,-1.0698929E-3,-2.377569E-4,2.3450598E-3,-7.566158E-4,-6.425189E-4,-1.2974413E-3,3.268236E-4,-1.1395367E-3,-2.9276032E-4,8.621368E-3,2.9995356E-4,-1.3451721E-3,2.9886529E-4,-6.6139246E-4,-2.0994276E-3,-6.9561694E-4,-8.544949E-4,2.511966E-3,-1.860458E-3,-9.0344215E-4,-1.1609283E-3,1.9321067E-3,1.252364E-2,4.754126E-3,7.5314764E-4,-9.770792E-4,-8.5943146E-4,-1.5285646E-3,-6.9760885E-5,1.7901741E-4,-8.799125E-5,-1.3407717E-4,-4.1504347E-4,-1.8088824E-4,-1.4340716E-4,-9.121669E-5,1.1769701E-4,-1.4974251E-4,1.9563579E-3,3.1298987E-4,6.877022E-4,-2.9019156E-4,-9.0040965E-5,-1.7539001E-4,-2.2944754E-4,-5.4551132E-5,-7.623078E-6,5.437667E-4,1.3915639E-3,3.1921004E-3,4.3956662E-4,1.4927016E-3,-8.358255E-6,2.3542582E-4,-9.0446214E-5,-3.1002646E-4,-7.320387E-5,-1.433813E-4,-6.833538E-4,-2.2403672E-4],"categories":[],"categories_nodes":[],"categories_segments":[],"categories_sizes":[],"default_left":[0,0,0,0,0,0,0,0,0,0,0,0,0,0,0,0,0,0,0,0,0,0,0,0,0,0,0,0,0,0,0,0,0,0,0,0,0,0,0,0,0,0,0,0,0,0,0,0,0,0,0,0,0,0,0,0,0,0,0,0,0,0,0],"id":16,"left_children":[1,3,5,7,9,11,13,15,17,19,21,23,25,27,29,31,33,35,37,39,41,43,45,47,49,51,53,55,57,59,61,-1,-1,-1,-1,-1,-1,-1,-1,-1,-1,-1,-1,-1,-1,-1,-1,-1,-1,-1,-1,-1,-1,-1,-1,-1,-1,-1,-1,-1,-1,-1,-1],"loss_changes":[1.6066089E2,2.5962055E1,1.9597482E2,6.721573E0,4.171951E1,8.410819E2,2.114704E1,4.2667294E-1,2.176931E1,1.3008264E2,5.3699684E0,6.9091095E1,2.2686841E2,7.041073E0,1.9455757E0,3.2256714E-1,4.092617E-1,1.1532852E1,5.872116E-1,7.709379E0,7.920914E1,3.7198257E0,1.9153423E0,7.56361E0,3.3705296E1,2.1273584E2,7.156473E1,5.929397E0,1.2991481E0,2.1441412E-1,1.6791306E0,0E0,0E0,0E0,0E0,0E0,0E0,0E0,0E0,0E0,0E0,0E0,0E0,0E0,0E0,0E0,0E0,0E0,0E0,0E0,0E0,0E0,0E0,0E0,0E0,0E0,0E0,0E0,0E0,0E0,0E0,0E0,0E0],"parents":[2147483647,0,0,1,1,2,2,3,3,4,4,5,5,6,6,7,7,8,8,9,9,10,10,11,11,12,12,13,13,14,14,15,15,16,16,17,17,18,18,19,19,20,20,21,21,22,22,23,23,24,24,25,25,26,26,27,27,28,28,29,29,30,30],"right_children":[2,4,6,8,10,12,14,16,18,20,22,24,26,28,30,32,34,36,38,40,42,44,46,48,50,52,54,56,58,60,62,-1,-1,-1,-1,-1,-1,-1,-1,-1,-1,-1,-1,-1,-1,-1,-1,-1,-1,-1,-1,-1,-1,-1,-1,-1,-1,-1,-1,-1,-1,-1,-1],"split_conditions":[-7.4769917E0,-1.7551176E1,9.9588785E0,-1.2469678E1,6.001464E0,-8.95934E0,2.004871E1,2.18E0,9.9588785E0,-5.025185E0,1.2037499E1,-1.752617E1,3.048019E0,6.98E0,3.506124E1,-3.5054955E1,-2.0025705E1,-3.0051842E1,1.9959385E1,3.27E0,2.64E0,1.86E0,-1.0998265E1,-3.496166E1,-3.9813519E0,-3.5209022E0,-2.501942E0,-3.5025065E0,8.69E0,4.32E0,1.86E0,-6.9760885E-5,1.7901741E-4,-8.799125E-5,-1.3407717E-4,-4.1504347E-4,-1.8088824E-4,-1.4340716E-4,-9.121669E-5,1.1769701E-4,-1.4974251E-4,1.9563579E-3,3.1298987E-4,6.877022E-4,-2.9019156E-4,-9.0040965E-5,-1.7539001E-4,-2.2944754E-4,-5.4551132E-5,-7.623078E-6,5.437667E-4,1.3915639E-3,3.1921004E-3,4.3956662E-4,1.4927016E-3,-8.358255E-6,2.3542582E-4,-9.0446214E-5,-3.1002646E-4,-7.320387E-5,-1.433813E-4,-6.833538E-4,-2.2403672E-4],"split_indices":[0,0,1,1,1,1,1,7,1,1,1,1,1,7,1,1,1,0,1,7,7,7,0,1,0,0,0,0,7,7,7,0,0,0,0,0,0,0,0,0,0,0,0,0,0,0,0,0,0,0,0,0,0,0,0,0,0,0,0,0,0,0,0],"split_type":[0,0,0,0,0,0,0,0,0,0,0,0,0,0,0,0,0,0,0,0,0,0,0,0,0,0,0,0,0,0,0,0,0,0,0,0,0,0,0,0,0,0,0,0,0,0,0,0,0,0,0,0,0,0,0,0,0,0,0,0,0,0,0],"sum_hessian":[2.3587051E8,1.5106093E8,8.4809576E7,6.911776E7,8.1943176E7,5.0802944E7,3.400663E7,2.4014502E7,4.510326E7,5.0393276E7,3.1549896E7,3.5769616E7,1.503333E7,1.2166132E7,2.1840498E7,4.71997E5,2.3542504E7,1.9336112E7,2.5767148E7,3.2709868E7,1.768341E7,7.783317E6,2.376658E7,2.5729628E7,1.0039988E7,7.482772E6,7.550558E6,8.979487E6,3.186645E6,5.985934E6,1.5854564E7,2.54589E5,2.17408E5,1.7812104E7,5.7304E6,1.1067614E7,8.268497E6,6.480415E6,1.9286734E7,2.637962E6,3.0071904E7,6.86571E5,1.699684E7,8.8529E4,7.694788E6,1.1103361E7,1.2663219E7,1.759303E7,8.136598E6,4.624065E6,5.415923E6,5.458945E6,2.023827E6,5.589298E6,1.96126E6,4.510431E6,4.469056E6,2.372271E6,8.14374E5,1.233958E6,4.751976E6,1.81147E5,1.5673417E7],"tree_param":{"num_deleted":"0","num_feature":"8","num_nodes":"63","size_leaf_vector":"1"}},{"base_weights":[1.2970986E-7,-4.906215E-4,1.0221327E-3,-7.5053546E-4,3.805909E-4,2.16399E-3,-5.639475E-4,-1.2223882E-3,-4.6564123E-4,-7.133447E-4,1.36799E-3,-1.6191481E-4,8.7112645E-3,3.9417186E-4,-1.1383307E-3,-1.4117198E-3,-7.7133835E-4,-1.2573377E-4,-9.471202E-4,-1.0533133E-3,-9.165101E-5,2.3021838E-3,-3.0308598E-4,-9.734478E-4,1.9151028E-3,3.4471426E-2,8.194554E-3,-7.305748E-4,1.5987208E-3,-8.8015385E-4,-1.4319157E-3,-1.7062188E-4,-3.641323E-4,-7.937893E-5,-1.328674E-4,-1.1911206E-4,2.1299515E-4,-2.5532016E-4,-1.07609114E-4,-5.491942E-5,-2.0602843E-4,5.9187703E-5,-8.118423E-5,-9.5365085E-6,7.969136E-4,7.179568E-5,-1.4647986E-4,-2.2736232E-4,-7.926742E-5,-7.0947845E-4,3.7593738E-4,3.056397E-3,6.5133166E-3,-7.5143884E-4,1.3817888E-3,-5.120493E-4,-3.8348306E-5,1.332227E-4,5.5454497E-4,-9.6014846E-5,-1.5244537E-4,-4.0194518E-5,-2.2949242E-4],"categories":[],"categories_nodes":[],"categories_segments":[],"categories_sizes":[],"default_left":[0,0,0,0,0,0,0,0,0,0,0,0,0,0,0,0,0,0,0,0,0,0,0,0,0,0,0,0,0,0,0,0,0,0,0,0,0,0,0,0,0,0,0,0,0,0,0,0,0,0,0,0,0,0,0,0,0,0,0,0,0,0,0],"id":17,"left_children":[1,3,5,7,9,11,13,15,17,19,21,23,25,27,29,31,33,35,37,39,41,43,45,47,49,51,53,55,57,59,61,-1,-1,-1,-1,-1,-1,-1,-1,-1,-1,-1,-1,-1,-1,-1,-1,-1,-1,-1,-1,-1,-1,-1,-1,-1,-1,-1,-1,-1,-1,-1,-1],"loss_changes":[1.1830233E2,3.608421E1,1.3858295E2,1.6499344E1,3.9551826E1,6.7751056E2,1.7626728E1,3.9459991E0,1.2524788E1,3.6715384E0,3.0044514E1,5.5333893E1,1.5522845E2,1.6264097E1,1.5178146E0,9.066666E0,3.7858582E-1,4.634357E1,5.4930134E0,2.4711199E0,1.3424566E0,8.7921555E1,3.6330605E0,5.6964436E0,3.6229183E1,2.8931519E1,1.5358215E2,7.9105263E0,8.642587E0,3.4823608E-1,1.0691643E0,0E0,0E0,0E0,0E0,0E0,0E0,0E0,0E0,0E0,0E0,0E0,0E0,0E0,0E0,0E0,0E0,0E0,0E0,0E0,0E0,0E0,0E0,0E0,0E0,0E0,0E0,0E0,0E0,0E0,0E0,0E0,0E0],"parents":[2147483647,0,0,1,1,2,2,3,3,4,4,5,5,6,6,7,7,8,8,9,9,10,10,11,11,12,12,13,13,14,14,15,15,16,16,17,17,18,18,19,19,20,20,21,21,22,22,23,23,24,24,25,25,26,26,27,27,28,28,29,29,30,30],"right_children":[2,4,6,8,10,12,14,16,18,20,22,24,26,28,30,32,34,36,38,40,42,44,46,48,50,52,54,56,58,60,62,-1,-1,-1,-1,-1,-1,-1,-1,-1,-1,-1,-1,-1,-1,-1,-1,-1,-1,-1,-1,-1,-1,-1,-1,-1,-1,-1,-1,-1,-1,-1,-1],"split_conditions":[-6.560512E0,1.638E3,9.0104E0,-5.949E2,-1.7449549E1,-8.95934E0,2.004871E1,1.4942289E1,5.0259414E0,-2.9964088E1,7.954432E0,-1.752617E1,5E0,1.013E3,5.0031025E1,3.048019E0,-3.0051842E1,-5.9623137E0,1.2037499E1,-1.7445581E1,1.223E2,-7.052315E0,2.9950619E1,-4.99664E1,2.31E2,2.15E2,2.23E2,2.23E2,-3.124E2,3.496388E1,2.23E2,-1.7062188E-4,-3.641323E-4,-7.937893E-5,-1.328674E-4,-1.1911206E-4,2.1299515E-4,-2.5532016E-4,-1.07609114E-4,-5.491942E-5,-2.0602843E-4,5.9187703E-5,-8.118423E-5,-9.5365085E-6,7.969136E-4,7.179568E-5,-1.4647986E-4,-2.2736232E-4,-7.926742E-5,-7.0947845E-4,3.7593738E-4,3.056397E-3,6.5133166E-3,-7.5143884E-4,1.3817888E-3,-5.120493E-4,-3.8348306E-5,1.332227E-4,5.5454497E-4,-9.6014846E-5,-1.5244537E-4,-4.0194518E-5,-2.2949242E-4],"split_indices":[0,5,1,6,0,1,1,1,1,0,1,1,4,5,1,1,0,1,1,1,4,1,1,1,5,5,5,5,6,1,5,0,0,0,0,0,0,0,0,0,0,0,0,0,0,0,0,0,0,0,0,0,0,0,0,0,0,0,0,0,0,0,0],"split_type":[0,0,0,0,0,0,0,0,0,0,0,0,0,0,0,0,0,0,0,0,0,0,0,0,0,0,0,0,0,0,0,0,0,0,0,0,0,0,0,0,0,0,0,0,0,0,0,0,0,0,0,0,0,0,0,0,0,0,0,0,0,0,0],"sum_hessian":[2.3587384E8,1.5935422E8,7.6519624E7,1.2273728E8,3.6616936E7,4.4490116E7,3.2029506E7,4.6207176E7,7.6530104E7,1.737132E7,1.9245618E7,3.2828032E7,1.1662084E7,1.2004686E7,2.002482E7,3.2545824E7,1.3661353E7,4.4860296E7,3.1669812E7,1.123018E7,6.14114E6,1.2344552E7,6.901066E6,2.3605056E7,9.222975E6,2.29323E5,1.1432761E7,6.207985E6,5.796701E6,1.0654937E7,9.369883E6,2.5627292E7,6.918532E6,4.384489E6,9.276864E6,3.131848E7,1.3541813E7,7.388122E6,2.428169E7,3.56962E6,7.66056E6,2.950287E6,3.190853E6,6.912551E6,5.432001E6,3.193783E6,3.707283E6,1.0639338E7,1.2965719E7,7.53461E5,8.469514E6,8.9066E4,1.40257E5,8.1787E5,1.0614891E7,9.33592E5,5.274393E6,4.330262E6,1.466439E6,3.856039E6,6.798898E6,7.27872E5,8.642011E6],"tree_param":{"num_deleted":"0","num_feature":"8","num_nodes":"63","size_leaf_vector":"1"}},{"base_weights":[2.4268003E-8,-2.5848625E-4,1.2091758E-3,3.367755E-3,-3.250183E-4,2.0429175E-3,-4.665127E-4,5.259982E-3,-5.021306E-4,-8.37365E-4,-2.2722203E-5,-5.2481215E-4,3.958291E-3,2.7134633E-4,-9.827664E-4,-8.7463495E-4,8.905678E-3,1.2981063E-3,-1.7237144E-3,-6.190501E-4,-1.6022708E-3,3.3976077E-4,-5.607427E-4,-1.1848591E-3,5.3572137E-4,1.2584352E-2,3.5299337E-3,9.800612E-4,2.2262177E-6,-6.6590915E-4,-1.3546756E-3,-3.380608E-4,3.5806556E-4,2.3716434E-3,1.0769506E-3,4.5297458E-4,1.3003958E-4,-1.4826206E-4,-3.8790828E-4,-6.260897E-5,-1.2819922E-4,-3.010207E-4,-1.04533305E-4,-6.748545E-5,2.8161576E-4,-6.110852E-5,-1.3076034E-4,-2.3838301E-4,-1.1433864E-4,5.039787E-4,5.932659E-5,4.0596863E-3,1.794225E-3,8.122877E-4,4.4440603E-4,3.1020428E-4,1.1314576E-4,2.9323855E-5,-5.5232587E-5,-8.109591E-5,-1.2717459E-4,-4.5708154E-4,-1.9885432E-4],"categories":[],"categories_nodes":[],"categories_segments":[],"categories_sizes":[],"default_left":[0,0,0,0,0,0,0,0,0,0,0,0,0,0,0,0,0,0,0,0,0,0,0,0,0,0,0,0,0,0,0,0,0,0,0,0,0,0,0,0,0,0,0,0,0,0,0,0,0,0,0,0,0,0,0,0,0,0,0,0,0,0,0],"id":18,"left_children":[1,3,5,7,9,11,13,15,17,19,21,23,25,27,29,31,33,35,37,39,41,43,45,47,49,51,53,55,57,59,61,-1,-1,-1,-1,-1,-1,-1,-1,-1,-1,-1,-1,-1,-1,-1,-1,-1,-1,-1,-1,-1,-1,-1,-1,-1,-1,-1,-1,-1,-1,-1,-1],"loss_changes":[7.372444E1,4.6880783E1,5.8040295E1,2.5636398E1,2.9553423E1,1.3643497E2,5.257724E0,5.2585968E1,2.528312E0,1.1824085E1,2.3404232E1,8.296537E0,5.870993E1,1.0836914E0,9.5696974E-1,3.942546E0,1.757753E1,3.4502226E-1,4.3429017E-1,2.617237E0,5.75832E0,8.7062065E1,2.3038387E0,1.2483788E0,1.8003801E0,6.7791977E0,1.6187744E1,3.8408053E-1,2.9483005E-1,9.9928975E-2,1.8323946E-1,0E0,0E0,0E0,0E0,0E0,0E0,0E0,0E0,0E0,0E0,0E0,0E0,0E0,0E0,0E0,0E0,0E0,0E0,0E0,0E0,0E0,0E0,0E0,0E0,0E0,0E0,0E0,0E0,0E0,0E0,0E0,0E0],"parents":[2147483647,0,0,1,1,2,2,3,3,4,4,5,5,6,6,7,7,8,8,9,9,10,10,11,11,12,12,13,13,14,14,15,15,16,16,17,17,18,18,19,19,20,20,21,21,22,22,23,23,24,24,25,25,26,26,27,27,28,28,29,29,30,30],"right_children":[2,4,6,8,10,12,14,16,18,20,22,24,26,28,30,32,34,36,38,40,42,44,46,48,50,52,54,56,58,60,62,-1,-1,-1,-1,-1,-1,-1,-1,-1,-1,-1,-1,-1,-1,-1,-1,-1,-1,-1,-1,-1,-1,-1,-1,-1,-1,-1,-1,-1,-1,-1,-1],"split_conditions":[-2.818E2,2.18E0,1.2037499E1,1.2482473E1,-6.513E2,-1.7445581E1,3.496388E1,-2.0006878E1,3.496388E1,1.559E2,7.954432E0,-3.5054955E1,1.6E1,7.56E1,6.003921E1,-3.5054955E1,1.48E0,1.48E0,6.003921E1,3.048019E0,1.4942289E1,-7.9888434E0,4.504392E1,-6.0039845E1,1.6E1,1.6E0,7.47E1,1.6E1,2.004871E1,4.504392E1,1.86E0,-3.380608E-4,3.5806556E-4,2.3716434E-3,1.0769506E-3,4.5297458E-4,1.3003958E-4,-1.4826206E-4,-3.8790828E-4,-6.260897E-5,-1.2819922E-4,-3.010207E-4,-1.04533305E-4,-6.748545E-5,2.8161576E-4,-6.110852E-5,-1.3076034E-4,-2.3838301E-4,-1.1433864E-4,5.039787E-4,5.932659E-5,4.0596863E-3,1.794225E-3,8.122877E-4,4.4440603E-4,3.1020428E-4,1.1314576E-4,2.9323855E-5,-5.5232587E-5,-8.109591E-5,-1.2717459E-4,-4.5708154E-4,-1.9885432E-4],"split_indices":[6,7,1,1,6,1,1,1,1,4,1,1,4,4,1,1,7,7,1,1,1,1,1,1,4,4,4,4,1,1,7,0,0,0,0,0,0,0,0,0,0,0,0,0,0,0,0,0,0,0,0,0,0,0,0,0,0,0,0,0,0,0,0],"split_type":[0,0,0,0,0,0,0,0,0,0,0,0,0,0,0,0,0,0,0,0,0,0,0,0,0,0,0,0,0,0,0,0,0,0,0,0,0,0,0,0,0,0,0,0,0,0,0,0,0,0,0,0,0,0,0,0,0,0,0,0,0,0,0],"sum_hessian":[2.3585906E8,1.9431541E8,4.1543656E7,3.500946E6,1.9081445E8,2.7741048E7,1.3802609E7,2.351266E6,1.14968E6,7.0807064E7,1.2000739E8,1.1852162E7,1.5888885E7,5.681824E6,8.120785E6,8.76455E5,1.474811E6,4.64763E5,6.84917E5,5.5085028E7,1.5722038E7,7.1700376E7,4.8307016E7,7.30545E6,4.546712E6,7.51689E5,1.5137196E7,1.563753E6,4.118071E6,4.384935E6,3.73585E6,6.16002E5,2.60453E5,2.94918E5,1.179893E6,9.308E4,3.71683E5,3.69691E5,3.15226E5,2.9681212E7,2.5403814E7,1.086669E7,4.855348E6,4.7372536E7,2.432784E7,3.2353364E7,1.595365E7,3.733293E6,3.572157E6,2.15054E5,4.331658E6,3.0998E4,7.20691E5,3.500944E6,1.1636252E7,2.68721E5,1.295032E6,2.706203E6,1.411868E6,2.596801E6,1.788134E6,6.2888E4,3.672962E6],"tree_param":{"num_deleted":"0","num_feature":"8","num_nodes":"63","size_leaf_vector":"1"}},{"base_weights":[-1.2055787E-7,-5.752083E-4,5.528595E-4,-1.761179E-3,-3.5167433E-4,1.7831563E-3,-7.874664E-5,-2.3145406E-3,-3.7493324E-4,1.2973192E-3,-5.347202E-4,2.8362388E-3,-3.3367143E-4,2.264896E-4,-8.3443406E-4,-4.487949E-4,-3.2479693E-3,-6.82973E-4,-2.1546713E-5,2.368081E-3,-4.5636864E-4,-1.6748413E-4,-9.0159156E-4,-5.1934658E-5,5.320656E-3,4.5434633E-4,-1.0342407E-3,-7.305741E-4,5.3253426E-4,-5.8753305E-4,-1.439548E-3,-1.7456377E-5,-1.6224133E-4,1.212875E-3,-5.4660515E-4,-9.295715E-5,-1.3874275E-4,-4.3885413E-4,1.1979552E-5,-6.290742E-5,7.1055174E-4,4.0664298E-5,-1.7097523E-4,2.5637355E-5,-1.0047111E-4,-1.10849134E-4,-2.1077662E-4,-1.5788269E-4,2.5103663E-4,1.9080273E-3,7.0087926E-4,2.8903372E-5,2.2771074E-4,-9.082733E-5,-2.1662918E-4,-1.5132713E-4,-8.495661E-5,2.2005384E-4,-4.3805536E-5,-1.1176206E-4,2.7899487E-5,-5.260141E-5,-2.6172903E-4],"categories":[],"categories_nodes":[],"categories_segments":[],"categories_sizes":[],"default_left":[0,0,0,0,0,0,0,0,0,0,0,0,0,0,0,0,0,0,0,0,0,0,0,0,0,0,0,0,0,0,0,0,0,0,0,0,0,0,0,0,0,0,0,0,0,0,0,0,0,0,0,0,0,0,0,0,0,0,0,0,0,0,0],"id":19,"left_children":[1,3,5,7,9,11,13,15,17,19,21,23,25,27,29,31,33,35,37,39,41,43,45,47,49,51,53,55,57,59,61,-1,-1,-1,-1,-1,-1,-1,-1,-1,-1,-1,-1,-1,-1,-1,-1,-1,-1,-1,-1,-1,-1,-1,-1,-1,-1,-1,-1,-1,-1,-1,-1],"loss_changes":[7.501337E1,3.065398E1,9.344374E1,1.4066803E1,2.9366737E1,9.093503E1,1.8328423E1,2.2824768E1,5.69506E-1,1.8253538E1,1.1798321E1,1.9546527E2,7.4814515E0,1.657794E1,3.415534E0,9.1936076E-1,3.9213684E1,4.2786002E-2,7.1757674E-1,3.985493E1,1.8322706E0,7.43924E0,3.5870132E0,2.1749454E1,7.02305E1,1.7751609E0,1.2608805E0,6.265917E-1,3.304522E1,1.9786863E0,2.2023954E0,0E0,0E0,0E0,0E0,0E0,0E0,0E0,0E0,0E0,0E0,0E0,0E0,0E0,0E0,0E0,0E0,0E0,0E0,0E0,0E0,0E0,0E0,0E0,0E0,0E0,0E0,0E0,0E0,0E0,0E0,0E0,0E0],"parents":[2147483647,0,0,1,1,2,2,3,3,4,4,5,5,6,6,7,7,8,8,9,9,10,10,11,11,12,12,13,13,14,14,15,15,16,16,17,17,18,18,19,19,20,20,21,21,22,22,23,23,24,24,25,25,26,26,27,27,28,28,29,29,30,30],"right_children":[2,4,6,8,10,12,14,16,18,20,22,24,26,28,30,32,34,36,38,40,42,44,46,48,50,52,54,56,58,60,62,-1,-1,-1,-1,-1,-1,-1,-1,-1,-1,-1,-1,-1,-1,-1,-1,-1,-1,-1,-1,-1,-1,-1,-1,-1,-1,-1,-1,-1,-1,-1,-1],"split_conditions":[9.61E2,2.23E2,5.38E0,1.745635E1,3.66E0,1.2037499E1,7.79E0,-2.496814E1,4.504392E1,8.968685E0,5.92E0,-1.404167E1,3.506124E1,-2.0049334E1,9.17E0,-4.0034054E1,1.48E0,-3.24E2,1.48E0,-1.7445581E1,3.496388E1,7.954432E0,7.96E0,-3.496166E1,2.64E0,2.089E3,6.003921E1,-6.0039845E1,7.954432E0,2.444E3,-2.9949564E1,-1.7456377E-5,-1.6224133E-4,1.212875E-3,-5.4660515E-4,-9.295715E-5,-1.3874275E-4,-4.3885413E-4,1.1979552E-5,-6.290742E-5,7.1055174E-4,4.0664298E-5,-1.7097523E-4,2.5637355E-5,-1.0047111E-4,-1.10849134E-4,-2.1077662E-4,-1.5788269E-4,2.5103663E-4,1.9080273E-3,7.0087926E-4,2.8903372E-5,2.2771074E-4,-9.082733E-5,-2.1662918E-4,-1.5132713E-4,-8.495661E-5,2.2005384E-4,-4.3805536E-5,-1.1176206E-4,2.7899487E-5,-5.260141E-5,-2.6172903E-4],"split_indices":[5,5,7,1,7,1,7,1,1,1,7,1,1,1,7,1,7,6,7,1,1,1,7,1,7,5,1,1,1,5,1,0,0,0,0,0,0,0,0,0,0,0,0,0,0,0,0,0,0,0,0,0,0,0,0,0,0,0,0,0,0,0,0],"split_type":[0,0,0,0,0,0,0,0,0,0,0,0,0,0,0,0,0,0,0,0,0,0,0,0,0,0,0,0,0,0,0,0,0,0,0,0,0,0,0,0,0,0,0,0,0,0,0,0,0,0,0,0,0,0,0,0,0,0,0,0,0,0,0],"sum_hessian":[2.3588214E8,1.1562969E8,1.2025246E8,1.833776E7,9.729193E7,4.0792776E7,7.945968E7,1.3106076E7,5.231684E6,9.720798E6,8.757113E7,2.7240924E7,1.3551855E7,5.6598496E7,2.2861188E7,4.370428E6,8.735648E6,2.795181E6,2.436503E6,6.035599E6,3.685199E6,4.3763812E7,4.380732E7,1.2596869E7,1.4644054E7,6.377869E6,7.173986E6,1.3713525E7,4.288497E7,1.6236363E7,6.624824E6,2.865286E6,1.505142E6,2.94963E5,8.440685E6,2.215898E6,5.79283E5,8.2209E4,2.354294E6,2.772852E6,3.262747E6,1.785141E6,1.900058E6,2.614842E7,1.7615392E7,3.3115136E7,1.0692181E7,7.97323E6,4.623639E6,1.179376E6,1.3464678E7,5.11875E6,1.259119E6,3.50671E6,3.667276E6,5.088964E6,8.624561E6,2.0102588E7,2.2782382E7,1.3489011E7,2.747352E6,1.45077E6,5.174054E6],"tree_param":{"num_deleted":"0","num_feature":"8","num_nodes":"63","size_leaf_vector":"1"}},{"base_weights":[6.46082E-8,-4.9774576E-4,8.0202543E-4,-6.486867E-4,1.9256563E-4,1.680367E-3,-4.2211535E-4,-1.0468309E-3,-5.376188E-4,-6.073737E-4,1.0791799E-3,-1.2947459E-4,6.984067E-3,1.3490213E-4,-7.9275435E-4,-6.524153E-4,-1.5695499E-3,-8.498982E-4,-2.4027593E-4,-1.0424232E-3,-2.0268503E-4,4.591339E-4,2.659479E-3,-7.1669853E-4,1.1861353E-3,5.2275723E-3,1.5307607E-2,-4.1337998E-4,1.9734E-3,-6.503205E-4,-1.0471563E-3,-1.2983869E-4,-4.1696687E-5,-3.6700183E-4,-1.344241E-4,-1.7381643E-4,-4.1496045E-5,2.834531E-4,-5.810409E-5,-2.1631524E-4,6.885309E-6,-4.8631635E-5,6.8267575E-5,2.0626407E-4,-5.478941E-5,-1.4569175E-4,5.285054E-4,-1.9070283E-4,-6.94111E-5,-9.137937E-5,5.2887877E-4,1.182823E-3,1.8560763E-4,3.5044954E-3,1.4271275E-3,-4.2873944E-4,-1.853077E-5,8.919531E-5,4.5437922E-4,-7.6245786E-5,-1.1228119E-4,-1.0995671E-4,-2.1385407E-4],"categories":[],"categories_nodes":[],"categories_segments":[],"categories_sizes":[],"default_left":[0,0,0,0,0,0,0,0,0,0,0,0,0,0,0,0,0,0,0,0,0,0,0,0,0,0,0,0,0,0,0,0,0,0,0,0,0,0,0,0,0,0,0,0,0,0,0,0,0,0,0,0,0,0,0,0,0,0,0,0,0,0,0],"id":20,"left_children":[1,3,5,7,9,11,13,15,17,19,21,23,25,27,29,31,33,35,37,39,41,43,45,47,49,51,53,55,57,59,61,-1,-1,-1,-1,-1,-1,-1,-1,-1,-1,-1,-1,-1,-1,-1,-1,-1,-1,-1,-1,-1,-1,-1,-1,-1,-1,-1,-1,-1,-1,-1,-1],"loss_changes":[9.417288E1,1.5165165E1,9.714057E1,5.2813263E0,1.8521137E1,5.0492197E2,7.7921405E0,5.370636E0,8.670744E0,2.4169626E0,1.2136567E1,3.0299034E1,1.9566559E2,1.5200855E1,8.2120514E-1,1.1851029E0,6.616888E0,8.064713E0,1.4985718E1,2.8777761E0,5.6855094E-1,6.717288E0,1.0947672E1,3.8195105E0,5.0840492E1,1.1720331E2,1.0883826E2,8.231333E0,5.0426865E0,2.0265913E-1,9.671936E-1,0E0,0E0,0E0,0E0,0E0,0E0,0E0,0E0,0E0,0E0,0E0,0E0,0E0,0E0,0E0,0E0,0E0,0E0,0E0,0E0,0E0,0E0,0E0,0E0,0E0,0E0,0E0,0E0,0E0,0E0,0E0,0E0],"parents":[2147483647,0,0,1,1,2,2,3,3,4,4,5,5,6,6,7,7,8,8,9,9,10,10,11,11,12,12,13,13,14,14,15,15,16,16,17,17,18,18,19,19,20,20,21,21,22,22,23,23,24,24,25,25,26,26,27,27,28,28,29,29,30,30],"right_children":[2,4,6,8,10,12,14,16,18,20,22,24,26,28,30,32,34,36,38,40,42,44,46,48,50,52,54,56,58,60,62,-1,-1,-1,-1,-1,-1,-1,-1,-1,-1,-1,-1,-1,-1,-1,-1,-1,-1,-1,-1,-1,-1,-1,-1,-1,-1,-1,-1,-1,-1,-1,-1],"split_conditions":[-7.944072E0,1.811E3,8.968685E0,4.19E2,-1.5035799E1,-7.9888434E0,2.4967848E1,-1.4047009E1,-1.7517645E1,-3.998243E1,-3.28E2,-1.752617E1,-2.9541156E0,1.638E3,6.996195E1,9.9588785E0,2.23E2,1.1978066E1,1.83E1,2.004871E1,-2.588E2,1.142E2,-2.9949564E1,-6.0039845E1,-3.4583302E0,4.950624E0,6.945779E0,2.31E2,-5.162E2,3.506124E1,-4.529E2,-1.2983869E-4,-4.1696687E-5,-3.6700183E-4,-1.344241E-4,-1.7381643E-4,-4.1496045E-5,2.834531E-4,-5.810409E-5,-2.1631524E-4,6.885309E-6,-4.8631635E-5,6.8267575E-5,2.0626407E-4,-5.478941E-5,-1.4569175E-4,5.285054E-4,-1.9070283E-4,-6.94111E-5,-9.137937E-5,5.2887877E-4,1.182823E-3,1.8560763E-4,3.5044954E-3,1.4271275E-3,-4.2873944E-4,-1.853077E-5,8.919531E-5,4.5437922E-4,-7.6245786E-5,-1.1228119E-4,-1.0995671E-4,-2.1385407E-4],"split_indices":[0,5,1,5,0,1,1,0,0,0,6,1,0,5,1,1,5,1,4,1,6,4,1,1,0,1,1,5,6,1,6,0,0,0,0,0,0,0,0,0,0,0,0,0,0,0,0,0,0,0,0,0,0,0,0,0,0,0,0,0,0,0,0],"split_type":[0,0,0,0,0,0,0,0,0,0,0,0,0,0,0,0,0,0,0,0,0,0,0,0,0,0,0,0,0,0,0,0,0,0,0,0,0,0,0,0,0,0,0,0,0,0,0,0,0,0,0,0,0,0,0,0,0,0,0,0,0,0,0],"sum_hessian":[2.3588958E8,1.4554424E8,9.034534E7,1.1943009E8,2.6114148E7,5.2602304E7,3.774304E7,2.6049744E7,9.3380344E7,1.37281E7,1.2386048E7,3.921912E7,1.3383184E7,1.5079981E7,2.2663058E7,1.4847E7,1.1202745E7,4.5546204E7,4.783414E7,6.615879E6,7.112221E6,8.895724E6,3.490324E6,2.7115908E7,1.2103214E7,1.1051101E7,2.332083E6,1.1615865E7,3.464116E6,1.4528748E7,8.13431E6,9.460766E6,5.386234E6,4.865346E6,6.337399E6,2.95983E7,1.5947903E7,3.08982E6,4.474432E7,4.838851E6,1.777028E6,6.003165E6,1.109056E6,4.213852E6,4.681872E6,6.70855E5,2.819469E6,8.516199E6,1.8599708E7,6.848319E6,5.254895E6,6.632866E6,4.418235E6,9.75566E5,1.356517E6,1.231114E6,1.0384751E7,1.502283E6,1.961833E6,5.940094E6,8.588654E6,4.445458E6,3.688852E6],"tree_param":{"num_deleted":"0","num_feature":"8","num_nodes":"63","size_leaf_vector":"1"}},{"base_weights":[8.655212E-8,-3.234081E-4,9.905376E-4,-5.0642417E-4,5.1346805E-4,-4.7982877E-4,1.752594E-3,-1.3931912E-3,-4.084588E-4,-3.0471382E-4,1.646502E-3,-7.64414E-4,2.2354022E-4,5.7309405E-3,-9.535952E-5,-3.6867877E-4,-2.4291014E-3,-7.465385E-4,-1.614324E-4,-7.773758E-4,1.3531314E-4,2.806471E-3,-2.5390377E-4,-1.1480787E-3,-5.974452E-4,-2.8481828E-3,4.962108E-4,2.6227252E-3,1.0099803E-2,7.0723466E-4,-6.3594006E-4,3.2228494E-5,-1.4107049E-4,-4.9793796E-4,-5.420258E-6,-1.3372445E-4,-6.0405153E-5,-9.13844E-5,6.879592E-5,1.6216039E-6,-1.7134077E-4,-8.704868E-5,7.967916E-5,2.8227252E-5,1.107686E-3,7.893729E-5,-1.2399897E-4,-1.16631905E-4,-2.3918807E-4,-1.0347139E-4,-7.175197E-5,5.6365546E-4,-4.7373082E-4,-2.1319413E-5,2.563135E-4,1.3246975E-4,7.7454845E-4,2.259866E-3,9.192597E-4,9.744703E-6,3.442414E-4,-7.900204E-5,-1.3895576E-4],"categories":[],"categories_nodes":[],"categories_segments":[],"categories_sizes":[],"default_left":[0,0,0,0,0,0,0,0,0,0,0,0,0,0,0,0,0,0,0,0,0,0,0,0,0,0,0,0,0,0,0,0,0,0,0,0,0,0,0,0,0,0,0,0,0,0,0,0,0,0,0,0,0,0,0,0,0,0,0,0,0,0,0],"id":21,"left_children":[1,3,5,7,9,11,13,15,17,19,21,23,25,27,29,31,33,35,37,39,41,43,45,47,49,51,53,55,57,59,61,-1,-1,-1,-1,-1,-1,-1,-1,-1,-1,-1,-1,-1,-1,-1,-1,-1,-1,-1,-1,-1,-1,-1,-1,-1,-1,-1,-1,-1,-1,-1,-1],"loss_changes":[7.557753E1,2.7233187E1,6.507212E1,1.2674686E1,2.9578478E1,3.9681554E0,2.8120633E2,1.5404541E1,1.0972584E1,3.8534594E0,2.94931E1,9.0412045E-1,4.782876E0,1.6474374E2,1.1331765E1,2.4348934E0,1.5379185E1,2.7647114E0,2.1079195E1,2.569066E0,2.7183592E0,9.958697E1,2.2659414E0,7.08055E-1,1.0817766E-1,9.534972E-1,4.0596046E0,3.133334E1,9.9461914E1,1.0719074E1,4.9523163E-1,0E0,0E0,0E0,0E0,0E0,0E0,0E0,0E0,0E0,0E0,0E0,0E0,0E0,0E0,0E0,0E0,0E0,0E0,0E0,0E0,0E0,0E0,0E0,0E0,0E0,0E0,0E0,0E0,0E0,0E0,0E0,0E0],"parents":[2147483647,0,0,1,1,2,2,3,3,4,4,5,5,6,6,7,7,8,8,9,9,10,10,11,11,12,12,13,13,14,14,15,15,16,16,17,17,18,18,19,19,20,20,21,21,22,22,23,23,24,24,25,25,26,26,27,27,28,28,29,29,30,30],"right_children":[2,4,6,8,10,12,14,16,18,20,22,24,26,28,30,32,34,36,38,40,42,44,46,48,50,52,54,56,58,60,62,-1,-1,-1,-1,-1,-1,-1,-1,-1,-1,-1,-1,-1,-1,-1,-1,-1,-1,-1,-1,-1,-1,-1,-1,-1,-1,-1,-1,-1,-1,-1,-1],"split_conditions":[-5.446103E0,1.811E3,-1.5951352E1,2.31E2,-1.105813E1,-2.9949564E1,8.044785E0,-1.3944756E1,-5.493E2,-2.505364E1,7.0282454E0,-7.005129E1,2.31E2,-7.968169E0,2.004871E1,-3.0051842E1,1.5963363E1,1.4942289E1,-1.105813E1,-1.7445581E1,-5.847E2,-6.044609E0,2.004871E1,-4.529E2,-4.49559E1,4.4E1,-3.772E2,-4.208E2,-2.97854E0,1.469E3,7.005262E1,3.2228494E-5,-1.4107049E-4,-4.9793796E-4,-5.420258E-6,-1.3372445E-4,-6.0405153E-5,-9.13844E-5,6.879592E-5,1.6216039E-6,-1.7134077E-4,-8.704868E-5,7.967916E-5,2.8227252E-5,1.107686E-3,7.893729E-5,-1.2399897E-4,-1.16631905E-4,-2.3918807E-4,-1.0347139E-4,-7.175197E-5,5.6365546E-4,-4.7373082E-4,-2.1319413E-5,2.563135E-4,1.3246975E-4,7.7454845E-4,2.259866E-3,9.192597E-4,9.744703E-6,3.442414E-4,-7.900204E-5,-1.3895576E-4],"split_indices":[0,5,1,5,0,1,1,0,6,0,1,1,5,1,1,0,1,1,0,1,6,1,1,6,1,5,6,6,1,5,1,0,0,0,0,0,0,0,0,0,0,0,0,0,0,0,0,0,0,0,0,0,0,0,0,0,0,0,0,0,0,0,0],"split_type":[0,0,0,0,0,0,0,0,0,0,0,0,0,0,0,0,0,0,0,0,0,0,0,0,0,0,0,0,0,0,0,0,0,0,0,0,0,0,0,0,0,0,0,0,0,0,0,0,0,0,0,0,0,0,0,0,0,0,0,0,0,0,0],"sum_hessian":[2.3588078E8,1.7780672E8,5.807407E7,1.4589994E8,3.1906788E7,1.9824076E7,3.824999E7,1.4514744E7,1.3138518E8,1.8527666E7,1.3379122E7,1.4113651E7,5.710426E6,1.213192E7,2.6118074E7,7.297519E6,7.217225E6,5.5469612E7,7.5915576E7,8.932585E6,9.595081E6,8.308054E6,5.071068E6,4.279686E6,9.833965E6,4.65574E5,5.244852E6,7.088691E6,5.043229E6,1.0511605E7,1.5606469E7,3.611669E6,3.68585E6,5.259885E6,1.95734E6,3.901947E7,1.6450142E7,4.408136E7,3.1834212E7,2.82674E6,6.105845E6,3.417407E6,6.177674E6,5.285305E6,3.022749E6,2.146845E6,2.924223E6,2.338826E6,1.94086E6,5.538619E6,4.295346E6,2.087E4,4.44704E5,3.435989E6,1.808863E6,4.207867E6,2.880824E6,2.241004E6,2.802225E6,7.484092E6,3.027513E6,1.1340282E7,4.266187E6],"tree_param":{"num_deleted":"0","num_feature":"8","num_nodes":"63","size_leaf_vector":"1"}},{"base_weights":[-1.2744123E-7,-2.4864473E-4,9.979152E-4,-3.9475414E-4,5.6059915E-4,2.805584E-3,4.6897068E-4,2.3476365E-3,-4.2389883E-4,-3.5261016E-4,1.6620518E-3,8.602407E-3,2.4976393E-3,8.4259803E-4,-3.6769226E-4,-1.347084E-3,4.4344286E-3,-8.156517E-4,-2.7684303E-4,-1.0148904E-3,2.6374205E-4,6.5441406E-3,1.4251847E-3,7.2286157E-3,1.0582526E-2,1.1178214E-3,3.0197587E-3,6.0349854E-4,1.81687E-3,-1.14745424E-4,-9.6285064E-4,-4.3834763E-4,2.1733384E-5,5.334025E-4,1.0737552E-3,-5.7895624E-5,-1.4903652E-4,-2.1575727E-6,-7.816506E-5,-1.9582469E-4,-9.77473E-5,3.4027518E-4,2.4979914E-5,2.1556336E-3,9.219003E-4,3.7780002E-4,1.6473971E-4,1.0175402E-3,1.8586197E-3,2.4506534E-3,1.3094125E-3,9.763152E-5,2.9108167E-4,6.499474E-4,3.6187517E-4,4.9913582E-5,1.6210302E-4,2.049792E-4,3.3887773E-4,-7.529703E-5,9.471016E-6,-1.1120817E-4,-2.2902963E-4],"categories":[],"categories_nodes":[],"categories_segments":[],"categories_sizes":[],"default_left":[0,0,0,0,0,0,0,0,0,0,0,0,0,0,0,0,0,0,0,0,0,0,0,0,0,0,0,0,0,0,0,0,0,0,0,0,0,0,0,0,0,0,0,0,0,0,0,0,0,0,0,0,0,0,0,0,0,0,0,0,0,0,0],"id":22,"left_children":[1,3,5,7,9,11,13,15,17,19,21,23,25,27,29,31,33,35,37,39,41,43,45,47,49,51,53,55,57,59,61,-1,-1,-1,-1,-1,-1,-1,-1,-1,-1,-1,-1,-1,-1,-1,-1,-1,-1,-1,-1,-1,-1,-1,-1,-1,-1,-1,-1,-1,-1,-1,-1],"loss_changes":[5.850518E1,2.2329662E1,4.4963604E1,1.2785828E1,2.9051926E1,1.9002815E1,1.1372435E1,1.2970008E1,9.118917E0,6.4457455E0,1.5139687E1,1.460659E0,7.2822876E0,5.858467E0,1.6907331E0,1.4269986E0,2.5722332E0,3.3027782E0,7.3779564E0,8.0350304E-1,1.5939269E0,1.8876686E0,4.4635887E0,7.282162E-1,2.3456116E0,1.0660284E0,5.848068E0,2.6088905E0,9.871483E-1,5.428892E-1,4.1839075E-1,0E0,0E0,0E0,0E0,0E0,0E0,0E0,0E0,0E0,0E0,0E0,0E0,0E0,0E0,0E0,0E0,0E0,0E0,0E0,0E0,0E0,0E0,0E0,0E0,0E0,0E0,0E0,0E0,0E0,0E0,0E0,0E0],"parents":[2147483647,0,0,1,1,2,2,3,3,4,4,5,5,6,6,7,7,8,8,9,9,10,10,11,11,12,12,13,13,14,14,15,15,16,16,17,17,18,18,19,19,20,20,21,21,22,22,23,23,24,24,25,25,26,26,27,27,28,28,29,29,30,30],"right_children":[2,4,6,8,10,12,14,16,18,20,22,24,26,28,30,32,34,36,38,40,42,44,46,48,50,52,54,56,58,60,62,-1,-1,-1,-1,-1,-1,-1,-1,-1,-1,-1,-1,-1,-1,-1,-1,-1,-1,-1,-1,-1,-1,-1,-1,-1,-1,-1,-1,-1,-1,-1,-1],"split_conditions":[-4.4604287E0,-2.697E2,4.41E0,1.86E0,-1.105813E1,1.86E0,7.14E0,-1.9962595E1,-7.252E2,-2.505364E1,1.6E1,-3.484E2,-5.924E2,-2.753E2,8.61E0,-4.005113E1,-3.484E2,-2.2551098E1,1.044E2,-5.005485E1,1.6E1,1.6E0,7.47E1,-4.3764552E-1,2.5E0,-1.5E0,3.27E0,-1.5E0,7.431448E-1,-7.284E2,9.68E0,-4.3834763E-4,2.1733384E-5,5.334025E-4,1.0737552E-3,-5.7895624E-5,-1.4903652E-4,-2.1575727E-6,-7.816506E-5,-1.9582469E-4,-9.77473E-5,3.4027518E-4,2.4979914E-5,2.1556336E-3,9.219003E-4,3.7780002E-4,1.6473971E-4,1.0175402E-3,1.8586197E-3,2.4506534E-3,1.3094125E-3,9.763152E-5,2.9108167E-4,6.499474E-4,3.6187517E-4,4.9913582E-5,1.6210302E-4,2.049792E-4,3.3887773E-4,-7.529703E-5,9.471016E-6,-1.1120817E-4,-2.2902963E-4],"split_indices":[0,6,7,7,0,7,7,0,6,0,4,6,6,6,7,0,6,0,4,0,4,4,4,0,4,0,7,0,2,6,7,0,0,0,0,0,0,0,0,0,0,0,0,0,0,0,0,0,0,0,0,0,0,0,0,0,0,0,0,0,0,0,0],"split_type":[0,0,0,0,0,0,0,0,0,0,0,0,0,0,0,0,0,0,0,0,0,0,0,0,0,0,0,0,0,0,0,0,0,0,0,0,0,0,0,0,0,0,0,0,0,0,0,0,0,0,0,0,0,0,0,0,0,0,0,0,0,0,0],"sum_hessian":[2.3587867E8,1.8885331E8,4.702536E7,1.5997054E8,2.8882764E7,1.0645236E7,3.6380124E7,1.682205E6,1.5828834E8,1.5790737E7,1.3092027E7,5.3698E5,1.0108256E7,2.5149256E7,1.1230867E7,6.07179E5,1.075026E6,4.3201264E7,1.1508707E8,7.61177E6,8.178967E6,6.058E5,1.2486227E7,3.17031E5,2.19949E5,2.774918E6,7.333338E6,2.01935E7,4.955756E6,7.881269E6,3.349598E6,2.95348E5,3.11831E5,8.12889E5,2.62137E5,1.2650613E7,3.0550652E7,5.5476504E7,5.961057E7,4.228668E6,3.383102E6,3.7825E5,7.800717E6,2.9323E4,5.76477E5,2.873831E6,9.612396E6,2.91872E5,2.5159E4,5.357E4,1.66379E5,1.770216E6,1.004702E6,2.318805E6,5.014533E6,1.2883702E7,7.309798E6,2.455598E6,2.500158E6,2.480823E6,5.400446E6,2.40519E6,9.44408E5],"tree_param":{"num_deleted":"0","num_feature":"8","num_nodes":"63","size_leaf_vector":"1"}},{"base_weights":[-1.4486956E-7,-5.4769946E-4,3.4210656E-4,-1.3195875E-3,-3.5212183E-4,1.720956E-3,1.0555332E-5,4.3089978E-5,-1.7013142E-3,3.2965462E-3,-4.0303648E-4,2.7019728E-3,-2.509316E-4,2.966189E-4,-5.201423E-4,-2.3336448E-3,1.6764256E-4,-2.7162666E-3,-3.292862E-4,4.9117524E-3,-1.170823E-3,1.9120496E-5,-6.7387335E-4,-3.324231E-4,4.6591153E-3,7.3409907E-4,-9.0735086E-4,5.629114E-4,-4.3889318E-4,-3.0363744E-4,-9.599535E-4,-5.171899E-4,-1.8289837E-4,7.107157E-5,-4.57846E-5,1.0370852E-3,-4.5788148E-4,-1.00098776E-4,1.0446539E-5,-2.2468883E-4,1.1559773E-3,2.3143015E-5,-3.2358378E-4,5.647907E-5,-7.6687415E-5,-1.1951628E-4,-5.9816175E-5,-1.9076701E-4,1.4638912E-4,2.068821E-3,6.4295856E-4,1.5339473E-3,1.046269E-4,-5.962798E-5,-1.9893542E-4,-5.497935E-5,1.7304899E-4,-4.360324E-5,-9.760553E-5,-6.5376036E-5,5.5039105E-5,-1.9756252E-4,-9.800456E-6],"categories":[],"categories_nodes":[],"categories_segments":[],